FANN_FLO_2.1
num_layers=3
learning_rate=0.500000
connection_rate=1.000000
network_type=0
learning_momentum=0.000000
training_algorithm=2
train_error_function=1
train_stop_function=0
cascade_output_change_fraction=0.010000
quickprop_decay=-0.000100
quickprop_mu=1.750000
rprop_increase_factor=1.200000
rprop_decrease_factor=0.500000
rprop_delta_min=0.000000
rprop_delta_max=50.000000
rprop_delta_zero=0.100000
cascade_output_stagnation_epochs=12
cascade_candidate_change_fraction=0.010000
cascade_candidate_stagnation_epochs=12
cascade_max_out_epochs=150
cascade_min_out_epochs=50
cascade_max_cand_epochs=150
cascade_min_cand_epochs=50
cascade_num_candidate_groups=2
bit_fail_limit=3.49999994039535522461e-01
cascade_candidate_limit=1.00000000000000000000e+03
cascade_weight_multiplier=4.00000005960464477539e-01
cascade_activation_functions_count=10
cascade_activation_functions=3 5 7 8 10 11 14 15 16 17 
cascade_activation_steepnesses_count=4
cascade_activation_steepnesses=2.50000000000000000000e-01 5.00000000000000000000e-01 7.50000000000000000000e-01 1.00000000000000000000e+00 
layer_sizes=10 5 2 
scale_included=0
neurons (num_inputs, activation_function, activation_steepness)=(0, 0, 0.00000000000000000000e+00) (0, 0, 0.00000000000000000000e+00) (0, 0, 0.00000000000000000000e+00) (0, 0, 0.00000000000000000000e+00) (0, 0, 0.00000000000000000000e+00) (0, 0, 0.00000000000000000000e+00) (0, 0, 0.00000000000000000000e+00) (0, 0, 0.00000000000000000000e+00) (0, 0, 0.00000000000000000000e+00) (0, 0, 0.00000000000000000000e+00) (10, 3, 5.00000000000000000000e-01) (10, 3, 5.00000000000000000000e-01) (10, 3, 5.00000000000000000000e-01) (10, 3, 5.00000000000000000000e-01) (0, 3, 0.00000000000000000000e+00) (5, 3, 5.00000000000000000000e-01) (0, 3, 0.00000000000000000000e+00) 
connections (connected_to_neuron, weight)=(0, -1.17022943496704101562e+01) (1, 3.84859848022460937500e+00) (2, 7.88529634475708007812e+00) (3, 1.19553480148315429688e+01) (4, 6.44038081169128417969e-01) (5, 1.16086378097534179688e+01) (6, -6.03852701187133789062e+00) (7, -2.09516716003417968750e+00) (8, 4.43903446197509765625e+00) (9, -7.04603719711303710938e+00) (0, 9.45948886871337890625e+00) (1, 1.50288648605346679688e+01) (2, 1.15745143890380859375e+01) (3, 2.62470436096191406250e+00) (4, -2.16790199279785156250e+00) (5, 5.17748260498046875000e+00) (6, -6.06875848770141601562e+00) (7, -1.82362174987792968750e+01) (8, -6.98604488372802734375e+00) (9, -4.40192520618438720703e-01) (0, 4.85905456542968750000e+00) (1, 3.81506323814392089844e+00) (2, 9.40750598907470703125e+00) (3, -7.03360986709594726562e+00) (4, 1.01121342182159423828e+00) (5, 1.01408252716064453125e+01) (6, 5.55256509780883789062e+00) (7, 6.93115186691284179688e+00) (8, -1.00291085243225097656e+00) (9, -7.68307113647460937500e+00) (0, 1.17401981353759765625e+01) (1, 6.30936288833618164062e+00) (2, 1.39339074492454528809e-01) (3, 3.79850292205810546875e+00) (4, -1.41777682304382324219e+00) (5, -5.38930988311767578125e+00) (6, -3.67899984121322631836e-01) (7, -9.55051803588867187500e+00) (8, -1.19819498062133789062e+01) (9, -5.80014228820800781250e-01) (10, 2.12341475486755371094e+00) (11, -3.65466594696044921875e+00) (12, 2.38243293762207031250e+00) (13, 5.04651403427124023438e+00) (14, -2.90126979351043701172e-01) 
