FANN_FLO_2.1
num_layers=3
learning_rate=0.500000
connection_rate=1.000000
network_type=0
learning_momentum=0.000000
training_algorithm=2
train_error_function=1
train_stop_function=0
cascade_output_change_fraction=0.010000
quickprop_decay=-0.000100
quickprop_mu=1.750000
rprop_increase_factor=1.200000
rprop_decrease_factor=0.500000
rprop_delta_min=0.000000
rprop_delta_max=50.000000
rprop_delta_zero=0.100000
cascade_output_stagnation_epochs=12
cascade_candidate_change_fraction=0.010000
cascade_candidate_stagnation_epochs=12
cascade_max_out_epochs=150
cascade_min_out_epochs=50
cascade_max_cand_epochs=150
cascade_min_cand_epochs=50
cascade_num_candidate_groups=2
bit_fail_limit=3.49999994039535522461e-01
cascade_candidate_limit=1.00000000000000000000e+03
cascade_weight_multiplier=4.00000005960464477539e-01
cascade_activation_functions_count=10
cascade_activation_functions=3 5 7 8 10 11 14 15 16 17 
cascade_activation_steepnesses_count=4
cascade_activation_steepnesses=2.50000000000000000000e-01 5.00000000000000000000e-01 7.50000000000000000000e-01 1.00000000000000000000e+00 
layer_sizes=10 5 2 
scale_included=0
neurons (num_inputs, activation_function, activation_steepness)=(0, 0, 0.00000000000000000000e+00) (0, 0, 0.00000000000000000000e+00) (0, 0, 0.00000000000000000000e+00) (0, 0, 0.00000000000000000000e+00) (0, 0, 0.00000000000000000000e+00) (0, 0, 0.00000000000000000000e+00) (0, 0, 0.00000000000000000000e+00) (0, 0, 0.00000000000000000000e+00) (0, 0, 0.00000000000000000000e+00) (0, 0, 0.00000000000000000000e+00) (10, 3, 5.00000000000000000000e-01) (10, 3, 5.00000000000000000000e-01) (10, 3, 5.00000000000000000000e-01) (10, 3, 5.00000000000000000000e-01) (0, 3, 0.00000000000000000000e+00) (5, 3, 5.00000000000000000000e-01) (0, 3, 0.00000000000000000000e+00) 
connections (connected_to_neuron, weight)=(0, 7.53628873825073242188e+00) (1, 1.83470821380615234375e+01) (2, 6.77459716796875000000e+00) (3, 1.41624677181243896484e+00) (4, -3.06699299812316894531e+00) (5, 6.88732266426086425781e-01) (6, -7.94008874893188476562e+00) (7, -1.58687267303466796875e+01) (8, -7.88893461227416992188e+00) (9, -3.21334505081176757812e+00) (0, -9.61563396453857421875e+00) (1, -4.94573879241943359375e+00) (2, 4.15237140655517578125e+00) (3, -1.77004337310791015625e+01) (4, 4.99238371849060058594e-01) (5, 1.76253795623779296875e+01) (6, -5.00827646255493164062e+00) (7, 5.75256204605102539062e+00) (8, 8.96368885040283203125e+00) (9, -2.98927974700927734375e+00) (0, 2.17839762568473815918e-01) (1, -2.43423805236816406250e+01) (2, -8.54552917480468750000e+01) (3, -2.41633963584899902344e+00) (4, 9.91479644775390625000e+01) (5, -1.47025054931640625000e+02) (6, -8.65104866027832031250e+00) (7, 1.38973200321197509766e+00) (8, -1.40596330165863037109e-01) (9, -1.97396446019411087036e-02) (0, 6.38499736785888671875e-01) (1, -6.13609647750854492188e+00) (2, -6.15020084381103515625e+00) (3, 9.40584945678710937500e+00) (4, 4.78630036115646362305e-01) (5, -9.80245685577392578125e+00) (6, 6.11406660079956054688e+00) (7, 5.51936578750610351562e+00) (8, -7.59922862052917480469e-01) (9, -1.76403880119323730469e+00) (10, 4.85333395004272460938e+00) (11, 4.96540355682373046875e+00) (12, -4.33622009277343750000e+02) (13, 5.76310014724731445312e+00) (14, -2.56258344650268554688e+00) 
