FANN_FLO_2.1
num_layers=3
learning_rate=0.500000
connection_rate=1.000000
network_type=0
learning_momentum=0.000000
training_algorithm=2
train_error_function=1
train_stop_function=0
cascade_output_change_fraction=0.010000
quickprop_decay=-0.000100
quickprop_mu=1.750000
rprop_increase_factor=1.200000
rprop_decrease_factor=0.500000
rprop_delta_min=0.000000
rprop_delta_max=50.000000
rprop_delta_zero=0.100000
cascade_output_stagnation_epochs=12
cascade_candidate_change_fraction=0.010000
cascade_candidate_stagnation_epochs=12
cascade_max_out_epochs=150
cascade_min_out_epochs=50
cascade_max_cand_epochs=150
cascade_min_cand_epochs=50
cascade_num_candidate_groups=2
bit_fail_limit=3.49999994039535522461e-01
cascade_candidate_limit=1.00000000000000000000e+03
cascade_weight_multiplier=4.00000005960464477539e-01
cascade_activation_functions_count=10
cascade_activation_functions=3 5 7 8 10 11 14 15 16 17 
cascade_activation_steepnesses_count=4
cascade_activation_steepnesses=2.50000000000000000000e-01 5.00000000000000000000e-01 7.50000000000000000000e-01 1.00000000000000000000e+00 
layer_sizes=10 3 2 
scale_included=0
neurons (num_inputs, activation_function, activation_steepness)=(0, 0, 0.00000000000000000000e+00) (0, 0, 0.00000000000000000000e+00) (0, 0, 0.00000000000000000000e+00) (0, 0, 0.00000000000000000000e+00) (0, 0, 0.00000000000000000000e+00) (0, 0, 0.00000000000000000000e+00) (0, 0, 0.00000000000000000000e+00) (0, 0, 0.00000000000000000000e+00) (0, 0, 0.00000000000000000000e+00) (0, 0, 0.00000000000000000000e+00) (10, 3, 5.00000000000000000000e-01) (10, 3, 5.00000000000000000000e-01) (0, 3, 0.00000000000000000000e+00) (3, 3, 5.00000000000000000000e-01) (0, 3, 0.00000000000000000000e+00) 
connections (connected_to_neuron, weight)=(0, -2.32114219665527343750e+00) (1, -1.12216176986694335938e+01) (2, -7.56976604461669921875e+00) (3, 8.43446910381317138672e-01) (4, -1.83679711818695068359e+00) (5, -2.21412801742553710938e+00) (6, 7.13043069839477539062e+00) (7, 1.17820539474487304688e+01) (8, 1.91053617000579833984e+00) (9, -1.95933306217193603516e+00) (0, 9.64182949066162109375e+00) (1, 1.10065555572509765625e+01) (2, 1.93668880462646484375e+01) (3, 3.57797360420227050781e+00) (4, 3.82140922546386718750e+00) (5, 2.28624463081359863281e+00) (6, -1.67719821929931640625e+01) (7, -1.67628459930419921875e+01) (8, 7.75649595260620117188e+00) (9, -9.00537109375000000000e+00) (10, 6.01295328140258789062e+00) (11, 2.20082092285156250000e+00) (12, -9.81858670711517333984e-01) 
