FANN_FLO_2.1
num_layers=3
learning_rate=0.500000
connection_rate=1.000000
network_type=0
learning_momentum=0.000000
training_algorithm=2
train_error_function=1
train_stop_function=0
cascade_output_change_fraction=0.010000
quickprop_decay=-0.000100
quickprop_mu=1.750000
rprop_increase_factor=1.200000
rprop_decrease_factor=0.500000
rprop_delta_min=0.000000
rprop_delta_max=50.000000
rprop_delta_zero=0.100000
cascade_output_stagnation_epochs=12
cascade_candidate_change_fraction=0.010000
cascade_candidate_stagnation_epochs=12
cascade_max_out_epochs=150
cascade_min_out_epochs=50
cascade_max_cand_epochs=150
cascade_min_cand_epochs=50
cascade_num_candidate_groups=2
bit_fail_limit=3.49999994039535522461e-01
cascade_candidate_limit=1.00000000000000000000e+03
cascade_weight_multiplier=4.00000005960464477539e-01
cascade_activation_functions_count=10
cascade_activation_functions=3 5 7 8 10 11 14 15 16 17 
cascade_activation_steepnesses_count=4
cascade_activation_steepnesses=2.50000000000000000000e-01 5.00000000000000000000e-01 7.50000000000000000000e-01 1.00000000000000000000e+00 
layer_sizes=6 5 2 
scale_included=0
neurons (num_inputs, activation_function, activation_steepness)=(0, 0, 0.00000000000000000000e+00) (0, 0, 0.00000000000000000000e+00) (0, 0, 0.00000000000000000000e+00) (0, 0, 0.00000000000000000000e+00) (0, 0, 0.00000000000000000000e+00) (0, 0, 0.00000000000000000000e+00) (6, 3, 5.00000000000000000000e-01) (6, 3, 5.00000000000000000000e-01) (6, 3, 5.00000000000000000000e-01) (6, 3, 5.00000000000000000000e-01) (0, 3, 0.00000000000000000000e+00) (5, 0, 5.00000000000000000000e-01) (0, 0, 0.00000000000000000000e+00) 
connections (connected_to_neuron, weight)=(0, 4.63727355003356933594e-01) (1, -8.61443936824798583984e-01) (2, -8.35357666015625000000e+00) (3, 3.47032570838928222656e+00) (4, 6.56155204772949218750e+00) (5, 3.32741951942443847656e+00) (0, -7.48570486903190612793e-02) (1, 1.01593613624572753906e+00) (2, 3.09486484527587890625e+00) (3, -5.51080083847045898438e+00) (4, 1.70455598831176757812e+00) (5, 3.40422916412353515625e+00) (0, 3.75006526708602905273e-01) (1, -1.31040849685668945312e+01) (2, 3.17080855369567871094e+00) (3, 8.30754661560058593750e+00) (4, -5.47671699523925781250e+00) (5, 4.23077726364135742188e+00) (0, 2.68293231725692749023e-01) (1, 7.19159460067749023438e+00) (2, -2.43634104728698730469e-01) (3, 6.31604814529418945312e+00) (4, -7.74941205978393554688e+00) (5, 3.90121316909790039062e+00) (6, 8.87700676918029785156e-01) (7, 9.15943324565887451172e-01) (8, 9.24229860305786132812e-01) (9, 8.21774303913116455078e-01) (10, 8.67994487285614013672e-01) 
