FANN_FLO_2.1
num_layers=3
learning_rate=0.500000
connection_rate=1.000000
network_type=0
learning_momentum=0.000000
training_algorithm=2
train_error_function=1
train_stop_function=0
cascade_output_change_fraction=0.010000
quickprop_decay=-0.000100
quickprop_mu=1.750000
rprop_increase_factor=1.200000
rprop_decrease_factor=0.500000
rprop_delta_min=0.000000
rprop_delta_max=50.000000
rprop_delta_zero=0.100000
cascade_output_stagnation_epochs=12
cascade_candidate_change_fraction=0.010000
cascade_candidate_stagnation_epochs=12
cascade_max_out_epochs=150
cascade_min_out_epochs=50
cascade_max_cand_epochs=150
cascade_min_cand_epochs=50
cascade_num_candidate_groups=2
bit_fail_limit=3.49999994039535522461e-01
cascade_candidate_limit=1.00000000000000000000e+03
cascade_weight_multiplier=4.00000005960464477539e-01
cascade_activation_functions_count=10
cascade_activation_functions=3 5 7 8 10 11 14 15 16 17 
cascade_activation_steepnesses_count=4
cascade_activation_steepnesses=2.50000000000000000000e-01 5.00000000000000000000e-01 7.50000000000000000000e-01 1.00000000000000000000e+00 
layer_sizes=10 3 2 
scale_included=0
neurons (num_inputs, activation_function, activation_steepness)=(0, 0, 0.00000000000000000000e+00) (0, 0, 0.00000000000000000000e+00) (0, 0, 0.00000000000000000000e+00) (0, 0, 0.00000000000000000000e+00) (0, 0, 0.00000000000000000000e+00) (0, 0, 0.00000000000000000000e+00) (0, 0, 0.00000000000000000000e+00) (0, 0, 0.00000000000000000000e+00) (0, 0, 0.00000000000000000000e+00) (0, 0, 0.00000000000000000000e+00) (10, 3, 5.00000000000000000000e-01) (10, 3, 5.00000000000000000000e-01) (0, 3, 0.00000000000000000000e+00) (3, 3, 5.00000000000000000000e-01) (0, 3, 0.00000000000000000000e+00) 
connections (connected_to_neuron, weight)=(0, 1.03816175460815429688e+00) (1, -1.46089923381805419922e+00) (2, -2.14385051727294921875e+01) (3, 1.68042259216308593750e+01) (4, -3.55289816856384277344e+00) (5, -1.28999385833740234375e+01) (6, 2.55847282409667968750e+01) (7, 1.33913955688476562500e+01) (8, -4.00895118713378906250e+00) (9, 1.23046004772186279297e+00) (0, 4.49208593368530273438e+00) (1, 1.51377809047698974609e+00) (2, 1.36548447608947753906e+00) (3, 1.23196630477905273438e+01) (4, -9.94260215759277343750e+00) (5, 9.34082698822021484375e+00) (6, 8.49310874938964843750e+00) (7, 1.22786588668823242188e+01) (8, -1.05092601776123046875e+01) (9, -9.42447280883789062500e+00) (10, -2.37925291061401367188e+00) (11, 1.76143705844879150391e+00) (12, 1.79551517963409423828e+00) 
