FANN_FLO_2.1
num_layers=3
learning_rate=0.500000
connection_rate=1.000000
network_type=0
learning_momentum=0.000000
training_algorithm=2
train_error_function=1
train_stop_function=0
cascade_output_change_fraction=0.010000
quickprop_decay=-0.000100
quickprop_mu=1.750000
rprop_increase_factor=1.200000
rprop_decrease_factor=0.500000
rprop_delta_min=0.000000
rprop_delta_max=50.000000
rprop_delta_zero=0.100000
cascade_output_stagnation_epochs=12
cascade_candidate_change_fraction=0.010000
cascade_candidate_stagnation_epochs=12
cascade_max_out_epochs=150
cascade_min_out_epochs=50
cascade_max_cand_epochs=150
cascade_min_cand_epochs=50
cascade_num_candidate_groups=2
bit_fail_limit=3.49999994039535522461e-01
cascade_candidate_limit=1.00000000000000000000e+03
cascade_weight_multiplier=4.00000005960464477539e-01
cascade_activation_functions_count=10
cascade_activation_functions=3 5 7 8 10 11 14 15 16 17 
cascade_activation_steepnesses_count=4
cascade_activation_steepnesses=2.50000000000000000000e-01 5.00000000000000000000e-01 7.50000000000000000000e-01 1.00000000000000000000e+00 
layer_sizes=6 5 2 
scale_included=0
neurons (num_inputs, activation_function, activation_steepness)=(0, 0, 0.00000000000000000000e+00) (0, 0, 0.00000000000000000000e+00) (0, 0, 0.00000000000000000000e+00) (0, 0, 0.00000000000000000000e+00) (0, 0, 0.00000000000000000000e+00) (0, 0, 0.00000000000000000000e+00) (6, 3, 5.00000000000000000000e-01) (6, 3, 5.00000000000000000000e-01) (6, 3, 5.00000000000000000000e-01) (6, 3, 5.00000000000000000000e-01) (0, 3, 0.00000000000000000000e+00) (5, 0, 5.00000000000000000000e-01) (0, 0, 0.00000000000000000000e+00) 
connections (connected_to_neuron, weight)=(0, -1.22748166322708129883e-01) (1, -6.83656513690948486328e-01) (2, 4.54084873199462890625e-01) (3, -4.01261150836944580078e-02) (4, 1.77904710173606872559e-01) (5, 1.70941308140754699707e-01) (0, 2.22537732124328613281e+00) (1, -4.90373516082763671875e+00) (2, -1.46175737380981445312e+01) (3, 3.30013751983642578125e-01) (4, 8.33546352386474609375e+00) (5, 2.31470417976379394531e+00) (0, 2.09382486343383789062e+00) (1, 8.53746891021728515625e-01) (2, -3.12623238563537597656e+00) (3, 8.60559284687042236328e-01) (4, 2.43678689002990722656e+00) (5, 2.19374513626098632812e+00) (0, 9.22347843647003173828e-01) (1, 9.24147224426269531250e+00) (2, -3.01602745056152343750e+00) (3, 7.77608096599578857422e-01) (4, -5.97803068161010742188e+00) (5, 2.76844549179077148438e+00) (6, 9.47706997394561767578e-01) (7, 9.64703857898712158203e-01) (8, 9.60976660251617431641e-01) (9, 1.03552436828613281250e+00) (10, 9.41799640655517578125e-01) 
