FANN_FLO_2.1
num_layers=3
learning_rate=0.500000
connection_rate=1.000000
network_type=0
learning_momentum=0.000000
training_algorithm=2
train_error_function=1
train_stop_function=0
cascade_output_change_fraction=0.010000
quickprop_decay=-0.000100
quickprop_mu=1.750000
rprop_increase_factor=1.200000
rprop_decrease_factor=0.500000
rprop_delta_min=0.000000
rprop_delta_max=50.000000
rprop_delta_zero=0.100000
cascade_output_stagnation_epochs=12
cascade_candidate_change_fraction=0.010000
cascade_candidate_stagnation_epochs=12
cascade_max_out_epochs=150
cascade_min_out_epochs=50
cascade_max_cand_epochs=150
cascade_min_cand_epochs=50
cascade_num_candidate_groups=2
bit_fail_limit=3.49999994039535522461e-01
cascade_candidate_limit=1.00000000000000000000e+03
cascade_weight_multiplier=4.00000005960464477539e-01
cascade_activation_functions_count=10
cascade_activation_functions=3 5 7 8 10 11 14 15 16 17 
cascade_activation_steepnesses_count=4
cascade_activation_steepnesses=2.50000000000000000000e-01 5.00000000000000000000e-01 7.50000000000000000000e-01 1.00000000000000000000e+00 
layer_sizes=10 5 2 
scale_included=0
neurons (num_inputs, activation_function, activation_steepness)=(0, 0, 0.00000000000000000000e+00) (0, 0, 0.00000000000000000000e+00) (0, 0, 0.00000000000000000000e+00) (0, 0, 0.00000000000000000000e+00) (0, 0, 0.00000000000000000000e+00) (0, 0, 0.00000000000000000000e+00) (0, 0, 0.00000000000000000000e+00) (0, 0, 0.00000000000000000000e+00) (0, 0, 0.00000000000000000000e+00) (0, 0, 0.00000000000000000000e+00) (10, 3, 5.00000000000000000000e-01) (10, 3, 5.00000000000000000000e-01) (10, 3, 5.00000000000000000000e-01) (10, 3, 5.00000000000000000000e-01) (0, 3, 0.00000000000000000000e+00) (5, 3, 5.00000000000000000000e-01) (0, 3, 0.00000000000000000000e+00) 
connections (connected_to_neuron, weight)=(0, -1.18079662322998046875e+00) (1, 9.44633674621582031250e+00) (2, 6.41739034652709960938e+00) (3, -8.72639274597167968750e+00) (4, -2.69309496879577636719e+00) (5, 8.82879257202148437500e+00) (6, -9.25371551513671875000e+00) (7, -5.47711944580078125000e+00) (8, -1.32872009277343750000e+00) (9, -1.61303305625915527344e+00) (0, 4.01925611495971679688e+00) (1, -4.20554685592651367188e+00) (2, -1.38714303970336914062e+01) (3, 1.39432764053344726562e+01) (4, -3.43287086486816406250e+00) (5, -1.89923954010009765625e+01) (6, 1.28644647598266601562e+01) (7, 6.00016975402832031250e+00) (8, -3.71012139320373535156e+00) (9, -7.37504720687866210938e-01) (0, 3.65239095687866210938e+00) (1, -6.39719343185424804688e+00) (2, -1.35602760314941406250e+01) (3, 1.58196249008178710938e+01) (4, -3.00807118415832519531e+00) (5, 6.29497194290161132812e+00) (6, 9.78224945068359375000e+00) (7, 2.61736321449279785156e+00) (8, 1.31895027160644531250e+01) (9, -1.01158781051635742188e+01) (0, -6.98690032958984375000e+00) (1, 1.10691571235656738281e+00) (2, 3.31110668182373046875e+00) (3, 6.36693429946899414062e+00) (4, 1.07217378616333007812e+01) (5, -5.43464517593383789062e+00) (6, 1.63034744262695312500e+01) (7, 3.29701080322265625000e+01) (8, -1.23069419860839843750e+01) (9, -8.49186801910400390625e+00) (10, 5.14164638519287109375e+00) (11, 3.53450536727905273438e+00) (12, 1.24371099472045898438e+00) (13, 7.68748402595520019531e-01) (14, -1.75837993621826171875e+00) 
