FANN_FLO_2.1
num_layers=3
learning_rate=0.500000
connection_rate=1.000000
network_type=0
learning_momentum=0.000000
training_algorithm=2
train_error_function=1
train_stop_function=0
cascade_output_change_fraction=0.010000
quickprop_decay=-0.000100
quickprop_mu=1.750000
rprop_increase_factor=1.200000
rprop_decrease_factor=0.500000
rprop_delta_min=0.000000
rprop_delta_max=50.000000
rprop_delta_zero=0.100000
cascade_output_stagnation_epochs=12
cascade_candidate_change_fraction=0.010000
cascade_candidate_stagnation_epochs=12
cascade_max_out_epochs=150
cascade_min_out_epochs=50
cascade_max_cand_epochs=150
cascade_min_cand_epochs=50
cascade_num_candidate_groups=2
bit_fail_limit=3.49999994039535522461e-01
cascade_candidate_limit=1.00000000000000000000e+03
cascade_weight_multiplier=4.00000005960464477539e-01
cascade_activation_functions_count=10
cascade_activation_functions=3 5 7 8 10 11 14 15 16 17 
cascade_activation_steepnesses_count=4
cascade_activation_steepnesses=2.50000000000000000000e-01 5.00000000000000000000e-01 7.50000000000000000000e-01 1.00000000000000000000e+00 
layer_sizes=6 5 2 
scale_included=0
neurons (num_inputs, activation_function, activation_steepness)=(0, 0, 0.00000000000000000000e+00) (0, 0, 0.00000000000000000000e+00) (0, 0, 0.00000000000000000000e+00) (0, 0, 0.00000000000000000000e+00) (0, 0, 0.00000000000000000000e+00) (0, 0, 0.00000000000000000000e+00) (6, 3, 5.00000000000000000000e-01) (6, 3, 5.00000000000000000000e-01) (6, 3, 5.00000000000000000000e-01) (6, 3, 5.00000000000000000000e-01) (0, 3, 0.00000000000000000000e+00) (5, 0, 5.00000000000000000000e-01) (0, 0, 0.00000000000000000000e+00) 
connections (connected_to_neuron, weight)=(0, -1.60318136215209960938e-01) (1, 3.31901431083679199219e+00) (2, 1.63365185260772705078e+00) (3, 1.39828550815582275391e+00) (4, 2.83942961692810058594e+00) (5, 3.48367357254028320312e+00) (0, 3.21401864290237426758e-01) (1, -7.12343454360961914062e+00) (2, 1.68599295616149902344e+00) (3, -3.19732522964477539062e+00) (4, -1.57835206985473632812e+01) (5, 4.25785636901855468750e+00) (0, 5.73645293712615966797e-01) (1, -5.40681123733520507812e+00) (2, 3.44900608062744140625e+00) (3, -7.75425195693969726562e+00) (4, 4.25774812698364257812e+00) (5, 3.49922275543212890625e+00) (0, 4.50035005807876586914e-01) (1, 3.94272661209106445312e+00) (2, -1.03695812225341796875e+01) (3, 8.30972766876220703125e+00) (4, -2.31009230017662048340e-01) (5, 4.12648344039916992188e+00) (6, 8.30603957176208496094e-01) (7, 8.73880863189697265625e-01) (8, 8.94341409206390380859e-01) (9, 8.67188870906829833984e-01) (10, 9.39560234546661376953e-01) 
