FANN_FLO_2.1
num_layers=3
learning_rate=0.500000
connection_rate=1.000000
network_type=0
learning_momentum=0.000000
training_algorithm=2
train_error_function=1
train_stop_function=0
cascade_output_change_fraction=0.010000
quickprop_decay=-0.000100
quickprop_mu=1.750000
rprop_increase_factor=1.200000
rprop_decrease_factor=0.500000
rprop_delta_min=0.000000
rprop_delta_max=50.000000
rprop_delta_zero=0.100000
cascade_output_stagnation_epochs=12
cascade_candidate_change_fraction=0.010000
cascade_candidate_stagnation_epochs=12
cascade_max_out_epochs=150
cascade_min_out_epochs=50
cascade_max_cand_epochs=150
cascade_min_cand_epochs=50
cascade_num_candidate_groups=2
bit_fail_limit=3.49999994039535522461e-01
cascade_candidate_limit=1.00000000000000000000e+03
cascade_weight_multiplier=4.00000005960464477539e-01
cascade_activation_functions_count=10
cascade_activation_functions=3 5 7 8 10 11 14 15 16 17 
cascade_activation_steepnesses_count=4
cascade_activation_steepnesses=2.50000000000000000000e-01 5.00000000000000000000e-01 7.50000000000000000000e-01 1.00000000000000000000e+00 
layer_sizes=10 3 2 
scale_included=0
neurons (num_inputs, activation_function, activation_steepness)=(0, 0, 0.00000000000000000000e+00) (0, 0, 0.00000000000000000000e+00) (0, 0, 0.00000000000000000000e+00) (0, 0, 0.00000000000000000000e+00) (0, 0, 0.00000000000000000000e+00) (0, 0, 0.00000000000000000000e+00) (0, 0, 0.00000000000000000000e+00) (0, 0, 0.00000000000000000000e+00) (0, 0, 0.00000000000000000000e+00) (0, 0, 0.00000000000000000000e+00) (10, 3, 5.00000000000000000000e-01) (10, 3, 5.00000000000000000000e-01) (0, 3, 0.00000000000000000000e+00) (3, 3, 5.00000000000000000000e-01) (0, 3, 0.00000000000000000000e+00) 
connections (connected_to_neuron, weight)=(0, 6.77291202545166015625e+00) (1, 8.45405006408691406250e+00) (2, 2.71367883682250976562e+00) (3, 1.77350902557373046875e+00) (4, 6.82412147521972656250e-01) (5, -6.80420827865600585938e+00) (6, 1.77639484405517578125e-01) (7, 1.46869087219238281250e+00) (8, 1.72260513305664062500e+01) (9, -9.96409130096435546875e+00) (0, 2.51459836959838867188e+00) (1, -3.87809562683105468750e+00) (2, 2.65278601646423339844e+00) (3, 1.26438817977905273438e+01) (4, -4.58472156524658203125e+00) (5, 2.31479225158691406250e+01) (6, 1.57349929809570312500e+01) (7, -1.16226062774658203125e+01) (8, -8.37481975555419921875e+00) (9, -5.78284311294555664062e+00) (10, 9.22432720661163330078e-01) (11, 1.79178619384765625000e+00) (12, -1.28771483898162841797e+00) 
