FANN_FLO_2.1
num_layers=3
learning_rate=0.500000
connection_rate=1.000000
network_type=0
learning_momentum=0.000000
training_algorithm=2
train_error_function=1
train_stop_function=0
cascade_output_change_fraction=0.010000
quickprop_decay=-0.000100
quickprop_mu=1.750000
rprop_increase_factor=1.200000
rprop_decrease_factor=0.500000
rprop_delta_min=0.000000
rprop_delta_max=50.000000
rprop_delta_zero=0.100000
cascade_output_stagnation_epochs=12
cascade_candidate_change_fraction=0.010000
cascade_candidate_stagnation_epochs=12
cascade_max_out_epochs=150
cascade_min_out_epochs=50
cascade_max_cand_epochs=150
cascade_min_cand_epochs=50
cascade_num_candidate_groups=2
bit_fail_limit=3.49999994039535522461e-01
cascade_candidate_limit=1.00000000000000000000e+03
cascade_weight_multiplier=4.00000005960464477539e-01
cascade_activation_functions_count=10
cascade_activation_functions=3 5 7 8 10 11 14 15 16 17 
cascade_activation_steepnesses_count=4
cascade_activation_steepnesses=2.50000000000000000000e-01 5.00000000000000000000e-01 7.50000000000000000000e-01 1.00000000000000000000e+00 
layer_sizes=6 5 2 
scale_included=0
neurons (num_inputs, activation_function, activation_steepness)=(0, 0, 0.00000000000000000000e+00) (0, 0, 0.00000000000000000000e+00) (0, 0, 0.00000000000000000000e+00) (0, 0, 0.00000000000000000000e+00) (0, 0, 0.00000000000000000000e+00) (0, 0, 0.00000000000000000000e+00) (6, 3, 5.00000000000000000000e-01) (6, 3, 5.00000000000000000000e-01) (6, 3, 5.00000000000000000000e-01) (6, 3, 5.00000000000000000000e-01) (0, 3, 0.00000000000000000000e+00) (5, 0, 5.00000000000000000000e-01) (0, 0, 0.00000000000000000000e+00) 
connections (connected_to_neuron, weight)=(0, 1.00702929496765136719e+00) (1, -1.50203692913055419922e+00) (2, -4.07242894172668457031e-01) (3, 9.81440830230712890625e+00) (4, -6.48986876010894775391e-01) (5, 1.86288368701934814453e+00) (0, -3.65406811237335205078e-01) (1, -3.58285486698150634766e-01) (2, 1.15137174725532531738e-01) (3, -7.28078961372375488281e-01) (4, -8.90497148036956787109e-01) (5, 3.04091244935989379883e-01) (0, 1.03466403484344482422e+00) (1, 5.01520204544067382812e+00) (2, -4.07489490509033203125e+00) (3, -9.10521030426025390625e-01) (4, 3.77802896499633789062e+00) (5, 1.56373536586761474609e+00) (0, 1.05097198486328125000e+00) (1, -2.16699457168579101562e+00) (2, 5.70848178863525390625e+00) (3, -3.16606140136718750000e+00) (4, 4.80095005035400390625e+00) (5, 1.97854542732238769531e+00) (6, 1.02471721172332763672e+00) (7, 9.63304936885833740234e-01) (8, 1.00095927715301513672e+00) (9, 1.01136994361877441406e+00) (10, 1.00001680850982666016e+00) 
