FANN_FLO_2.1
num_layers=3
learning_rate=0.500000
connection_rate=1.000000
network_type=0
learning_momentum=0.000000
training_algorithm=2
train_error_function=1
train_stop_function=0
cascade_output_change_fraction=0.010000
quickprop_decay=-0.000100
quickprop_mu=1.750000
rprop_increase_factor=1.200000
rprop_decrease_factor=0.500000
rprop_delta_min=0.000000
rprop_delta_max=50.000000
rprop_delta_zero=0.100000
cascade_output_stagnation_epochs=12
cascade_candidate_change_fraction=0.010000
cascade_candidate_stagnation_epochs=12
cascade_max_out_epochs=150
cascade_min_out_epochs=50
cascade_max_cand_epochs=150
cascade_min_cand_epochs=50
cascade_num_candidate_groups=2
bit_fail_limit=3.49999994039535522461e-01
cascade_candidate_limit=1.00000000000000000000e+03
cascade_weight_multiplier=4.00000005960464477539e-01
cascade_activation_functions_count=10
cascade_activation_functions=3 5 7 8 10 11 14 15 16 17 
cascade_activation_steepnesses_count=4
cascade_activation_steepnesses=2.50000000000000000000e-01 5.00000000000000000000e-01 7.50000000000000000000e-01 1.00000000000000000000e+00 
layer_sizes=6 5 2 
scale_included=0
neurons (num_inputs, activation_function, activation_steepness)=(0, 0, 0.00000000000000000000e+00) (0, 0, 0.00000000000000000000e+00) (0, 0, 0.00000000000000000000e+00) (0, 0, 0.00000000000000000000e+00) (0, 0, 0.00000000000000000000e+00) (0, 0, 0.00000000000000000000e+00) (6, 3, 5.00000000000000000000e-01) (6, 3, 5.00000000000000000000e-01) (6, 3, 5.00000000000000000000e-01) (6, 3, 5.00000000000000000000e-01) (0, 3, 0.00000000000000000000e+00) (5, 0, 5.00000000000000000000e-01) (0, 0, 0.00000000000000000000e+00) 
connections (connected_to_neuron, weight)=(0, 1.22648429870605468750e+00) (1, -6.64118862152099609375e+00) (2, 1.96116998791694641113e-01) (3, 9.75409126281738281250e+00) (4, -7.89659547805786132812e+00) (5, 3.10377883911132812500e+00) (0, -2.46475283056497573853e-02) (1, -1.14333450794219970703e-01) (2, 2.83528059720993041992e-01) (3, -1.45518958568572998047e-01) (4, 4.01034094393253326416e-02) (5, 3.99679452180862426758e-01) (0, 9.75490391254425048828e-01) (1, 3.91110348701477050781e+00) (2, -9.25406360626220703125e+00) (3, 8.43748188018798828125e+00) (4, 7.79149389266967773438e+00) (5, 2.98630380630493164062e+00) (0, -6.04170486330986022949e-02) (1, -3.01141903037205338478e-04) (2, 1.69461533427238464355e-01) (3, -6.79704070091247558594e-01) (4, -6.70249089598655700684e-02) (5, 2.94717162847518920898e-01) (6, 1.08787918090820312500e+00) (7, 9.90314006805419921875e-01) (8, 1.05474197864532470703e+00) (9, 9.63178873062133789062e-01) (10, 1.10970950126647949219e+00) 
