FANN_FLO_2.1
num_layers=3
learning_rate=0.500000
connection_rate=1.000000
network_type=0
learning_momentum=0.000000
training_algorithm=2
train_error_function=1
train_stop_function=0
cascade_output_change_fraction=0.010000
quickprop_decay=-0.000100
quickprop_mu=1.750000
rprop_increase_factor=1.200000
rprop_decrease_factor=0.500000
rprop_delta_min=0.000000
rprop_delta_max=50.000000
rprop_delta_zero=0.100000
cascade_output_stagnation_epochs=12
cascade_candidate_change_fraction=0.010000
cascade_candidate_stagnation_epochs=12
cascade_max_out_epochs=150
cascade_min_out_epochs=50
cascade_max_cand_epochs=150
cascade_min_cand_epochs=50
cascade_num_candidate_groups=2
bit_fail_limit=3.49999994039535522461e-01
cascade_candidate_limit=1.00000000000000000000e+03
cascade_weight_multiplier=4.00000005960464477539e-01
cascade_activation_functions_count=10
cascade_activation_functions=3 5 7 8 10 11 14 15 16 17 
cascade_activation_steepnesses_count=4
cascade_activation_steepnesses=2.50000000000000000000e-01 5.00000000000000000000e-01 7.50000000000000000000e-01 1.00000000000000000000e+00 
layer_sizes=10 5 2 
scale_included=0
neurons (num_inputs, activation_function, activation_steepness)=(0, 0, 0.00000000000000000000e+00) (0, 0, 0.00000000000000000000e+00) (0, 0, 0.00000000000000000000e+00) (0, 0, 0.00000000000000000000e+00) (0, 0, 0.00000000000000000000e+00) (0, 0, 0.00000000000000000000e+00) (0, 0, 0.00000000000000000000e+00) (0, 0, 0.00000000000000000000e+00) (0, 0, 0.00000000000000000000e+00) (0, 0, 0.00000000000000000000e+00) (10, 3, 5.00000000000000000000e-01) (10, 3, 5.00000000000000000000e-01) (10, 3, 5.00000000000000000000e-01) (10, 3, 5.00000000000000000000e-01) (0, 3, 0.00000000000000000000e+00) (5, 3, 5.00000000000000000000e-01) (0, 3, 0.00000000000000000000e+00) 
connections (connected_to_neuron, weight)=(0, 6.89885425567626953125e+00) (1, 1.08944740295410156250e+01) (2, 9.63392257690429687500e-01) (3, 2.78032708168029785156e+00) (4, -6.54998123645782470703e-01) (5, -2.58470273017883300781e+00) (6, -2.31098580360412597656e+00) (7, -1.13108634948730468750e+01) (8, -7.26171112060546875000e+00) (9, -8.66594135761260986328e-01) (0, 4.96907567977905273438e+00) (1, -7.05430936813354492188e+00) (2, 9.85041999816894531250e+00) (3, 6.05924320220947265625e+00) (4, -1.85026729106903076172e+00) (5, 1.02041740417480468750e+01) (6, 4.41265535354614257812e+00) (7, 9.48377788066864013672e-01) (8, 3.14880870282649993896e-02) (9, -7.78814983367919921875e+00) (0, 6.49753761291503906250e+00) (1, 2.43644142150878906250e+00) (2, -9.29802227020263671875e+00) (3, 2.97347679138183593750e+01) (4, -5.14068126678466796875e+00) (5, -1.05608806610107421875e+01) (6, 8.64657974243164062500e+00) (7, -2.48204302787780761719e+00) (8, -1.53184404373168945312e+01) (9, 2.29980802536010742188e+00) (0, -4.83836603164672851562e+00) (1, -1.48294162750244140625e+01) (2, -6.49881935119628906250e+00) (3, 3.11606121063232421875e+00) (4, 2.37891137599945068359e-01) (5, 1.47508025169372558594e+00) (6, 5.95783853530883789062e+00) (7, 1.17919187545776367188e+01) (8, 2.95361924171447753906e+00) (9, -1.86154842376708984375e+00) (10, 4.63950967788696289062e+00) (11, 1.84715318679809570312e+00) (12, -2.70561003684997558594e+00) (13, 3.96832847595214843750e+00) (14, -7.62274682521820068359e-01) 
