FANN_FLO_2.1
num_layers=3
learning_rate=0.500000
connection_rate=1.000000
network_type=0
learning_momentum=0.000000
training_algorithm=2
train_error_function=1
train_stop_function=0
cascade_output_change_fraction=0.010000
quickprop_decay=-0.000100
quickprop_mu=1.750000
rprop_increase_factor=1.200000
rprop_decrease_factor=0.500000
rprop_delta_min=0.000000
rprop_delta_max=50.000000
rprop_delta_zero=0.100000
cascade_output_stagnation_epochs=12
cascade_candidate_change_fraction=0.010000
cascade_candidate_stagnation_epochs=12
cascade_max_out_epochs=150
cascade_min_out_epochs=50
cascade_max_cand_epochs=150
cascade_min_cand_epochs=50
cascade_num_candidate_groups=2
bit_fail_limit=3.49999994039535522461e-01
cascade_candidate_limit=1.00000000000000000000e+03
cascade_weight_multiplier=4.00000005960464477539e-01
cascade_activation_functions_count=10
cascade_activation_functions=3 5 7 8 10 11 14 15 16 17 
cascade_activation_steepnesses_count=4
cascade_activation_steepnesses=2.50000000000000000000e-01 5.00000000000000000000e-01 7.50000000000000000000e-01 1.00000000000000000000e+00 
layer_sizes=6 5 2 
scale_included=0
neurons (num_inputs, activation_function, activation_steepness)=(0, 0, 0.00000000000000000000e+00) (0, 0, 0.00000000000000000000e+00) (0, 0, 0.00000000000000000000e+00) (0, 0, 0.00000000000000000000e+00) (0, 0, 0.00000000000000000000e+00) (0, 0, 0.00000000000000000000e+00) (6, 3, 5.00000000000000000000e-01) (6, 3, 5.00000000000000000000e-01) (6, 3, 5.00000000000000000000e-01) (6, 3, 5.00000000000000000000e-01) (0, 3, 0.00000000000000000000e+00) (5, 0, 5.00000000000000000000e-01) (0, 0, 0.00000000000000000000e+00) 
connections (connected_to_neuron, weight)=(0, -5.90713806450366973877e-02) (1, -2.70503431558609008789e-01) (2, 4.86172661185264587402e-02) (3, -9.63114500045776367188e-02) (4, -1.80678427219390869141e-01) (5, 2.80818372964859008789e-01) (0, 1.16540646553039550781e+00) (1, 3.23207879066467285156e+00) (2, -9.61505699157714843750e+00) (3, -3.42462825775146484375e+00) (4, 8.62204265594482421875e+00) (5, 3.10158443450927734375e+00) (0, 1.17032086849212646484e+00) (1, 6.00246763229370117188e+00) (2, -4.69578456878662109375e+00) (3, 8.59571456909179687500e+00) (4, -5.07987880706787109375e+00) (5, 3.08142399787902832031e+00) (0, -1.43649028614163398743e-02) (1, -2.54451155662536621094e-01) (2, 4.25451725721359252930e-01) (3, -3.12199816107749938965e-02) (4, -5.68836331367492675781e-02) (5, 2.54284948110580444336e-01) (6, 1.01745903491973876953e+00) (7, 1.10367858409881591797e+00) (8, 1.09115040302276611328e+00) (9, 9.58516061305999755859e-01) (10, 1.07697010040283203125e+00) 
