FANN_FLO_2.1
num_layers=3
learning_rate=0.500000
connection_rate=1.000000
network_type=0
learning_momentum=0.000000
training_algorithm=2
train_error_function=1
train_stop_function=0
cascade_output_change_fraction=0.010000
quickprop_decay=-0.000100
quickprop_mu=1.750000
rprop_increase_factor=1.200000
rprop_decrease_factor=0.500000
rprop_delta_min=0.000000
rprop_delta_max=50.000000
rprop_delta_zero=0.100000
cascade_output_stagnation_epochs=12
cascade_candidate_change_fraction=0.010000
cascade_candidate_stagnation_epochs=12
cascade_max_out_epochs=150
cascade_min_out_epochs=50
cascade_max_cand_epochs=150
cascade_min_cand_epochs=50
cascade_num_candidate_groups=2
bit_fail_limit=3.49999994039535522461e-01
cascade_candidate_limit=1.00000000000000000000e+03
cascade_weight_multiplier=4.00000005960464477539e-01
cascade_activation_functions_count=10
cascade_activation_functions=3 5 7 8 10 11 14 15 16 17 
cascade_activation_steepnesses_count=4
cascade_activation_steepnesses=2.50000000000000000000e-01 5.00000000000000000000e-01 7.50000000000000000000e-01 1.00000000000000000000e+00 
layer_sizes=10 5 2 
scale_included=0
neurons (num_inputs, activation_function, activation_steepness)=(0, 0, 0.00000000000000000000e+00) (0, 0, 0.00000000000000000000e+00) (0, 0, 0.00000000000000000000e+00) (0, 0, 0.00000000000000000000e+00) (0, 0, 0.00000000000000000000e+00) (0, 0, 0.00000000000000000000e+00) (0, 0, 0.00000000000000000000e+00) (0, 0, 0.00000000000000000000e+00) (0, 0, 0.00000000000000000000e+00) (0, 0, 0.00000000000000000000e+00) (10, 3, 5.00000000000000000000e-01) (10, 3, 5.00000000000000000000e-01) (10, 3, 5.00000000000000000000e-01) (10, 3, 5.00000000000000000000e-01) (0, 3, 0.00000000000000000000e+00) (5, 3, 5.00000000000000000000e-01) (0, 3, 0.00000000000000000000e+00) 
connections (connected_to_neuron, weight)=(0, 1.70480108261108398438e+00) (1, -1.50408315658569335938e+00) (2, 1.05907964706420898438e+00) (3, 2.47784495353698730469e+00) (4, 6.51422619819641113281e-01) (5, 1.04763031005859375000e+01) (6, 2.01816225051879882812e+00) (7, 2.86296272277832031250e+00) (8, 6.63972139358520507812e+00) (9, -7.74150276184082031250e+00) (0, 2.65640592575073242188e+00) (1, -1.14129962921142578125e+01) (2, -9.20563411712646484375e+00) (3, 2.11744289398193359375e+01) (4, 9.25176516175270080566e-02) (5, -1.63939018249511718750e+01) (6, 1.65221538543701171875e+01) (7, 6.92749452590942382812e+00) (8, -3.22156131267547607422e-01) (9, -1.21523961424827575684e-01) (0, -6.51192951202392578125e+00) (1, -2.05513262748718261719e+00) (2, 5.28290081024169921875e+00) (3, -1.37310247421264648438e+01) (4, 4.15982663631439208984e-01) (5, 1.99971752166748046875e+01) (6, -5.92792129516601562500e+00) (7, 1.52034842967987060547e+00) (8, 8.37809467315673828125e+00) (9, 7.51780927181243896484e-01) (0, -1.50000000000000000000e+03) (1, -1.50000000000000000000e+03) (2, -5.37418889999389648438e+00) (3, -1.37481555175781250000e+03) (4, 2.52968859672546386719e+00) (5, 1.50000000000000000000e+03) (6, 1.50000000000000000000e+03) (7, 1.50000000000000000000e+03) (8, 1.50000000000000000000e+03) (9, 7.02776794433593750000e+02) (10, 2.50018048286437988281e+00) (11, -2.59326314926147460938e+00) (12, -3.73022794723510742188e+00) (13, 2.40680313110351562500e+00) (14, 1.72453939914703369141e+00) 
