FANN_FLO_2.1
num_layers=3
learning_rate=0.500000
connection_rate=1.000000
network_type=0
learning_momentum=0.000000
training_algorithm=2
train_error_function=1
train_stop_function=0
cascade_output_change_fraction=0.010000
quickprop_decay=-0.000100
quickprop_mu=1.750000
rprop_increase_factor=1.200000
rprop_decrease_factor=0.500000
rprop_delta_min=0.000000
rprop_delta_max=50.000000
rprop_delta_zero=0.100000
cascade_output_stagnation_epochs=12
cascade_candidate_change_fraction=0.010000
cascade_candidate_stagnation_epochs=12
cascade_max_out_epochs=150
cascade_min_out_epochs=50
cascade_max_cand_epochs=150
cascade_min_cand_epochs=50
cascade_num_candidate_groups=2
bit_fail_limit=3.49999994039535522461e-01
cascade_candidate_limit=1.00000000000000000000e+03
cascade_weight_multiplier=4.00000005960464477539e-01
cascade_activation_functions_count=10
cascade_activation_functions=3 5 7 8 10 11 14 15 16 17 
cascade_activation_steepnesses_count=4
cascade_activation_steepnesses=2.50000000000000000000e-01 5.00000000000000000000e-01 7.50000000000000000000e-01 1.00000000000000000000e+00 
layer_sizes=10 5 2 
scale_included=0
neurons (num_inputs, activation_function, activation_steepness)=(0, 0, 0.00000000000000000000e+00) (0, 0, 0.00000000000000000000e+00) (0, 0, 0.00000000000000000000e+00) (0, 0, 0.00000000000000000000e+00) (0, 0, 0.00000000000000000000e+00) (0, 0, 0.00000000000000000000e+00) (0, 0, 0.00000000000000000000e+00) (0, 0, 0.00000000000000000000e+00) (0, 0, 0.00000000000000000000e+00) (0, 0, 0.00000000000000000000e+00) (10, 3, 5.00000000000000000000e-01) (10, 3, 5.00000000000000000000e-01) (10, 3, 5.00000000000000000000e-01) (10, 3, 5.00000000000000000000e-01) (0, 3, 0.00000000000000000000e+00) (5, 3, 5.00000000000000000000e-01) (0, 3, 0.00000000000000000000e+00) 
connections (connected_to_neuron, weight)=(0, 8.69795036315917968750e+00) (1, 2.72721982002258300781e+00) (2, 1.02251176834106445312e+01) (3, -9.72865009307861328125e+00) (4, 4.80198717117309570312e+00) (5, -1.24008822441101074219e+00) (6, -1.84107989072799682617e-01) (7, 1.63163261413574218750e+01) (8, -2.89077758789062500000e+00) (9, -7.00202035903930664062e+00) (0, -1.04399166107177734375e+01) (1, -6.39824199676513671875e+00) (2, 7.21781444549560546875e+00) (3, 2.77394008636474609375e+01) (4, 5.91960477828979492188e+00) (5, 1.60976564884185791016e+00) (6, -3.04046106338500976562e+00) (7, -1.71799106597900390625e+01) (8, 1.54657936096191406250e+01) (9, -2.89915156364440917969e+00) (0, -8.18352794647216796875e+00) (1, -6.46446228027343750000e+00) (2, 7.36038589477539062500e+00) (3, 2.65997619628906250000e+01) (4, 5.77978324890136718750e+00) (5, 5.23032379150390625000e+00) (6, -4.00621032714843750000e+00) (7, -1.65082817077636718750e+01) (8, 1.14338846206665039062e+01) (9, -3.32858681678771972656e+00) (0, -8.50405597686767578125e+00) (1, 1.46202135086059570312e+01) (2, 4.29343080520629882812e+00) (3, -6.40917348861694335938e+00) (4, 8.97536563873291015625e+00) (5, -9.10076427459716796875e+00) (6, 1.68579232692718505859e+00) (7, 7.83497858047485351562e+00) (8, 6.70219755172729492188e+00) (9, -4.18103837966918945312e+00) (10, 1.84217107295989990234e+00) (11, 6.59204006195068359375e-01) (12, 7.31264710426330566406e-01) (13, 1.16373449563980102539e-01) (14, -1.92761433124542236328e+00) 
