FANN_FLO_2.1
num_layers=3
learning_rate=0.500000
connection_rate=1.000000
network_type=0
learning_momentum=0.000000
training_algorithm=2
train_error_function=1
train_stop_function=0
cascade_output_change_fraction=0.010000
quickprop_decay=-0.000100
quickprop_mu=1.750000
rprop_increase_factor=1.200000
rprop_decrease_factor=0.500000
rprop_delta_min=0.000000
rprop_delta_max=50.000000
rprop_delta_zero=0.100000
cascade_output_stagnation_epochs=12
cascade_candidate_change_fraction=0.010000
cascade_candidate_stagnation_epochs=12
cascade_max_out_epochs=150
cascade_min_out_epochs=50
cascade_max_cand_epochs=150
cascade_min_cand_epochs=50
cascade_num_candidate_groups=2
bit_fail_limit=3.49999994039535522461e-01
cascade_candidate_limit=1.00000000000000000000e+03
cascade_weight_multiplier=4.00000005960464477539e-01
cascade_activation_functions_count=10
cascade_activation_functions=3 5 7 8 10 11 14 15 16 17 
cascade_activation_steepnesses_count=4
cascade_activation_steepnesses=2.50000000000000000000e-01 5.00000000000000000000e-01 7.50000000000000000000e-01 1.00000000000000000000e+00 
layer_sizes=10 3 2 
scale_included=0
neurons (num_inputs, activation_function, activation_steepness)=(0, 0, 0.00000000000000000000e+00) (0, 0, 0.00000000000000000000e+00) (0, 0, 0.00000000000000000000e+00) (0, 0, 0.00000000000000000000e+00) (0, 0, 0.00000000000000000000e+00) (0, 0, 0.00000000000000000000e+00) (0, 0, 0.00000000000000000000e+00) (0, 0, 0.00000000000000000000e+00) (0, 0, 0.00000000000000000000e+00) (0, 0, 0.00000000000000000000e+00) (10, 3, 5.00000000000000000000e-01) (10, 3, 5.00000000000000000000e-01) (0, 3, 0.00000000000000000000e+00) (3, 3, 5.00000000000000000000e-01) (0, 3, 0.00000000000000000000e+00) 
connections (connected_to_neuron, weight)=(0, 4.21895217895507812500e+00) (1, -1.20946848392486572266e+00) (2, 2.98438978195190429688e+00) (3, 1.12160358428955078125e+01) (4, -6.95541238784790039062e+00) (5, 1.82171592712402343750e+01) (6, 1.72532024383544921875e+01) (7, -1.17746982574462890625e+01) (8, -4.24907255172729492188e+00) (9, -6.82397127151489257812e+00) (0, 1.39387905597686767578e+00) (1, 2.38569355010986328125e+00) (2, 1.66094827651977539062e+00) (3, 2.09049053192138671875e+01) (4, 1.31332740783691406250e+01) (5, 4.71788358688354492188e+00) (6, -2.23118705749511718750e+01) (7, -2.87586390972137451172e-01) (8, 9.87783622741699218750e+00) (9, -1.01670932769775390625e+01) (10, 1.83355247974395751953e+00) (11, 6.47069513797760009766e-01) (12, -1.01263308525085449219e+00) 
