FANN_FLO_2.1
num_layers=3
learning_rate=0.500000
connection_rate=1.000000
network_type=0
learning_momentum=0.000000
training_algorithm=2
train_error_function=1
train_stop_function=0
cascade_output_change_fraction=0.010000
quickprop_decay=-0.000100
quickprop_mu=1.750000
rprop_increase_factor=1.200000
rprop_decrease_factor=0.500000
rprop_delta_min=0.000000
rprop_delta_max=50.000000
rprop_delta_zero=0.100000
cascade_output_stagnation_epochs=12
cascade_candidate_change_fraction=0.010000
cascade_candidate_stagnation_epochs=12
cascade_max_out_epochs=150
cascade_min_out_epochs=50
cascade_max_cand_epochs=150
cascade_min_cand_epochs=50
cascade_num_candidate_groups=2
bit_fail_limit=3.49999994039535522461e-01
cascade_candidate_limit=1.00000000000000000000e+03
cascade_weight_multiplier=4.00000005960464477539e-01
cascade_activation_functions_count=10
cascade_activation_functions=3 5 7 8 10 11 14 15 16 17 
cascade_activation_steepnesses_count=4
cascade_activation_steepnesses=2.50000000000000000000e-01 5.00000000000000000000e-01 7.50000000000000000000e-01 1.00000000000000000000e+00 
layer_sizes=10 5 2 
scale_included=0
neurons (num_inputs, activation_function, activation_steepness)=(0, 0, 0.00000000000000000000e+00) (0, 0, 0.00000000000000000000e+00) (0, 0, 0.00000000000000000000e+00) (0, 0, 0.00000000000000000000e+00) (0, 0, 0.00000000000000000000e+00) (0, 0, 0.00000000000000000000e+00) (0, 0, 0.00000000000000000000e+00) (0, 0, 0.00000000000000000000e+00) (0, 0, 0.00000000000000000000e+00) (0, 0, 0.00000000000000000000e+00) (10, 3, 5.00000000000000000000e-01) (10, 3, 5.00000000000000000000e-01) (10, 3, 5.00000000000000000000e-01) (10, 3, 5.00000000000000000000e-01) (0, 3, 0.00000000000000000000e+00) (5, 3, 5.00000000000000000000e-01) (0, 3, 0.00000000000000000000e+00) 
connections (connected_to_neuron, weight)=(0, 2.06098127365112304688e+00) (1, 9.31247329711914062500e+00) (2, 8.25200462341308593750e+00) (3, -9.44517040252685546875e+00) (4, 1.92327983677387237549e-02) (5, 1.03437595367431640625e+01) (6, -1.39420719146728515625e+01) (7, -9.05798053741455078125e+00) (8, -3.79111576080322265625e+00) (9, -1.10832262039184570312e+00) (0, 5.01952505111694335938e+00) (1, -1.19729347229003906250e+01) (2, -7.53185415267944335938e+00) (3, 6.01402759552001953125e+00) (4, 3.27872252464294433594e+00) (5, -1.75088825225830078125e+01) (6, 1.22573232650756835938e+01) (7, 7.80439710617065429688e+00) (8, -8.54451537132263183594e-01) (9, -2.66492700576782226562e+00) (0, -3.07678604125976562500e+00) (1, 5.79591417312622070312e+00) (2, -9.22706794738769531250e+00) (3, 5.99633741378784179688e+00) (4, 3.09394054412841796875e+01) (5, -3.04601848125457763672e-01) (6, -3.66680755615234375000e+01) (7, 7.87486076354980468750e+00) (8, 1.86876239776611328125e+01) (9, -6.35847282409667968750e+00) (0, -1.69923667907714843750e+01) (1, 5.77019405364990234375e+00) (2, 2.04022574424743652344e+00) (3, 1.50606460571289062500e+01) (4, -7.46092176437377929688e+00) (5, 2.36182546615600585938e+00) (6, 1.64154129028320312500e+01) (7, 7.90699601173400878906e-01) (8, 9.98435020446777343750e+00) (9, -9.54291248321533203125e+00) (10, 4.23383665084838867188e+00) (11, 4.56446647644042968750e+00) (12, 1.10250139236450195312e+00) (13, 1.36383962631225585938e+00) (14, -1.76227355003356933594e+00) 
