FANN_FLO_2.1
num_layers=3
learning_rate=0.500000
connection_rate=1.000000
network_type=0
learning_momentum=0.000000
training_algorithm=2
train_error_function=1
train_stop_function=0
cascade_output_change_fraction=0.010000
quickprop_decay=-0.000100
quickprop_mu=1.750000
rprop_increase_factor=1.200000
rprop_decrease_factor=0.500000
rprop_delta_min=0.000000
rprop_delta_max=50.000000
rprop_delta_zero=0.100000
cascade_output_stagnation_epochs=12
cascade_candidate_change_fraction=0.010000
cascade_candidate_stagnation_epochs=12
cascade_max_out_epochs=150
cascade_min_out_epochs=50
cascade_max_cand_epochs=150
cascade_min_cand_epochs=50
cascade_num_candidate_groups=2
bit_fail_limit=3.49999994039535522461e-01
cascade_candidate_limit=1.00000000000000000000e+03
cascade_weight_multiplier=4.00000005960464477539e-01
cascade_activation_functions_count=10
cascade_activation_functions=3 5 7 8 10 11 14 15 16 17 
cascade_activation_steepnesses_count=4
cascade_activation_steepnesses=2.50000000000000000000e-01 5.00000000000000000000e-01 7.50000000000000000000e-01 1.00000000000000000000e+00 
layer_sizes=10 5 2 
scale_included=0
neurons (num_inputs, activation_function, activation_steepness)=(0, 0, 0.00000000000000000000e+00) (0, 0, 0.00000000000000000000e+00) (0, 0, 0.00000000000000000000e+00) (0, 0, 0.00000000000000000000e+00) (0, 0, 0.00000000000000000000e+00) (0, 0, 0.00000000000000000000e+00) (0, 0, 0.00000000000000000000e+00) (0, 0, 0.00000000000000000000e+00) (0, 0, 0.00000000000000000000e+00) (0, 0, 0.00000000000000000000e+00) (10, 3, 5.00000000000000000000e-01) (10, 3, 5.00000000000000000000e-01) (10, 3, 5.00000000000000000000e-01) (10, 3, 5.00000000000000000000e-01) (0, 3, 0.00000000000000000000e+00) (5, 3, 5.00000000000000000000e-01) (0, 3, 0.00000000000000000000e+00) 
connections (connected_to_neuron, weight)=(0, 6.83882761001586914062e+00) (1, -6.32632136344909667969e-01) (2, 3.89826965332031250000e+00) (3, 4.45753097534179687500e+00) (4, 7.28204905986785888672e-01) (5, 1.03013706207275390625e+01) (6, 2.66443252563476562500e+00) (7, -5.17848372459411621094e-01) (8, 1.91504037380218505859e+00) (9, -7.64108610153198242188e+00) (0, 7.47960233688354492188e+00) (1, -1.12472724914550781250e+00) (2, 3.69424462318420410156e+00) (3, 5.12065076828002929688e+00) (4, -5.96233189105987548828e-01) (5, 1.01631164550781250000e+01) (6, 1.66004550457000732422e+00) (7, 6.78102225065231323242e-02) (8, 2.30797958374023437500e+00) (9, -7.59159421920776367188e+00) (0, -1.50000000000000000000e+03) (1, -1.50000000000000000000e+03) (2, -1.50000000000000000000e+03) (3, -1.50000000000000000000e+03) (4, -1.50000000000000000000e+03) (5, -1.50000000000000000000e+03) (6, -1.50000000000000000000e+03) (7, -1.50000000000000000000e+03) (8, -1.50000000000000000000e+03) (9, -9.76802051067352294922e-01) (0, 6.77973604202270507812e+00) (1, -4.46548491716384887695e-01) (2, 3.84039378166198730469e+00) (3, 4.87210893630981445312e+00) (4, -2.79371440410614013672e-01) (5, 1.02761659622192382812e+01) (6, 2.47035336494445800781e+00) (7, -2.43161201477050781250e-01) (8, 2.07898092269897460938e+00) (9, -7.65643930435180664062e+00) (10, 1.08213448524475097656e+00) (11, 5.48357486724853515625e-01) (12, 1.50000000000000000000e+03) (13, 7.47866988182067871094e-01) (14, -1.21890807151794433594e+00) 
