FANN_FLO_2.1
num_layers=3
learning_rate=0.500000
connection_rate=1.000000
network_type=0
learning_momentum=0.000000
training_algorithm=2
train_error_function=1
train_stop_function=0
cascade_output_change_fraction=0.010000
quickprop_decay=-0.000100
quickprop_mu=1.750000
rprop_increase_factor=1.200000
rprop_decrease_factor=0.500000
rprop_delta_min=0.000000
rprop_delta_max=50.000000
rprop_delta_zero=0.100000
cascade_output_stagnation_epochs=12
cascade_candidate_change_fraction=0.010000
cascade_candidate_stagnation_epochs=12
cascade_max_out_epochs=150
cascade_min_out_epochs=50
cascade_max_cand_epochs=150
cascade_min_cand_epochs=50
cascade_num_candidate_groups=2
bit_fail_limit=3.49999994039535522461e-01
cascade_candidate_limit=1.00000000000000000000e+03
cascade_weight_multiplier=4.00000005960464477539e-01
cascade_activation_functions_count=10
cascade_activation_functions=3 5 7 8 10 11 14 15 16 17 
cascade_activation_steepnesses_count=4
cascade_activation_steepnesses=2.50000000000000000000e-01 5.00000000000000000000e-01 7.50000000000000000000e-01 1.00000000000000000000e+00 
layer_sizes=10 3 2 
scale_included=0
neurons (num_inputs, activation_function, activation_steepness)=(0, 0, 0.00000000000000000000e+00) (0, 0, 0.00000000000000000000e+00) (0, 0, 0.00000000000000000000e+00) (0, 0, 0.00000000000000000000e+00) (0, 0, 0.00000000000000000000e+00) (0, 0, 0.00000000000000000000e+00) (0, 0, 0.00000000000000000000e+00) (0, 0, 0.00000000000000000000e+00) (0, 0, 0.00000000000000000000e+00) (0, 0, 0.00000000000000000000e+00) (10, 3, 5.00000000000000000000e-01) (10, 3, 5.00000000000000000000e-01) (0, 3, 0.00000000000000000000e+00) (3, 3, 5.00000000000000000000e-01) (0, 3, 0.00000000000000000000e+00) 
connections (connected_to_neuron, weight)=(0, -3.88859081268310546875e+00) (1, -4.21654129028320312500e+00) (2, -8.08533954620361328125e+00) (3, 9.85913944244384765625e+00) (4, -2.07814264297485351562e+00) (5, 6.03572130203247070312e+00) (6, 8.87668356299400329590e-02) (7, 1.23604087829589843750e+01) (8, 1.19931402206420898438e+01) (9, -6.39539861679077148438e+00) (0, 5.17195129394531250000e+00) (1, 6.73205947875976562500e+00) (2, 5.92264366149902343750e+00) (3, -1.31363883614540100098e-01) (4, 8.70740175247192382812e-01) (5, -2.92334866523742675781e+00) (6, -2.07777380943298339844e+00) (7, -1.48044853210449218750e+01) (8, -5.97544288635253906250e+00) (9, -6.08587086200714111328e-01) (10, 3.40803694725036621094e+00) (11, 7.27567863464355468750e+00) (12, -2.10096168518066406250e+00) 
