FANN_FLO_2.1
num_layers=3
learning_rate=0.500000
connection_rate=1.000000
network_type=0
learning_momentum=0.000000
training_algorithm=2
train_error_function=1
train_stop_function=0
cascade_output_change_fraction=0.010000
quickprop_decay=-0.000100
quickprop_mu=1.750000
rprop_increase_factor=1.200000
rprop_decrease_factor=0.500000
rprop_delta_min=0.000000
rprop_delta_max=50.000000
rprop_delta_zero=0.100000
cascade_output_stagnation_epochs=12
cascade_candidate_change_fraction=0.010000
cascade_candidate_stagnation_epochs=12
cascade_max_out_epochs=150
cascade_min_out_epochs=50
cascade_max_cand_epochs=150
cascade_min_cand_epochs=50
cascade_num_candidate_groups=2
bit_fail_limit=3.49999994039535522461e-01
cascade_candidate_limit=1.00000000000000000000e+03
cascade_weight_multiplier=4.00000005960464477539e-01
cascade_activation_functions_count=10
cascade_activation_functions=3 5 7 8 10 11 14 15 16 17 
cascade_activation_steepnesses_count=4
cascade_activation_steepnesses=2.50000000000000000000e-01 5.00000000000000000000e-01 7.50000000000000000000e-01 1.00000000000000000000e+00 
layer_sizes=6 5 2 
scale_included=0
neurons (num_inputs, activation_function, activation_steepness)=(0, 0, 0.00000000000000000000e+00) (0, 0, 0.00000000000000000000e+00) (0, 0, 0.00000000000000000000e+00) (0, 0, 0.00000000000000000000e+00) (0, 0, 0.00000000000000000000e+00) (0, 0, 0.00000000000000000000e+00) (6, 3, 5.00000000000000000000e-01) (6, 3, 5.00000000000000000000e-01) (6, 3, 5.00000000000000000000e-01) (6, 3, 5.00000000000000000000e-01) (0, 3, 0.00000000000000000000e+00) (5, 0, 5.00000000000000000000e-01) (0, 0, 0.00000000000000000000e+00) 
connections (connected_to_neuron, weight)=(0, 2.49740257859230041504e-01) (1, 4.61112409830093383789e-01) (2, -1.32762372493743896484e+00) (3, -5.08638477325439453125e+00) (4, 3.73814580962061882019e-03) (5, 2.36741393804550170898e-01) (0, 1.02059578895568847656e+00) (1, -1.32850325107574462891e+00) (2, 1.35121831893920898438e+01) (3, -3.94282132387161254883e-01) (4, -2.99289846420288085938e+00) (5, 3.47558236122131347656e+00) (0, 1.07956826686859130859e+00) (1, -1.10651369094848632812e+01) (2, 3.38298988342285156250e+00) (3, -9.04088306427001953125e+00) (4, 4.20386886596679687500e+00) (5, 3.51805114746093750000e+00) (0, -2.71215796470642089844e-01) (1, 6.49259537458419799805e-02) (2, 4.51803386211395263672e-01) (3, 4.66892814636230468750e+00) (4, -1.10783681273460388184e-01) (5, 3.41706156730651855469e-01) (6, 9.27042603492736816406e-01) (7, 1.11498856544494628906e+00) (8, 1.11024785041809082031e+00) (9, 9.32241201400756835938e-01) (10, 1.08494949340820312500e+00) 
