FANN_FLO_2.1
num_layers=3
learning_rate=0.500000
connection_rate=1.000000
network_type=0
learning_momentum=0.000000
training_algorithm=2
train_error_function=1
train_stop_function=0
cascade_output_change_fraction=0.010000
quickprop_decay=-0.000100
quickprop_mu=1.750000
rprop_increase_factor=1.200000
rprop_decrease_factor=0.500000
rprop_delta_min=0.000000
rprop_delta_max=50.000000
rprop_delta_zero=0.100000
cascade_output_stagnation_epochs=12
cascade_candidate_change_fraction=0.010000
cascade_candidate_stagnation_epochs=12
cascade_max_out_epochs=150
cascade_min_out_epochs=50
cascade_max_cand_epochs=150
cascade_min_cand_epochs=50
cascade_num_candidate_groups=2
bit_fail_limit=3.49999994039535522461e-01
cascade_candidate_limit=1.00000000000000000000e+03
cascade_weight_multiplier=4.00000005960464477539e-01
cascade_activation_functions_count=10
cascade_activation_functions=3 5 7 8 10 11 14 15 16 17 
cascade_activation_steepnesses_count=4
cascade_activation_steepnesses=2.50000000000000000000e-01 5.00000000000000000000e-01 7.50000000000000000000e-01 1.00000000000000000000e+00 
layer_sizes=10 5 2 
scale_included=0
neurons (num_inputs, activation_function, activation_steepness)=(0, 0, 0.00000000000000000000e+00) (0, 0, 0.00000000000000000000e+00) (0, 0, 0.00000000000000000000e+00) (0, 0, 0.00000000000000000000e+00) (0, 0, 0.00000000000000000000e+00) (0, 0, 0.00000000000000000000e+00) (0, 0, 0.00000000000000000000e+00) (0, 0, 0.00000000000000000000e+00) (0, 0, 0.00000000000000000000e+00) (0, 0, 0.00000000000000000000e+00) (10, 3, 5.00000000000000000000e-01) (10, 3, 5.00000000000000000000e-01) (10, 3, 5.00000000000000000000e-01) (10, 3, 5.00000000000000000000e-01) (0, 3, 0.00000000000000000000e+00) (5, 3, 5.00000000000000000000e-01) (0, 3, 0.00000000000000000000e+00) 
connections (connected_to_neuron, weight)=(0, 2.22735595703125000000e+00) (1, 1.01462364196777343750e+01) (2, 9.70378780364990234375e+00) (3, -4.98857438564300537109e-01) (4, 8.84989142417907714844e-01) (5, 3.31365633010864257812e+00) (6, -8.93338012695312500000e+00) (7, -1.31322774887084960938e+01) (8, -4.23040437698364257812e+00) (9, -2.75333547592163085938e+00) (0, 1.54976348876953125000e+01) (1, 1.94638645648956298828e+00) (2, -2.47879924774169921875e+01) (3, 1.40523612499237060547e+00) (4, -1.19062423706054687500e+01) (5, -1.00167732238769531250e+01) (6, 1.78865299224853515625e+01) (7, 2.19735336303710937500e+01) (8, -5.80603504180908203125e+00) (9, -2.09419679641723632812e+00) (0, -1.02702684402465820312e+01) (1, -9.30485916137695312500e+00) (2, 2.09326028823852539062e+00) (3, -9.76486015319824218750e+00) (4, 1.99790453910827636719e+00) (5, 9.99269866943359375000e+00) (6, -1.30715620517730712891e+00) (7, 6.81519269943237304688e+00) (8, 8.98302459716796875000e+00) (9, -2.87525391578674316406e+00) (0, 7.76387643814086914062e+00) (1, -7.22543954849243164062e+00) (2, -1.51568212509155273438e+01) (3, 2.14900722503662109375e+01) (4, 3.34351110458374023438e+00) (5, -2.51317996978759765625e+01) (6, 1.49912815093994140625e+01) (7, 8.02258396148681640625e+00) (8, -5.14853048324584960938e+00) (9, -6.35090637207031250000e+00) (10, 5.69400978088378906250e+00) (11, 1.04308021068572998047e+00) (12, 5.50546693801879882812e+00) (13, 3.90258407592773437500e+00) (14, -2.26190519332885742188e+00) 
