FANN_FLO_2.1
num_layers=3
learning_rate=0.500000
connection_rate=1.000000
network_type=0
learning_momentum=0.000000
training_algorithm=2
train_error_function=1
train_stop_function=0
cascade_output_change_fraction=0.010000
quickprop_decay=-0.000100
quickprop_mu=1.750000
rprop_increase_factor=1.200000
rprop_decrease_factor=0.500000
rprop_delta_min=0.000000
rprop_delta_max=50.000000
rprop_delta_zero=0.100000
cascade_output_stagnation_epochs=12
cascade_candidate_change_fraction=0.010000
cascade_candidate_stagnation_epochs=12
cascade_max_out_epochs=150
cascade_min_out_epochs=50
cascade_max_cand_epochs=150
cascade_min_cand_epochs=50
cascade_num_candidate_groups=2
bit_fail_limit=3.49999994039535522461e-01
cascade_candidate_limit=1.00000000000000000000e+03
cascade_weight_multiplier=4.00000005960464477539e-01
cascade_activation_functions_count=10
cascade_activation_functions=3 5 7 8 10 11 14 15 16 17 
cascade_activation_steepnesses_count=4
cascade_activation_steepnesses=2.50000000000000000000e-01 5.00000000000000000000e-01 7.50000000000000000000e-01 1.00000000000000000000e+00 
layer_sizes=10 3 2 
scale_included=0
neurons (num_inputs, activation_function, activation_steepness)=(0, 0, 0.00000000000000000000e+00) (0, 0, 0.00000000000000000000e+00) (0, 0, 0.00000000000000000000e+00) (0, 0, 0.00000000000000000000e+00) (0, 0, 0.00000000000000000000e+00) (0, 0, 0.00000000000000000000e+00) (0, 0, 0.00000000000000000000e+00) (0, 0, 0.00000000000000000000e+00) (0, 0, 0.00000000000000000000e+00) (0, 0, 0.00000000000000000000e+00) (10, 3, 5.00000000000000000000e-01) (10, 3, 5.00000000000000000000e-01) (0, 3, 0.00000000000000000000e+00) (3, 3, 5.00000000000000000000e-01) (0, 3, 0.00000000000000000000e+00) 
connections (connected_to_neuron, weight)=(0, 5.03599023818969726562e+00) (1, 7.09593743085861206055e-02) (2, -1.55308687686920166016e+00) (3, 1.33852405548095703125e+01) (4, -1.21759243011474609375e+01) (5, 1.54727296829223632812e+01) (6, -2.63703465461730957031e+00) (7, 1.08007450103759765625e+01) (8, 7.52274894714355468750e+00) (9, -1.33029623031616210938e+01) (0, 7.98165035247802734375e+00) (1, 8.83823585510253906250e+00) (2, 5.71626472473144531250e+00) (3, 6.03617000579833984375e+00) (4, -2.72449321746826171875e+01) (5, 6.93285942077636718750e+00) (6, -5.50899791717529296875e+00) (7, 2.39416160583496093750e+01) (8, -2.29600906372070312500e+00) (9, -5.40050792694091796875e+00) (10, 7.44344592094421386719e-01) (11, 1.16143572330474853516e+00) (12, -5.71028053760528564453e-01) 
