FANN_FLO_2.1
num_layers=3
learning_rate=0.500000
connection_rate=1.000000
network_type=0
learning_momentum=0.000000
training_algorithm=2
train_error_function=1
train_stop_function=0
cascade_output_change_fraction=0.010000
quickprop_decay=-0.000100
quickprop_mu=1.750000
rprop_increase_factor=1.200000
rprop_decrease_factor=0.500000
rprop_delta_min=0.000000
rprop_delta_max=50.000000
rprop_delta_zero=0.100000
cascade_output_stagnation_epochs=12
cascade_candidate_change_fraction=0.010000
cascade_candidate_stagnation_epochs=12
cascade_max_out_epochs=150
cascade_min_out_epochs=50
cascade_max_cand_epochs=150
cascade_min_cand_epochs=50
cascade_num_candidate_groups=2
bit_fail_limit=3.49999994039535522461e-01
cascade_candidate_limit=1.00000000000000000000e+03
cascade_weight_multiplier=4.00000005960464477539e-01
cascade_activation_functions_count=10
cascade_activation_functions=3 5 7 8 10 11 14 15 16 17 
cascade_activation_steepnesses_count=4
cascade_activation_steepnesses=2.50000000000000000000e-01 5.00000000000000000000e-01 7.50000000000000000000e-01 1.00000000000000000000e+00 
layer_sizes=6 5 2 
scale_included=0
neurons (num_inputs, activation_function, activation_steepness)=(0, 0, 0.00000000000000000000e+00) (0, 0, 0.00000000000000000000e+00) (0, 0, 0.00000000000000000000e+00) (0, 0, 0.00000000000000000000e+00) (0, 0, 0.00000000000000000000e+00) (0, 0, 0.00000000000000000000e+00) (6, 3, 5.00000000000000000000e-01) (6, 3, 5.00000000000000000000e-01) (6, 3, 5.00000000000000000000e-01) (6, 3, 5.00000000000000000000e-01) (0, 3, 0.00000000000000000000e+00) (5, 0, 5.00000000000000000000e-01) (0, 0, 0.00000000000000000000e+00) 
connections (connected_to_neuron, weight)=(0, -1.60386607050895690918e-01) (1, 8.91545638442039489746e-02) (2, 7.19836493954062461853e-03) (3, -8.19652974605560302734e-02) (4, -1.78142547607421875000e-01) (5, 2.97530084848403930664e-01) (0, 1.52014613151550292969e+00) (1, -1.69159173965454101562e+00) (2, 1.31538848876953125000e+01) (3, 1.26579117774963378906e+00) (4, 2.13968396186828613281e+00) (5, 2.36770009994506835938e+00) (0, 3.12151294201612472534e-02) (1, -2.28185113519430160522e-02) (2, -2.57263422012329101562e-01) (3, -5.49963340163230895996e-02) (4, -2.60276440531015396118e-02) (5, 4.11773115396499633789e-01) (0, 7.52825886011123657227e-02) (1, -3.39867873117327690125e-03) (2, -4.26319569349288940430e-01) (3, 3.45586128532886505127e-02) (4, -3.67720946669578552246e-02) (5, 3.55667591094970703125e-01) (6, 1.18224346637725830078e+00) (7, 1.23227906227111816406e+00) (8, 1.12015616893768310547e+00) (9, 1.15761446952819824219e+00) (10, 1.11868023872375488281e+00) 
