FANN_FLO_2.1
num_layers=3
learning_rate=0.500000
connection_rate=1.000000
network_type=0
learning_momentum=0.000000
training_algorithm=2
train_error_function=1
train_stop_function=0
cascade_output_change_fraction=0.010000
quickprop_decay=-0.000100
quickprop_mu=1.750000
rprop_increase_factor=1.200000
rprop_decrease_factor=0.500000
rprop_delta_min=0.000000
rprop_delta_max=50.000000
rprop_delta_zero=0.100000
cascade_output_stagnation_epochs=12
cascade_candidate_change_fraction=0.010000
cascade_candidate_stagnation_epochs=12
cascade_max_out_epochs=150
cascade_min_out_epochs=50
cascade_max_cand_epochs=150
cascade_min_cand_epochs=50
cascade_num_candidate_groups=2
bit_fail_limit=3.49999994039535522461e-01
cascade_candidate_limit=1.00000000000000000000e+03
cascade_weight_multiplier=4.00000005960464477539e-01
cascade_activation_functions_count=10
cascade_activation_functions=3 5 7 8 10 11 14 15 16 17 
cascade_activation_steepnesses_count=4
cascade_activation_steepnesses=2.50000000000000000000e-01 5.00000000000000000000e-01 7.50000000000000000000e-01 1.00000000000000000000e+00 
layer_sizes=6 5 2 
scale_included=0
neurons (num_inputs, activation_function, activation_steepness)=(0, 0, 0.00000000000000000000e+00) (0, 0, 0.00000000000000000000e+00) (0, 0, 0.00000000000000000000e+00) (0, 0, 0.00000000000000000000e+00) (0, 0, 0.00000000000000000000e+00) (0, 0, 0.00000000000000000000e+00) (6, 3, 5.00000000000000000000e-01) (6, 3, 5.00000000000000000000e-01) (6, 3, 5.00000000000000000000e-01) (6, 3, 5.00000000000000000000e-01) (0, 3, 0.00000000000000000000e+00) (5, 0, 5.00000000000000000000e-01) (0, 0, 0.00000000000000000000e+00) 
connections (connected_to_neuron, weight)=(0, 8.95140528678894042969e-01) (1, 2.64496660232543945312e+00) (2, -4.66100358963012695312e+00) (3, 7.11964309215545654297e-01) (4, 3.61696648597717285156e+00) (5, 1.48399710655212402344e+00) (0, -3.57803255319595336914e-01) (1, -4.71696346998214721680e-01) (2, 7.17594325542449951172e-02) (3, 1.40038013458251953125e-01) (4, -1.54837584495544433594e+00) (5, 1.74245566129684448242e-01) (0, 1.21486747264862060547e+00) (1, 3.04880046844482421875e+00) (2, 7.27678775787353515625e+00) (3, -3.12923550605773925781e+00) (4, 5.24855232238769531250e+00) (5, 1.78902208805084228516e+00) (0, 1.53890264034271240234e+00) (1, -9.79798603057861328125e+00) (2, 3.64887928962707519531e+00) (3, 1.56378877162933349609e+00) (4, 4.36557769775390625000e+00) (5, 2.27051043510437011719e+00) (6, 9.87248599529266357422e-01) (7, 9.10490512847900390625e-01) (8, 9.97456848621368408203e-01) (9, 1.04005455970764160156e+00) (10, 1.04920220375061035156e+00) 
