FANN_FLO_2.1
num_layers=3
learning_rate=0.500000
connection_rate=1.000000
network_type=0
learning_momentum=0.000000
training_algorithm=2
train_error_function=1
train_stop_function=0
cascade_output_change_fraction=0.010000
quickprop_decay=-0.000100
quickprop_mu=1.750000
rprop_increase_factor=1.200000
rprop_decrease_factor=0.500000
rprop_delta_min=0.000000
rprop_delta_max=50.000000
rprop_delta_zero=0.100000
cascade_output_stagnation_epochs=12
cascade_candidate_change_fraction=0.010000
cascade_candidate_stagnation_epochs=12
cascade_max_out_epochs=150
cascade_min_out_epochs=50
cascade_max_cand_epochs=150
cascade_min_cand_epochs=50
cascade_num_candidate_groups=2
bit_fail_limit=3.49999994039535522461e-01
cascade_candidate_limit=1.00000000000000000000e+03
cascade_weight_multiplier=4.00000005960464477539e-01
cascade_activation_functions_count=10
cascade_activation_functions=3 5 7 8 10 11 14 15 16 17 
cascade_activation_steepnesses_count=4
cascade_activation_steepnesses=2.50000000000000000000e-01 5.00000000000000000000e-01 7.50000000000000000000e-01 1.00000000000000000000e+00 
layer_sizes=10 3 2 
scale_included=0
neurons (num_inputs, activation_function, activation_steepness)=(0, 0, 0.00000000000000000000e+00) (0, 0, 0.00000000000000000000e+00) (0, 0, 0.00000000000000000000e+00) (0, 0, 0.00000000000000000000e+00) (0, 0, 0.00000000000000000000e+00) (0, 0, 0.00000000000000000000e+00) (0, 0, 0.00000000000000000000e+00) (0, 0, 0.00000000000000000000e+00) (0, 0, 0.00000000000000000000e+00) (0, 0, 0.00000000000000000000e+00) (10, 3, 5.00000000000000000000e-01) (10, 3, 5.00000000000000000000e-01) (0, 3, 0.00000000000000000000e+00) (3, 3, 5.00000000000000000000e-01) (0, 3, 0.00000000000000000000e+00) 
connections (connected_to_neuron, weight)=(0, -1.72638356685638427734e+00) (1, 5.14485311508178710938e+00) (2, 3.56783270835876464844e+00) (3, 7.61173057556152343750e+00) (4, 3.91271424293518066406e+00) (5, 6.99041938781738281250e+00) (6, 5.19097948074340820312e+00) (7, 6.64624357223510742188e+00) (8, -4.99824762344360351562e+00) (9, -6.88344764709472656250e+00) (0, 5.71852564811706542969e-01) (1, 5.34940862655639648438e+00) (2, -3.35325384140014648438e+00) (3, 4.86503458023071289062e+00) (4, 1.67124354839324951172e+00) (5, 8.87281322479248046875e+00) (6, 7.13626146316528320312e+00) (7, -8.90821397304534912109e-01) (8, -6.81398332118988037109e-01) (9, -6.53243255615234375000e+00) (10, 2.01032495498657226562e+00) (11, 1.15342748165130615234e+00) (12, -1.85300493240356445312e+00) 
