FANN_FLO_2.1
num_layers=3
learning_rate=0.500000
connection_rate=1.000000
network_type=0
learning_momentum=0.000000
training_algorithm=2
train_error_function=1
train_stop_function=0
cascade_output_change_fraction=0.010000
quickprop_decay=-0.000100
quickprop_mu=1.750000
rprop_increase_factor=1.200000
rprop_decrease_factor=0.500000
rprop_delta_min=0.000000
rprop_delta_max=50.000000
rprop_delta_zero=0.100000
cascade_output_stagnation_epochs=12
cascade_candidate_change_fraction=0.010000
cascade_candidate_stagnation_epochs=12
cascade_max_out_epochs=150
cascade_min_out_epochs=50
cascade_max_cand_epochs=150
cascade_min_cand_epochs=50
cascade_num_candidate_groups=2
bit_fail_limit=3.49999994039535522461e-01
cascade_candidate_limit=1.00000000000000000000e+03
cascade_weight_multiplier=4.00000005960464477539e-01
cascade_activation_functions_count=10
cascade_activation_functions=3 5 7 8 10 11 14 15 16 17 
cascade_activation_steepnesses_count=4
cascade_activation_steepnesses=2.50000000000000000000e-01 5.00000000000000000000e-01 7.50000000000000000000e-01 1.00000000000000000000e+00 
layer_sizes=6 5 2 
scale_included=0
neurons (num_inputs, activation_function, activation_steepness)=(0, 0, 0.00000000000000000000e+00) (0, 0, 0.00000000000000000000e+00) (0, 0, 0.00000000000000000000e+00) (0, 0, 0.00000000000000000000e+00) (0, 0, 0.00000000000000000000e+00) (0, 0, 0.00000000000000000000e+00) (6, 3, 5.00000000000000000000e-01) (6, 3, 5.00000000000000000000e-01) (6, 3, 5.00000000000000000000e-01) (6, 3, 5.00000000000000000000e-01) (0, 3, 0.00000000000000000000e+00) (5, 0, 5.00000000000000000000e-01) (0, 0, 0.00000000000000000000e+00) 
connections (connected_to_neuron, weight)=(0, -5.40040172636508941650e-02) (1, -1.65252871811389923096e-02) (2, 4.24618661403656005859e-01) (3, -4.11834150552749633789e-01) (4, -4.82670515775680541992e-01) (5, 2.88725256919860839844e-01) (0, 9.62077677249908447266e-01) (1, 3.37122249603271484375e+00) (2, -8.26530361175537109375e+00) (3, 1.94306576251983642578e+00) (4, 1.57909259796142578125e+01) (5, 3.34473800659179687500e+00) (0, -1.35960225015878677368e-02) (1, -3.86219054460525512695e-01) (2, 3.16491782665252685547e-01) (3, -3.60496252775192260742e-01) (4, -4.90977585315704345703e-01) (5, 1.86052665114402770996e-01) (0, 1.00236642360687255859e+00) (1, 4.51956892013549804688e+00) (2, -6.40312623977661132812e+00) (3, 2.09296951293945312500e+01) (4, 4.71839427947998046875e+00) (5, 3.37321162223815917969e+00) (6, 9.40378546714782714844e-01) (7, 1.11733150482177734375e+00) (8, 1.00754201412200927734e+00) (9, 1.07779073715209960938e+00) (10, 1.10481619834899902344e+00) 
