FANN_FLO_2.1
num_layers=3
learning_rate=0.500000
connection_rate=1.000000
network_type=0
learning_momentum=0.000000
training_algorithm=2
train_error_function=1
train_stop_function=0
cascade_output_change_fraction=0.010000
quickprop_decay=-0.000100
quickprop_mu=1.750000
rprop_increase_factor=1.200000
rprop_decrease_factor=0.500000
rprop_delta_min=0.000000
rprop_delta_max=50.000000
rprop_delta_zero=0.100000
cascade_output_stagnation_epochs=12
cascade_candidate_change_fraction=0.010000
cascade_candidate_stagnation_epochs=12
cascade_max_out_epochs=150
cascade_min_out_epochs=50
cascade_max_cand_epochs=150
cascade_min_cand_epochs=50
cascade_num_candidate_groups=2
bit_fail_limit=3.49999994039535522461e-01
cascade_candidate_limit=1.00000000000000000000e+03
cascade_weight_multiplier=4.00000005960464477539e-01
cascade_activation_functions_count=10
cascade_activation_functions=3 5 7 8 10 11 14 15 16 17 
cascade_activation_steepnesses_count=4
cascade_activation_steepnesses=2.50000000000000000000e-01 5.00000000000000000000e-01 7.50000000000000000000e-01 1.00000000000000000000e+00 
layer_sizes=10 3 2 
scale_included=0
neurons (num_inputs, activation_function, activation_steepness)=(0, 0, 0.00000000000000000000e+00) (0, 0, 0.00000000000000000000e+00) (0, 0, 0.00000000000000000000e+00) (0, 0, 0.00000000000000000000e+00) (0, 0, 0.00000000000000000000e+00) (0, 0, 0.00000000000000000000e+00) (0, 0, 0.00000000000000000000e+00) (0, 0, 0.00000000000000000000e+00) (0, 0, 0.00000000000000000000e+00) (0, 0, 0.00000000000000000000e+00) (10, 3, 5.00000000000000000000e-01) (10, 3, 5.00000000000000000000e-01) (0, 3, 0.00000000000000000000e+00) (3, 3, 5.00000000000000000000e-01) (0, 3, 0.00000000000000000000e+00) 
connections (connected_to_neuron, weight)=(0, -7.42473077774047851562e+00) (1, -1.10697278976440429688e+01) (2, -7.17168331146240234375e+00) (3, 6.47011089324951171875e+00) (4, -3.93656063079833984375e+00) (5, 4.00157690048217773438e-01) (6, 4.38601589202880859375e+00) (7, 1.25733890533447265625e+01) (8, 6.10205650329589843750e+00) (9, -2.85275530815124511719e+00) (0, 9.00093936920166015625e+00) (1, 1.86503410339355468750e+01) (2, 9.76477336883544921875e+00) (3, -5.08954095840454101562e+00) (4, -3.95309996604919433594e+00) (5, 2.76710748672485351562e+00) (6, -9.84965133666992187500e+00) (7, -1.55890455245971679688e+01) (8, -3.65797710418701171875e+00) (9, -4.69937753677368164062e+00) (10, 3.41978335380554199219e+00) (11, 3.48126697540283203125e+00) (12, -4.36004161834716796875e-01) 
