FANN_FLO_2.1
num_layers=3
learning_rate=0.500000
connection_rate=1.000000
network_type=0
learning_momentum=0.000000
training_algorithm=2
train_error_function=1
train_stop_function=0
cascade_output_change_fraction=0.010000
quickprop_decay=-0.000100
quickprop_mu=1.750000
rprop_increase_factor=1.200000
rprop_decrease_factor=0.500000
rprop_delta_min=0.000000
rprop_delta_max=50.000000
rprop_delta_zero=0.100000
cascade_output_stagnation_epochs=12
cascade_candidate_change_fraction=0.010000
cascade_candidate_stagnation_epochs=12
cascade_max_out_epochs=150
cascade_min_out_epochs=50
cascade_max_cand_epochs=150
cascade_min_cand_epochs=50
cascade_num_candidate_groups=2
bit_fail_limit=3.49999994039535522461e-01
cascade_candidate_limit=1.00000000000000000000e+03
cascade_weight_multiplier=4.00000005960464477539e-01
cascade_activation_functions_count=10
cascade_activation_functions=3 5 7 8 10 11 14 15 16 17 
cascade_activation_steepnesses_count=4
cascade_activation_steepnesses=2.50000000000000000000e-01 5.00000000000000000000e-01 7.50000000000000000000e-01 1.00000000000000000000e+00 
layer_sizes=6 5 2 
scale_included=0
neurons (num_inputs, activation_function, activation_steepness)=(0, 0, 0.00000000000000000000e+00) (0, 0, 0.00000000000000000000e+00) (0, 0, 0.00000000000000000000e+00) (0, 0, 0.00000000000000000000e+00) (0, 0, 0.00000000000000000000e+00) (0, 0, 0.00000000000000000000e+00) (6, 3, 5.00000000000000000000e-01) (6, 3, 5.00000000000000000000e-01) (6, 3, 5.00000000000000000000e-01) (6, 3, 5.00000000000000000000e-01) (0, 3, 0.00000000000000000000e+00) (5, 0, 5.00000000000000000000e-01) (0, 0, 0.00000000000000000000e+00) 
connections (connected_to_neuron, weight)=(0, 1.47751963138580322266e+00) (1, 2.80090975761413574219e+00) (2, 7.24108028411865234375e+00) (3, 2.35183453559875488281e+00) (4, -8.00561785697937011719e-01) (5, 1.79163289070129394531e+00) (0, -3.20797264575958251953e-01) (1, 7.97275900840759277344e-02) (2, -3.01789343357086181641e-01) (3, -1.10723547637462615967e-01) (4, 4.18614372611045837402e-02) (5, 2.22403973340988159180e-01) (0, 1.57202279567718505859e+00) (1, 3.41526031494140625000e+00) (2, -7.91911554336547851562e+00) (3, 4.31499385833740234375e+00) (4, -2.16748070716857910156e+00) (5, 1.70873868465423583984e+00) (0, 1.49836552143096923828e+00) (1, -5.49460124969482421875e+00) (2, 5.28638410568237304688e+00) (3, -7.61689996719360351562e+00) (4, 1.81766963005065917969e+00) (5, 1.73791027069091796875e+00) (6, 1.01180315017700195312e+00) (7, 8.66781294345855712891e-01) (8, 1.01673221588134765625e+00) (9, 1.01312589645385742188e+00) (10, 9.90128397941589355469e-01) 
