FANN_FLO_2.1
num_layers=3
learning_rate=0.500000
connection_rate=1.000000
network_type=0
learning_momentum=0.000000
training_algorithm=2
train_error_function=1
train_stop_function=0
cascade_output_change_fraction=0.010000
quickprop_decay=-0.000100
quickprop_mu=1.750000
rprop_increase_factor=1.200000
rprop_decrease_factor=0.500000
rprop_delta_min=0.000000
rprop_delta_max=50.000000
rprop_delta_zero=0.100000
cascade_output_stagnation_epochs=12
cascade_candidate_change_fraction=0.010000
cascade_candidate_stagnation_epochs=12
cascade_max_out_epochs=150
cascade_min_out_epochs=50
cascade_max_cand_epochs=150
cascade_min_cand_epochs=50
cascade_num_candidate_groups=2
bit_fail_limit=3.49999994039535522461e-01
cascade_candidate_limit=1.00000000000000000000e+03
cascade_weight_multiplier=4.00000005960464477539e-01
cascade_activation_functions_count=10
cascade_activation_functions=3 5 7 8 10 11 14 15 16 17 
cascade_activation_steepnesses_count=4
cascade_activation_steepnesses=2.50000000000000000000e-01 5.00000000000000000000e-01 7.50000000000000000000e-01 1.00000000000000000000e+00 
layer_sizes=10 5 2 
scale_included=0
neurons (num_inputs, activation_function, activation_steepness)=(0, 0, 0.00000000000000000000e+00) (0, 0, 0.00000000000000000000e+00) (0, 0, 0.00000000000000000000e+00) (0, 0, 0.00000000000000000000e+00) (0, 0, 0.00000000000000000000e+00) (0, 0, 0.00000000000000000000e+00) (0, 0, 0.00000000000000000000e+00) (0, 0, 0.00000000000000000000e+00) (0, 0, 0.00000000000000000000e+00) (0, 0, 0.00000000000000000000e+00) (10, 3, 5.00000000000000000000e-01) (10, 3, 5.00000000000000000000e-01) (10, 3, 5.00000000000000000000e-01) (10, 3, 5.00000000000000000000e-01) (0, 3, 0.00000000000000000000e+00) (5, 3, 5.00000000000000000000e-01) (0, 3, 0.00000000000000000000e+00) 
connections (connected_to_neuron, weight)=(0, 2.78683114051818847656e+00) (1, 1.38412532806396484375e+01) (2, 4.33067464828491210938e+00) (3, 1.75792407989501953125e+00) (4, -1.80331915616989135742e-01) (5, 1.13543176651000976562e+00) (6, -9.86212062835693359375e+00) (7, -1.34675073623657226562e+01) (8, -5.43816280364990234375e+00) (9, -2.46363326907157897949e-01) (0, -6.19554400444030761719e-01) (1, -5.31241607666015625000e+00) (2, 9.96653556823730468750e+00) (3, 1.60215473175048828125e+01) (4, 6.78724050521850585938e-01) (5, 2.90798902511596679688e+00) (6, 2.10438394546508789062e+00) (7, -1.65252721309661865234e+00) (8, 5.08074283599853515625e+00) (9, -8.80107212066650390625e+00) (0, 2.16185078024864196777e-01) (1, -9.06449508666992187500e+00) (2, 4.22623777389526367188e+00) (3, 1.41807794570922851562e+01) (4, -4.23948383331298828125e+00) (5, 1.02549161911010742188e+01) (6, 8.71054363250732421875e+00) (7, 8.74944567680358886719e-01) (8, 8.69829273223876953125e+00) (9, -9.88315391540527343750e+00) (0, -6.74027729034423828125e+00) (1, -1.63709106445312500000e+01) (2, -1.13993930816650390625e+01) (3, -9.47638332843780517578e-01) (4, 6.83116018772125244141e-01) (5, 3.50555688142776489258e-01) (6, 5.18219184875488281250e+00) (7, 2.17278671264648437500e+01) (8, 4.22512197494506835938e+00) (9, -1.50553011894226074219e+00) (10, 4.69773626327514648438e+00) (11, 1.29396367073059082031e+00) (12, 7.64517545700073242188e-01) (13, 3.56987357139587402344e+00) (14, -2.47715282440185546875e+00) 
