FANN_FLO_2.1
num_layers=3
learning_rate=0.500000
connection_rate=1.000000
network_type=0
learning_momentum=0.000000
training_algorithm=2
train_error_function=1
train_stop_function=0
cascade_output_change_fraction=0.010000
quickprop_decay=-0.000100
quickprop_mu=1.750000
rprop_increase_factor=1.200000
rprop_decrease_factor=0.500000
rprop_delta_min=0.000000
rprop_delta_max=50.000000
rprop_delta_zero=0.100000
cascade_output_stagnation_epochs=12
cascade_candidate_change_fraction=0.010000
cascade_candidate_stagnation_epochs=12
cascade_max_out_epochs=150
cascade_min_out_epochs=50
cascade_max_cand_epochs=150
cascade_min_cand_epochs=50
cascade_num_candidate_groups=2
bit_fail_limit=3.49999994039535522461e-01
cascade_candidate_limit=1.00000000000000000000e+03
cascade_weight_multiplier=4.00000005960464477539e-01
cascade_activation_functions_count=10
cascade_activation_functions=3 5 7 8 10 11 14 15 16 17 
cascade_activation_steepnesses_count=4
cascade_activation_steepnesses=2.50000000000000000000e-01 5.00000000000000000000e-01 7.50000000000000000000e-01 1.00000000000000000000e+00 
layer_sizes=6 5 2 
scale_included=0
neurons (num_inputs, activation_function, activation_steepness)=(0, 0, 0.00000000000000000000e+00) (0, 0, 0.00000000000000000000e+00) (0, 0, 0.00000000000000000000e+00) (0, 0, 0.00000000000000000000e+00) (0, 0, 0.00000000000000000000e+00) (0, 0, 0.00000000000000000000e+00) (6, 3, 5.00000000000000000000e-01) (6, 3, 5.00000000000000000000e-01) (6, 3, 5.00000000000000000000e-01) (6, 3, 5.00000000000000000000e-01) (0, 3, 0.00000000000000000000e+00) (5, 0, 5.00000000000000000000e-01) (0, 0, 0.00000000000000000000e+00) 
connections (connected_to_neuron, weight)=(0, 1.28909456729888916016e+00) (1, 9.52382850646972656250e+00) (2, -1.26828136444091796875e+01) (3, 2.36184096336364746094e+00) (4, 4.41773319244384765625e+00) (5, 3.54351663589477539062e+00) (0, -5.57521767914295196533e-02) (1, -3.45663446933031082153e-03) (2, 2.58259242400527000427e-03) (3, -1.91138833761215209961e-01) (4, 3.31022590398788452148e-01) (5, 3.99399906396865844727e-01) (0, 2.27230012416839599609e-01) (1, -4.05262202024459838867e-01) (2, 5.45347392559051513672e-01) (3, 6.04528069496154785156e-01) (4, -1.01052904129028320312e+00) (5, 4.02800530195236206055e-01) (0, -1.74273312091827392578e-01) (1, -6.58350735902786254883e-02) (2, -1.35433420538902282715e-01) (3, -2.00412839651107788086e-01) (4, 1.98201209306716918945e-01) (5, 2.36751526594161987305e-01) (6, 1.26687800884246826172e+00) (7, 1.14258575439453125000e+00) (8, 1.09408247470855712891e+00) (9, 1.13496172428131103516e+00) (10, 1.12078809738159179688e+00) 
