FANN_FLO_2.1
num_layers=3
learning_rate=0.500000
connection_rate=1.000000
network_type=0
learning_momentum=0.000000
training_algorithm=2
train_error_function=1
train_stop_function=0
cascade_output_change_fraction=0.010000
quickprop_decay=-0.000100
quickprop_mu=1.750000
rprop_increase_factor=1.200000
rprop_decrease_factor=0.500000
rprop_delta_min=0.000000
rprop_delta_max=50.000000
rprop_delta_zero=0.100000
cascade_output_stagnation_epochs=12
cascade_candidate_change_fraction=0.010000
cascade_candidate_stagnation_epochs=12
cascade_max_out_epochs=150
cascade_min_out_epochs=50
cascade_max_cand_epochs=150
cascade_min_cand_epochs=50
cascade_num_candidate_groups=2
bit_fail_limit=3.49999994039535522461e-01
cascade_candidate_limit=1.00000000000000000000e+03
cascade_weight_multiplier=4.00000005960464477539e-01
cascade_activation_functions_count=10
cascade_activation_functions=3 5 7 8 10 11 14 15 16 17 
cascade_activation_steepnesses_count=4
cascade_activation_steepnesses=2.50000000000000000000e-01 5.00000000000000000000e-01 7.50000000000000000000e-01 1.00000000000000000000e+00 
layer_sizes=10 5 2 
scale_included=0
neurons (num_inputs, activation_function, activation_steepness)=(0, 0, 0.00000000000000000000e+00) (0, 0, 0.00000000000000000000e+00) (0, 0, 0.00000000000000000000e+00) (0, 0, 0.00000000000000000000e+00) (0, 0, 0.00000000000000000000e+00) (0, 0, 0.00000000000000000000e+00) (0, 0, 0.00000000000000000000e+00) (0, 0, 0.00000000000000000000e+00) (0, 0, 0.00000000000000000000e+00) (0, 0, 0.00000000000000000000e+00) (10, 3, 5.00000000000000000000e-01) (10, 3, 5.00000000000000000000e-01) (10, 3, 5.00000000000000000000e-01) (10, 3, 5.00000000000000000000e-01) (0, 3, 0.00000000000000000000e+00) (5, 3, 5.00000000000000000000e-01) (0, 3, 0.00000000000000000000e+00) 
connections (connected_to_neuron, weight)=(0, 8.72731304168701171875e+00) (1, 5.95719337463378906250e+00) (2, -5.68910725414752960205e-02) (3, 9.73252296447753906250e+00) (4, 1.91990897059440612793e-01) (5, -7.39755916595458984375e+00) (6, -3.20911705493927001953e-02) (7, -4.54191541671752929688e+00) (8, -8.59903335571289062500e+00) (9, 4.14949953556060791016e-01) (0, 3.21316266059875488281e+00) (1, 8.17706394195556640625e+00) (2, 7.44620943069458007812e+00) (3, -7.12015628814697265625e-01) (4, 4.87651526927947998047e-01) (5, 2.97437310218811035156e+00) (6, -1.07724075317382812500e+01) (7, -1.08653755187988281250e+01) (8, -4.24034929275512695312e+00) (9, -8.50516736507415771484e-01) (0, 5.24043607711791992188e+00) (1, -3.05117797851562500000e+00) (2, -7.71051883697509765625e+00) (3, 8.56215095520019531250e+00) (4, 5.23697175085544586182e-02) (5, -1.11954040527343750000e+01) (6, 3.60172247886657714844e+00) (7, 4.93754816055297851562e+00) (8, -5.63116073608398437500e+00) (9, -1.03815153241157531738e-01) (0, -1.56499195098876953125e+00) (1, 4.70843434333801269531e-01) (2, 1.68376100063323974609e+00) (3, -5.29031455516815185547e-01) (4, 5.16888983547687530518e-02) (5, 3.98568487167358398438e+00) (6, 8.80780601501464843750e+00) (7, 2.61747932434082031250e+00) (8, 2.87995028495788574219e+00) (9, -7.17442893981933593750e+00) (10, -4.50581169128417968750e+00) (11, 6.32662868499755859375e+00) (12, 5.97361087799072265625e+00) (13, 3.10680675506591796875e+00) (14, 6.52920268476009368896e-03) 
