FANN_FLO_2.1
num_layers=3
learning_rate=0.500000
connection_rate=1.000000
network_type=0
learning_momentum=0.000000
training_algorithm=2
train_error_function=1
train_stop_function=0
cascade_output_change_fraction=0.010000
quickprop_decay=-0.000100
quickprop_mu=1.750000
rprop_increase_factor=1.200000
rprop_decrease_factor=0.500000
rprop_delta_min=0.000000
rprop_delta_max=50.000000
rprop_delta_zero=0.100000
cascade_output_stagnation_epochs=12
cascade_candidate_change_fraction=0.010000
cascade_candidate_stagnation_epochs=12
cascade_max_out_epochs=150
cascade_min_out_epochs=50
cascade_max_cand_epochs=150
cascade_min_cand_epochs=50
cascade_num_candidate_groups=2
bit_fail_limit=3.49999994039535522461e-01
cascade_candidate_limit=1.00000000000000000000e+03
cascade_weight_multiplier=4.00000005960464477539e-01
cascade_activation_functions_count=10
cascade_activation_functions=3 5 7 8 10 11 14 15 16 17 
cascade_activation_steepnesses_count=4
cascade_activation_steepnesses=2.50000000000000000000e-01 5.00000000000000000000e-01 7.50000000000000000000e-01 1.00000000000000000000e+00 
layer_sizes=10 5 2 
scale_included=0
neurons (num_inputs, activation_function, activation_steepness)=(0, 0, 0.00000000000000000000e+00) (0, 0, 0.00000000000000000000e+00) (0, 0, 0.00000000000000000000e+00) (0, 0, 0.00000000000000000000e+00) (0, 0, 0.00000000000000000000e+00) (0, 0, 0.00000000000000000000e+00) (0, 0, 0.00000000000000000000e+00) (0, 0, 0.00000000000000000000e+00) (0, 0, 0.00000000000000000000e+00) (0, 0, 0.00000000000000000000e+00) (10, 3, 5.00000000000000000000e-01) (10, 3, 5.00000000000000000000e-01) (10, 3, 5.00000000000000000000e-01) (10, 3, 5.00000000000000000000e-01) (0, 3, 0.00000000000000000000e+00) (5, 3, 5.00000000000000000000e-01) (0, 3, 0.00000000000000000000e+00) 
connections (connected_to_neuron, weight)=(0, 7.86963176727294921875e+00) (1, 9.50410747528076171875e+00) (2, -9.57695662975311279297e-01) (3, 6.30924797058105468750e+00) (4, 5.59982657432556152344e-01) (5, -7.13704729080200195312e+00) (6, -1.04393529891967773438e+00) (7, -9.64439201354980468750e+00) (8, -7.72076177597045898438e+00) (9, -1.40944850444793701172e+00) (0, -2.21246433258056640625e+01) (1, -5.43876914978027343750e+01) (2, -1.79731788635253906250e+01) (3, 1.27255535125732421875e+01) (4, 2.19382977485656738281e+00) (5, -8.50995481014251708984e-02) (6, 1.58531961441040039062e+01) (7, 4.46937332153320312500e+01) (8, 1.61194972991943359375e+01) (9, -6.08009338378906250000e+00) (0, 2.78298473358154296875e+00) (1, -8.23465824127197265625e+00) (2, 8.30945110321044921875e+00) (3, 1.18268432617187500000e+01) (4, -5.49507021903991699219e-01) (5, 1.19919662475585937500e+01) (6, 4.91237688064575195312e+00) (7, 7.41504096984863281250e+00) (8, -1.13735198974609375000e+01) (9, -8.62863922119140625000e+00) (0, -1.03721227645874023438e+01) (1, 4.70564079284667968750e+00) (2, 1.00174427032470703125e+01) (3, -2.83251628875732421875e+01) (4, 1.62974107265472412109e+00) (5, 1.58722181320190429688e+01) (6, -8.11512088775634765625e+00) (7, -1.56926572322845458984e+00) (8, 1.27170953750610351562e+01) (9, -2.51837944984436035156e+00) (10, 4.72043228149414062500e+00) (11, 3.05616259574890136719e+00) (12, 1.32612323760986328125e+00) (13, 3.64792966842651367188e+00) (14, -2.65616393089294433594e+00) 
