FANN_FLO_2.1
num_layers=3
learning_rate=0.500000
connection_rate=1.000000
network_type=0
learning_momentum=0.000000
training_algorithm=2
train_error_function=1
train_stop_function=0
cascade_output_change_fraction=0.010000
quickprop_decay=-0.000100
quickprop_mu=1.750000
rprop_increase_factor=1.200000
rprop_decrease_factor=0.500000
rprop_delta_min=0.000000
rprop_delta_max=50.000000
rprop_delta_zero=0.100000
cascade_output_stagnation_epochs=12
cascade_candidate_change_fraction=0.010000
cascade_candidate_stagnation_epochs=12
cascade_max_out_epochs=150
cascade_min_out_epochs=50
cascade_max_cand_epochs=150
cascade_min_cand_epochs=50
cascade_num_candidate_groups=2
bit_fail_limit=3.49999994039535522461e-01
cascade_candidate_limit=1.00000000000000000000e+03
cascade_weight_multiplier=4.00000005960464477539e-01
cascade_activation_functions_count=10
cascade_activation_functions=3 5 7 8 10 11 14 15 16 17 
cascade_activation_steepnesses_count=4
cascade_activation_steepnesses=2.50000000000000000000e-01 5.00000000000000000000e-01 7.50000000000000000000e-01 1.00000000000000000000e+00 
layer_sizes=6 5 2 
scale_included=0
neurons (num_inputs, activation_function, activation_steepness)=(0, 0, 0.00000000000000000000e+00) (0, 0, 0.00000000000000000000e+00) (0, 0, 0.00000000000000000000e+00) (0, 0, 0.00000000000000000000e+00) (0, 0, 0.00000000000000000000e+00) (0, 0, 0.00000000000000000000e+00) (6, 3, 5.00000000000000000000e-01) (6, 3, 5.00000000000000000000e-01) (6, 3, 5.00000000000000000000e-01) (6, 3, 5.00000000000000000000e-01) (0, 3, 0.00000000000000000000e+00) (5, 0, 5.00000000000000000000e-01) (0, 0, 0.00000000000000000000e+00) 
connections (connected_to_neuron, weight)=(0, -1.04035958647727966309e-01) (1, 7.31574092060327529907e-03) (2, -1.13823652267456054688e-01) (3, 6.62649348378181457520e-02) (4, 2.88312107324600219727e-01) (5, 2.47337967157363891602e-01) (0, 1.15710639953613281250e+00) (1, -3.46857309341430664062e+00) (2, 7.64710330963134765625e+00) (3, -4.69185781478881835938e+00) (4, 3.46803760528564453125e+00) (5, 2.52611565589904785156e+00) (0, 1.30900859832763671875e+00) (1, -5.15358257293701171875e+00) (2, 1.87738931179046630859e+00) (3, 1.68895184993743896484e+00) (4, -1.60122413635253906250e+01) (5, 2.89001202583312988281e+00) (0, 3.24407359585165977478e-03) (1, 2.64262020587921142578e-01) (2, -6.51187419891357421875e-01) (3, 2.22888767719268798828e-01) (4, 1.68318271636962890625e-01) (5, 3.06382417678833007812e-01) (6, 9.84799683094024658203e-01) (7, 1.14792263507843017578e+00) (8, 1.13913762569427490234e+00) (9, 9.63910520076751708984e-01) (10, 1.01599788665771484375e+00) 
