FANN_FLO_2.1
num_layers=3
learning_rate=0.500000
connection_rate=1.000000
network_type=0
learning_momentum=0.000000
training_algorithm=2
train_error_function=1
train_stop_function=0
cascade_output_change_fraction=0.010000
quickprop_decay=-0.000100
quickprop_mu=1.750000
rprop_increase_factor=1.200000
rprop_decrease_factor=0.500000
rprop_delta_min=0.000000
rprop_delta_max=50.000000
rprop_delta_zero=0.100000
cascade_output_stagnation_epochs=12
cascade_candidate_change_fraction=0.010000
cascade_candidate_stagnation_epochs=12
cascade_max_out_epochs=150
cascade_min_out_epochs=50
cascade_max_cand_epochs=150
cascade_min_cand_epochs=50
cascade_num_candidate_groups=2
bit_fail_limit=3.49999994039535522461e-01
cascade_candidate_limit=1.00000000000000000000e+03
cascade_weight_multiplier=4.00000005960464477539e-01
cascade_activation_functions_count=10
cascade_activation_functions=3 5 7 8 10 11 14 15 16 17 
cascade_activation_steepnesses_count=4
cascade_activation_steepnesses=2.50000000000000000000e-01 5.00000000000000000000e-01 7.50000000000000000000e-01 1.00000000000000000000e+00 
layer_sizes=10 5 2 
scale_included=0
neurons (num_inputs, activation_function, activation_steepness)=(0, 0, 0.00000000000000000000e+00) (0, 0, 0.00000000000000000000e+00) (0, 0, 0.00000000000000000000e+00) (0, 0, 0.00000000000000000000e+00) (0, 0, 0.00000000000000000000e+00) (0, 0, 0.00000000000000000000e+00) (0, 0, 0.00000000000000000000e+00) (0, 0, 0.00000000000000000000e+00) (0, 0, 0.00000000000000000000e+00) (0, 0, 0.00000000000000000000e+00) (10, 3, 5.00000000000000000000e-01) (10, 3, 5.00000000000000000000e-01) (10, 3, 5.00000000000000000000e-01) (10, 3, 5.00000000000000000000e-01) (0, 3, 0.00000000000000000000e+00) (5, 3, 5.00000000000000000000e-01) (0, 3, 0.00000000000000000000e+00) 
connections (connected_to_neuron, weight)=(0, 1.31705341339111328125e+01) (1, 2.06484103202819824219e+00) (2, -6.44612789154052734375e+00) (3, 1.83276042938232421875e+01) (4, -4.94316220283508300781e-01) (5, -1.91615180969238281250e+01) (6, 6.50408554077148437500e+00) (7, -6.44622898101806640625e+00) (8, -1.84395897388458251953e+00) (9, -1.53896376490592956543e-01) (0, 8.32176148891448974609e-01) (1, -1.41328161621093750000e+03) (2, -8.50149393081665039062e-01) (3, 1.50000000000000000000e+03) (4, 2.56971216201782226562e+00) (5, 1.50000000000000000000e+03) (6, 1.50000000000000000000e+03) (7, 1.47634484863281250000e+03) (8, 1.50000000000000000000e+03) (9, 1.10849082469940185547e+00) (0, -8.78320312500000000000e+00) (1, -4.40269851684570312500e+00) (2, 5.32800817489624023438e+00) (3, -2.00862350463867187500e+01) (4, -1.82941710948944091797e+00) (5, 2.15817108154296875000e+01) (6, -2.52324986457824707031e+00) (7, 4.55595350265502929688e+00) (8, 1.64987621307373046875e+01) (9, -1.27665388584136962891e+00) (0, 3.23048853874206542969e+00) (1, 3.44566965103149414062e+00) (2, -2.44703311473131179810e-02) (3, 3.97172451019287109375e+00) (4, 8.94361078739166259766e-01) (5, -4.26792442798614501953e-01) (6, 4.84066665172576904297e-01) (7, 3.87049221992492675781e+00) (8, 5.17260980606079101562e+00) (9, -5.67778205871582031250e+00) (10, -3.07617592811584472656e+00) (11, 1.69941735267639160156e+00) (12, -2.71443867683410644531e+00) (13, 3.34332418441772460938e+00) (14, 5.77228128910064697266e-01) 
