FANN_FLO_2.1
num_layers=3
learning_rate=0.500000
connection_rate=1.000000
network_type=0
learning_momentum=0.000000
training_algorithm=2
train_error_function=1
train_stop_function=0
cascade_output_change_fraction=0.010000
quickprop_decay=-0.000100
quickprop_mu=1.750000
rprop_increase_factor=1.200000
rprop_decrease_factor=0.500000
rprop_delta_min=0.000000
rprop_delta_max=50.000000
rprop_delta_zero=0.100000
cascade_output_stagnation_epochs=12
cascade_candidate_change_fraction=0.010000
cascade_candidate_stagnation_epochs=12
cascade_max_out_epochs=150
cascade_min_out_epochs=50
cascade_max_cand_epochs=150
cascade_min_cand_epochs=50
cascade_num_candidate_groups=2
bit_fail_limit=3.49999994039535522461e-01
cascade_candidate_limit=1.00000000000000000000e+03
cascade_weight_multiplier=4.00000005960464477539e-01
cascade_activation_functions_count=10
cascade_activation_functions=3 5 7 8 10 11 14 15 16 17 
cascade_activation_steepnesses_count=4
cascade_activation_steepnesses=2.50000000000000000000e-01 5.00000000000000000000e-01 7.50000000000000000000e-01 1.00000000000000000000e+00 
layer_sizes=10 5 2 
scale_included=0
neurons (num_inputs, activation_function, activation_steepness)=(0, 0, 0.00000000000000000000e+00) (0, 0, 0.00000000000000000000e+00) (0, 0, 0.00000000000000000000e+00) (0, 0, 0.00000000000000000000e+00) (0, 0, 0.00000000000000000000e+00) (0, 0, 0.00000000000000000000e+00) (0, 0, 0.00000000000000000000e+00) (0, 0, 0.00000000000000000000e+00) (0, 0, 0.00000000000000000000e+00) (0, 0, 0.00000000000000000000e+00) (10, 3, 5.00000000000000000000e-01) (10, 3, 5.00000000000000000000e-01) (10, 3, 5.00000000000000000000e-01) (10, 3, 5.00000000000000000000e-01) (0, 3, 0.00000000000000000000e+00) (5, 3, 5.00000000000000000000e-01) (0, 3, 0.00000000000000000000e+00) 
connections (connected_to_neuron, weight)=(0, 1.15322389602661132812e+01) (1, -1.26556577682495117188e+01) (2, 6.47337293624877929688e+00) (3, -1.25624542236328125000e+01) (4, -2.31492280960083007812e+00) (5, -6.04500484466552734375e+00) (6, -4.43590784072875976562e+00) (7, 2.06850194931030273438e+00) (8, -5.71575975418090820312e+00) (9, 1.34518365859985351562e+01) (0, -3.00953364372253417969e+00) (1, 5.21147394180297851562e+00) (2, 8.61534690856933593750e+00) (3, 2.27564668655395507812e+00) (4, 1.51678395271301269531e+00) (5, 6.08336591720581054688e+00) (6, 5.83802223205566406250e+00) (7, 1.11825199127197265625e+01) (8, -3.07069349288940429688e+00) (9, -1.01174077987670898438e+01) (0, 1.23623323440551757812e+00) (1, 6.13327920436859130859e-01) (2, 8.37409400939941406250e+00) (3, 7.23405790328979492188e+00) (4, 1.71734011173248291016e+00) (5, 7.37685155868530273438e+00) (6, 5.91429948806762695312e+00) (7, 2.02970719337463378906e+00) (8, -1.48890244960784912109e+00) (9, -1.04418392181396484375e+01) (0, 1.67422885894775390625e+01) (1, -1.92073516845703125000e+01) (2, 1.62604122161865234375e+01) (3, -5.86803674697875976562e+00) (4, 2.39679232239723205566e-01) (5, 1.05389804840087890625e+01) (6, 5.20491361618041992188e+00) (7, 9.97229957580566406250e+00) (8, -8.85909271240234375000e+00) (9, -3.69749331474304199219e+00) (10, 1.35747718811035156250e+00) (11, 6.61311805248260498047e-01) (12, 1.78395676612854003906e+00) (13, 1.59257113933563232422e-01) (14, -1.98313522338867187500e+00) 
