FANN_FLO_2.1
num_layers=3
learning_rate=0.500000
connection_rate=1.000000
network_type=0
learning_momentum=0.000000
training_algorithm=2
train_error_function=1
train_stop_function=0
cascade_output_change_fraction=0.010000
quickprop_decay=-0.000100
quickprop_mu=1.750000
rprop_increase_factor=1.200000
rprop_decrease_factor=0.500000
rprop_delta_min=0.000000
rprop_delta_max=50.000000
rprop_delta_zero=0.100000
cascade_output_stagnation_epochs=12
cascade_candidate_change_fraction=0.010000
cascade_candidate_stagnation_epochs=12
cascade_max_out_epochs=150
cascade_min_out_epochs=50
cascade_max_cand_epochs=150
cascade_min_cand_epochs=50
cascade_num_candidate_groups=2
bit_fail_limit=3.49999994039535522461e-01
cascade_candidate_limit=1.00000000000000000000e+03
cascade_weight_multiplier=4.00000005960464477539e-01
cascade_activation_functions_count=10
cascade_activation_functions=3 5 7 8 10 11 14 15 16 17 
cascade_activation_steepnesses_count=4
cascade_activation_steepnesses=2.50000000000000000000e-01 5.00000000000000000000e-01 7.50000000000000000000e-01 1.00000000000000000000e+00 
layer_sizes=10 5 2 
scale_included=0
neurons (num_inputs, activation_function, activation_steepness)=(0, 0, 0.00000000000000000000e+00) (0, 0, 0.00000000000000000000e+00) (0, 0, 0.00000000000000000000e+00) (0, 0, 0.00000000000000000000e+00) (0, 0, 0.00000000000000000000e+00) (0, 0, 0.00000000000000000000e+00) (0, 0, 0.00000000000000000000e+00) (0, 0, 0.00000000000000000000e+00) (0, 0, 0.00000000000000000000e+00) (0, 0, 0.00000000000000000000e+00) (10, 3, 5.00000000000000000000e-01) (10, 3, 5.00000000000000000000e-01) (10, 3, 5.00000000000000000000e-01) (10, 3, 5.00000000000000000000e-01) (0, 3, 0.00000000000000000000e+00) (5, 3, 5.00000000000000000000e-01) (0, 3, 0.00000000000000000000e+00) 
connections (connected_to_neuron, weight)=(0, 4.74038982391357421875e+00) (1, -4.06794452667236328125e+00) (2, -3.98922395706176757812e+00) (3, 1.42270975112915039062e+01) (4, 3.17253828048706054688e+00) (5, 1.05242767333984375000e+01) (6, -3.64579844474792480469e+00) (7, -6.35840654373168945312e+00) (8, 1.57831172943115234375e+01) (9, -7.67762851715087890625e+00) (0, 5.01863431930541992188e+00) (1, 2.52546489238739013672e-01) (2, -7.46447682380676269531e-01) (3, 1.36862316131591796875e+01) (4, -8.70447254180908203125e+00) (5, 2.53857784271240234375e+01) (6, 7.81134319305419921875e+00) (7, 1.40351995825767517090e-01) (8, -5.44925308227539062500e+00) (9, -1.09344615936279296875e+01) (0, 3.02240924835205078125e+01) (1, -1.61198539733886718750e+01) (2, 8.09106230735778808594e-01) (3, -2.31266746520996093750e+01) (4, 1.21576566696166992188e+01) (5, -5.00591754913330078125e+00) (6, -2.21462893486022949219e+00) (7, 2.02704024314880371094e+00) (8, 1.23553066253662109375e+01) (9, 3.38476967811584472656e+00) (0, 6.79187917709350585938e+00) (1, 7.47098624706268310547e-01) (2, -4.74179029464721679688e+00) (3, 1.05817375183105468750e+01) (4, -1.02066698074340820312e+01) (5, 1.47673931121826171875e+01) (6, 7.43328571319580078125e-01) (7, -2.22441506385803222656e+00) (8, 1.51925325393676757812e+01) (9, -7.64724540710449218750e+00) (10, 5.32729148864746093750e-01) (11, 1.15296840667724609375e+00) (12, 1.79014360904693603516e+00) (13, 7.25237548351287841797e-01) (14, -2.62255716323852539062e+00) 
