FANN_FLO_2.1
num_layers=3
learning_rate=0.500000
connection_rate=1.000000
network_type=0
learning_momentum=0.000000
training_algorithm=2
train_error_function=1
train_stop_function=0
cascade_output_change_fraction=0.010000
quickprop_decay=-0.000100
quickprop_mu=1.750000
rprop_increase_factor=1.200000
rprop_decrease_factor=0.500000
rprop_delta_min=0.000000
rprop_delta_max=50.000000
rprop_delta_zero=0.100000
cascade_output_stagnation_epochs=12
cascade_candidate_change_fraction=0.010000
cascade_candidate_stagnation_epochs=12
cascade_max_out_epochs=150
cascade_min_out_epochs=50
cascade_max_cand_epochs=150
cascade_min_cand_epochs=50
cascade_num_candidate_groups=2
bit_fail_limit=3.49999994039535522461e-01
cascade_candidate_limit=1.00000000000000000000e+03
cascade_weight_multiplier=4.00000005960464477539e-01
cascade_activation_functions_count=10
cascade_activation_functions=3 5 7 8 10 11 14 15 16 17 
cascade_activation_steepnesses_count=4
cascade_activation_steepnesses=2.50000000000000000000e-01 5.00000000000000000000e-01 7.50000000000000000000e-01 1.00000000000000000000e+00 
layer_sizes=10 3 2 
scale_included=0
neurons (num_inputs, activation_function, activation_steepness)=(0, 0, 0.00000000000000000000e+00) (0, 0, 0.00000000000000000000e+00) (0, 0, 0.00000000000000000000e+00) (0, 0, 0.00000000000000000000e+00) (0, 0, 0.00000000000000000000e+00) (0, 0, 0.00000000000000000000e+00) (0, 0, 0.00000000000000000000e+00) (0, 0, 0.00000000000000000000e+00) (0, 0, 0.00000000000000000000e+00) (0, 0, 0.00000000000000000000e+00) (10, 3, 5.00000000000000000000e-01) (10, 3, 5.00000000000000000000e-01) (0, 3, 0.00000000000000000000e+00) (3, 3, 5.00000000000000000000e-01) (0, 3, 0.00000000000000000000e+00) 
connections (connected_to_neuron, weight)=(0, 3.60610699653625488281e+00) (1, 1.13143930435180664062e+01) (2, 1.34254226684570312500e+01) (3, 8.28110408782958984375e+00) (4, 9.92906272411346435547e-01) (5, 1.13330106735229492188e+01) (6, -6.74663352966308593750e+00) (7, -2.13746566772460937500e+01) (8, 6.44624090194702148438e+00) (9, -8.95699501037597656250e+00) (0, -2.19378495216369628906e+00) (1, -1.01140594482421875000e+01) (2, -7.49598503112792968750e+00) (3, 1.72770276665687561035e-01) (4, -1.47847735881805419922e+00) (5, -4.36745214462280273438e+00) (6, 5.33546495437622070312e+00) (7, 1.31221427917480468750e+01) (8, 6.40673279762268066406e-01) (9, -6.18151903152465820312e-01) (10, 2.66350507736206054688e+00) (11, 5.75490474700927734375e+00) (12, -1.55780637264251708984e+00) 
