FANN_FLO_2.1
num_layers=3
learning_rate=0.500000
connection_rate=1.000000
network_type=0
learning_momentum=0.000000
training_algorithm=2
train_error_function=1
train_stop_function=0
cascade_output_change_fraction=0.010000
quickprop_decay=-0.000100
quickprop_mu=1.750000
rprop_increase_factor=1.200000
rprop_decrease_factor=0.500000
rprop_delta_min=0.000000
rprop_delta_max=50.000000
rprop_delta_zero=0.100000
cascade_output_stagnation_epochs=12
cascade_candidate_change_fraction=0.010000
cascade_candidate_stagnation_epochs=12
cascade_max_out_epochs=150
cascade_min_out_epochs=50
cascade_max_cand_epochs=150
cascade_min_cand_epochs=50
cascade_num_candidate_groups=2
bit_fail_limit=3.49999994039535522461e-01
cascade_candidate_limit=1.00000000000000000000e+03
cascade_weight_multiplier=4.00000005960464477539e-01
cascade_activation_functions_count=10
cascade_activation_functions=3 5 7 8 10 11 14 15 16 17 
cascade_activation_steepnesses_count=4
cascade_activation_steepnesses=2.50000000000000000000e-01 5.00000000000000000000e-01 7.50000000000000000000e-01 1.00000000000000000000e+00 
layer_sizes=10 5 2 
scale_included=0
neurons (num_inputs, activation_function, activation_steepness)=(0, 0, 0.00000000000000000000e+00) (0, 0, 0.00000000000000000000e+00) (0, 0, 0.00000000000000000000e+00) (0, 0, 0.00000000000000000000e+00) (0, 0, 0.00000000000000000000e+00) (0, 0, 0.00000000000000000000e+00) (0, 0, 0.00000000000000000000e+00) (0, 0, 0.00000000000000000000e+00) (0, 0, 0.00000000000000000000e+00) (0, 0, 0.00000000000000000000e+00) (10, 3, 5.00000000000000000000e-01) (10, 3, 5.00000000000000000000e-01) (10, 3, 5.00000000000000000000e-01) (10, 3, 5.00000000000000000000e-01) (0, 3, 0.00000000000000000000e+00) (5, 3, 5.00000000000000000000e-01) (0, 3, 0.00000000000000000000e+00) 
connections (connected_to_neuron, weight)=(0, -9.21877384185791015625e+00) (1, -9.96269798278808593750e+00) (2, 3.87257456779479980469e+00) (3, -1.60915088653564453125e+01) (4, 6.13876461982727050781e-01) (5, 1.34217214584350585938e+01) (6, -2.97056937217712402344e+00) (7, 8.65868854522705078125e+00) (8, 9.75467967987060546875e+00) (9, -2.62278842926025390625e+00) (0, 4.20970678329467773438e+00) (1, -1.45272045135498046875e+01) (2, -1.59779663085937500000e+01) (3, 2.04358444213867187500e+01) (4, -3.50422477722167968750e+00) (5, -1.51210689544677734375e+01) (6, 1.30884475708007812500e+01) (7, 1.35955629348754882812e+01) (8, -5.18996715545654296875e+00) (9, -3.52585220336914062500e+00) (0, 7.10293197631835937500e+00) (1, 1.62240238189697265625e+01) (2, 8.48544311523437500000e+00) (3, 1.57512462139129638672e+00) (4, 3.21597099304199218750e-01) (5, -1.51232886314392089844e+00) (6, -7.25928497314453125000e+00) (7, -1.71967334747314453125e+01) (8, -7.09765672683715820312e+00) (9, -3.29334712028503417969e+00) (0, 2.63080239295959472656e+00) (1, -4.72598600387573242188e+00) (2, -1.43810882568359375000e+01) (3, 9.07250118255615234375e+00) (4, 7.77314543724060058594e-01) (5, -1.26180684566497802734e+00) (6, 2.13871231079101562500e+01) (7, 2.73484635353088378906e+00) (8, -4.78134489059448242188e+00) (9, -6.18880224227905273438e+00) (10, 4.52214097976684570312e+00) (11, 4.01482963562011718750e+00) (12, 4.50863742828369140625e+00) (13, 6.36551260948181152344e-01) (14, -1.82427024841308593750e+00) 
