FANN_FLO_2.1
num_layers=3
learning_rate=0.500000
connection_rate=1.000000
network_type=0
learning_momentum=0.000000
training_algorithm=2
train_error_function=1
train_stop_function=0
cascade_output_change_fraction=0.010000
quickprop_decay=-0.000100
quickprop_mu=1.750000
rprop_increase_factor=1.200000
rprop_decrease_factor=0.500000
rprop_delta_min=0.000000
rprop_delta_max=50.000000
rprop_delta_zero=0.100000
cascade_output_stagnation_epochs=12
cascade_candidate_change_fraction=0.010000
cascade_candidate_stagnation_epochs=12
cascade_max_out_epochs=150
cascade_min_out_epochs=50
cascade_max_cand_epochs=150
cascade_min_cand_epochs=50
cascade_num_candidate_groups=2
bit_fail_limit=3.49999994039535522461e-01
cascade_candidate_limit=1.00000000000000000000e+03
cascade_weight_multiplier=4.00000005960464477539e-01
cascade_activation_functions_count=10
cascade_activation_functions=3 5 7 8 10 11 14 15 16 17 
cascade_activation_steepnesses_count=4
cascade_activation_steepnesses=2.50000000000000000000e-01 5.00000000000000000000e-01 7.50000000000000000000e-01 1.00000000000000000000e+00 
layer_sizes=10 5 2 
scale_included=0
neurons (num_inputs, activation_function, activation_steepness)=(0, 0, 0.00000000000000000000e+00) (0, 0, 0.00000000000000000000e+00) (0, 0, 0.00000000000000000000e+00) (0, 0, 0.00000000000000000000e+00) (0, 0, 0.00000000000000000000e+00) (0, 0, 0.00000000000000000000e+00) (0, 0, 0.00000000000000000000e+00) (0, 0, 0.00000000000000000000e+00) (0, 0, 0.00000000000000000000e+00) (0, 0, 0.00000000000000000000e+00) (10, 3, 5.00000000000000000000e-01) (10, 3, 5.00000000000000000000e-01) (10, 3, 5.00000000000000000000e-01) (10, 3, 5.00000000000000000000e-01) (0, 3, 0.00000000000000000000e+00) (5, 3, 5.00000000000000000000e-01) (0, 3, 0.00000000000000000000e+00) 
connections (connected_to_neuron, weight)=(0, 3.75406408309936523438e+00) (1, 1.41121854782104492188e+01) (2, 1.00237150192260742188e+01) (3, -1.53867697715759277344e+00) (4, -4.29540812969207763672e-01) (5, 4.39739894866943359375e+00) (6, -1.03818140029907226562e+01) (7, -1.46782264709472656250e+01) (8, -6.19013071060180664062e+00) (9, -3.12968277931213378906e+00) (0, 1.18376369476318359375e+01) (1, -5.45729494094848632812e+00) (2, -1.58944110870361328125e+01) (3, 1.99345626831054687500e+01) (4, 3.76764369010925292969e+00) (5, -2.72285919189453125000e+01) (6, 1.75630321502685546875e+01) (7, 5.64919996261596679688e+00) (8, -6.31876039505004882812e+00) (9, -6.72281169891357421875e+00) (0, -1.16093339920043945312e+01) (1, -1.04305820465087890625e+01) (2, 3.04461538791656494141e-01) (3, -9.49017333984375000000e+00) (4, 1.03156375885009765625e+00) (5, 1.03976917266845703125e+01) (6, -1.09627163410186767578e+00) (7, 9.57560062408447265625e+00) (8, 9.96034717559814453125e+00) (9, -2.66713285446166992188e+00) (0, 2.56803073883056640625e+01) (1, 2.45401310920715332031e+00) (2, -1.23563539981842041016e+00) (3, 1.63752198219299316406e+00) (4, -9.91607093811035156250e+00) (5, -1.06660976409912109375e+01) (6, 1.45437679290771484375e+01) (7, 7.11918258666992187500e+00) (8, -2.94643378257751464844e+00) (9, -7.57099771499633789062e+00) (10, 4.49708127975463867188e+00) (11, 3.76284337043762207031e+00) (12, 4.61661529541015625000e+00) (13, 3.78295391798019409180e-01) (14, -1.71174144744873046875e+00) 
