FANN_FLO_2.1
num_layers=3
learning_rate=0.500000
connection_rate=1.000000
network_type=0
learning_momentum=0.000000
training_algorithm=2
train_error_function=1
train_stop_function=0
cascade_output_change_fraction=0.010000
quickprop_decay=-0.000100
quickprop_mu=1.750000
rprop_increase_factor=1.200000
rprop_decrease_factor=0.500000
rprop_delta_min=0.000000
rprop_delta_max=50.000000
rprop_delta_zero=0.100000
cascade_output_stagnation_epochs=12
cascade_candidate_change_fraction=0.010000
cascade_candidate_stagnation_epochs=12
cascade_max_out_epochs=150
cascade_min_out_epochs=50
cascade_max_cand_epochs=150
cascade_min_cand_epochs=50
cascade_num_candidate_groups=2
bit_fail_limit=3.49999994039535522461e-01
cascade_candidate_limit=1.00000000000000000000e+03
cascade_weight_multiplier=4.00000005960464477539e-01
cascade_activation_functions_count=10
cascade_activation_functions=3 5 7 8 10 11 14 15 16 17 
cascade_activation_steepnesses_count=4
cascade_activation_steepnesses=2.50000000000000000000e-01 5.00000000000000000000e-01 7.50000000000000000000e-01 1.00000000000000000000e+00 
layer_sizes=10 3 2 
scale_included=0
neurons (num_inputs, activation_function, activation_steepness)=(0, 0, 0.00000000000000000000e+00) (0, 0, 0.00000000000000000000e+00) (0, 0, 0.00000000000000000000e+00) (0, 0, 0.00000000000000000000e+00) (0, 0, 0.00000000000000000000e+00) (0, 0, 0.00000000000000000000e+00) (0, 0, 0.00000000000000000000e+00) (0, 0, 0.00000000000000000000e+00) (0, 0, 0.00000000000000000000e+00) (0, 0, 0.00000000000000000000e+00) (10, 3, 5.00000000000000000000e-01) (10, 3, 5.00000000000000000000e-01) (0, 3, 0.00000000000000000000e+00) (3, 3, 5.00000000000000000000e-01) (0, 3, 0.00000000000000000000e+00) 
connections (connected_to_neuron, weight)=(0, 8.34579467773437500000e+00) (1, -7.03742122650146484375e+00) (2, -8.90566781163215637207e-02) (3, -1.77624511718750000000e+01) (4, 1.13770440220832824707e-01) (5, -4.76177096366882324219e-01) (6, 4.95693397521972656250e+00) (7, 2.37193298339843750000e+00) (8, -6.55228805541992187500e+00) (9, 1.00534029006958007812e+01) (0, 6.02412700653076171875e+00) (1, 4.91326284408569335938e+00) (2, -2.85147571563720703125e+00) (3, 5.02216243743896484375e+00) (4, -5.86593675613403320312e+00) (5, 1.07426614761352539062e+01) (6, 6.72921657562255859375e+00) (7, 1.15403974056243896484e+00) (8, 5.18978691101074218750e+00) (9, -9.41105842590332031250e+00) (10, 1.24434781074523925781e+00) (11, 2.03192687034606933594e+00) (12, -1.54464542865753173828e+00) 
