FANN_FLO_2.1
num_layers=3
learning_rate=0.500000
connection_rate=1.000000
network_type=0
learning_momentum=0.000000
training_algorithm=2
train_error_function=1
train_stop_function=0
cascade_output_change_fraction=0.010000
quickprop_decay=-0.000100
quickprop_mu=1.750000
rprop_increase_factor=1.200000
rprop_decrease_factor=0.500000
rprop_delta_min=0.000000
rprop_delta_max=50.000000
rprop_delta_zero=0.100000
cascade_output_stagnation_epochs=12
cascade_candidate_change_fraction=0.010000
cascade_candidate_stagnation_epochs=12
cascade_max_out_epochs=150
cascade_min_out_epochs=50
cascade_max_cand_epochs=150
cascade_min_cand_epochs=50
cascade_num_candidate_groups=2
bit_fail_limit=3.49999994039535522461e-01
cascade_candidate_limit=1.00000000000000000000e+03
cascade_weight_multiplier=4.00000005960464477539e-01
cascade_activation_functions_count=10
cascade_activation_functions=3 5 7 8 10 11 14 15 16 17 
cascade_activation_steepnesses_count=4
cascade_activation_steepnesses=2.50000000000000000000e-01 5.00000000000000000000e-01 7.50000000000000000000e-01 1.00000000000000000000e+00 
layer_sizes=10 5 2 
scale_included=0
neurons (num_inputs, activation_function, activation_steepness)=(0, 0, 0.00000000000000000000e+00) (0, 0, 0.00000000000000000000e+00) (0, 0, 0.00000000000000000000e+00) (0, 0, 0.00000000000000000000e+00) (0, 0, 0.00000000000000000000e+00) (0, 0, 0.00000000000000000000e+00) (0, 0, 0.00000000000000000000e+00) (0, 0, 0.00000000000000000000e+00) (0, 0, 0.00000000000000000000e+00) (0, 0, 0.00000000000000000000e+00) (10, 3, 5.00000000000000000000e-01) (10, 3, 5.00000000000000000000e-01) (10, 3, 5.00000000000000000000e-01) (10, 3, 5.00000000000000000000e-01) (0, 3, 0.00000000000000000000e+00) (5, 3, 5.00000000000000000000e-01) (0, 3, 0.00000000000000000000e+00) 
connections (connected_to_neuron, weight)=(0, 6.83320474624633789062e+00) (1, 6.22666478157043457031e-01) (2, -5.20612430572509765625e+00) (3, 1.95691757202148437500e+01) (4, -1.59849047660827636719e+00) (5, -1.79548282623291015625e+01) (6, 3.95395803451538085938e+00) (7, -1.63538706302642822266e+00) (8, -7.80358934402465820312e+00) (9, -1.45576047897338867188e+00) (0, 2.41058659553527832031e+00) (1, 2.66134643554687500000e+00) (2, -2.98782229423522949219e+00) (3, 8.89574050903320312500e+00) (4, -9.83475297689437866211e-02) (5, -8.43371772766113281250e+00) (6, 3.76265788078308105469e+00) (7, 1.34014576673507690430e-01) (8, -3.10190081596374511719e+00) (9, -2.31781840324401855469e-01) (0, -3.77825999259948730469e+00) (1, 1.77071151733398437500e+01) (2, -5.72319841384887695312e+00) (3, 1.27862405776977539062e+00) (4, -3.47257763147354125977e-01) (5, 2.82750868797302246094e+00) (6, 6.97111797332763671875e+00) (7, 6.83164358139038085938e+00) (8, -1.61824369430541992188e+00) (9, -4.94886827468872070312e+00) (0, -1.09928359985351562500e+01) (1, 1.80236911773681640625e+01) (2, -1.44215613603591918945e-01) (3, -1.78267824649810791016e+00) (4, -1.84894263744354248047e+00) (5, -4.09327685832977294922e-01) (6, 4.61861085891723632812e+00) (7, 5.68152570724487304688e+00) (8, 5.04974126815795898438e+00) (9, -5.58210659027099609375e+00) (10, 5.88444805145263671875e+00) (11, -5.16933917999267578125e+00) (12, 1.57126104831695556641e+00) (13, 2.36455178260803222656e+00) (14, 2.36418858170509338379e-01) 
