FANN_FLO_2.1
num_layers=3
learning_rate=0.500000
connection_rate=1.000000
network_type=0
learning_momentum=0.000000
training_algorithm=2
train_error_function=1
train_stop_function=0
cascade_output_change_fraction=0.010000
quickprop_decay=-0.000100
quickprop_mu=1.750000
rprop_increase_factor=1.200000
rprop_decrease_factor=0.500000
rprop_delta_min=0.000000
rprop_delta_max=50.000000
rprop_delta_zero=0.100000
cascade_output_stagnation_epochs=12
cascade_candidate_change_fraction=0.010000
cascade_candidate_stagnation_epochs=12
cascade_max_out_epochs=150
cascade_min_out_epochs=50
cascade_max_cand_epochs=150
cascade_min_cand_epochs=50
cascade_num_candidate_groups=2
bit_fail_limit=3.49999994039535522461e-01
cascade_candidate_limit=1.00000000000000000000e+03
cascade_weight_multiplier=4.00000005960464477539e-01
cascade_activation_functions_count=10
cascade_activation_functions=3 5 7 8 10 11 14 15 16 17 
cascade_activation_steepnesses_count=4
cascade_activation_steepnesses=2.50000000000000000000e-01 5.00000000000000000000e-01 7.50000000000000000000e-01 1.00000000000000000000e+00 
layer_sizes=10 5 2 
scale_included=0
neurons (num_inputs, activation_function, activation_steepness)=(0, 0, 0.00000000000000000000e+00) (0, 0, 0.00000000000000000000e+00) (0, 0, 0.00000000000000000000e+00) (0, 0, 0.00000000000000000000e+00) (0, 0, 0.00000000000000000000e+00) (0, 0, 0.00000000000000000000e+00) (0, 0, 0.00000000000000000000e+00) (0, 0, 0.00000000000000000000e+00) (0, 0, 0.00000000000000000000e+00) (0, 0, 0.00000000000000000000e+00) (10, 3, 5.00000000000000000000e-01) (10, 3, 5.00000000000000000000e-01) (10, 3, 5.00000000000000000000e-01) (10, 3, 5.00000000000000000000e-01) (0, 3, 0.00000000000000000000e+00) (5, 3, 5.00000000000000000000e-01) (0, 3, 0.00000000000000000000e+00) 
connections (connected_to_neuron, weight)=(0, 1.16310949325561523438e+01) (1, -4.12404966354370117188e+00) (2, -2.81188559532165527344e+00) (3, 1.06342020034790039062e+01) (4, 1.20806205272674560547e+00) (5, -1.42886953353881835938e+01) (6, 3.95326757431030273438e+00) (7, -2.77738094329833984375e+00) (8, -8.75127792358398437500e+00) (9, -4.30558890104293823242e-01) (0, -1.16459331512451171875e+01) (1, 1.84989440441131591797e+00) (2, -1.25928516387939453125e+01) (3, 8.84830093383789062500e+00) (4, 4.49663686752319335938e+00) (5, 2.26437053680419921875e+01) (6, -5.11238932609558105469e-01) (7, 6.34690046310424804688e+00) (8, 7.59952020645141601562e+00) (9, -8.10557842254638671875e+00) (0, -1.45719823837280273438e+01) (1, -5.00331544876098632812e+00) (2, 1.80741214752197265625e+01) (3, -2.86005954742431640625e+01) (4, -1.80281214416027069092e-02) (5, 2.21578769683837890625e+01) (6, -1.69673080444335937500e+01) (7, 6.66630077362060546875e+00) (8, 1.71013870239257812500e+01) (9, -4.40777492523193359375e+00) (0, -5.54757416248321533203e-02) (1, 3.21394276618957519531e+00) (2, 5.90107393264770507812e+00) (3, 3.63226509094238281250e+00) (4, -3.46837615966796875000e+00) (5, 1.42873039245605468750e+01) (6, 1.84963122010231018066e-01) (7, 1.43777971267700195312e+01) (8, 2.01680600643157958984e-01) (9, -1.07381458282470703125e+01) (10, 3.97536659240722656250e+00) (11, 6.01012647151947021484e-01) (12, 2.65182638168334960938e+00) (13, 1.07514333724975585938e+00) (14, -1.66997098922729492188e+00) 
