FANN_FLO_2.1
num_layers=3
learning_rate=0.500000
connection_rate=1.000000
network_type=0
learning_momentum=0.000000
training_algorithm=2
train_error_function=1
train_stop_function=0
cascade_output_change_fraction=0.010000
quickprop_decay=-0.000100
quickprop_mu=1.750000
rprop_increase_factor=1.200000
rprop_decrease_factor=0.500000
rprop_delta_min=0.000000
rprop_delta_max=50.000000
rprop_delta_zero=0.100000
cascade_output_stagnation_epochs=12
cascade_candidate_change_fraction=0.010000
cascade_candidate_stagnation_epochs=12
cascade_max_out_epochs=150
cascade_min_out_epochs=50
cascade_max_cand_epochs=150
cascade_min_cand_epochs=50
cascade_num_candidate_groups=2
bit_fail_limit=3.49999994039535522461e-01
cascade_candidate_limit=1.00000000000000000000e+03
cascade_weight_multiplier=4.00000005960464477539e-01
cascade_activation_functions_count=10
cascade_activation_functions=3 5 7 8 10 11 14 15 16 17 
cascade_activation_steepnesses_count=4
cascade_activation_steepnesses=2.50000000000000000000e-01 5.00000000000000000000e-01 7.50000000000000000000e-01 1.00000000000000000000e+00 
layer_sizes=10 5 2 
scale_included=0
neurons (num_inputs, activation_function, activation_steepness)=(0, 0, 0.00000000000000000000e+00) (0, 0, 0.00000000000000000000e+00) (0, 0, 0.00000000000000000000e+00) (0, 0, 0.00000000000000000000e+00) (0, 0, 0.00000000000000000000e+00) (0, 0, 0.00000000000000000000e+00) (0, 0, 0.00000000000000000000e+00) (0, 0, 0.00000000000000000000e+00) (0, 0, 0.00000000000000000000e+00) (0, 0, 0.00000000000000000000e+00) (10, 3, 5.00000000000000000000e-01) (10, 3, 5.00000000000000000000e-01) (10, 3, 5.00000000000000000000e-01) (10, 3, 5.00000000000000000000e-01) (0, 3, 0.00000000000000000000e+00) (5, 3, 5.00000000000000000000e-01) (0, 3, 0.00000000000000000000e+00) 
connections (connected_to_neuron, weight)=(0, 1.01955776214599609375e+01) (1, 1.53823871612548828125e+01) (2, 8.04538631439208984375e+00) (3, 7.05711692571640014648e-02) (4, 2.42618381977081298828e-01) (5, 4.04559165239334106445e-01) (6, -2.73040866851806640625e+00) (7, -2.00745773315429687500e+01) (8, -5.61301708221435546875e+00) (9, 1.04062509536743164062e+00) (0, 1.15561668395996093750e+02) (1, 3.42672004699707031250e+01) (2, 3.87749633789062500000e+01) (3, -6.75045013427734375000e+01) (4, -8.58009719848632812500e+00) (5, -2.37701843261718750000e+02) (6, -4.93106346130371093750e+01) (7, -6.35158813476562500000e+02) (8, -5.97194404602050781250e+01) (9, 4.81174316406250000000e+02) (0, 5.54817819595336914062e+00) (1, 7.61725664138793945312e+00) (2, 9.03248500823974609375e+00) (3, 7.40832471847534179688e+00) (4, 3.08241653442382812500e+00) (5, 6.67299270629882812500e+00) (6, 6.08126974105834960938e+00) (7, -1.75628814697265625000e+01) (8, -4.46028184890747070312e+00) (9, -8.20738506317138671875e+00) (0, 4.12953262329101562500e+01) (1, 7.07858657836914062500e+00) (2, 8.77508831024169921875e+00) (3, -2.78492050170898437500e+01) (4, 1.10885000228881835938e+00) (5, -1.76525855064392089844e+00) (6, -3.23309969902038574219e+00) (7, 5.38519477844238281250e+00) (8, 7.43097496032714843750e+00) (9, -8.76426982879638671875e+00) (10, -5.06666517257690429688e+00) (11, 1.31807577610015869141e+00) (12, 2.92761087417602539062e+00) (13, 1.64321005344390869141e+00) (14, 9.52597379684448242188e-01) 
