FANN_FLO_2.1
num_layers=3
learning_rate=0.500000
connection_rate=1.000000
network_type=0
learning_momentum=0.000000
training_algorithm=2
train_error_function=1
train_stop_function=0
cascade_output_change_fraction=0.010000
quickprop_decay=-0.000100
quickprop_mu=1.750000
rprop_increase_factor=1.200000
rprop_decrease_factor=0.500000
rprop_delta_min=0.000000
rprop_delta_max=50.000000
rprop_delta_zero=0.100000
cascade_output_stagnation_epochs=12
cascade_candidate_change_fraction=0.010000
cascade_candidate_stagnation_epochs=12
cascade_max_out_epochs=150
cascade_min_out_epochs=50
cascade_max_cand_epochs=150
cascade_min_cand_epochs=50
cascade_num_candidate_groups=2
bit_fail_limit=3.49999994039535522461e-01
cascade_candidate_limit=1.00000000000000000000e+03
cascade_weight_multiplier=4.00000005960464477539e-01
cascade_activation_functions_count=10
cascade_activation_functions=3 5 7 8 10 11 14 15 16 17 
cascade_activation_steepnesses_count=4
cascade_activation_steepnesses=2.50000000000000000000e-01 5.00000000000000000000e-01 7.50000000000000000000e-01 1.00000000000000000000e+00 
layer_sizes=6 5 2 
scale_included=0
neurons (num_inputs, activation_function, activation_steepness)=(0, 0, 0.00000000000000000000e+00) (0, 0, 0.00000000000000000000e+00) (0, 0, 0.00000000000000000000e+00) (0, 0, 0.00000000000000000000e+00) (0, 0, 0.00000000000000000000e+00) (0, 0, 0.00000000000000000000e+00) (6, 3, 5.00000000000000000000e-01) (6, 3, 5.00000000000000000000e-01) (6, 3, 5.00000000000000000000e-01) (6, 3, 5.00000000000000000000e-01) (0, 3, 0.00000000000000000000e+00) (5, 0, 5.00000000000000000000e-01) (0, 0, 0.00000000000000000000e+00) 
connections (connected_to_neuron, weight)=(0, 1.08764004707336425781e+00) (1, -4.71074104309082031250e+00) (2, 1.03102045059204101562e+01) (3, 4.35845232009887695312e+00) (4, 2.44827342033386230469e+00) (5, 2.55674195289611816406e+00) (0, 8.94158899784088134766e-01) (1, 1.22960531711578369141e+00) (2, -1.34215497970581054688e+00) (3, -1.27567124366760253906e+00) (4, 9.20960903167724609375e+00) (5, 1.96175658702850341797e+00) (0, -2.73349910974502563477e-01) (1, 3.41706350445747375488e-02) (2, 4.42985966801643371582e-02) (3, -4.82278496026992797852e-01) (4, -1.13944244384765625000e+00) (5, 2.18573004007339477539e-01) (0, 8.92885208129882812500e-01) (1, 1.45164573192596435547e+00) (2, -4.80280256271362304688e+00) (3, 3.26245570182800292969e+00) (4, -2.51354956626892089844e+00) (5, 2.19898176193237304688e+00) (6, 9.84173238277435302734e-01) (7, 1.05882406234741210938e+00) (8, 9.36075210571289062500e-01) (9, 1.03088712692260742188e+00) (10, 9.36337947845458984375e-01) 
