FANN_FLO_2.1
num_layers=3
learning_rate=0.500000
connection_rate=1.000000
network_type=0
learning_momentum=0.000000
training_algorithm=2
train_error_function=1
train_stop_function=0
cascade_output_change_fraction=0.010000
quickprop_decay=-0.000100
quickprop_mu=1.750000
rprop_increase_factor=1.200000
rprop_decrease_factor=0.500000
rprop_delta_min=0.000000
rprop_delta_max=50.000000
rprop_delta_zero=0.100000
cascade_output_stagnation_epochs=12
cascade_candidate_change_fraction=0.010000
cascade_candidate_stagnation_epochs=12
cascade_max_out_epochs=150
cascade_min_out_epochs=50
cascade_max_cand_epochs=150
cascade_min_cand_epochs=50
cascade_num_candidate_groups=2
bit_fail_limit=3.49999994039535522461e-01
cascade_candidate_limit=1.00000000000000000000e+03
cascade_weight_multiplier=4.00000005960464477539e-01
cascade_activation_functions_count=10
cascade_activation_functions=3 5 7 8 10 11 14 15 16 17 
cascade_activation_steepnesses_count=4
cascade_activation_steepnesses=2.50000000000000000000e-01 5.00000000000000000000e-01 7.50000000000000000000e-01 1.00000000000000000000e+00 
layer_sizes=6 5 2 
scale_included=0
neurons (num_inputs, activation_function, activation_steepness)=(0, 0, 0.00000000000000000000e+00) (0, 0, 0.00000000000000000000e+00) (0, 0, 0.00000000000000000000e+00) (0, 0, 0.00000000000000000000e+00) (0, 0, 0.00000000000000000000e+00) (0, 0, 0.00000000000000000000e+00) (6, 3, 5.00000000000000000000e-01) (6, 3, 5.00000000000000000000e-01) (6, 3, 5.00000000000000000000e-01) (6, 3, 5.00000000000000000000e-01) (0, 3, 0.00000000000000000000e+00) (5, 0, 5.00000000000000000000e-01) (0, 0, 0.00000000000000000000e+00) 
connections (connected_to_neuron, weight)=(0, 1.24176788330078125000e+00) (1, -1.78074681758880615234e+00) (2, 5.80249881744384765625e+00) (3, -1.42614197731018066406e+00) (4, 4.05654668807983398438e+00) (5, 1.53766751289367675781e+00) (0, -4.71683979034423828125e-01) (1, -5.60371935367584228516e-01) (2, -9.91710722446441650391e-02) (3, -2.43736788630485534668e-01) (4, -8.66993218660354614258e-02) (5, 2.63513088226318359375e-01) (0, 1.21963560581207275391e+00) (1, 6.68680477142333984375e+00) (2, -3.97896122932434082031e+00) (3, -1.34745717048645019531e+00) (4, 5.02359819412231445312e+00) (5, 1.58650147914886474609e+00) (0, 9.72495079040527343750e-01) (1, -5.59664309024810791016e-01) (2, -4.02179092168807983398e-01) (3, 2.16781258583068847656e+00) (4, -7.30340337753295898438e+00) (5, 1.57336068153381347656e+00) (6, 1.05637001991271972656e+00) (7, 9.16651129722595214844e-01) (8, 1.01999592781066894531e+00) (9, 9.97987091541290283203e-01) (10, 1.03747808933258056641e+00) 
