FANN_FLO_2.1
num_layers=3
learning_rate=0.500000
connection_rate=1.000000
network_type=0
learning_momentum=0.000000
training_algorithm=2
train_error_function=1
train_stop_function=0
cascade_output_change_fraction=0.010000
quickprop_decay=-0.000100
quickprop_mu=1.750000
rprop_increase_factor=1.200000
rprop_decrease_factor=0.500000
rprop_delta_min=0.000000
rprop_delta_max=50.000000
rprop_delta_zero=0.100000
cascade_output_stagnation_epochs=12
cascade_candidate_change_fraction=0.010000
cascade_candidate_stagnation_epochs=12
cascade_max_out_epochs=150
cascade_min_out_epochs=50
cascade_max_cand_epochs=150
cascade_min_cand_epochs=50
cascade_num_candidate_groups=2
bit_fail_limit=3.49999994039535522461e-01
cascade_candidate_limit=1.00000000000000000000e+03
cascade_weight_multiplier=4.00000005960464477539e-01
cascade_activation_functions_count=10
cascade_activation_functions=3 5 7 8 10 11 14 15 16 17 
cascade_activation_steepnesses_count=4
cascade_activation_steepnesses=2.50000000000000000000e-01 5.00000000000000000000e-01 7.50000000000000000000e-01 1.00000000000000000000e+00 
layer_sizes=10 5 2 
scale_included=0
neurons (num_inputs, activation_function, activation_steepness)=(0, 0, 0.00000000000000000000e+00) (0, 0, 0.00000000000000000000e+00) (0, 0, 0.00000000000000000000e+00) (0, 0, 0.00000000000000000000e+00) (0, 0, 0.00000000000000000000e+00) (0, 0, 0.00000000000000000000e+00) (0, 0, 0.00000000000000000000e+00) (0, 0, 0.00000000000000000000e+00) (0, 0, 0.00000000000000000000e+00) (0, 0, 0.00000000000000000000e+00) (10, 3, 5.00000000000000000000e-01) (10, 3, 5.00000000000000000000e-01) (10, 3, 5.00000000000000000000e-01) (10, 3, 5.00000000000000000000e-01) (0, 3, 0.00000000000000000000e+00) (5, 3, 5.00000000000000000000e-01) (0, 3, 0.00000000000000000000e+00) 
connections (connected_to_neuron, weight)=(0, -1.79231691360473632812e+00) (1, 7.61625528335571289062e+00) (2, 2.98201060295104980469e+00) (3, 6.17233157157897949219e-01) (4, -5.27994751930236816406e-01) (5, 2.49701976776123046875e+00) (6, 6.00153350830078125000e+00) (7, 1.19525218009948730469e+00) (8, 1.36663770675659179688e+00) (9, -6.68810224533081054688e+00) (0, 1.45502734184265136719e+00) (1, 9.55695247650146484375e+00) (2, 9.86679744720458984375e+00) (3, -8.34086894989013671875e+00) (4, 3.50289270281791687012e-02) (5, 8.54925823211669921875e+00) (6, -1.19312248229980468750e+01) (7, -1.02162485122680664062e+01) (8, -1.91824007034301757812e+00) (9, -1.82099413871765136719e+00) (0, 6.28036069869995117188e+00) (1, -2.00906062126159667969e+00) (2, -5.95162534713745117188e+00) (3, 1.24216814041137695312e+01) (4, 3.05057078599929809570e-01) (5, -1.39713926315307617188e+01) (6, 4.65340042114257812500e+00) (7, -9.71302166581153869629e-02) (8, -5.90178108215332031250e+00) (9, -7.41160690784454345703e-01) (0, -1.74048023223876953125e+01) (1, -2.14087333679199218750e+01) (2, -5.64498567581176757812e+00) (3, -1.48411808013916015625e+01) (4, -5.22759020328521728516e-01) (5, 1.22700214385986328125e+01) (6, 3.79897451400756835938e+00) (7, 1.84249229431152343750e+01) (8, 1.86138420104980468750e+01) (9, -2.00412416458129882812e+00) (10, 2.11044168472290039062e+00) (11, 4.81831741333007812500e+00) (12, 4.90215682983398437500e+00) (13, 3.79372119903564453125e+00) (14, -3.34322714805603027344e+00) 
