FANN_FLO_2.1
num_layers=3
learning_rate=0.500000
connection_rate=1.000000
network_type=0
learning_momentum=0.000000
training_algorithm=2
train_error_function=1
train_stop_function=0
cascade_output_change_fraction=0.010000
quickprop_decay=-0.000100
quickprop_mu=1.750000
rprop_increase_factor=1.200000
rprop_decrease_factor=0.500000
rprop_delta_min=0.000000
rprop_delta_max=50.000000
rprop_delta_zero=0.100000
cascade_output_stagnation_epochs=12
cascade_candidate_change_fraction=0.010000
cascade_candidate_stagnation_epochs=12
cascade_max_out_epochs=150
cascade_min_out_epochs=50
cascade_max_cand_epochs=150
cascade_min_cand_epochs=50
cascade_num_candidate_groups=2
bit_fail_limit=3.49999994039535522461e-01
cascade_candidate_limit=1.00000000000000000000e+03
cascade_weight_multiplier=4.00000005960464477539e-01
cascade_activation_functions_count=10
cascade_activation_functions=3 5 7 8 10 11 14 15 16 17 
cascade_activation_steepnesses_count=4
cascade_activation_steepnesses=2.50000000000000000000e-01 5.00000000000000000000e-01 7.50000000000000000000e-01 1.00000000000000000000e+00 
layer_sizes=10 5 2 
scale_included=0
neurons (num_inputs, activation_function, activation_steepness)=(0, 0, 0.00000000000000000000e+00) (0, 0, 0.00000000000000000000e+00) (0, 0, 0.00000000000000000000e+00) (0, 0, 0.00000000000000000000e+00) (0, 0, 0.00000000000000000000e+00) (0, 0, 0.00000000000000000000e+00) (0, 0, 0.00000000000000000000e+00) (0, 0, 0.00000000000000000000e+00) (0, 0, 0.00000000000000000000e+00) (0, 0, 0.00000000000000000000e+00) (10, 3, 5.00000000000000000000e-01) (10, 3, 5.00000000000000000000e-01) (10, 3, 5.00000000000000000000e-01) (10, 3, 5.00000000000000000000e-01) (0, 3, 0.00000000000000000000e+00) (5, 3, 5.00000000000000000000e-01) (0, 3, 0.00000000000000000000e+00) 
connections (connected_to_neuron, weight)=(0, -9.72944164276123046875e+00) (1, -3.00733509063720703125e+01) (2, -3.39991912841796875000e+01) (3, 2.88906555175781250000e+01) (4, -1.37986636161804199219e+00) (5, -3.61406230926513671875e+00) (6, 2.60074234008789062500e+01) (7, 1.76133499145507812500e+01) (8, -4.85084152221679687500e+00) (9, 2.26288652420043945312e+00) (0, 6.38955307006835937500e+00) (1, -6.94382667541503906250e+00) (2, -1.02240171432495117188e+01) (3, 1.34067802429199218750e+01) (4, 1.13077506422996520996e-01) (5, -9.75496578216552734375e+00) (6, 1.72779502868652343750e+01) (7, 8.32246685028076171875e+00) (8, 1.10816497802734375000e+01) (9, -8.70904541015625000000e+00) (0, -6.79904818534851074219e-01) (1, 1.29628314971923828125e+01) (2, 8.25602817535400390625e+00) (3, -9.14323520660400390625e+00) (4, -2.86776256561279296875e+00) (5, 9.13108921051025390625e+00) (6, -1.18456354141235351562e+01) (7, -8.09735870361328125000e+00) (8, -1.14104703068733215332e-01) (9, -2.80779337882995605469e+00) (0, 1.69260444641113281250e+01) (1, -9.10159397125244140625e+00) (2, -6.85269308090209960938e+00) (3, 1.10512208938598632812e+01) (4, -1.25263535976409912109e+00) (5, 7.15997028350830078125e+00) (6, 1.15805311203002929688e+01) (7, 3.85225510597229003906e+00) (8, 2.08148074150085449219e+00) (9, -1.25854759216308593750e+01) (10, 2.16634654998779296875e+00) (11, 5.12768626213073730469e-01) (12, 5.44753265380859375000e+00) (13, 8.35002183914184570312e-01) (14, -1.35993826389312744141e+00) 
