FANN_FLO_2.1
num_layers=3
learning_rate=0.500000
connection_rate=1.000000
network_type=0
learning_momentum=0.000000
training_algorithm=2
train_error_function=1
train_stop_function=0
cascade_output_change_fraction=0.010000
quickprop_decay=-0.000100
quickprop_mu=1.750000
rprop_increase_factor=1.200000
rprop_decrease_factor=0.500000
rprop_delta_min=0.000000
rprop_delta_max=50.000000
rprop_delta_zero=0.100000
cascade_output_stagnation_epochs=12
cascade_candidate_change_fraction=0.010000
cascade_candidate_stagnation_epochs=12
cascade_max_out_epochs=150
cascade_min_out_epochs=50
cascade_max_cand_epochs=150
cascade_min_cand_epochs=50
cascade_num_candidate_groups=2
bit_fail_limit=3.49999994039535522461e-01
cascade_candidate_limit=1.00000000000000000000e+03
cascade_weight_multiplier=4.00000005960464477539e-01
cascade_activation_functions_count=10
cascade_activation_functions=3 5 7 8 10 11 14 15 16 17 
cascade_activation_steepnesses_count=4
cascade_activation_steepnesses=2.50000000000000000000e-01 5.00000000000000000000e-01 7.50000000000000000000e-01 1.00000000000000000000e+00 
layer_sizes=10 3 2 
scale_included=0
neurons (num_inputs, activation_function, activation_steepness)=(0, 0, 0.00000000000000000000e+00) (0, 0, 0.00000000000000000000e+00) (0, 0, 0.00000000000000000000e+00) (0, 0, 0.00000000000000000000e+00) (0, 0, 0.00000000000000000000e+00) (0, 0, 0.00000000000000000000e+00) (0, 0, 0.00000000000000000000e+00) (0, 0, 0.00000000000000000000e+00) (0, 0, 0.00000000000000000000e+00) (0, 0, 0.00000000000000000000e+00) (10, 3, 5.00000000000000000000e-01) (10, 3, 5.00000000000000000000e-01) (0, 3, 0.00000000000000000000e+00) (3, 3, 5.00000000000000000000e-01) (0, 3, 0.00000000000000000000e+00) 
connections (connected_to_neuron, weight)=(0, -2.10067152976989746094e+00) (1, 3.42466950416564941406e+00) (2, 8.20199012756347656250e+00) (3, -9.52117633819580078125e+00) (4, 7.79675960540771484375e-01) (5, 7.65386390686035156250e+00) (6, -9.18421649932861328125e+00) (7, -2.94759035110473632812e+00) (8, 1.59986209869384765625e+00) (9, -2.20195960998535156250e+00) (0, 9.79441452026367187500e+00) (1, -2.50473475456237792969e+00) (2, -1.90334625244140625000e+01) (3, 1.95192298889160156250e+01) (4, -1.08787832260131835938e+01) (5, -3.48494052886962890625e+00) (6, 1.40335454940795898438e+01) (7, 5.95894289016723632812e+00) (8, 1.91250586509704589844e+00) (9, -6.15170001983642578125e+00) (10, 6.66026544570922851562e+00) (11, 2.50694513320922851562e+00) (12, -1.22248280048370361328e+00) 
