FANN_FLO_2.1
num_layers=3
learning_rate=0.500000
connection_rate=1.000000
network_type=0
learning_momentum=0.000000
training_algorithm=2
train_error_function=1
train_stop_function=0
cascade_output_change_fraction=0.010000
quickprop_decay=-0.000100
quickprop_mu=1.750000
rprop_increase_factor=1.200000
rprop_decrease_factor=0.500000
rprop_delta_min=0.000000
rprop_delta_max=50.000000
rprop_delta_zero=0.100000
cascade_output_stagnation_epochs=12
cascade_candidate_change_fraction=0.010000
cascade_candidate_stagnation_epochs=12
cascade_max_out_epochs=150
cascade_min_out_epochs=50
cascade_max_cand_epochs=150
cascade_min_cand_epochs=50
cascade_num_candidate_groups=2
bit_fail_limit=3.49999994039535522461e-01
cascade_candidate_limit=1.00000000000000000000e+03
cascade_weight_multiplier=4.00000005960464477539e-01
cascade_activation_functions_count=10
cascade_activation_functions=3 5 7 8 10 11 14 15 16 17 
cascade_activation_steepnesses_count=4
cascade_activation_steepnesses=2.50000000000000000000e-01 5.00000000000000000000e-01 7.50000000000000000000e-01 1.00000000000000000000e+00 
layer_sizes=10 5 2 
scale_included=0
neurons (num_inputs, activation_function, activation_steepness)=(0, 0, 0.00000000000000000000e+00) (0, 0, 0.00000000000000000000e+00) (0, 0, 0.00000000000000000000e+00) (0, 0, 0.00000000000000000000e+00) (0, 0, 0.00000000000000000000e+00) (0, 0, 0.00000000000000000000e+00) (0, 0, 0.00000000000000000000e+00) (0, 0, 0.00000000000000000000e+00) (0, 0, 0.00000000000000000000e+00) (0, 0, 0.00000000000000000000e+00) (10, 3, 5.00000000000000000000e-01) (10, 3, 5.00000000000000000000e-01) (10, 3, 5.00000000000000000000e-01) (10, 3, 5.00000000000000000000e-01) (0, 3, 0.00000000000000000000e+00) (5, 3, 5.00000000000000000000e-01) (0, 3, 0.00000000000000000000e+00) 
connections (connected_to_neuron, weight)=(0, 5.33143472671508789062e+00) (1, -9.27479267120361328125e+00) (2, -1.17017507553100585938e+01) (3, 1.33232498168945312500e+01) (4, 1.68521034717559814453e+00) (5, -1.86384506225585937500e+01) (6, 1.33958950042724609375e+01) (7, 9.75938034057617187500e+00) (8, -5.78369903564453125000e+00) (9, -3.24406433105468750000e+00) (0, -1.16862306594848632812e+01) (1, -9.66296958923339843750e+00) (2, 3.88464975357055664062e+00) (3, -1.79079952239990234375e+01) (4, 1.74090087413787841797e+00) (5, 1.22140073776245117188e+01) (6, -4.83259232714772224426e-03) (7, 3.68884682655334472656e+00) (8, 1.75282974243164062500e+01) (9, -4.24182796478271484375e+00) (0, -5.36943149566650390625e+00) (1, 2.92787343263626098633e-01) (2, 2.95288038253784179688e+00) (3, 7.33523130416870117188e-01) (4, -1.11890721321105957031e+00) (5, 8.46242713928222656250e+00) (6, -4.05212020874023437500e+00) (7, 1.07790250778198242188e+01) (8, 5.80143594741821289062e+00) (9, -8.69380187988281250000e+00) (0, 1.09048871994018554688e+01) (1, 1.03741683959960937500e+01) (2, 9.00845432281494140625e+00) (3, 2.39012807607650756836e-01) (4, 1.26440852880477905273e-01) (5, 1.24579226970672607422e+00) (6, -7.11809778213500976562e+00) (7, -1.41871776580810546875e+01) (8, -1.01982622146606445312e+01) (9, -3.34643959999084472656e+00) (10, 4.34136772155761718750e+00) (11, 4.44977188110351562500e+00) (12, 1.00845336914062500000e+00) (13, 4.42038726806640625000e+00) (14, -1.81576609611511230469e+00) 
