FANN_FLO_2.1
num_layers=3
learning_rate=0.500000
connection_rate=1.000000
network_type=0
learning_momentum=0.000000
training_algorithm=2
train_error_function=1
train_stop_function=0
cascade_output_change_fraction=0.010000
quickprop_decay=-0.000100
quickprop_mu=1.750000
rprop_increase_factor=1.200000
rprop_decrease_factor=0.500000
rprop_delta_min=0.000000
rprop_delta_max=50.000000
rprop_delta_zero=0.100000
cascade_output_stagnation_epochs=12
cascade_candidate_change_fraction=0.010000
cascade_candidate_stagnation_epochs=12
cascade_max_out_epochs=150
cascade_min_out_epochs=50
cascade_max_cand_epochs=150
cascade_min_cand_epochs=50
cascade_num_candidate_groups=2
bit_fail_limit=3.49999994039535522461e-01
cascade_candidate_limit=1.00000000000000000000e+03
cascade_weight_multiplier=4.00000005960464477539e-01
cascade_activation_functions_count=10
cascade_activation_functions=3 5 7 8 10 11 14 15 16 17 
cascade_activation_steepnesses_count=4
cascade_activation_steepnesses=2.50000000000000000000e-01 5.00000000000000000000e-01 7.50000000000000000000e-01 1.00000000000000000000e+00 
layer_sizes=10 5 2 
scale_included=0
neurons (num_inputs, activation_function, activation_steepness)=(0, 0, 0.00000000000000000000e+00) (0, 0, 0.00000000000000000000e+00) (0, 0, 0.00000000000000000000e+00) (0, 0, 0.00000000000000000000e+00) (0, 0, 0.00000000000000000000e+00) (0, 0, 0.00000000000000000000e+00) (0, 0, 0.00000000000000000000e+00) (0, 0, 0.00000000000000000000e+00) (0, 0, 0.00000000000000000000e+00) (0, 0, 0.00000000000000000000e+00) (10, 3, 5.00000000000000000000e-01) (10, 3, 5.00000000000000000000e-01) (10, 3, 5.00000000000000000000e-01) (10, 3, 5.00000000000000000000e-01) (0, 3, 0.00000000000000000000e+00) (5, 3, 5.00000000000000000000e-01) (0, 3, 0.00000000000000000000e+00) 
connections (connected_to_neuron, weight)=(0, 4.56631612777709960938e+00) (1, 1.10092806816101074219e+00) (2, 1.68631941080093383789e-01) (3, 1.58247137069702148438e+01) (4, -7.92883777618408203125e+00) (5, 2.86925029754638671875e+01) (6, 9.68109798431396484375e+00) (7, -9.24224615097045898438e-01) (8, -7.94755983352661132812e+00) (9, -1.26275548934936523438e+01) (0, 3.66470634937286376953e-01) (1, 8.48249244689941406250e+00) (2, -3.54618573188781738281e+00) (3, 1.43343868255615234375e+01) (4, -3.00282649993896484375e+01) (5, 1.80388813018798828125e+01) (6, 7.87143278121948242188e+00) (7, 1.62105011940002441406e+00) (8, 1.17536640167236328125e+01) (9, -5.31076431274414062500e+00) (0, 1.03149518966674804688e+01) (1, -6.64968442916870117188e+00) (2, -6.12530374526977539062e+00) (3, 1.09883613586425781250e+01) (4, 3.34597921371459960938e+00) (5, 1.46307249069213867188e+01) (6, -4.06321191787719726562e+00) (7, -7.45456075668334960938e+00) (8, 1.84751529693603515625e+01) (9, -8.01267910003662109375e+00) (0, 2.08172893524169921875e+01) (1, -1.01670036315917968750e+01) (2, -7.70980119705200195312e+00) (3, -9.44226801395416259766e-01) (4, 1.09846782684326171875e+01) (5, 8.41638660430908203125e+00) (6, -1.37076759338378906250e+00) (7, -1.00763452053070068359e+00) (8, 1.51641912460327148438e+01) (9, -9.07457542419433593750e+00) (10, 9.81803059577941894531e-01) (11, 8.41111063957214355469e-01) (12, 5.69879472255706787109e-01) (13, 5.19006431102752685547e-01) (14, -1.37949860095977783203e+00) 
