FANN_FLO_2.1
num_layers=3
learning_rate=0.500000
connection_rate=1.000000
network_type=0
learning_momentum=0.000000
training_algorithm=2
train_error_function=1
train_stop_function=0
cascade_output_change_fraction=0.010000
quickprop_decay=-0.000100
quickprop_mu=1.750000
rprop_increase_factor=1.200000
rprop_decrease_factor=0.500000
rprop_delta_min=0.000000
rprop_delta_max=50.000000
rprop_delta_zero=0.100000
cascade_output_stagnation_epochs=12
cascade_candidate_change_fraction=0.010000
cascade_candidate_stagnation_epochs=12
cascade_max_out_epochs=150
cascade_min_out_epochs=50
cascade_max_cand_epochs=150
cascade_min_cand_epochs=50
cascade_num_candidate_groups=2
bit_fail_limit=3.49999994039535522461e-01
cascade_candidate_limit=1.00000000000000000000e+03
cascade_weight_multiplier=4.00000005960464477539e-01
cascade_activation_functions_count=10
cascade_activation_functions=3 5 7 8 10 11 14 15 16 17 
cascade_activation_steepnesses_count=4
cascade_activation_steepnesses=2.50000000000000000000e-01 5.00000000000000000000e-01 7.50000000000000000000e-01 1.00000000000000000000e+00 
layer_sizes=6 5 2 
scale_included=0
neurons (num_inputs, activation_function, activation_steepness)=(0, 0, 0.00000000000000000000e+00) (0, 0, 0.00000000000000000000e+00) (0, 0, 0.00000000000000000000e+00) (0, 0, 0.00000000000000000000e+00) (0, 0, 0.00000000000000000000e+00) (0, 0, 0.00000000000000000000e+00) (6, 3, 5.00000000000000000000e-01) (6, 3, 5.00000000000000000000e-01) (6, 3, 5.00000000000000000000e-01) (6, 3, 5.00000000000000000000e-01) (0, 3, 0.00000000000000000000e+00) (5, 0, 5.00000000000000000000e-01) (0, 0, 0.00000000000000000000e+00) 
connections (connected_to_neuron, weight)=(0, -4.16868031024932861328e-02) (1, 4.74761098623275756836e-01) (2, -1.45117402076721191406e-01) (3, 2.30235576629638671875e-01) (4, -1.44556030631065368652e-01) (5, 3.50998193025588989258e-01) (0, -4.45016846060752868652e-03) (1, 2.87075281143188476562e+00) (2, -1.31669893860816955566e-01) (3, 3.93726646900177001953e-01) (4, -5.75351417064666748047e-01) (5, 4.60246503353118896484e-01) (0, 1.84713699854910373688e-03) (1, -3.36993098258972167969e+00) (2, 2.49535709619522094727e-01) (3, 1.58627733588218688965e-01) (4, 6.79027974605560302734e-01) (5, 3.60926210880279541016e-01) (0, 1.41829478740692138672e+00) (1, -5.36860466003417968750e-01) (2, -8.56339931488037109375e+00) (3, -2.36963577270507812500e+01) (4, 2.23492813110351562500e+00) (5, 3.50422739982604980469e+00) (6, 1.08188891410827636719e+00) (7, 1.10820698738098144531e+00) (8, 1.09298789501190185547e+00) (9, 1.16405272483825683594e+00) (10, 1.24328410625457763672e+00) 
