FANN_FLO_2.1
num_layers=3
learning_rate=0.500000
connection_rate=1.000000
network_type=0
learning_momentum=0.000000
training_algorithm=2
train_error_function=1
train_stop_function=0
cascade_output_change_fraction=0.010000
quickprop_decay=-0.000100
quickprop_mu=1.750000
rprop_increase_factor=1.200000
rprop_decrease_factor=0.500000
rprop_delta_min=0.000000
rprop_delta_max=50.000000
rprop_delta_zero=0.100000
cascade_output_stagnation_epochs=12
cascade_candidate_change_fraction=0.010000
cascade_candidate_stagnation_epochs=12
cascade_max_out_epochs=150
cascade_min_out_epochs=50
cascade_max_cand_epochs=150
cascade_min_cand_epochs=50
cascade_num_candidate_groups=2
bit_fail_limit=3.49999994039535522461e-01
cascade_candidate_limit=1.00000000000000000000e+03
cascade_weight_multiplier=4.00000005960464477539e-01
cascade_activation_functions_count=10
cascade_activation_functions=3 5 7 8 10 11 14 15 16 17 
cascade_activation_steepnesses_count=4
cascade_activation_steepnesses=2.50000000000000000000e-01 5.00000000000000000000e-01 7.50000000000000000000e-01 1.00000000000000000000e+00 
layer_sizes=10 5 2 
scale_included=0
neurons (num_inputs, activation_function, activation_steepness)=(0, 0, 0.00000000000000000000e+00) (0, 0, 0.00000000000000000000e+00) (0, 0, 0.00000000000000000000e+00) (0, 0, 0.00000000000000000000e+00) (0, 0, 0.00000000000000000000e+00) (0, 0, 0.00000000000000000000e+00) (0, 0, 0.00000000000000000000e+00) (0, 0, 0.00000000000000000000e+00) (0, 0, 0.00000000000000000000e+00) (0, 0, 0.00000000000000000000e+00) (10, 3, 5.00000000000000000000e-01) (10, 3, 5.00000000000000000000e-01) (10, 3, 5.00000000000000000000e-01) (10, 3, 5.00000000000000000000e-01) (0, 3, 0.00000000000000000000e+00) (5, 3, 5.00000000000000000000e-01) (0, 3, 0.00000000000000000000e+00) 
connections (connected_to_neuron, weight)=(0, 5.17643642425537109375e+00) (1, 5.05340635776519775391e-01) (2, 6.22785449028015136719e-01) (3, 1.25783786773681640625e+01) (4, -2.54382586479187011719e+00) (5, 2.69081354141235351562e+00) (6, 2.01856994628906250000e+00) (7, -6.66871929168701171875e+00) (8, 9.04567337036132812500e+00) (9, -7.63714122772216796875e+00) (0, 1.50000000000000000000e+03) (1, -1.50000000000000000000e+03) (2, -1.50000000000000000000e+03) (3, 1.50000000000000000000e+03) (4, -1.50000000000000000000e+03) (5, -1.50000000000000000000e+03) (6, -3.37643504142761230469e-01) (7, -1.50000000000000000000e+03) (8, -1.50000000000000000000e+03) (9, -4.36116874217987060547e-01) (0, 3.51082181930541992188e+00) (1, 1.52178134918212890625e+01) (2, 1.16486845016479492188e+01) (3, -1.15071506500244140625e+01) (4, 6.29453897476196289062e-01) (5, 4.62979602813720703125e+00) (6, -1.41817026138305664062e+01) (7, -1.43359727859497070312e+01) (8, -2.61840939521789550781e+00) (9, -1.12060773372650146484e+00) (0, -3.81928396224975585938e+00) (1, -1.78401165008544921875e+01) (2, -8.29890632629394531250e+00) (3, -1.03607404232025146484e+00) (4, 1.93492102622985839844e+00) (5, -2.82850241661071777344e+00) (6, 8.12902259826660156250e+00) (7, 1.58588209152221679688e+01) (8, 3.30960536003112792969e+00) (9, -1.38384914398193359375e+00) (10, 1.93697249889373779297e+00) (11, 5.31249618530273437500e+01) (12, 4.06700325012207031250e+00) (13, 4.25022268295288085938e+00) (14, -1.74707055091857910156e+00) 
