FANN_FLO_2.1
num_layers=3
learning_rate=0.500000
connection_rate=1.000000
network_type=0
learning_momentum=0.000000
training_algorithm=2
train_error_function=1
train_stop_function=0
cascade_output_change_fraction=0.010000
quickprop_decay=-0.000100
quickprop_mu=1.750000
rprop_increase_factor=1.200000
rprop_decrease_factor=0.500000
rprop_delta_min=0.000000
rprop_delta_max=50.000000
rprop_delta_zero=0.100000
cascade_output_stagnation_epochs=12
cascade_candidate_change_fraction=0.010000
cascade_candidate_stagnation_epochs=12
cascade_max_out_epochs=150
cascade_min_out_epochs=50
cascade_max_cand_epochs=150
cascade_min_cand_epochs=50
cascade_num_candidate_groups=2
bit_fail_limit=3.49999994039535522461e-01
cascade_candidate_limit=1.00000000000000000000e+03
cascade_weight_multiplier=4.00000005960464477539e-01
cascade_activation_functions_count=10
cascade_activation_functions=3 5 7 8 10 11 14 15 16 17 
cascade_activation_steepnesses_count=4
cascade_activation_steepnesses=2.50000000000000000000e-01 5.00000000000000000000e-01 7.50000000000000000000e-01 1.00000000000000000000e+00 
layer_sizes=6 5 2 
scale_included=0
neurons (num_inputs, activation_function, activation_steepness)=(0, 0, 0.00000000000000000000e+00) (0, 0, 0.00000000000000000000e+00) (0, 0, 0.00000000000000000000e+00) (0, 0, 0.00000000000000000000e+00) (0, 0, 0.00000000000000000000e+00) (0, 0, 0.00000000000000000000e+00) (6, 3, 5.00000000000000000000e-01) (6, 3, 5.00000000000000000000e-01) (6, 3, 5.00000000000000000000e-01) (6, 3, 5.00000000000000000000e-01) (0, 3, 0.00000000000000000000e+00) (5, 0, 5.00000000000000000000e-01) (0, 0, 0.00000000000000000000e+00) 
connections (connected_to_neuron, weight)=(0, 1.49969327449798583984e+00) (1, -7.16450166702270507812e+00) (2, 8.39873600006103515625e+00) (3, -2.13094758987426757812e+00) (4, 4.58718919754028320312e+00) (5, 2.39203333854675292969e+00) (0, -1.27966269850730895996e-01) (1, 2.53605335950851440430e-01) (2, -3.24014388024806976318e-03) (3, -9.25484821200370788574e-02) (4, -1.05469070374965667725e-01) (5, 1.76108345389366149902e-01) (0, 4.13698218762874603271e-02) (1, 1.57837525010108947754e-01) (2, -4.82798844575881958008e-01) (3, 1.49856746196746826172e-01) (4, 2.40625403821468353271e-02) (5, 2.20112279057502746582e-01) (0, 1.30832362174987792969e+00) (1, -6.33692693710327148438e+00) (2, 5.78204631805419921875e-01) (3, 4.78603935241699218750e+00) (4, -8.49023342132568359375e+00) (5, 3.21545720100402832031e+00) (6, 1.14145934581756591797e+00) (7, 1.01608979701995849609e+00) (8, 9.71237182617187500000e-01) (9, 1.09224355220794677734e+00) (10, 1.07422721385955810547e+00) 
