FANN_FLO_2.1
num_layers=3
learning_rate=0.500000
connection_rate=1.000000
network_type=0
learning_momentum=0.000000
training_algorithm=2
train_error_function=1
train_stop_function=0
cascade_output_change_fraction=0.010000
quickprop_decay=-0.000100
quickprop_mu=1.750000
rprop_increase_factor=1.200000
rprop_decrease_factor=0.500000
rprop_delta_min=0.000000
rprop_delta_max=50.000000
rprop_delta_zero=0.100000
cascade_output_stagnation_epochs=12
cascade_candidate_change_fraction=0.010000
cascade_candidate_stagnation_epochs=12
cascade_max_out_epochs=150
cascade_min_out_epochs=50
cascade_max_cand_epochs=150
cascade_min_cand_epochs=50
cascade_num_candidate_groups=2
bit_fail_limit=3.49999994039535522461e-01
cascade_candidate_limit=1.00000000000000000000e+03
cascade_weight_multiplier=4.00000005960464477539e-01
cascade_activation_functions_count=10
cascade_activation_functions=3 5 7 8 10 11 14 15 16 17 
cascade_activation_steepnesses_count=4
cascade_activation_steepnesses=2.50000000000000000000e-01 5.00000000000000000000e-01 7.50000000000000000000e-01 1.00000000000000000000e+00 
layer_sizes=10 5 2 
scale_included=0
neurons (num_inputs, activation_function, activation_steepness)=(0, 0, 0.00000000000000000000e+00) (0, 0, 0.00000000000000000000e+00) (0, 0, 0.00000000000000000000e+00) (0, 0, 0.00000000000000000000e+00) (0, 0, 0.00000000000000000000e+00) (0, 0, 0.00000000000000000000e+00) (0, 0, 0.00000000000000000000e+00) (0, 0, 0.00000000000000000000e+00) (0, 0, 0.00000000000000000000e+00) (0, 0, 0.00000000000000000000e+00) (10, 3, 5.00000000000000000000e-01) (10, 3, 5.00000000000000000000e-01) (10, 3, 5.00000000000000000000e-01) (10, 3, 5.00000000000000000000e-01) (0, 3, 0.00000000000000000000e+00) (5, 3, 5.00000000000000000000e-01) (0, 3, 0.00000000000000000000e+00) 
connections (connected_to_neuron, weight)=(0, 2.16064786911010742188e+00) (1, 8.78427696228027343750e+00) (2, 3.30843925476074218750e+00) (3, 4.29480504989624023438e+00) (4, 1.65709125995635986328e+00) (5, 7.63515806198120117188e+00) (6, 4.76161384582519531250e+00) (7, 5.83311653137207031250e+00) (8, -4.05971145629882812500e+00) (9, -1.19814929962158203125e+01) (0, -5.93213272094726562500e+00) (1, -1.43796691894531250000e+01) (2, -9.20571327209472656250e+00) (3, 5.33357191085815429688e+00) (4, 1.22607326507568359375e+00) (5, -8.19424819946289062500e+00) (6, 9.43341541290283203125e+00) (7, 1.20391349792480468750e+01) (8, 5.63317966461181640625e+00) (9, -1.46912384033203125000e+00) (0, -9.24701213836669921875e+00) (1, -2.28238314390182495117e-01) (2, 7.82811927795410156250e+00) (3, -1.70754318237304687500e+01) (4, 7.41672515869140625000e-01) (5, 1.17585906982421875000e+01) (6, -7.83907318115234375000e+00) (7, 2.61046552658081054688e+00) (8, 9.32082462310791015625e+00) (9, -2.38627672195434570312e+00) (0, 1.14704113006591796875e+01) (1, 8.62537956237792968750e+00) (2, -4.69991117715835571289e-01) (3, 2.89029812812805175781e+00) (4, -4.09102626144886016846e-02) (5, -2.83198046684265136719e+00) (6, 6.46122992038726806641e-01) (7, -1.19164085388183593750e+01) (8, -1.14137468338012695312e+01) (9, -7.38710761070251464844e-01) (10, 1.34466481208801269531e+00) (11, 4.66067552566528320312e+00) (12, 4.83469438552856445312e+00) (13, 4.58683967590332031250e+00) (14, -2.98564291000366210938e+00) 
