FANN_FLO_2.1
num_layers=3
learning_rate=0.500000
connection_rate=1.000000
network_type=0
learning_momentum=0.000000
training_algorithm=2
train_error_function=1
train_stop_function=0
cascade_output_change_fraction=0.010000
quickprop_decay=-0.000100
quickprop_mu=1.750000
rprop_increase_factor=1.200000
rprop_decrease_factor=0.500000
rprop_delta_min=0.000000
rprop_delta_max=50.000000
rprop_delta_zero=0.100000
cascade_output_stagnation_epochs=12
cascade_candidate_change_fraction=0.010000
cascade_candidate_stagnation_epochs=12
cascade_max_out_epochs=150
cascade_min_out_epochs=50
cascade_max_cand_epochs=150
cascade_min_cand_epochs=50
cascade_num_candidate_groups=2
bit_fail_limit=3.49999994039535522461e-01
cascade_candidate_limit=1.00000000000000000000e+03
cascade_weight_multiplier=4.00000005960464477539e-01
cascade_activation_functions_count=10
cascade_activation_functions=3 5 7 8 10 11 14 15 16 17 
cascade_activation_steepnesses_count=4
cascade_activation_steepnesses=2.50000000000000000000e-01 5.00000000000000000000e-01 7.50000000000000000000e-01 1.00000000000000000000e+00 
layer_sizes=10 5 2 
scale_included=0
neurons (num_inputs, activation_function, activation_steepness)=(0, 0, 0.00000000000000000000e+00) (0, 0, 0.00000000000000000000e+00) (0, 0, 0.00000000000000000000e+00) (0, 0, 0.00000000000000000000e+00) (0, 0, 0.00000000000000000000e+00) (0, 0, 0.00000000000000000000e+00) (0, 0, 0.00000000000000000000e+00) (0, 0, 0.00000000000000000000e+00) (0, 0, 0.00000000000000000000e+00) (0, 0, 0.00000000000000000000e+00) (10, 3, 5.00000000000000000000e-01) (10, 3, 5.00000000000000000000e-01) (10, 3, 5.00000000000000000000e-01) (10, 3, 5.00000000000000000000e-01) (0, 3, 0.00000000000000000000e+00) (5, 3, 5.00000000000000000000e-01) (0, 3, 0.00000000000000000000e+00) 
connections (connected_to_neuron, weight)=(0, 8.68908596038818359375e+00) (1, 1.37056779861450195312e+01) (2, 3.35280227661132812500e+00) (3, 1.24693470001220703125e+01) (4, 9.93215024471282958984e-01) (5, -6.90212631225585937500e+00) (6, 2.02652260661125183105e-01) (7, -2.05680904388427734375e+01) (8, -1.27791957855224609375e+01) (9, -3.17693114280700683594e+00) (0, 5.17010688781738281250e+00) (1, 3.95189225673675537109e-01) (2, 4.89365243911743164062e+00) (3, 6.04465246200561523438e+00) (4, 4.89057302474975585938e-01) (5, -1.71688735485076904297e+00) (6, 3.67289757728576660156e+00) (7, -1.19905567169189453125e+00) (8, 5.76734542846679687500e+00) (9, -8.33080673217773437500e+00) (0, -1.19473152160644531250e+01) (1, 4.57292985916137695312e+00) (2, 1.02723340988159179688e+01) (3, -2.64159488677978515625e+01) (4, 9.42833065986633300781e-01) (5, 1.75148181915283203125e+01) (6, -1.22910108566284179688e+01) (7, -1.10026085376739501953e+00) (8, 9.64106559753417968750e+00) (9, -3.35370719432830810547e-01) (0, 7.10355043411254882812e-02) (1, -1.88204803466796875000e+01) (2, -1.08518447875976562500e+01) (3, 8.24885904788970947266e-01) (4, 9.28561866283416748047e-01) (5, -6.95670652389526367188e+00) (6, 1.11762552261352539062e+01) (7, 1.54763050079345703125e+01) (8, 4.73316097259521484375e+00) (9, -1.55003392696380615234e+00) (10, 4.22953701019287109375e+00) (11, 1.39400780200958251953e+00) (12, 3.72235465049743652344e+00) (13, 4.22384405136108398438e+00) (14, -2.62197113037109375000e+00) 
