FANN_FLO_2.1
num_layers=3
learning_rate=0.500000
connection_rate=1.000000
network_type=0
learning_momentum=0.000000
training_algorithm=2
train_error_function=1
train_stop_function=0
cascade_output_change_fraction=0.010000
quickprop_decay=-0.000100
quickprop_mu=1.750000
rprop_increase_factor=1.200000
rprop_decrease_factor=0.500000
rprop_delta_min=0.000000
rprop_delta_max=50.000000
rprop_delta_zero=0.100000
cascade_output_stagnation_epochs=12
cascade_candidate_change_fraction=0.010000
cascade_candidate_stagnation_epochs=12
cascade_max_out_epochs=150
cascade_min_out_epochs=50
cascade_max_cand_epochs=150
cascade_min_cand_epochs=50
cascade_num_candidate_groups=2
bit_fail_limit=3.49999994039535522461e-01
cascade_candidate_limit=1.00000000000000000000e+03
cascade_weight_multiplier=4.00000005960464477539e-01
cascade_activation_functions_count=10
cascade_activation_functions=3 5 7 8 10 11 14 15 16 17 
cascade_activation_steepnesses_count=4
cascade_activation_steepnesses=2.50000000000000000000e-01 5.00000000000000000000e-01 7.50000000000000000000e-01 1.00000000000000000000e+00 
layer_sizes=10 5 2 
scale_included=0
neurons (num_inputs, activation_function, activation_steepness)=(0, 0, 0.00000000000000000000e+00) (0, 0, 0.00000000000000000000e+00) (0, 0, 0.00000000000000000000e+00) (0, 0, 0.00000000000000000000e+00) (0, 0, 0.00000000000000000000e+00) (0, 0, 0.00000000000000000000e+00) (0, 0, 0.00000000000000000000e+00) (0, 0, 0.00000000000000000000e+00) (0, 0, 0.00000000000000000000e+00) (0, 0, 0.00000000000000000000e+00) (10, 3, 5.00000000000000000000e-01) (10, 3, 5.00000000000000000000e-01) (10, 3, 5.00000000000000000000e-01) (10, 3, 5.00000000000000000000e-01) (0, 3, 0.00000000000000000000e+00) (5, 3, 5.00000000000000000000e-01) (0, 3, 0.00000000000000000000e+00) 
connections (connected_to_neuron, weight)=(0, -9.27322959899902343750e+00) (1, -2.06072483062744140625e+01) (2, -1.37379941940307617188e+01) (3, 4.67463207244873046875e+00) (4, 1.59304261207580566406e+00) (5, 1.94939106702804565430e-01) (6, 1.06425161361694335938e+01) (7, 1.68701610565185546875e+01) (8, 1.04819717407226562500e+01) (9, -5.02183866500854492188e+00) (0, -5.40777492523193359375e+00) (1, 5.70747613906860351562e+00) (2, 8.66509056091308593750e+00) (3, -1.52124357223510742188e+01) (4, -4.52200317382812500000e+00) (5, 1.94144268035888671875e+01) (6, -1.27469682693481445312e+01) (7, -2.85033559799194335938e+00) (8, 6.17906761169433593750e+00) (9, -3.24186110496520996094e+00) (0, 9.72195243835449218750e+00) (1, 5.79569196701049804688e+00) (2, -7.35541582107543945312e-01) (3, 1.22454385757446289062e+01) (4, 2.60062956809997558594e+00) (5, -1.52009906768798828125e+01) (6, 3.49926280975341796875e+00) (7, -1.05455141067504882812e+01) (8, -9.87252998352050781250e+00) (9, -1.81019949913024902344e+00) (0, -5.97219133377075195312e+00) (1, 7.47569465637207031250e+00) (2, 7.58993768692016601562e+00) (3, 8.90036773681640625000e+00) (4, 1.64335680007934570312e+00) (5, -3.84603977203369140625e-01) (6, -1.81743538379669189453e+00) (7, 4.25782203674316406250e+00) (8, 1.32166862487792968750e+01) (9, -9.36987781524658203125e+00) (10, 4.55896902084350585938e+00) (11, 4.69354820251464843750e+00) (12, 4.43816089630126953125e+00) (13, 4.70569431781768798828e-01) (14, -2.12755060195922851562e+00) 
