FANN_FLO_2.1
num_layers=3
learning_rate=0.500000
connection_rate=1.000000
network_type=0
learning_momentum=0.000000
training_algorithm=2
train_error_function=1
train_stop_function=0
cascade_output_change_fraction=0.010000
quickprop_decay=-0.000100
quickprop_mu=1.750000
rprop_increase_factor=1.200000
rprop_decrease_factor=0.500000
rprop_delta_min=0.000000
rprop_delta_max=50.000000
rprop_delta_zero=0.100000
cascade_output_stagnation_epochs=12
cascade_candidate_change_fraction=0.010000
cascade_candidate_stagnation_epochs=12
cascade_max_out_epochs=150
cascade_min_out_epochs=50
cascade_max_cand_epochs=150
cascade_min_cand_epochs=50
cascade_num_candidate_groups=2
bit_fail_limit=3.49999994039535522461e-01
cascade_candidate_limit=1.00000000000000000000e+03
cascade_weight_multiplier=4.00000005960464477539e-01
cascade_activation_functions_count=10
cascade_activation_functions=3 5 7 8 10 11 14 15 16 17 
cascade_activation_steepnesses_count=4
cascade_activation_steepnesses=2.50000000000000000000e-01 5.00000000000000000000e-01 7.50000000000000000000e-01 1.00000000000000000000e+00 
layer_sizes=10 3 2 
scale_included=0
neurons (num_inputs, activation_function, activation_steepness)=(0, 0, 0.00000000000000000000e+00) (0, 0, 0.00000000000000000000e+00) (0, 0, 0.00000000000000000000e+00) (0, 0, 0.00000000000000000000e+00) (0, 0, 0.00000000000000000000e+00) (0, 0, 0.00000000000000000000e+00) (0, 0, 0.00000000000000000000e+00) (0, 0, 0.00000000000000000000e+00) (0, 0, 0.00000000000000000000e+00) (0, 0, 0.00000000000000000000e+00) (10, 3, 5.00000000000000000000e-01) (10, 3, 5.00000000000000000000e-01) (0, 3, 0.00000000000000000000e+00) (3, 3, 5.00000000000000000000e-01) (0, 3, 0.00000000000000000000e+00) 
connections (connected_to_neuron, weight)=(0, 5.41626977920532226562e+00) (1, 1.93909299373626708984e+00) (2, 1.73382067680358886719e+00) (3, 9.69888305664062500000e+00) (4, -1.90132558345794677734e+00) (5, -4.39269542694091796875e+00) (6, -3.92411160469055175781e+00) (7, -2.49684834480285644531e+00) (8, 1.94392108917236328125e+01) (9, -5.46422719955444335938e+00) (0, 3.06891274452209472656e+00) (1, -2.36303955316543579102e-01) (2, 3.91231238842010498047e-01) (3, 1.06853103637695312500e+01) (4, -3.09751629829406738281e+00) (5, 1.49100532531738281250e+01) (6, 3.47057104110717773438e+00) (7, 3.90099763870239257812e+00) (8, -3.88936471939086914062e+00) (9, -7.73817443847656250000e+00) (10, 2.19862699508666992188e+00) (11, 1.36668455600738525391e+00) (12, -1.92582297325134277344e+00) 
