FANN_FLO_2.1
num_layers=3
learning_rate=0.500000
connection_rate=1.000000
network_type=0
learning_momentum=0.000000
training_algorithm=2
train_error_function=1
train_stop_function=0
cascade_output_change_fraction=0.010000
quickprop_decay=-0.000100
quickprop_mu=1.750000
rprop_increase_factor=1.200000
rprop_decrease_factor=0.500000
rprop_delta_min=0.000000
rprop_delta_max=50.000000
rprop_delta_zero=0.100000
cascade_output_stagnation_epochs=12
cascade_candidate_change_fraction=0.010000
cascade_candidate_stagnation_epochs=12
cascade_max_out_epochs=150
cascade_min_out_epochs=50
cascade_max_cand_epochs=150
cascade_min_cand_epochs=50
cascade_num_candidate_groups=2
bit_fail_limit=3.49999994039535522461e-01
cascade_candidate_limit=1.00000000000000000000e+03
cascade_weight_multiplier=4.00000005960464477539e-01
cascade_activation_functions_count=10
cascade_activation_functions=3 5 7 8 10 11 14 15 16 17 
cascade_activation_steepnesses_count=4
cascade_activation_steepnesses=2.50000000000000000000e-01 5.00000000000000000000e-01 7.50000000000000000000e-01 1.00000000000000000000e+00 
layer_sizes=10 3 2 
scale_included=0
neurons (num_inputs, activation_function, activation_steepness)=(0, 0, 0.00000000000000000000e+00) (0, 0, 0.00000000000000000000e+00) (0, 0, 0.00000000000000000000e+00) (0, 0, 0.00000000000000000000e+00) (0, 0, 0.00000000000000000000e+00) (0, 0, 0.00000000000000000000e+00) (0, 0, 0.00000000000000000000e+00) (0, 0, 0.00000000000000000000e+00) (0, 0, 0.00000000000000000000e+00) (0, 0, 0.00000000000000000000e+00) (10, 3, 5.00000000000000000000e-01) (10, 3, 5.00000000000000000000e-01) (0, 3, 0.00000000000000000000e+00) (3, 3, 5.00000000000000000000e-01) (0, 3, 0.00000000000000000000e+00) 
connections (connected_to_neuron, weight)=(0, 1.08281078338623046875e+01) (1, 1.79653644561767578125e-01) (2, -2.07894158363342285156e+00) (3, 1.33774757385253906250e+00) (4, -1.68755149841308593750e+01) (5, 3.37409949302673339844e+00) (6, -3.09078121185302734375e+00) (7, 3.52383637428283691406e+00) (8, 1.43238143920898437500e+01) (9, 1.99518060684204101562e+00) (0, 1.07413539886474609375e+01) (1, 5.19365167617797851562e+00) (2, -4.28879404067993164062e+00) (3, 6.68143749237060546875e+00) (4, -8.93064117431640625000e+00) (5, 1.47670936584472656250e+01) (6, 6.83710956573486328125e+00) (7, 8.81511092185974121094e-01) (8, 1.10972785949707031250e+01) (9, -1.22531652450561523438e+01) (10, 5.92129528522491455078e-02) (11, 1.75248682498931884766e+00) (12, -4.64378684759140014648e-01) 
