FANN_FLO_2.1
num_layers=3
learning_rate=0.500000
connection_rate=1.000000
network_type=0
learning_momentum=0.000000
training_algorithm=2
train_error_function=1
train_stop_function=0
cascade_output_change_fraction=0.010000
quickprop_decay=-0.000100
quickprop_mu=1.750000
rprop_increase_factor=1.200000
rprop_decrease_factor=0.500000
rprop_delta_min=0.000000
rprop_delta_max=50.000000
rprop_delta_zero=0.100000
cascade_output_stagnation_epochs=12
cascade_candidate_change_fraction=0.010000
cascade_candidate_stagnation_epochs=12
cascade_max_out_epochs=150
cascade_min_out_epochs=50
cascade_max_cand_epochs=150
cascade_min_cand_epochs=50
cascade_num_candidate_groups=2
bit_fail_limit=3.49999994039535522461e-01
cascade_candidate_limit=1.00000000000000000000e+03
cascade_weight_multiplier=4.00000005960464477539e-01
cascade_activation_functions_count=10
cascade_activation_functions=3 5 7 8 10 11 14 15 16 17 
cascade_activation_steepnesses_count=4
cascade_activation_steepnesses=2.50000000000000000000e-01 5.00000000000000000000e-01 7.50000000000000000000e-01 1.00000000000000000000e+00 
layer_sizes=10 5 2 
scale_included=0
neurons (num_inputs, activation_function, activation_steepness)=(0, 0, 0.00000000000000000000e+00) (0, 0, 0.00000000000000000000e+00) (0, 0, 0.00000000000000000000e+00) (0, 0, 0.00000000000000000000e+00) (0, 0, 0.00000000000000000000e+00) (0, 0, 0.00000000000000000000e+00) (0, 0, 0.00000000000000000000e+00) (0, 0, 0.00000000000000000000e+00) (0, 0, 0.00000000000000000000e+00) (0, 0, 0.00000000000000000000e+00) (10, 3, 5.00000000000000000000e-01) (10, 3, 5.00000000000000000000e-01) (10, 3, 5.00000000000000000000e-01) (10, 3, 5.00000000000000000000e-01) (0, 3, 0.00000000000000000000e+00) (5, 3, 5.00000000000000000000e-01) (0, 3, 0.00000000000000000000e+00) 
connections (connected_to_neuron, weight)=(0, -1.08325395584106445312e+01) (1, -7.13460493087768554688e+00) (2, 1.20882558822631835938e+00) (3, -9.29499626159667968750e+00) (4, -3.00912111997604370117e-01) (5, 1.14747915267944335938e+01) (6, -2.29513978958129882812e+00) (7, 7.99280929565429687500e+00) (8, 8.97908878326416015625e+00) (9, -2.83997464179992675781e+00) (0, 5.94074487686157226562e+00) (1, 9.20905888080596923828e-01) (2, -2.03391838073730468750e+01) (3, 2.27108383178710937500e+00) (4, 3.49670553207397460938e+00) (5, -7.72038698196411132812e+00) (6, 6.21975851058959960938e+00) (7, 9.35738945007324218750e+00) (8, 1.95433068275451660156e+00) (9, -6.37398672103881835938e+00) (0, 4.24850130081176757812e+00) (1, 1.36916399002075195312e+01) (2, 9.05894374847412109375e+00) (3, -1.06740081310272216797e+00) (4, -8.69592905044555664062e-01) (5, 3.85501742362976074219e+00) (6, -9.19138908386230468750e+00) (7, -1.37546777725219726562e+01) (8, -6.28844738006591796875e+00) (9, -3.04240012168884277344e+00) (0, 7.52273893356323242188e+00) (1, -7.18397045135498046875e+00) (2, -8.66829586029052734375e+00) (3, 1.22337779998779296875e+01) (4, 2.91863822937011718750e+00) (5, -1.78078880310058593750e+01) (6, 1.20420045852661132812e+01) (7, 3.54771280288696289062e+00) (8, -2.62352538108825683594e+00) (9, -3.95491647720336914062e+00) (10, 5.11172819137573242188e+00) (11, 1.39025115966796875000e+00) (12, 4.81574869155883789062e+00) (13, 4.10760784149169921875e+00) (14, -1.97443926334381103516e+00) 
