FANN_FLO_2.1
num_layers=3
learning_rate=0.500000
connection_rate=1.000000
network_type=0
learning_momentum=0.000000
training_algorithm=2
train_error_function=1
train_stop_function=0
cascade_output_change_fraction=0.010000
quickprop_decay=-0.000100
quickprop_mu=1.750000
rprop_increase_factor=1.200000
rprop_decrease_factor=0.500000
rprop_delta_min=0.000000
rprop_delta_max=50.000000
rprop_delta_zero=0.100000
cascade_output_stagnation_epochs=12
cascade_candidate_change_fraction=0.010000
cascade_candidate_stagnation_epochs=12
cascade_max_out_epochs=150
cascade_min_out_epochs=50
cascade_max_cand_epochs=150
cascade_min_cand_epochs=50
cascade_num_candidate_groups=2
bit_fail_limit=3.49999994039535522461e-01
cascade_candidate_limit=1.00000000000000000000e+03
cascade_weight_multiplier=4.00000005960464477539e-01
cascade_activation_functions_count=10
cascade_activation_functions=3 5 7 8 10 11 14 15 16 17 
cascade_activation_steepnesses_count=4
cascade_activation_steepnesses=2.50000000000000000000e-01 5.00000000000000000000e-01 7.50000000000000000000e-01 1.00000000000000000000e+00 
layer_sizes=10 3 2 
scale_included=0
neurons (num_inputs, activation_function, activation_steepness)=(0, 0, 0.00000000000000000000e+00) (0, 0, 0.00000000000000000000e+00) (0, 0, 0.00000000000000000000e+00) (0, 0, 0.00000000000000000000e+00) (0, 0, 0.00000000000000000000e+00) (0, 0, 0.00000000000000000000e+00) (0, 0, 0.00000000000000000000e+00) (0, 0, 0.00000000000000000000e+00) (0, 0, 0.00000000000000000000e+00) (0, 0, 0.00000000000000000000e+00) (10, 3, 5.00000000000000000000e-01) (10, 3, 5.00000000000000000000e-01) (0, 3, 0.00000000000000000000e+00) (3, 3, 5.00000000000000000000e-01) (0, 3, 0.00000000000000000000e+00) 
connections (connected_to_neuron, weight)=(0, -5.33948373794555664062e+00) (1, 1.45867609977722167969e+00) (2, 5.66737222671508789062e+00) (3, -1.23900070190429687500e+01) (4, -9.16239917278289794922e-01) (5, 1.22348728179931640625e+01) (6, -9.52506351470947265625e+00) (7, -1.76169443130493164062e+00) (8, 3.01434397697448730469e+00) (9, -3.36956977844238281250e-01) (0, 1.62598848342895507812e+00) (1, 1.13875341415405273438e+01) (2, -3.36783170700073242188e+00) (3, 1.54268865585327148438e+01) (4, -4.68975305557250976562e+00) (5, -9.78539371490478515625e+00) (6, 1.26097249984741210938e+01) (7, 8.59345531463623046875e+00) (8, -2.12495589256286621094e+00) (9, -1.00394916534423828125e+01) (10, 5.60445022583007812500e+00) (11, 2.63302683830261230469e+00) (12, -1.58446288108825683594e+00) 
