FANN_FLO_2.1
num_layers=3
learning_rate=0.500000
connection_rate=1.000000
network_type=0
learning_momentum=0.000000
training_algorithm=2
train_error_function=1
train_stop_function=0
cascade_output_change_fraction=0.010000
quickprop_decay=-0.000100
quickprop_mu=1.750000
rprop_increase_factor=1.200000
rprop_decrease_factor=0.500000
rprop_delta_min=0.000000
rprop_delta_max=50.000000
rprop_delta_zero=0.100000
cascade_output_stagnation_epochs=12
cascade_candidate_change_fraction=0.010000
cascade_candidate_stagnation_epochs=12
cascade_max_out_epochs=150
cascade_min_out_epochs=50
cascade_max_cand_epochs=150
cascade_min_cand_epochs=50
cascade_num_candidate_groups=2
bit_fail_limit=3.49999994039535522461e-01
cascade_candidate_limit=1.00000000000000000000e+03
cascade_weight_multiplier=4.00000005960464477539e-01
cascade_activation_functions_count=10
cascade_activation_functions=3 5 7 8 10 11 14 15 16 17 
cascade_activation_steepnesses_count=4
cascade_activation_steepnesses=2.50000000000000000000e-01 5.00000000000000000000e-01 7.50000000000000000000e-01 1.00000000000000000000e+00 
layer_sizes=10 5 2 
scale_included=0
neurons (num_inputs, activation_function, activation_steepness)=(0, 0, 0.00000000000000000000e+00) (0, 0, 0.00000000000000000000e+00) (0, 0, 0.00000000000000000000e+00) (0, 0, 0.00000000000000000000e+00) (0, 0, 0.00000000000000000000e+00) (0, 0, 0.00000000000000000000e+00) (0, 0, 0.00000000000000000000e+00) (0, 0, 0.00000000000000000000e+00) (0, 0, 0.00000000000000000000e+00) (0, 0, 0.00000000000000000000e+00) (10, 3, 5.00000000000000000000e-01) (10, 3, 5.00000000000000000000e-01) (10, 3, 5.00000000000000000000e-01) (10, 3, 5.00000000000000000000e-01) (0, 3, 0.00000000000000000000e+00) (5, 3, 5.00000000000000000000e-01) (0, 3, 0.00000000000000000000e+00) 
connections (connected_to_neuron, weight)=(0, -3.96483039855957031250e+00) (1, -2.17844104766845703125e+01) (2, 6.33265495300292968750e+00) (3, -7.16066074371337890625e+00) (4, -8.61346149444580078125e+00) (5, 7.68950605392456054688e+00) (6, 3.37551355361938476562e+00) (7, 3.65124931335449218750e+01) (8, -1.54111039638519287109e+00) (9, -8.87349891662597656250e+00) (0, 5.45836448669433593750e+00) (1, 1.23449964523315429688e+01) (2, 1.12703714370727539062e+01) (3, -6.53896665573120117188e+00) (4, 9.29942071437835693359e-01) (5, 3.80312633514404296875e+00) (6, -6.71937561035156250000e+00) (7, -1.74034156799316406250e+01) (8, -2.71764779090881347656e+00) (9, -3.31555080413818359375e+00) (0, -3.53193244934082031250e+01) (1, -3.25629386901855468750e+01) (2, 1.19262540340423583984e+00) (3, -1.82427158355712890625e+01) (4, 3.60669946670532226562e+00) (5, 1.41706657409667968750e+01) (6, -5.50310516357421875000e+00) (7, 2.96023674011230468750e+01) (8, 3.79080314636230468750e+01) (9, -6.95059347152709960938e+00) (0, 5.28547430038452148438e+00) (1, -4.32445859909057617188e+00) (2, -1.48000516891479492188e+01) (3, 1.31406698226928710938e+01) (4, 2.71261620521545410156e+00) (5, -1.01236991882324218750e+01) (6, 1.31051902770996093750e+01) (7, -3.82370859384536743164e-01) (8, -7.53985071182250976562e+00) (9, -2.17905902862548828125e+00) (10, 1.10550463199615478516e+00) (11, 4.60526084899902343750e+00) (12, 3.42618846893310546875e+00) (13, 4.67874622344970703125e+00) (14, -1.48978316783905029297e+00) 
