FANN_FLO_2.1
num_layers=3
learning_rate=0.500000
connection_rate=1.000000
network_type=0
learning_momentum=0.000000
training_algorithm=2
train_error_function=1
train_stop_function=0
cascade_output_change_fraction=0.010000
quickprop_decay=-0.000100
quickprop_mu=1.750000
rprop_increase_factor=1.200000
rprop_decrease_factor=0.500000
rprop_delta_min=0.000000
rprop_delta_max=50.000000
rprop_delta_zero=0.100000
cascade_output_stagnation_epochs=12
cascade_candidate_change_fraction=0.010000
cascade_candidate_stagnation_epochs=12
cascade_max_out_epochs=150
cascade_min_out_epochs=50
cascade_max_cand_epochs=150
cascade_min_cand_epochs=50
cascade_num_candidate_groups=2
bit_fail_limit=3.49999994039535522461e-01
cascade_candidate_limit=1.00000000000000000000e+03
cascade_weight_multiplier=4.00000005960464477539e-01
cascade_activation_functions_count=10
cascade_activation_functions=3 5 7 8 10 11 14 15 16 17 
cascade_activation_steepnesses_count=4
cascade_activation_steepnesses=2.50000000000000000000e-01 5.00000000000000000000e-01 7.50000000000000000000e-01 1.00000000000000000000e+00 
layer_sizes=6 5 2 
scale_included=0
neurons (num_inputs, activation_function, activation_steepness)=(0, 0, 0.00000000000000000000e+00) (0, 0, 0.00000000000000000000e+00) (0, 0, 0.00000000000000000000e+00) (0, 0, 0.00000000000000000000e+00) (0, 0, 0.00000000000000000000e+00) (0, 0, 0.00000000000000000000e+00) (6, 3, 5.00000000000000000000e-01) (6, 3, 5.00000000000000000000e-01) (6, 3, 5.00000000000000000000e-01) (6, 3, 5.00000000000000000000e-01) (0, 3, 0.00000000000000000000e+00) (5, 0, 5.00000000000000000000e-01) (0, 0, 0.00000000000000000000e+00) 
connections (connected_to_neuron, weight)=(0, 9.30238604545593261719e-01) (1, 1.13365516662597656250e+01) (2, -2.08147501945495605469e+00) (3, 5.38969755172729492188e+00) (4, -7.60656499862670898438e+00) (5, 3.21379494667053222656e+00) (0, 7.69400775432586669922e-01) (1, 4.80475711822509765625e+00) (2, 1.65893030166625976562e+00) (3, -1.00830411911010742188e+01) (4, 8.83493137359619140625e+00) (5, 3.73334693908691406250e+00) (0, -2.49732598662376403809e-01) (1, -2.95027112960815429688e+00) (2, 3.23926997184753417969e+00) (3, 2.06933617591857910156e+00) (4, -6.83588981628417968750e-02) (5, 3.61363315582275390625e+00) (0, 8.44977259635925292969e-01) (1, -3.63438057899475097656e+00) (2, -9.40908908843994140625e+00) (3, -8.35697710514068603516e-01) (4, 5.19763946533203125000e+00) (5, 3.29466772079467773438e+00) (6, 8.62586975097656250000e-01) (7, 8.56379687786102294922e-01) (8, 9.23362553119659423828e-01) (9, 8.98802459239959716797e-01) (10, 8.67404282093048095703e-01) 
