FANN_FLO_2.1
num_layers=3
learning_rate=0.500000
connection_rate=1.000000
network_type=0
learning_momentum=0.000000
training_algorithm=2
train_error_function=1
train_stop_function=0
cascade_output_change_fraction=0.010000
quickprop_decay=-0.000100
quickprop_mu=1.750000
rprop_increase_factor=1.200000
rprop_decrease_factor=0.500000
rprop_delta_min=0.000000
rprop_delta_max=50.000000
rprop_delta_zero=0.100000
cascade_output_stagnation_epochs=12
cascade_candidate_change_fraction=0.010000
cascade_candidate_stagnation_epochs=12
cascade_max_out_epochs=150
cascade_min_out_epochs=50
cascade_max_cand_epochs=150
cascade_min_cand_epochs=50
cascade_num_candidate_groups=2
bit_fail_limit=3.49999994039535522461e-01
cascade_candidate_limit=1.00000000000000000000e+03
cascade_weight_multiplier=4.00000005960464477539e-01
cascade_activation_functions_count=10
cascade_activation_functions=3 5 7 8 10 11 14 15 16 17 
cascade_activation_steepnesses_count=4
cascade_activation_steepnesses=2.50000000000000000000e-01 5.00000000000000000000e-01 7.50000000000000000000e-01 1.00000000000000000000e+00 
layer_sizes=10 5 2 
scale_included=0
neurons (num_inputs, activation_function, activation_steepness)=(0, 0, 0.00000000000000000000e+00) (0, 0, 0.00000000000000000000e+00) (0, 0, 0.00000000000000000000e+00) (0, 0, 0.00000000000000000000e+00) (0, 0, 0.00000000000000000000e+00) (0, 0, 0.00000000000000000000e+00) (0, 0, 0.00000000000000000000e+00) (0, 0, 0.00000000000000000000e+00) (0, 0, 0.00000000000000000000e+00) (0, 0, 0.00000000000000000000e+00) (10, 3, 5.00000000000000000000e-01) (10, 3, 5.00000000000000000000e-01) (10, 3, 5.00000000000000000000e-01) (10, 3, 5.00000000000000000000e-01) (0, 3, 0.00000000000000000000e+00) (5, 3, 5.00000000000000000000e-01) (0, 3, 0.00000000000000000000e+00) 
connections (connected_to_neuron, weight)=(0, -1.46368816494941711426e-01) (1, 1.30287399291992187500e+01) (2, 1.64809589385986328125e+01) (3, -1.42467603683471679688e+01) (4, -9.62114393711090087891e-01) (5, 1.46185798645019531250e+01) (6, -1.55785751342773437500e+01) (7, -1.34306373596191406250e+01) (8, 2.17722296714782714844e+00) (9, -5.67776393890380859375e+00) (0, 6.68331623077392578125e+00) (1, 1.66519343852996826172e-01) (2, 3.72412452697753906250e+01) (3, -5.75917541503906250000e+02) (4, 4.09785896539688110352e-01) (5, 4.61339141845703125000e+02) (6, -4.29851859807968139648e-01) (7, -7.57669143676757812500e+01) (8, 4.63625371456146240234e-01) (9, -2.15436840057373046875e+00) (0, 6.80917835235595703125e+00) (1, 4.64539957046508789062e+00) (2, -2.80436253547668457031e+00) (3, 8.86548805236816406250e+00) (4, 1.01377330720424652100e-01) (5, -9.63027667999267578125e+00) (6, 2.33878207206726074219e+00) (7, -3.87173914909362792969e+00) (8, -7.38154125213623046875e+00) (9, -2.06688356399536132812e+00) (0, -1.11799669265747070312e+01) (1, -2.08488235473632812500e+01) (2, -5.14276885986328125000e+00) (3, 2.70056271553039550781e+00) (4, 2.92671859264373779297e-01) (5, 3.45435082912445068359e-01) (6, 6.03558206558227539062e+00) (7, 1.60858097076416015625e+01) (8, 1.29177532196044921875e+01) (9, -3.92564320564270019531e+00) (10, 4.23346948623657226562e+00) (11, 9.05908882617950439453e-01) (12, 5.68235683441162109375e+00) (13, 3.86283588409423828125e+00) (14, -1.85532915592193603516e+00) 
