FANN_FLO_2.1
num_layers=3
learning_rate=0.500000
connection_rate=1.000000
network_type=0
learning_momentum=0.000000
training_algorithm=2
train_error_function=1
train_stop_function=0
cascade_output_change_fraction=0.010000
quickprop_decay=-0.000100
quickprop_mu=1.750000
rprop_increase_factor=1.200000
rprop_decrease_factor=0.500000
rprop_delta_min=0.000000
rprop_delta_max=50.000000
rprop_delta_zero=0.100000
cascade_output_stagnation_epochs=12
cascade_candidate_change_fraction=0.010000
cascade_candidate_stagnation_epochs=12
cascade_max_out_epochs=150
cascade_min_out_epochs=50
cascade_max_cand_epochs=150
cascade_min_cand_epochs=50
cascade_num_candidate_groups=2
bit_fail_limit=3.49999994039535522461e-01
cascade_candidate_limit=1.00000000000000000000e+03
cascade_weight_multiplier=4.00000005960464477539e-01
cascade_activation_functions_count=10
cascade_activation_functions=3 5 7 8 10 11 14 15 16 17 
cascade_activation_steepnesses_count=4
cascade_activation_steepnesses=2.50000000000000000000e-01 5.00000000000000000000e-01 7.50000000000000000000e-01 1.00000000000000000000e+00 
layer_sizes=6 5 2 
scale_included=0
neurons (num_inputs, activation_function, activation_steepness)=(0, 0, 0.00000000000000000000e+00) (0, 0, 0.00000000000000000000e+00) (0, 0, 0.00000000000000000000e+00) (0, 0, 0.00000000000000000000e+00) (0, 0, 0.00000000000000000000e+00) (0, 0, 0.00000000000000000000e+00) (6, 3, 5.00000000000000000000e-01) (6, 3, 5.00000000000000000000e-01) (6, 3, 5.00000000000000000000e-01) (6, 3, 5.00000000000000000000e-01) (0, 3, 0.00000000000000000000e+00) (5, 0, 5.00000000000000000000e-01) (0, 0, 0.00000000000000000000e+00) 
connections (connected_to_neuron, weight)=(0, 3.03906351327896118164e-01) (1, -9.89622712135314941406e-01) (2, 2.37441086769104003906e+00) (3, 9.41697359085083007812e-01) (4, -3.82443636655807495117e-01) (5, 5.80141544342041015625e-01) (0, 1.21816253662109375000e+00) (1, 5.23600280284881591797e-01) (2, -1.39172506332397460938e+01) (3, 7.83257067203521728516e-01) (4, -1.47985732555389404297e+00) (5, 3.78166437149047851562e+00) (0, -3.77615064382553100586e-01) (1, 2.60715186595916748047e-02) (2, 8.76642405986785888672e-01) (3, -2.64954686164855957031e-01) (4, 2.55894422531127929688e-01) (5, 3.91398072242736816406e-01) (0, 1.47359445691108703613e-01) (1, 5.30322313308715820312e-01) (2, -2.58143186569213867188e+00) (3, -2.95164078474044799805e-01) (4, 1.51114210486412048340e-01) (5, 3.18945348262786865234e-01) (6, 1.03507304191589355469e+00) (7, 1.22084760665893554688e+00) (8, 1.06977951526641845703e+00) (9, 1.06982159614562988281e+00) (10, 1.20232725143432617188e+00) 
