FANN_FLO_2.1
num_layers=3
learning_rate=0.500000
connection_rate=1.000000
network_type=0
learning_momentum=0.000000
training_algorithm=2
train_error_function=1
train_stop_function=0
cascade_output_change_fraction=0.010000
quickprop_decay=-0.000100
quickprop_mu=1.750000
rprop_increase_factor=1.200000
rprop_decrease_factor=0.500000
rprop_delta_min=0.000000
rprop_delta_max=50.000000
rprop_delta_zero=0.100000
cascade_output_stagnation_epochs=12
cascade_candidate_change_fraction=0.010000
cascade_candidate_stagnation_epochs=12
cascade_max_out_epochs=150
cascade_min_out_epochs=50
cascade_max_cand_epochs=150
cascade_min_cand_epochs=50
cascade_num_candidate_groups=2
bit_fail_limit=3.49999994039535522461e-01
cascade_candidate_limit=1.00000000000000000000e+03
cascade_weight_multiplier=4.00000005960464477539e-01
cascade_activation_functions_count=10
cascade_activation_functions=3 5 7 8 10 11 14 15 16 17 
cascade_activation_steepnesses_count=4
cascade_activation_steepnesses=2.50000000000000000000e-01 5.00000000000000000000e-01 7.50000000000000000000e-01 1.00000000000000000000e+00 
layer_sizes=10 5 2 
scale_included=0
neurons (num_inputs, activation_function, activation_steepness)=(0, 0, 0.00000000000000000000e+00) (0, 0, 0.00000000000000000000e+00) (0, 0, 0.00000000000000000000e+00) (0, 0, 0.00000000000000000000e+00) (0, 0, 0.00000000000000000000e+00) (0, 0, 0.00000000000000000000e+00) (0, 0, 0.00000000000000000000e+00) (0, 0, 0.00000000000000000000e+00) (0, 0, 0.00000000000000000000e+00) (0, 0, 0.00000000000000000000e+00) (10, 3, 5.00000000000000000000e-01) (10, 3, 5.00000000000000000000e-01) (10, 3, 5.00000000000000000000e-01) (10, 3, 5.00000000000000000000e-01) (0, 3, 0.00000000000000000000e+00) (5, 3, 5.00000000000000000000e-01) (0, 3, 0.00000000000000000000e+00) 
connections (connected_to_neuron, weight)=(0, 2.39040786743164062500e+02) (1, 1.50000000000000000000e+03) (2, 1.28274328613281250000e+03) (3, 5.12854804992675781250e+01) (4, 1.45380737304687500000e+03) (5, 7.30152770996093750000e+02) (6, 8.99467712402343750000e+02) (7, 1.10464819335937500000e+03) (8, 1.83214187622070312500e+01) (9, -4.46746301651000976562e+00) (0, -1.35806198120117187500e+01) (1, -2.07224044799804687500e+01) (2, -4.43654251098632812500e+00) (3, -9.16719150543212890625e+00) (4, 3.05169582366943359375e-01) (5, 1.35605440139770507812e+01) (6, 2.24458956718444824219e+00) (7, 1.09398288726806640625e+01) (8, 2.25846328735351562500e+01) (9, 4.05315113067626953125e+00) (0, -3.23697710037231445312e+00) (1, -1.18189153671264648438e+01) (2, -6.77169895172119140625e+00) (3, 7.57011175155639648438e+00) (4, 2.84331607818603515625e+00) (5, -1.77381718158721923828e+00) (6, 4.16278934478759765625e+00) (7, 5.28275108337402343750e+00) (8, 3.86270594596862792969e+00) (9, -2.96868872642517089844e+00) (0, 7.43931913375854492188e+00) (1, -4.77764606475830078125e+00) (2, -1.35622997283935546875e+01) (3, 2.30844097137451171875e+01) (4, 1.76354080438613891602e-01) (5, -1.68660163879394531250e+01) (6, 9.52715778350830078125e+00) (7, 3.17988586425781250000e+00) (8, -7.27118206024169921875e+00) (9, 3.17235088348388671875e+00) (10, 3.31101685762405395508e-01) (11, -3.19528269767761230469e+00) (12, 5.68417835235595703125e+00) (13, -2.79648184776306152344e+00) (14, 4.48753643035888671875e+00) 
