FANN_FLO_2.1
num_layers=3
learning_rate=0.500000
connection_rate=1.000000
network_type=0
learning_momentum=0.000000
training_algorithm=2
train_error_function=1
train_stop_function=0
cascade_output_change_fraction=0.010000
quickprop_decay=-0.000100
quickprop_mu=1.750000
rprop_increase_factor=1.200000
rprop_decrease_factor=0.500000
rprop_delta_min=0.000000
rprop_delta_max=50.000000
rprop_delta_zero=0.100000
cascade_output_stagnation_epochs=12
cascade_candidate_change_fraction=0.010000
cascade_candidate_stagnation_epochs=12
cascade_max_out_epochs=150
cascade_min_out_epochs=50
cascade_max_cand_epochs=150
cascade_min_cand_epochs=50
cascade_num_candidate_groups=2
bit_fail_limit=3.49999994039535522461e-01
cascade_candidate_limit=1.00000000000000000000e+03
cascade_weight_multiplier=4.00000005960464477539e-01
cascade_activation_functions_count=10
cascade_activation_functions=3 5 7 8 10 11 14 15 16 17 
cascade_activation_steepnesses_count=4
cascade_activation_steepnesses=2.50000000000000000000e-01 5.00000000000000000000e-01 7.50000000000000000000e-01 1.00000000000000000000e+00 
layer_sizes=6 5 2 
scale_included=0
neurons (num_inputs, activation_function, activation_steepness)=(0, 0, 0.00000000000000000000e+00) (0, 0, 0.00000000000000000000e+00) (0, 0, 0.00000000000000000000e+00) (0, 0, 0.00000000000000000000e+00) (0, 0, 0.00000000000000000000e+00) (0, 0, 0.00000000000000000000e+00) (6, 3, 5.00000000000000000000e-01) (6, 3, 5.00000000000000000000e-01) (6, 3, 5.00000000000000000000e-01) (6, 3, 5.00000000000000000000e-01) (0, 3, 0.00000000000000000000e+00) (5, 0, 5.00000000000000000000e-01) (0, 0, 0.00000000000000000000e+00) 
connections (connected_to_neuron, weight)=(0, -1.19638396427035331726e-02) (1, 2.00772851705551147461e-01) (2, 1.41499817371368408203e-01) (3, 3.11537241935729980469e+00) (4, -3.10908734798431396484e-01) (5, 4.64218407869338989258e-01) (0, 5.28763011097908020020e-02) (1, 3.05017028003931045532e-02) (2, 1.02546148002147674561e-01) (3, 4.18728202581405639648e-01) (4, -1.41958385705947875977e-01) (5, 4.09720510244369506836e-01) (0, 1.31920492649078369141e+00) (1, -1.68002929687500000000e+01) (2, 4.33014333248138427734e-01) (3, -7.06324100494384765625e+00) (4, -1.72048592567443847656e+00) (5, 3.64065599441528320312e+00) (0, -7.02148899435997009277e-02) (1, 4.21702936291694641113e-02) (2, -2.65604346990585327148e-01) (3, -3.40124320983886718750e+00) (4, 1.76539063453674316406e-01) (5, 3.98653805255889892578e-01) (6, 1.07887697219848632812e+00) (7, 1.02760982513427734375e+00) (8, 1.24267756938934326172e+00) (9, 1.07285976409912109375e+00) (10, 1.19709300994873046875e+00) 
