FANN_FLO_2.1
num_layers=3
learning_rate=0.500000
connection_rate=1.000000
network_type=0
learning_momentum=0.000000
training_algorithm=2
train_error_function=1
train_stop_function=0
cascade_output_change_fraction=0.010000
quickprop_decay=-0.000100
quickprop_mu=1.750000
rprop_increase_factor=1.200000
rprop_decrease_factor=0.500000
rprop_delta_min=0.000000
rprop_delta_max=50.000000
rprop_delta_zero=0.100000
cascade_output_stagnation_epochs=12
cascade_candidate_change_fraction=0.010000
cascade_candidate_stagnation_epochs=12
cascade_max_out_epochs=150
cascade_min_out_epochs=50
cascade_max_cand_epochs=150
cascade_min_cand_epochs=50
cascade_num_candidate_groups=2
bit_fail_limit=3.49999994039535522461e-01
cascade_candidate_limit=1.00000000000000000000e+03
cascade_weight_multiplier=4.00000005960464477539e-01
cascade_activation_functions_count=10
cascade_activation_functions=3 5 7 8 10 11 14 15 16 17 
cascade_activation_steepnesses_count=4
cascade_activation_steepnesses=2.50000000000000000000e-01 5.00000000000000000000e-01 7.50000000000000000000e-01 1.00000000000000000000e+00 
layer_sizes=6 5 2 
scale_included=0
neurons (num_inputs, activation_function, activation_steepness)=(0, 0, 0.00000000000000000000e+00) (0, 0, 0.00000000000000000000e+00) (0, 0, 0.00000000000000000000e+00) (0, 0, 0.00000000000000000000e+00) (0, 0, 0.00000000000000000000e+00) (0, 0, 0.00000000000000000000e+00) (6, 3, 5.00000000000000000000e-01) (6, 3, 5.00000000000000000000e-01) (6, 3, 5.00000000000000000000e-01) (6, 3, 5.00000000000000000000e-01) (0, 3, 0.00000000000000000000e+00) (5, 0, 5.00000000000000000000e-01) (0, 0, 0.00000000000000000000e+00) 
connections (connected_to_neuron, weight)=(0, 1.29917934536933898926e-01) (1, 7.68002644181251525879e-02) (2, -1.10266275703907012939e-01) (3, -1.38001263141632080078e-01) (4, -3.78755331039428710938e-01) (5, 4.43714886903762817383e-01) (0, -7.22125396132469177246e-02) (1, 7.97372460365295410156e-02) (2, -6.46593347191810607910e-02) (3, -1.83427855372428894043e-01) (4, -1.70331791043281555176e-01) (5, 3.93098354339599609375e-01) (0, -7.54789859056472778320e-02) (1, 7.71156251430511474609e-02) (2, 2.60691773146390914917e-02) (3, -1.32606014609336853027e-01) (4, -6.15671426057815551758e-02) (5, 2.94056415557861328125e-01) (0, 1.25376462936401367188e+00) (1, -1.91284561157226562500e+00) (2, 7.69174993038177490234e-01) (3, 1.91965999603271484375e+01) (4, -2.42155528068542480469e+00) (5, 4.88965320587158203125e+00) (6, 1.03187143802642822266e+00) (7, 1.11597061157226562500e+00) (8, 1.05984902381896972656e+00) (9, 1.21873688697814941406e+00) (10, 1.23557424545288085938e+00) 
