FANN_FLO_2.1
num_layers=3
learning_rate=0.500000
connection_rate=1.000000
network_type=0
learning_momentum=0.000000
training_algorithm=2
train_error_function=1
train_stop_function=0
cascade_output_change_fraction=0.010000
quickprop_decay=-0.000100
quickprop_mu=1.750000
rprop_increase_factor=1.200000
rprop_decrease_factor=0.500000
rprop_delta_min=0.000000
rprop_delta_max=50.000000
rprop_delta_zero=0.100000
cascade_output_stagnation_epochs=12
cascade_candidate_change_fraction=0.010000
cascade_candidate_stagnation_epochs=12
cascade_max_out_epochs=150
cascade_min_out_epochs=50
cascade_max_cand_epochs=150
cascade_min_cand_epochs=50
cascade_num_candidate_groups=2
bit_fail_limit=3.49999994039535522461e-01
cascade_candidate_limit=1.00000000000000000000e+03
cascade_weight_multiplier=4.00000005960464477539e-01
cascade_activation_functions_count=10
cascade_activation_functions=3 5 7 8 10 11 14 15 16 17 
cascade_activation_steepnesses_count=4
cascade_activation_steepnesses=2.50000000000000000000e-01 5.00000000000000000000e-01 7.50000000000000000000e-01 1.00000000000000000000e+00 
layer_sizes=10 5 2 
scale_included=0
neurons (num_inputs, activation_function, activation_steepness)=(0, 0, 0.00000000000000000000e+00) (0, 0, 0.00000000000000000000e+00) (0, 0, 0.00000000000000000000e+00) (0, 0, 0.00000000000000000000e+00) (0, 0, 0.00000000000000000000e+00) (0, 0, 0.00000000000000000000e+00) (0, 0, 0.00000000000000000000e+00) (0, 0, 0.00000000000000000000e+00) (0, 0, 0.00000000000000000000e+00) (0, 0, 0.00000000000000000000e+00) (10, 3, 5.00000000000000000000e-01) (10, 3, 5.00000000000000000000e-01) (10, 3, 5.00000000000000000000e-01) (10, 3, 5.00000000000000000000e-01) (0, 3, 0.00000000000000000000e+00) (5, 3, 5.00000000000000000000e-01) (0, 3, 0.00000000000000000000e+00) 
connections (connected_to_neuron, weight)=(0, 9.18589973449707031250e+00) (1, 1.52172851562500000000e+01) (2, 2.04853515625000000000e+01) (3, -2.91349864006042480469e+00) (4, -7.09287822246551513672e-01) (5, 2.91857600212097167969e+00) (6, -1.79592399597167968750e+01) (7, -2.06458892822265625000e+01) (8, -1.02827062606811523438e+01) (9, -2.75921034812927246094e+00) (0, -1.20108976364135742188e+01) (1, -3.55372118949890136719e+00) (2, -4.60368108749389648438e+00) (3, -1.71625328063964843750e+01) (4, -1.24607789516448974609e+00) (5, 1.94577407836914062500e+01) (6, -1.63560199737548828125e+00) (7, 1.49239606857299804688e+01) (8, 7.18644285202026367188e+00) (9, -4.51342201232910156250e+00) (0, 7.76461029052734375000e+00) (1, -3.45447826385498046875e+00) (2, -7.00618791580200195312e+00) (3, 1.31004810333251953125e+01) (4, -9.25522744655609130859e-01) (5, -1.77469863891601562500e+01) (6, 9.14961242675781250000e+00) (7, 3.84069502353668212891e-01) (8, -2.31345129013061523438e+00) (9, -2.57074213027954101562e+00) (0, -1.45117297363281250000e+03) (1, -1.49198425292968750000e+03) (2, 8.48120269775390625000e+01) (3, -1.32466857910156250000e+03) (4, -1.17607946777343750000e+03) (5, 1.16667308807373046875e+01) (6, -5.44267883300781250000e+02) (7, 1.50151071548461914062e+01) (8, 1.50000000000000000000e+03) (9, -9.94323825836181640625e+00) (10, 3.35918617248535156250e+00) (11, 3.62564253807067871094e+00) (12, 3.89400863647460937500e+00) (13, 1.50000000000000000000e+03) (14, -1.06324410438537597656e+00) 
