FANN_FLO_2.1
num_layers=3
learning_rate=0.500000
connection_rate=1.000000
network_type=0
learning_momentum=0.000000
training_algorithm=2
train_error_function=1
train_stop_function=0
cascade_output_change_fraction=0.010000
quickprop_decay=-0.000100
quickprop_mu=1.750000
rprop_increase_factor=1.200000
rprop_decrease_factor=0.500000
rprop_delta_min=0.000000
rprop_delta_max=50.000000
rprop_delta_zero=0.100000
cascade_output_stagnation_epochs=12
cascade_candidate_change_fraction=0.010000
cascade_candidate_stagnation_epochs=12
cascade_max_out_epochs=150
cascade_min_out_epochs=50
cascade_max_cand_epochs=150
cascade_min_cand_epochs=50
cascade_num_candidate_groups=2
bit_fail_limit=3.49999994039535522461e-01
cascade_candidate_limit=1.00000000000000000000e+03
cascade_weight_multiplier=4.00000005960464477539e-01
cascade_activation_functions_count=10
cascade_activation_functions=3 5 7 8 10 11 14 15 16 17 
cascade_activation_steepnesses_count=4
cascade_activation_steepnesses=2.50000000000000000000e-01 5.00000000000000000000e-01 7.50000000000000000000e-01 1.00000000000000000000e+00 
layer_sizes=6 5 2 
scale_included=0
neurons (num_inputs, activation_function, activation_steepness)=(0, 0, 0.00000000000000000000e+00) (0, 0, 0.00000000000000000000e+00) (0, 0, 0.00000000000000000000e+00) (0, 0, 0.00000000000000000000e+00) (0, 0, 0.00000000000000000000e+00) (0, 0, 0.00000000000000000000e+00) (6, 3, 5.00000000000000000000e-01) (6, 3, 5.00000000000000000000e-01) (6, 3, 5.00000000000000000000e-01) (6, 3, 5.00000000000000000000e-01) (0, 3, 0.00000000000000000000e+00) (5, 0, 5.00000000000000000000e-01) (0, 0, 0.00000000000000000000e+00) 
connections (connected_to_neuron, weight)=(0, 1.19060838222503662109e+00) (1, 2.53492498397827148438e+00) (2, 5.68811464309692382812e+00) (3, -4.29202747344970703125e+00) (4, 3.78106832504272460938e+00) (5, 1.64039540290832519531e+00) (0, 1.20075201988220214844e+00) (1, -3.74851131439208984375e+00) (2, 3.50781702995300292969e+00) (3, 9.53238296508789062500e+00) (4, 1.79397240281105041504e-02) (5, 1.60836005210876464844e+00) (0, -5.41404485702514648438e-01) (1, -6.86116456985473632812e-01) (2, -2.45764702558517456055e-01) (3, -1.99062263965606689453e+00) (4, -3.14359217882156372070e-01) (5, 3.03514629602432250977e-01) (0, 1.00597560405731201172e+00) (1, 3.27352952957153320312e+00) (2, -3.62457656860351562500e+00) (3, 4.66762876510620117188e+00) (4, -1.79174378514289855957e-01) (5, 1.20289754867553710938e+00) (6, 1.02393066883087158203e+00) (7, 1.01826870441436767578e+00) (8, 9.32832777500152587891e-01) (9, 1.08273458480834960938e+00) (10, 1.01381516456604003906e+00) 
