FANN_FLO_2.1
num_layers=3
learning_rate=0.500000
connection_rate=1.000000
network_type=0
learning_momentum=0.000000
training_algorithm=2
train_error_function=1
train_stop_function=0
cascade_output_change_fraction=0.010000
quickprop_decay=-0.000100
quickprop_mu=1.750000
rprop_increase_factor=1.200000
rprop_decrease_factor=0.500000
rprop_delta_min=0.000000
rprop_delta_max=50.000000
rprop_delta_zero=0.100000
cascade_output_stagnation_epochs=12
cascade_candidate_change_fraction=0.010000
cascade_candidate_stagnation_epochs=12
cascade_max_out_epochs=150
cascade_min_out_epochs=50
cascade_max_cand_epochs=150
cascade_min_cand_epochs=50
cascade_num_candidate_groups=2
bit_fail_limit=3.49999994039535522461e-01
cascade_candidate_limit=1.00000000000000000000e+03
cascade_weight_multiplier=4.00000005960464477539e-01
cascade_activation_functions_count=10
cascade_activation_functions=3 5 7 8 10 11 14 15 16 17 
cascade_activation_steepnesses_count=4
cascade_activation_steepnesses=2.50000000000000000000e-01 5.00000000000000000000e-01 7.50000000000000000000e-01 1.00000000000000000000e+00 
layer_sizes=10 5 2 
scale_included=0
neurons (num_inputs, activation_function, activation_steepness)=(0, 0, 0.00000000000000000000e+00) (0, 0, 0.00000000000000000000e+00) (0, 0, 0.00000000000000000000e+00) (0, 0, 0.00000000000000000000e+00) (0, 0, 0.00000000000000000000e+00) (0, 0, 0.00000000000000000000e+00) (0, 0, 0.00000000000000000000e+00) (0, 0, 0.00000000000000000000e+00) (0, 0, 0.00000000000000000000e+00) (0, 0, 0.00000000000000000000e+00) (10, 3, 5.00000000000000000000e-01) (10, 3, 5.00000000000000000000e-01) (10, 3, 5.00000000000000000000e-01) (10, 3, 5.00000000000000000000e-01) (0, 3, 0.00000000000000000000e+00) (5, 3, 5.00000000000000000000e-01) (0, 3, 0.00000000000000000000e+00) 
connections (connected_to_neuron, weight)=(0, 7.80251502990722656250e+00) (1, 2.14182472229003906250e+01) (2, 6.52065181732177734375e+00) (3, 9.25873279571533203125e+00) (4, -2.46241903305053710938e+00) (5, -4.48540782928466796875e+00) (6, -9.22155761718750000000e+00) (7, -1.89500102996826171875e+01) (8, -1.14098291397094726562e+01) (9, -3.14368510246276855469e+00) (0, -8.67496643066406250000e+02) (1, -1.50000000000000000000e+03) (2, -1.49899047851562500000e+03) (3, 1.30360275268554687500e+02) (4, -1.50000000000000000000e+03) (5, -1.47591857910156250000e+03) (6, -1.49494116210937500000e+03) (7, -2.68566131591796875000e+00) (8, -1.50000000000000000000e+03) (9, -1.86258745193481445312e+00) (0, 3.87355542182922363281e+00) (1, -1.27946796417236328125e+01) (2, -1.23003664016723632812e+01) (3, 1.00860366821289062500e+01) (4, 1.12672722339630126953e+00) (5, -1.40380659103393554688e+01) (6, 1.53029327392578125000e+01) (7, 1.13392314910888671875e+01) (8, -1.87583315372467041016e+00) (9, -4.34444236755371093750e+00) (0, -7.60235881805419921875e+00) (1, -4.32223606109619140625e+00) (2, 3.48018670082092285156e+00) (3, -1.23639402389526367188e+01) (4, 1.18264637887477874756e-01) (5, 1.18297033309936523438e+01) (6, -3.45339441299438476562e+00) (7, 4.96697616577148437500e+00) (8, 6.63436174392700195312e+00) (9, -2.45101451873779296875e+00) (10, 4.14230585098266601562e+00) (11, 1.50000000000000000000e+03) (12, 4.49667453765869140625e+00) (13, 5.31435775756835937500e+00) (14, -1.76296103000640869141e+00) 
