FANN_FLO_2.1
num_layers=3
learning_rate=0.500000
connection_rate=1.000000
network_type=0
learning_momentum=0.000000
training_algorithm=2
train_error_function=1
train_stop_function=0
cascade_output_change_fraction=0.010000
quickprop_decay=-0.000100
quickprop_mu=1.750000
rprop_increase_factor=1.200000
rprop_decrease_factor=0.500000
rprop_delta_min=0.000000
rprop_delta_max=50.000000
rprop_delta_zero=0.100000
cascade_output_stagnation_epochs=12
cascade_candidate_change_fraction=0.010000
cascade_candidate_stagnation_epochs=12
cascade_max_out_epochs=150
cascade_min_out_epochs=50
cascade_max_cand_epochs=150
cascade_min_cand_epochs=50
cascade_num_candidate_groups=2
bit_fail_limit=3.49999994039535522461e-01
cascade_candidate_limit=1.00000000000000000000e+03
cascade_weight_multiplier=4.00000005960464477539e-01
cascade_activation_functions_count=10
cascade_activation_functions=3 5 7 8 10 11 14 15 16 17 
cascade_activation_steepnesses_count=4
cascade_activation_steepnesses=2.50000000000000000000e-01 5.00000000000000000000e-01 7.50000000000000000000e-01 1.00000000000000000000e+00 
layer_sizes=6 5 2 
scale_included=0
neurons (num_inputs, activation_function, activation_steepness)=(0, 0, 0.00000000000000000000e+00) (0, 0, 0.00000000000000000000e+00) (0, 0, 0.00000000000000000000e+00) (0, 0, 0.00000000000000000000e+00) (0, 0, 0.00000000000000000000e+00) (0, 0, 0.00000000000000000000e+00) (6, 3, 5.00000000000000000000e-01) (6, 3, 5.00000000000000000000e-01) (6, 3, 5.00000000000000000000e-01) (6, 3, 5.00000000000000000000e-01) (0, 3, 0.00000000000000000000e+00) (5, 0, 5.00000000000000000000e-01) (0, 0, 0.00000000000000000000e+00) 
connections (connected_to_neuron, weight)=(0, 4.39052641391754150391e-01) (1, -3.23099851608276367188e+00) (2, 5.73282384872436523438e+00) (3, -9.04081821441650390625e+00) (4, 4.60931682586669921875e+00) (5, 3.62584972381591796875e+00) (0, 2.59994212538003921509e-02) (1, 2.53050446510314941406e-01) (2, -8.89543533325195312500e+00) (3, 5.58580780029296875000e+00) (4, 8.31831836700439453125e+00) (5, 3.89267134666442871094e+00) (0, 4.74775373935699462891e-01) (1, 1.01650133132934570312e+01) (2, 2.79835700988769531250e+00) (3, -8.69829368591308593750e+00) (4, -1.52814292907714843750e+01) (5, 3.78442120552062988281e+00) (0, 4.22533333301544189453e-01) (1, -4.23019027709960937500e+00) (2, 3.41387724876403808594e+00) (3, 3.37097549438476562500e+00) (4, -5.86596012115478515625e+00) (5, 3.45578789710998535156e+00) (6, 9.01243388652801513672e-01) (7, 8.51736664772033691406e-01) (8, 8.98529708385467529297e-01) (9, 8.63163471221923828125e-01) (10, 8.88171970844268798828e-01) 
