FANN_FLO_2.1
num_layers=3
learning_rate=0.500000
connection_rate=1.000000
network_type=0
learning_momentum=0.000000
training_algorithm=2
train_error_function=1
train_stop_function=0
cascade_output_change_fraction=0.010000
quickprop_decay=-0.000100
quickprop_mu=1.750000
rprop_increase_factor=1.200000
rprop_decrease_factor=0.500000
rprop_delta_min=0.000000
rprop_delta_max=50.000000
rprop_delta_zero=0.100000
cascade_output_stagnation_epochs=12
cascade_candidate_change_fraction=0.010000
cascade_candidate_stagnation_epochs=12
cascade_max_out_epochs=150
cascade_min_out_epochs=50
cascade_max_cand_epochs=150
cascade_min_cand_epochs=50
cascade_num_candidate_groups=2
bit_fail_limit=3.49999994039535522461e-01
cascade_candidate_limit=1.00000000000000000000e+03
cascade_weight_multiplier=4.00000005960464477539e-01
cascade_activation_functions_count=10
cascade_activation_functions=3 5 7 8 10 11 14 15 16 17 
cascade_activation_steepnesses_count=4
cascade_activation_steepnesses=2.50000000000000000000e-01 5.00000000000000000000e-01 7.50000000000000000000e-01 1.00000000000000000000e+00 
layer_sizes=10 5 2 
scale_included=0
neurons (num_inputs, activation_function, activation_steepness)=(0, 0, 0.00000000000000000000e+00) (0, 0, 0.00000000000000000000e+00) (0, 0, 0.00000000000000000000e+00) (0, 0, 0.00000000000000000000e+00) (0, 0, 0.00000000000000000000e+00) (0, 0, 0.00000000000000000000e+00) (0, 0, 0.00000000000000000000e+00) (0, 0, 0.00000000000000000000e+00) (0, 0, 0.00000000000000000000e+00) (0, 0, 0.00000000000000000000e+00) (10, 3, 5.00000000000000000000e-01) (10, 3, 5.00000000000000000000e-01) (10, 3, 5.00000000000000000000e-01) (10, 3, 5.00000000000000000000e-01) (0, 3, 0.00000000000000000000e+00) (5, 3, 5.00000000000000000000e-01) (0, 3, 0.00000000000000000000e+00) 
connections (connected_to_neuron, weight)=(0, -1.01414136886596679688e+01) (1, -5.98203611373901367188e+00) (2, 3.54481649398803710938e+00) (3, -1.67174015045166015625e+01) (4, -3.31459753215312957764e-03) (5, 1.41924371719360351562e+01) (6, -4.33214712142944335938e+00) (7, 7.33088970184326171875e+00) (8, 1.03180704116821289062e+01) (9, -2.93011689186096191406e+00) (0, 5.32279312610626220703e-01) (1, -6.28392744064331054688e+00) (2, 1.00416059494018554688e+01) (3, 7.48225164413452148438e+00) (4, 2.98533868789672851562e+00) (5, -1.11023893356323242188e+01) (6, 2.43099441528320312500e+01) (7, 5.73679780960083007812e+00) (8, -3.94168376922607421875e-01) (9, -8.30175399780273437500e+00) (0, 5.70259809494018554688e-01) (1, -7.16214990615844726562e+00) (2, -7.50922870635986328125e+00) (3, 8.28699779510498046875e+00) (4, -3.59263241291046142578e-01) (5, -8.13324069976806640625e+00) (6, 7.51353311538696289062e+00) (7, 7.43540191650390625000e+00) (8, -1.46202236413955688477e-01) (9, -3.16412854194641113281e+00) (0, 5.85219049453735351562e+00) (1, 1.93266658782958984375e+01) (2, 6.36486053466796875000e+00) (3, 4.31290102005004882812e+00) (4, 3.99455696344375610352e-01) (5, 4.65481728315353393555e-02) (6, -1.10047168731689453125e+01) (7, -1.82394142150878906250e+01) (8, -8.53463554382324218750e+00) (9, -2.39526367187500000000e+00) (10, 5.10337686538696289062e+00) (11, 4.36754196882247924805e-01) (12, 6.60546255111694335938e+00) (13, 4.67678117752075195312e+00) (14, -2.44001054763793945312e+00) 
