FANN_FLO_2.1
num_layers=3
learning_rate=0.500000
connection_rate=1.000000
network_type=0
learning_momentum=0.000000
training_algorithm=2
train_error_function=1
train_stop_function=0
cascade_output_change_fraction=0.010000
quickprop_decay=-0.000100
quickprop_mu=1.750000
rprop_increase_factor=1.200000
rprop_decrease_factor=0.500000
rprop_delta_min=0.000000
rprop_delta_max=50.000000
rprop_delta_zero=0.100000
cascade_output_stagnation_epochs=12
cascade_candidate_change_fraction=0.010000
cascade_candidate_stagnation_epochs=12
cascade_max_out_epochs=150
cascade_min_out_epochs=50
cascade_max_cand_epochs=150
cascade_min_cand_epochs=50
cascade_num_candidate_groups=2
bit_fail_limit=3.49999994039535522461e-01
cascade_candidate_limit=1.00000000000000000000e+03
cascade_weight_multiplier=4.00000005960464477539e-01
cascade_activation_functions_count=10
cascade_activation_functions=3 5 7 8 10 11 14 15 16 17 
cascade_activation_steepnesses_count=4
cascade_activation_steepnesses=2.50000000000000000000e-01 5.00000000000000000000e-01 7.50000000000000000000e-01 1.00000000000000000000e+00 
layer_sizes=10 5 2 
scale_included=0
neurons (num_inputs, activation_function, activation_steepness)=(0, 0, 0.00000000000000000000e+00) (0, 0, 0.00000000000000000000e+00) (0, 0, 0.00000000000000000000e+00) (0, 0, 0.00000000000000000000e+00) (0, 0, 0.00000000000000000000e+00) (0, 0, 0.00000000000000000000e+00) (0, 0, 0.00000000000000000000e+00) (0, 0, 0.00000000000000000000e+00) (0, 0, 0.00000000000000000000e+00) (0, 0, 0.00000000000000000000e+00) (10, 3, 5.00000000000000000000e-01) (10, 3, 5.00000000000000000000e-01) (10, 3, 5.00000000000000000000e-01) (10, 3, 5.00000000000000000000e-01) (0, 3, 0.00000000000000000000e+00) (5, 3, 5.00000000000000000000e-01) (0, 3, 0.00000000000000000000e+00) 
connections (connected_to_neuron, weight)=(0, -5.36590099334716796875e+00) (1, 6.08421659469604492188e+00) (2, 9.68593215942382812500e+00) (3, -1.21238079071044921875e+01) (4, 6.60928845405578613281e-01) (5, 1.04074687957763671875e+01) (6, -8.74082088470458984375e+00) (7, -4.05273151397705078125e+00) (8, 3.72405934333801269531e+00) (9, -3.56404781341552734375e+00) (0, -1.14721374511718750000e+01) (1, -2.69526672363281250000e+01) (2, -9.79003047943115234375e+00) (3, -2.16666698455810546875e+00) (4, -1.52429592609405517578e+00) (5, 7.51534342765808105469e-01) (6, 1.24669408798217773438e+01) (7, 2.49670295715332031250e+01) (8, 1.49415369033813476562e+01) (9, -5.31145286560058593750e+00) (0, 1.68325042724609375000e+01) (1, 3.07275295257568359375e+00) (2, -4.53942394256591796875e+00) (3, 1.51594295501708984375e+01) (4, 1.85266566276550292969e+00) (5, -1.94804248809814453125e+01) (6, 8.06538581848144531250e+00) (7, -3.38429903984069824219e+00) (8, -1.52485342025756835938e+01) (9, -5.22137451171875000000e+00) (0, 6.65578079223632812500e+00) (1, 1.26646270751953125000e+01) (2, 5.17418527603149414062e+00) (3, 2.10033059120178222656e+00) (4, 5.01258194446563720703e-01) (5, 1.52787590026855468750e+00) (6, -6.51844835281372070312e+00) (7, -1.92501869201660156250e+01) (8, -4.18957328796386718750e+00) (9, -2.93254780769348144531e+00) (10, 4.49597883224487304688e+00) (11, 3.71389102935791015625e+00) (12, 3.69874620437622070312e+00) (13, 2.42565155029296875000e+00) (14, -1.65024864673614501953e+00) 
