FANN_FLO_2.1
num_layers=3
learning_rate=0.500000
connection_rate=1.000000
network_type=0
learning_momentum=0.000000
training_algorithm=2
train_error_function=1
train_stop_function=0
cascade_output_change_fraction=0.010000
quickprop_decay=-0.000100
quickprop_mu=1.750000
rprop_increase_factor=1.200000
rprop_decrease_factor=0.500000
rprop_delta_min=0.000000
rprop_delta_max=50.000000
rprop_delta_zero=0.100000
cascade_output_stagnation_epochs=12
cascade_candidate_change_fraction=0.010000
cascade_candidate_stagnation_epochs=12
cascade_max_out_epochs=150
cascade_min_out_epochs=50
cascade_max_cand_epochs=150
cascade_min_cand_epochs=50
cascade_num_candidate_groups=2
bit_fail_limit=3.49999994039535522461e-01
cascade_candidate_limit=1.00000000000000000000e+03
cascade_weight_multiplier=4.00000005960464477539e-01
cascade_activation_functions_count=10
cascade_activation_functions=3 5 7 8 10 11 14 15 16 17 
cascade_activation_steepnesses_count=4
cascade_activation_steepnesses=2.50000000000000000000e-01 5.00000000000000000000e-01 7.50000000000000000000e-01 1.00000000000000000000e+00 
layer_sizes=10 5 2 
scale_included=0
neurons (num_inputs, activation_function, activation_steepness)=(0, 0, 0.00000000000000000000e+00) (0, 0, 0.00000000000000000000e+00) (0, 0, 0.00000000000000000000e+00) (0, 0, 0.00000000000000000000e+00) (0, 0, 0.00000000000000000000e+00) (0, 0, 0.00000000000000000000e+00) (0, 0, 0.00000000000000000000e+00) (0, 0, 0.00000000000000000000e+00) (0, 0, 0.00000000000000000000e+00) (0, 0, 0.00000000000000000000e+00) (10, 3, 5.00000000000000000000e-01) (10, 3, 5.00000000000000000000e-01) (10, 3, 5.00000000000000000000e-01) (10, 3, 5.00000000000000000000e-01) (0, 3, 0.00000000000000000000e+00) (5, 3, 5.00000000000000000000e-01) (0, 3, 0.00000000000000000000e+00) 
connections (connected_to_neuron, weight)=(0, -1.04024229049682617188e+01) (1, -2.04286270141601562500e+01) (2, -3.57532167434692382812e+00) (3, -3.48211693763732910156e+00) (4, -5.44407904148101806641e-01) (5, 6.77512216567993164062e+00) (6, 9.02485311031341552734e-01) (7, 2.24089336395263671875e+01) (8, 7.57043457031250000000e+00) (9, -2.47747063636779785156e+00) (0, 3.20972967147827148438e+00) (1, -5.77879548072814941406e-01) (2, -2.05509815216064453125e+01) (3, 2.26944851875305175781e+00) (4, 2.63100743293762207031e+00) (5, 2.75694108009338378906e+00) (6, 1.62558403015136718750e+01) (7, 8.78176689147949218750e+00) (8, 1.11446743011474609375e+01) (9, -1.05707244873046875000e+01) (0, 9.25082588195800781250e+00) (1, 8.84331130981445312500e+00) (2, 1.24669876098632812500e+01) (3, 1.41882312297821044922e+00) (4, 2.76843476295471191406e+00) (5, -2.42559766769409179688e+00) (6, -6.28892278671264648438e+00) (7, -2.41952228546142578125e+01) (8, -5.10018682479858398438e+00) (9, -1.78484296798706054688e+00) (0, 8.61319122314453125000e+01) (1, 3.16886169433593750000e+02) (2, -1.01294738769531250000e+02) (3, 6.82467727661132812500e+01) (4, 3.19704818725585937500e+00) (5, -4.25056915283203125000e+02) (6, 5.92065238952636718750e+01) (7, 6.20613145828247070312e+00) (8, -1.90929489135742187500e+02) (9, -2.64053463935852050781e-01) (10, 3.49911999702453613281e+00) (11, 1.05077493190765380859e+00) (12, 4.37756633758544921875e+00) (13, 1.70483911037445068359e+00) (14, -1.44719564914703369141e+00) 
