FANN_FLO_2.1
num_layers=3
learning_rate=0.500000
connection_rate=1.000000
network_type=0
learning_momentum=0.000000
training_algorithm=2
train_error_function=1
train_stop_function=0
cascade_output_change_fraction=0.010000
quickprop_decay=-0.000100
quickprop_mu=1.750000
rprop_increase_factor=1.200000
rprop_decrease_factor=0.500000
rprop_delta_min=0.000000
rprop_delta_max=50.000000
rprop_delta_zero=0.100000
cascade_output_stagnation_epochs=12
cascade_candidate_change_fraction=0.010000
cascade_candidate_stagnation_epochs=12
cascade_max_out_epochs=150
cascade_min_out_epochs=50
cascade_max_cand_epochs=150
cascade_min_cand_epochs=50
cascade_num_candidate_groups=2
bit_fail_limit=3.49999994039535522461e-01
cascade_candidate_limit=1.00000000000000000000e+03
cascade_weight_multiplier=4.00000005960464477539e-01
cascade_activation_functions_count=10
cascade_activation_functions=3 5 7 8 10 11 14 15 16 17 
cascade_activation_steepnesses_count=4
cascade_activation_steepnesses=2.50000000000000000000e-01 5.00000000000000000000e-01 7.50000000000000000000e-01 1.00000000000000000000e+00 
layer_sizes=6 5 2 
scale_included=0
neurons (num_inputs, activation_function, activation_steepness)=(0, 0, 0.00000000000000000000e+00) (0, 0, 0.00000000000000000000e+00) (0, 0, 0.00000000000000000000e+00) (0, 0, 0.00000000000000000000e+00) (0, 0, 0.00000000000000000000e+00) (0, 0, 0.00000000000000000000e+00) (6, 3, 5.00000000000000000000e-01) (6, 3, 5.00000000000000000000e-01) (6, 3, 5.00000000000000000000e-01) (6, 3, 5.00000000000000000000e-01) (0, 3, 0.00000000000000000000e+00) (5, 0, 5.00000000000000000000e-01) (0, 0, 0.00000000000000000000e+00) 
connections (connected_to_neuron, weight)=(0, 9.96096730232238769531e-01) (1, 1.13964710235595703125e+01) (2, -6.74600839614868164062e+00) (3, 1.82653236389160156250e+01) (4, -4.02757787704467773438e+00) (5, 4.84697055816650390625e+00) (0, 1.39107508584856987000e-02) (1, -3.18243615329265594482e-02) (2, -1.07567560672760009766e+00) (3, -6.79629743099212646484e-02) (4, 8.07828903198242187500e-02) (5, 4.33476656675338745117e-01) (0, 5.52440658211708068848e-02) (1, -1.35798096656799316406e-01) (2, 7.93353199958801269531e-01) (3, 1.21792331337928771973e-01) (4, -1.30773046985268592834e-02) (5, 3.41952472925186157227e-01) (0, -8.92678648233413696289e-02) (1, -1.27592816948890686035e-01) (2, 4.59215909242630004883e-01) (3, -1.55703902244567871094e-01) (4, 9.81063395738601684570e-03) (5, 3.76935720443725585938e-01) (6, 1.20944190025329589844e+00) (7, 1.08645236492156982422e+00) (8, 1.12394964694976806641e+00) (9, 1.13203370571136474609e+00) (10, 1.15758633613586425781e+00) 
