FANN_FLO_2.1
num_layers=3
learning_rate=0.500000
connection_rate=1.000000
network_type=0
learning_momentum=0.000000
training_algorithm=2
train_error_function=1
train_stop_function=0
cascade_output_change_fraction=0.010000
quickprop_decay=-0.000100
quickprop_mu=1.750000
rprop_increase_factor=1.200000
rprop_decrease_factor=0.500000
rprop_delta_min=0.000000
rprop_delta_max=50.000000
rprop_delta_zero=0.100000
cascade_output_stagnation_epochs=12
cascade_candidate_change_fraction=0.010000
cascade_candidate_stagnation_epochs=12
cascade_max_out_epochs=150
cascade_min_out_epochs=50
cascade_max_cand_epochs=150
cascade_min_cand_epochs=50
cascade_num_candidate_groups=2
bit_fail_limit=3.49999994039535522461e-01
cascade_candidate_limit=1.00000000000000000000e+03
cascade_weight_multiplier=4.00000005960464477539e-01
cascade_activation_functions_count=10
cascade_activation_functions=3 5 7 8 10 11 14 15 16 17 
cascade_activation_steepnesses_count=4
cascade_activation_steepnesses=2.50000000000000000000e-01 5.00000000000000000000e-01 7.50000000000000000000e-01 1.00000000000000000000e+00 
layer_sizes=6 5 2 
scale_included=0
neurons (num_inputs, activation_function, activation_steepness)=(0, 0, 0.00000000000000000000e+00) (0, 0, 0.00000000000000000000e+00) (0, 0, 0.00000000000000000000e+00) (0, 0, 0.00000000000000000000e+00) (0, 0, 0.00000000000000000000e+00) (0, 0, 0.00000000000000000000e+00) (6, 3, 5.00000000000000000000e-01) (6, 3, 5.00000000000000000000e-01) (6, 3, 5.00000000000000000000e-01) (6, 3, 5.00000000000000000000e-01) (0, 3, 0.00000000000000000000e+00) (5, 0, 5.00000000000000000000e-01) (0, 0, 0.00000000000000000000e+00) 
connections (connected_to_neuron, weight)=(0, 3.41698288917541503906e-01) (1, -3.06703805923461914062e+00) (2, 6.94670796394348144531e-01) (3, -2.36808252334594726562e+00) (4, 1.48697257041931152344e+00) (5, 5.41519343852996826172e-01) (0, 8.62485766410827636719e-01) (1, 5.98890721797943115234e-01) (2, -1.06004505157470703125e+01) (3, -1.60026092529296875000e+01) (4, -2.35526633262634277344e+00) (5, 4.17663335800170898438e+00) (0, -1.99036430567502975464e-02) (1, 6.58480703830718994141e-01) (2, -1.61617398262023925781e-01) (3, 1.22356820106506347656e+00) (4, -5.78123390674591064453e-01) (5, 4.11954015493392944336e-01) (0, -2.50065058469772338867e-01) (1, 1.44225740432739257812e+00) (2, -1.54679045081138610840e-01) (3, 1.18335700035095214844e+00) (4, -4.40127491950988769531e-01) (5, 4.29937869310379028320e-01) (6, 1.04992055892944335938e+00) (7, 1.15156888961791992188e+00) (8, 1.06401348114013671875e+00) (9, 1.06984937191009521484e+00) (10, 1.23941791057586669922e+00) 
