FANN_FLO_2.1
num_layers=3
learning_rate=0.500000
connection_rate=1.000000
network_type=0
learning_momentum=0.000000
training_algorithm=2
train_error_function=1
train_stop_function=0
cascade_output_change_fraction=0.010000
quickprop_decay=-0.000100
quickprop_mu=1.750000
rprop_increase_factor=1.200000
rprop_decrease_factor=0.500000
rprop_delta_min=0.000000
rprop_delta_max=50.000000
rprop_delta_zero=0.100000
cascade_output_stagnation_epochs=12
cascade_candidate_change_fraction=0.010000
cascade_candidate_stagnation_epochs=12
cascade_max_out_epochs=150
cascade_min_out_epochs=50
cascade_max_cand_epochs=150
cascade_min_cand_epochs=50
cascade_num_candidate_groups=2
bit_fail_limit=3.49999994039535522461e-01
cascade_candidate_limit=1.00000000000000000000e+03
cascade_weight_multiplier=4.00000005960464477539e-01
cascade_activation_functions_count=10
cascade_activation_functions=3 5 7 8 10 11 14 15 16 17 
cascade_activation_steepnesses_count=4
cascade_activation_steepnesses=2.50000000000000000000e-01 5.00000000000000000000e-01 7.50000000000000000000e-01 1.00000000000000000000e+00 
layer_sizes=10 3 2 
scale_included=0
neurons (num_inputs, activation_function, activation_steepness)=(0, 0, 0.00000000000000000000e+00) (0, 0, 0.00000000000000000000e+00) (0, 0, 0.00000000000000000000e+00) (0, 0, 0.00000000000000000000e+00) (0, 0, 0.00000000000000000000e+00) (0, 0, 0.00000000000000000000e+00) (0, 0, 0.00000000000000000000e+00) (0, 0, 0.00000000000000000000e+00) (0, 0, 0.00000000000000000000e+00) (0, 0, 0.00000000000000000000e+00) (10, 3, 5.00000000000000000000e-01) (10, 3, 5.00000000000000000000e-01) (0, 3, 0.00000000000000000000e+00) (3, 3, 5.00000000000000000000e-01) (0, 3, 0.00000000000000000000e+00) 
connections (connected_to_neuron, weight)=(0, 8.97917449474334716797e-01) (1, -2.32268095016479492188e-01) (2, -8.85026741027832031250e+00) (3, 1.48782863616943359375e+01) (4, 1.86942845582962036133e-01) (5, -1.50410623550415039062e+01) (6, 9.46806049346923828125e+00) (7, 2.85697937011718750000e+00) (8, -4.24431085586547851562e+00) (9, -3.31688547134399414062e+00) (0, 1.41567885875701904297e+00) (1, 3.00129938125610351562e+00) (2, 8.66247940063476562500e+00) (3, -1.21032037734985351562e+01) (4, -2.80692934989929199219e+00) (5, 7.02255868911743164062e+00) (6, -5.62846136093139648438e+00) (7, -1.09770610928535461426e-01) (8, 3.45983862876892089844e+00) (9, -2.48519325256347656250e+00) (10, 4.49895286560058593750e+00) (11, 3.08903646469116210938e+00) (12, -7.65495419502258300781e-01) 
