FANN_FLO_2.1
num_layers=3
learning_rate=0.500000
connection_rate=1.000000
network_type=0
learning_momentum=0.000000
training_algorithm=2
train_error_function=1
train_stop_function=0
cascade_output_change_fraction=0.010000
quickprop_decay=-0.000100
quickprop_mu=1.750000
rprop_increase_factor=1.200000
rprop_decrease_factor=0.500000
rprop_delta_min=0.000000
rprop_delta_max=50.000000
rprop_delta_zero=0.100000
cascade_output_stagnation_epochs=12
cascade_candidate_change_fraction=0.010000
cascade_candidate_stagnation_epochs=12
cascade_max_out_epochs=150
cascade_min_out_epochs=50
cascade_max_cand_epochs=150
cascade_min_cand_epochs=50
cascade_num_candidate_groups=2
bit_fail_limit=3.49999994039535522461e-01
cascade_candidate_limit=1.00000000000000000000e+03
cascade_weight_multiplier=4.00000005960464477539e-01
cascade_activation_functions_count=10
cascade_activation_functions=3 5 7 8 10 11 14 15 16 17 
cascade_activation_steepnesses_count=4
cascade_activation_steepnesses=2.50000000000000000000e-01 5.00000000000000000000e-01 7.50000000000000000000e-01 1.00000000000000000000e+00 
layer_sizes=10 3 2 
scale_included=0
neurons (num_inputs, activation_function, activation_steepness)=(0, 0, 0.00000000000000000000e+00) (0, 0, 0.00000000000000000000e+00) (0, 0, 0.00000000000000000000e+00) (0, 0, 0.00000000000000000000e+00) (0, 0, 0.00000000000000000000e+00) (0, 0, 0.00000000000000000000e+00) (0, 0, 0.00000000000000000000e+00) (0, 0, 0.00000000000000000000e+00) (0, 0, 0.00000000000000000000e+00) (0, 0, 0.00000000000000000000e+00) (10, 3, 5.00000000000000000000e-01) (10, 3, 5.00000000000000000000e-01) (0, 3, 0.00000000000000000000e+00) (3, 3, 5.00000000000000000000e-01) (0, 3, 0.00000000000000000000e+00) 
connections (connected_to_neuron, weight)=(0, -1.48212063312530517578e+00) (1, 4.16194772720336914062e+00) (2, 9.09240531921386718750e+00) (3, -8.92704010009765625000e+00) (4, 6.59372359514236450195e-02) (5, 7.91649866104125976562e+00) (6, -9.44165611267089843750e+00) (7, -4.09556293487548828125e+00) (8, -2.45634585618972778320e-01) (9, -2.17588949203491210938e+00) (0, 6.16390037536621093750e+00) (1, 9.71300065517425537109e-01) (2, -2.35951290130615234375e+01) (3, 2.00583724975585937500e+01) (4, -5.32141828536987304688e+00) (5, 1.22345376014709472656e+00) (6, 1.24764280319213867188e+01) (7, 9.86206912994384765625e+00) (8, 3.50404047966003417969e+00) (9, -8.41681861877441406250e+00) (10, 6.88867664337158203125e+00) (11, 2.48605895042419433594e+00) (12, -1.39408707618713378906e+00) 
