FANN_FLO_2.1
num_layers=3
learning_rate=0.500000
connection_rate=1.000000
network_type=0
learning_momentum=0.000000
training_algorithm=2
train_error_function=1
train_stop_function=0
cascade_output_change_fraction=0.010000
quickprop_decay=-0.000100
quickprop_mu=1.750000
rprop_increase_factor=1.200000
rprop_decrease_factor=0.500000
rprop_delta_min=0.000000
rprop_delta_max=50.000000
rprop_delta_zero=0.100000
cascade_output_stagnation_epochs=12
cascade_candidate_change_fraction=0.010000
cascade_candidate_stagnation_epochs=12
cascade_max_out_epochs=150
cascade_min_out_epochs=50
cascade_max_cand_epochs=150
cascade_min_cand_epochs=50
cascade_num_candidate_groups=2
bit_fail_limit=3.49999994039535522461e-01
cascade_candidate_limit=1.00000000000000000000e+03
cascade_weight_multiplier=4.00000005960464477539e-01
cascade_activation_functions_count=10
cascade_activation_functions=3 5 7 8 10 11 14 15 16 17 
cascade_activation_steepnesses_count=4
cascade_activation_steepnesses=2.50000000000000000000e-01 5.00000000000000000000e-01 7.50000000000000000000e-01 1.00000000000000000000e+00 
layer_sizes=10 3 2 
scale_included=0
neurons (num_inputs, activation_function, activation_steepness)=(0, 0, 0.00000000000000000000e+00) (0, 0, 0.00000000000000000000e+00) (0, 0, 0.00000000000000000000e+00) (0, 0, 0.00000000000000000000e+00) (0, 0, 0.00000000000000000000e+00) (0, 0, 0.00000000000000000000e+00) (0, 0, 0.00000000000000000000e+00) (0, 0, 0.00000000000000000000e+00) (0, 0, 0.00000000000000000000e+00) (0, 0, 0.00000000000000000000e+00) (10, 3, 5.00000000000000000000e-01) (10, 3, 5.00000000000000000000e-01) (0, 3, 0.00000000000000000000e+00) (3, 3, 5.00000000000000000000e-01) (0, 3, 0.00000000000000000000e+00) 
connections (connected_to_neuron, weight)=(0, 1.05650460720062255859e+00) (1, 1.79496192932128906250e+00) (2, 9.37348365783691406250e+00) (3, 1.11497764587402343750e+01) (4, -7.56058752536773681641e-01) (5, 1.14735422134399414062e+01) (6, 5.64301538467407226562e+00) (7, 4.19634437561035156250e+00) (8, 4.05976772308349609375e+00) (9, -1.50116033554077148438e+01) (0, -1.08940064907073974609e+00) (1, -2.26918411254882812500e+01) (2, 2.27004146575927734375e+01) (3, 2.59028320312500000000e+01) (4, -2.75179481506347656250e+00) (5, 9.27501964569091796875e+00) (6, 1.36027669906616210938e+00) (7, -3.63344728946685791016e-01) (8, 1.03998255729675292969e+00) (9, -6.58768892288208007812e+00) (10, 1.17104673385620117188e+00) (11, 8.83513152599334716797e-01) (12, -6.57675385475158691406e-01) 
