FANN_FLO_2.1
num_layers=3
learning_rate=0.500000
connection_rate=1.000000
network_type=0
learning_momentum=0.000000
training_algorithm=2
train_error_function=1
train_stop_function=0
cascade_output_change_fraction=0.010000
quickprop_decay=-0.000100
quickprop_mu=1.750000
rprop_increase_factor=1.200000
rprop_decrease_factor=0.500000
rprop_delta_min=0.000000
rprop_delta_max=50.000000
rprop_delta_zero=0.100000
cascade_output_stagnation_epochs=12
cascade_candidate_change_fraction=0.010000
cascade_candidate_stagnation_epochs=12
cascade_max_out_epochs=150
cascade_min_out_epochs=50
cascade_max_cand_epochs=150
cascade_min_cand_epochs=50
cascade_num_candidate_groups=2
bit_fail_limit=3.49999994039535522461e-01
cascade_candidate_limit=1.00000000000000000000e+03
cascade_weight_multiplier=4.00000005960464477539e-01
cascade_activation_functions_count=10
cascade_activation_functions=3 5 7 8 10 11 14 15 16 17 
cascade_activation_steepnesses_count=4
cascade_activation_steepnesses=2.50000000000000000000e-01 5.00000000000000000000e-01 7.50000000000000000000e-01 1.00000000000000000000e+00 
layer_sizes=10 5 2 
scale_included=0
neurons (num_inputs, activation_function, activation_steepness)=(0, 0, 0.00000000000000000000e+00) (0, 0, 0.00000000000000000000e+00) (0, 0, 0.00000000000000000000e+00) (0, 0, 0.00000000000000000000e+00) (0, 0, 0.00000000000000000000e+00) (0, 0, 0.00000000000000000000e+00) (0, 0, 0.00000000000000000000e+00) (0, 0, 0.00000000000000000000e+00) (0, 0, 0.00000000000000000000e+00) (0, 0, 0.00000000000000000000e+00) (10, 3, 5.00000000000000000000e-01) (10, 3, 5.00000000000000000000e-01) (10, 3, 5.00000000000000000000e-01) (10, 3, 5.00000000000000000000e-01) (0, 3, 0.00000000000000000000e+00) (5, 3, 5.00000000000000000000e-01) (0, 3, 0.00000000000000000000e+00) 
connections (connected_to_neuron, weight)=(0, 9.31534647941589355469e-01) (1, -9.95614242553710937500e+00) (2, -1.12760210037231445312e+01) (3, 1.08139305114746093750e+01) (4, -5.02557873725891113281e-01) (5, -1.33311367034912109375e+01) (6, 1.19381885528564453125e+01) (7, 1.08488273620605468750e+01) (8, -2.39695608615875244141e-01) (9, -3.34126591682434082031e+00) (0, 8.00713634490966796875e+00) (1, 1.30416402816772460938e+01) (2, 4.33229970932006835938e+00) (3, 2.81142449378967285156e+00) (4, -6.96282684803009033203e-01) (5, -1.15764296054840087891e+00) (6, -5.21796178817749023438e+00) (7, -1.30413017272949218750e+01) (8, -9.61639404296875000000e+00) (9, -2.01085567474365234375e+00) (0, -8.75186920166015625000e+00) (1, -4.34388017654418945312e+00) (2, 4.16456413269042968750e+00) (3, -1.34987697601318359375e+01) (4, 7.28386878967285156250e-01) (5, 1.16933965682983398438e+01) (6, -4.00213909149169921875e+00) (7, 3.85688161849975585938e+00) (8, 9.02893924713134765625e+00) (9, -2.32647919654846191406e+00) (0, 4.32812643051147460938e+00) (1, -1.54442768096923828125e+01) (2, 9.75300192832946777344e-01) (3, 7.84192085266113281250e+00) (4, 1.03235495090484619141e+00) (5, -1.14823949337005615234e+00) (6, 1.11248979568481445312e+01) (7, 1.09587669372558593750e+01) (8, -2.47168326377868652344e+00) (9, -8.98819160461425781250e+00) (10, 4.97565269470214843750e+00) (11, 5.14242410659790039062e+00) (12, 5.34172058105468750000e+00) (13, 5.74788391590118408203e-01) (14, -2.41895008087158203125e+00) 
