FANN_FLO_2.1
num_layers=3
learning_rate=0.500000
connection_rate=1.000000
network_type=0
learning_momentum=0.000000
training_algorithm=2
train_error_function=1
train_stop_function=0
cascade_output_change_fraction=0.010000
quickprop_decay=-0.000100
quickprop_mu=1.750000
rprop_increase_factor=1.200000
rprop_decrease_factor=0.500000
rprop_delta_min=0.000000
rprop_delta_max=50.000000
rprop_delta_zero=0.100000
cascade_output_stagnation_epochs=12
cascade_candidate_change_fraction=0.010000
cascade_candidate_stagnation_epochs=12
cascade_max_out_epochs=150
cascade_min_out_epochs=50
cascade_max_cand_epochs=150
cascade_min_cand_epochs=50
cascade_num_candidate_groups=2
bit_fail_limit=3.49999994039535522461e-01
cascade_candidate_limit=1.00000000000000000000e+03
cascade_weight_multiplier=4.00000005960464477539e-01
cascade_activation_functions_count=10
cascade_activation_functions=3 5 7 8 10 11 14 15 16 17 
cascade_activation_steepnesses_count=4
cascade_activation_steepnesses=2.50000000000000000000e-01 5.00000000000000000000e-01 7.50000000000000000000e-01 1.00000000000000000000e+00 
layer_sizes=6 5 2 
scale_included=0
neurons (num_inputs, activation_function, activation_steepness)=(0, 0, 0.00000000000000000000e+00) (0, 0, 0.00000000000000000000e+00) (0, 0, 0.00000000000000000000e+00) (0, 0, 0.00000000000000000000e+00) (0, 0, 0.00000000000000000000e+00) (0, 0, 0.00000000000000000000e+00) (6, 3, 5.00000000000000000000e-01) (6, 3, 5.00000000000000000000e-01) (6, 3, 5.00000000000000000000e-01) (6, 3, 5.00000000000000000000e-01) (0, 3, 0.00000000000000000000e+00) (5, 0, 5.00000000000000000000e-01) (0, 0, 0.00000000000000000000e+00) 
connections (connected_to_neuron, weight)=(0, -2.98316180706024169922e-01) (1, 2.04509139060974121094e-01) (2, -1.42703056335449218750e-01) (3, -1.74522042274475097656e-01) (4, -2.37767882645130157471e-02) (5, 3.81849110126495361328e-01) (0, 1.53850674629211425781e-01) (1, 5.29680848121643066406e-02) (2, -2.00927004218101501465e-01) (3, -3.35842370986938476562e-01) (4, -7.96443819999694824219e-02) (5, 4.14828777313232421875e-01) (0, 1.49141204357147216797e+00) (1, -7.18836879730224609375e+00) (2, 7.43110227584838867188e+00) (3, 1.22964258193969726562e+01) (4, -7.49538516998291015625e+00) (5, 2.74411177635192871094e+00) (0, 1.37180656194686889648e-01) (1, 1.80532798171043395996e-01) (2, -2.43229679763317108154e-02) (3, -2.33834058046340942383e-01) (4, -7.16540366411209106445e-02) (5, 4.50202703475952148438e-01) (6, 1.14304053783416748047e+00) (7, 1.09357488155364990234e+00) (8, 1.18734240531921386719e+00) (9, 1.11281633377075195312e+00) (10, 1.16397607326507568359e+00) 
