FANN_FLO_2.1
num_layers=3
learning_rate=0.500000
connection_rate=1.000000
network_type=0
learning_momentum=0.000000
training_algorithm=2
train_error_function=1
train_stop_function=0
cascade_output_change_fraction=0.010000
quickprop_decay=-0.000100
quickprop_mu=1.750000
rprop_increase_factor=1.200000
rprop_decrease_factor=0.500000
rprop_delta_min=0.000000
rprop_delta_max=50.000000
rprop_delta_zero=0.100000
cascade_output_stagnation_epochs=12
cascade_candidate_change_fraction=0.010000
cascade_candidate_stagnation_epochs=12
cascade_max_out_epochs=150
cascade_min_out_epochs=50
cascade_max_cand_epochs=150
cascade_min_cand_epochs=50
cascade_num_candidate_groups=2
bit_fail_limit=3.49999994039535522461e-01
cascade_candidate_limit=1.00000000000000000000e+03
cascade_weight_multiplier=4.00000005960464477539e-01
cascade_activation_functions_count=10
cascade_activation_functions=3 5 7 8 10 11 14 15 16 17 
cascade_activation_steepnesses_count=4
cascade_activation_steepnesses=2.50000000000000000000e-01 5.00000000000000000000e-01 7.50000000000000000000e-01 1.00000000000000000000e+00 
layer_sizes=10 3 2 
scale_included=0
neurons (num_inputs, activation_function, activation_steepness)=(0, 0, 0.00000000000000000000e+00) (0, 0, 0.00000000000000000000e+00) (0, 0, 0.00000000000000000000e+00) (0, 0, 0.00000000000000000000e+00) (0, 0, 0.00000000000000000000e+00) (0, 0, 0.00000000000000000000e+00) (0, 0, 0.00000000000000000000e+00) (0, 0, 0.00000000000000000000e+00) (0, 0, 0.00000000000000000000e+00) (0, 0, 0.00000000000000000000e+00) (10, 3, 5.00000000000000000000e-01) (10, 3, 5.00000000000000000000e-01) (0, 3, 0.00000000000000000000e+00) (3, 3, 5.00000000000000000000e-01) (0, 3, 0.00000000000000000000e+00) 
connections (connected_to_neuron, weight)=(0, -8.95214557647705078125e+00) (1, 1.53364572525024414062e+01) (2, 3.71347951889038085938e+00) (3, -1.06797370910644531250e+01) (4, 6.83243179321289062500e+00) (5, 3.88996481895446777344e+00) (6, 2.06773948669433593750e+01) (7, 1.11897792816162109375e+01) (8, -1.93164291381835937500e+01) (9, -5.17998981475830078125e+00) (0, 1.20753965377807617188e+01) (1, -3.52361726760864257812e+00) (2, 9.59243202209472656250e+00) (3, 1.37603175640106201172e+00) (4, -9.61197018623352050781e-02) (5, 3.77754449844360351562e+00) (6, 2.18428182601928710938e+00) (7, 4.58595085144042968750e+00) (8, 3.92378687858581542969e+00) (9, -9.38502979278564453125e+00) (10, 6.75024390220642089844e-01) (11, 1.99869036674499511719e+00) (12, -1.04006898403167724609e+00) 
