FANN_FLO_2.1
num_layers=3
learning_rate=0.500000
connection_rate=1.000000
network_type=0
learning_momentum=0.000000
training_algorithm=2
train_error_function=1
train_stop_function=0
cascade_output_change_fraction=0.010000
quickprop_decay=-0.000100
quickprop_mu=1.750000
rprop_increase_factor=1.200000
rprop_decrease_factor=0.500000
rprop_delta_min=0.000000
rprop_delta_max=50.000000
rprop_delta_zero=0.100000
cascade_output_stagnation_epochs=12
cascade_candidate_change_fraction=0.010000
cascade_candidate_stagnation_epochs=12
cascade_max_out_epochs=150
cascade_min_out_epochs=50
cascade_max_cand_epochs=150
cascade_min_cand_epochs=50
cascade_num_candidate_groups=2
bit_fail_limit=3.49999994039535522461e-01
cascade_candidate_limit=1.00000000000000000000e+03
cascade_weight_multiplier=4.00000005960464477539e-01
cascade_activation_functions_count=10
cascade_activation_functions=3 5 7 8 10 11 14 15 16 17 
cascade_activation_steepnesses_count=4
cascade_activation_steepnesses=2.50000000000000000000e-01 5.00000000000000000000e-01 7.50000000000000000000e-01 1.00000000000000000000e+00 
layer_sizes=10 5 2 
scale_included=0
neurons (num_inputs, activation_function, activation_steepness)=(0, 0, 0.00000000000000000000e+00) (0, 0, 0.00000000000000000000e+00) (0, 0, 0.00000000000000000000e+00) (0, 0, 0.00000000000000000000e+00) (0, 0, 0.00000000000000000000e+00) (0, 0, 0.00000000000000000000e+00) (0, 0, 0.00000000000000000000e+00) (0, 0, 0.00000000000000000000e+00) (0, 0, 0.00000000000000000000e+00) (0, 0, 0.00000000000000000000e+00) (10, 3, 5.00000000000000000000e-01) (10, 3, 5.00000000000000000000e-01) (10, 3, 5.00000000000000000000e-01) (10, 3, 5.00000000000000000000e-01) (0, 3, 0.00000000000000000000e+00) (5, 3, 5.00000000000000000000e-01) (0, 3, 0.00000000000000000000e+00) 
connections (connected_to_neuron, weight)=(0, 1.08939228057861328125e+01) (1, 9.86620616912841796875e+00) (2, 7.78815269470214843750e-01) (3, 8.30505549907684326172e-01) (4, 1.71199655532836914062e+00) (5, -3.26837611198425292969e+00) (6, -2.44746708869934082031e+00) (7, -1.00220088958740234375e+01) (8, -1.00541296005249023438e+01) (9, -2.00811600685119628906e+00) (0, 3.34761810302734375000e+00) (1, -2.00120672583580017090e-01) (2, -3.24639767408370971680e-01) (3, -1.02025203704833984375e+01) (4, 4.10483932495117187500e+00) (5, 3.46664285659790039062e+00) (6, 1.39067932963371276855e-01) (7, -1.53223299980163574219e+00) (8, -2.61087507009506225586e-01) (9, 1.25971841812133789062e+00) (0, -3.38208746910095214844e+00) (1, -1.53221626281738281250e+01) (2, -1.25402631759643554688e+01) (3, 6.74250900745391845703e-01) (4, 2.74837779998779296875e+00) (5, -4.99363946914672851562e+00) (6, 1.26677589416503906250e+01) (7, 1.53746356964111328125e+01) (8, 3.58617734909057617188e+00) (9, -3.01562571525573730469e+00) (0, -3.64798259735107421875e+00) (1, -8.03605675697326660156e-01) (2, 6.58351278305053710938e+00) (3, -1.95959987640380859375e+01) (4, 3.41537404060363769531e+00) (5, 1.06848802566528320312e+01) (6, -3.70248746871948242188e+00) (7, -8.41707110404968261719e-01) (8, 7.19128179550170898438e+00) (9, -2.45643901824951171875e+00) (10, 5.81056880950927734375e+00) (11, -3.72523951530456542969e+00) (12, 4.25296783447265625000e+00) (13, 5.73828268051147460938e+00) (14, 6.14344663918018341064e-02) 
