FANN_FLO_2.1
num_layers=3
learning_rate=0.500000
connection_rate=1.000000
network_type=0
learning_momentum=0.000000
training_algorithm=2
train_error_function=1
train_stop_function=0
cascade_output_change_fraction=0.010000
quickprop_decay=-0.000100
quickprop_mu=1.750000
rprop_increase_factor=1.200000
rprop_decrease_factor=0.500000
rprop_delta_min=0.000000
rprop_delta_max=50.000000
rprop_delta_zero=0.100000
cascade_output_stagnation_epochs=12
cascade_candidate_change_fraction=0.010000
cascade_candidate_stagnation_epochs=12
cascade_max_out_epochs=150
cascade_min_out_epochs=50
cascade_max_cand_epochs=150
cascade_min_cand_epochs=50
cascade_num_candidate_groups=2
bit_fail_limit=3.49999994039535522461e-01
cascade_candidate_limit=1.00000000000000000000e+03
cascade_weight_multiplier=4.00000005960464477539e-01
cascade_activation_functions_count=10
cascade_activation_functions=3 5 7 8 10 11 14 15 16 17 
cascade_activation_steepnesses_count=4
cascade_activation_steepnesses=2.50000000000000000000e-01 5.00000000000000000000e-01 7.50000000000000000000e-01 1.00000000000000000000e+00 
layer_sizes=10 3 2 
scale_included=0
neurons (num_inputs, activation_function, activation_steepness)=(0, 0, 0.00000000000000000000e+00) (0, 0, 0.00000000000000000000e+00) (0, 0, 0.00000000000000000000e+00) (0, 0, 0.00000000000000000000e+00) (0, 0, 0.00000000000000000000e+00) (0, 0, 0.00000000000000000000e+00) (0, 0, 0.00000000000000000000e+00) (0, 0, 0.00000000000000000000e+00) (0, 0, 0.00000000000000000000e+00) (0, 0, 0.00000000000000000000e+00) (10, 3, 5.00000000000000000000e-01) (10, 3, 5.00000000000000000000e-01) (0, 3, 0.00000000000000000000e+00) (3, 3, 5.00000000000000000000e-01) (0, 3, 0.00000000000000000000e+00) 
connections (connected_to_neuron, weight)=(0, 1.97454333305358886719e+00) (1, 7.68202781677246093750e+00) (2, -5.94070053100585937500e+00) (3, 1.20128860473632812500e+01) (4, -5.35488700866699218750e+00) (5, 1.22920341491699218750e+01) (6, 5.12247204780578613281e-01) (7, -6.77483129501342773438e+00) (8, 1.39949150085449218750e+01) (9, -8.06634330749511718750e+00) (0, -7.05807876586914062500e+00) (1, 1.61803607940673828125e+01) (2, 9.44376850128173828125e+00) (3, 1.40851745605468750000e+01) (4, -4.19794464111328125000e+00) (5, 9.20135617256164550781e-01) (6, -4.56030797958374023438e+00) (7, 1.55267677307128906250e+01) (8, 3.95484328269958496094e+00) (9, -1.40849313735961914062e+01) (10, 8.01587045192718505859e-01) (11, 1.06125164031982421875e+00) (12, -5.12402117252349853516e-01) 
