FANN_FLO_2.1
num_layers=3
learning_rate=0.500000
connection_rate=1.000000
network_type=0
learning_momentum=0.000000
training_algorithm=2
train_error_function=1
train_stop_function=0
cascade_output_change_fraction=0.010000
quickprop_decay=-0.000100
quickprop_mu=1.750000
rprop_increase_factor=1.200000
rprop_decrease_factor=0.500000
rprop_delta_min=0.000000
rprop_delta_max=50.000000
rprop_delta_zero=0.100000
cascade_output_stagnation_epochs=12
cascade_candidate_change_fraction=0.010000
cascade_candidate_stagnation_epochs=12
cascade_max_out_epochs=150
cascade_min_out_epochs=50
cascade_max_cand_epochs=150
cascade_min_cand_epochs=50
cascade_num_candidate_groups=2
bit_fail_limit=3.49999994039535522461e-01
cascade_candidate_limit=1.00000000000000000000e+03
cascade_weight_multiplier=4.00000005960464477539e-01
cascade_activation_functions_count=10
cascade_activation_functions=3 5 7 8 10 11 14 15 16 17 
cascade_activation_steepnesses_count=4
cascade_activation_steepnesses=2.50000000000000000000e-01 5.00000000000000000000e-01 7.50000000000000000000e-01 1.00000000000000000000e+00 
layer_sizes=10 3 2 
scale_included=0
neurons (num_inputs, activation_function, activation_steepness)=(0, 0, 0.00000000000000000000e+00) (0, 0, 0.00000000000000000000e+00) (0, 0, 0.00000000000000000000e+00) (0, 0, 0.00000000000000000000e+00) (0, 0, 0.00000000000000000000e+00) (0, 0, 0.00000000000000000000e+00) (0, 0, 0.00000000000000000000e+00) (0, 0, 0.00000000000000000000e+00) (0, 0, 0.00000000000000000000e+00) (0, 0, 0.00000000000000000000e+00) (10, 3, 5.00000000000000000000e-01) (10, 3, 5.00000000000000000000e-01) (0, 3, 0.00000000000000000000e+00) (3, 3, 5.00000000000000000000e-01) (0, 3, 0.00000000000000000000e+00) 
connections (connected_to_neuron, weight)=(0, 1.19209706783294677734e+00) (1, 3.86801600456237792969e+00) (2, 3.13212323188781738281e+00) (3, 6.65222167968750000000e+00) (4, -2.65836000442504882812e+00) (5, 3.12907528877258300781e+00) (6, 6.39693975448608398438e+00) (7, -5.20431518554687500000e+00) (8, 5.15672254562377929688e+00) (9, -5.82891750335693359375e+00) (0, 4.53827095031738281250e+00) (1, -4.34810543060302734375e+00) (2, 2.33103752136230468750e+00) (3, 9.68004035949707031250e+00) (4, -3.80161905288696289062e+00) (5, 2.13286247253417968750e+01) (6, 1.54984807968139648438e+01) (7, -1.17837438583374023438e+01) (8, -6.99703598022460937500e+00) (9, -5.51210975646972656250e+00) (10, 1.37344717979431152344e+00) (11, 1.17372429370880126953e+00) (12, -1.17819511890411376953e+00) 
