FANN_FLO_2.1
num_layers=3
learning_rate=0.500000
connection_rate=1.000000
network_type=0
learning_momentum=0.000000
training_algorithm=2
train_error_function=1
train_stop_function=0
cascade_output_change_fraction=0.010000
quickprop_decay=-0.000100
quickprop_mu=1.750000
rprop_increase_factor=1.200000
rprop_decrease_factor=0.500000
rprop_delta_min=0.000000
rprop_delta_max=50.000000
rprop_delta_zero=0.100000
cascade_output_stagnation_epochs=12
cascade_candidate_change_fraction=0.010000
cascade_candidate_stagnation_epochs=12
cascade_max_out_epochs=150
cascade_min_out_epochs=50
cascade_max_cand_epochs=150
cascade_min_cand_epochs=50
cascade_num_candidate_groups=2
bit_fail_limit=3.49999994039535522461e-01
cascade_candidate_limit=1.00000000000000000000e+03
cascade_weight_multiplier=4.00000005960464477539e-01
cascade_activation_functions_count=10
cascade_activation_functions=3 5 7 8 10 11 14 15 16 17 
cascade_activation_steepnesses_count=4
cascade_activation_steepnesses=2.50000000000000000000e-01 5.00000000000000000000e-01 7.50000000000000000000e-01 1.00000000000000000000e+00 
layer_sizes=10 3 2 
scale_included=0
neurons (num_inputs, activation_function, activation_steepness)=(0, 0, 0.00000000000000000000e+00) (0, 0, 0.00000000000000000000e+00) (0, 0, 0.00000000000000000000e+00) (0, 0, 0.00000000000000000000e+00) (0, 0, 0.00000000000000000000e+00) (0, 0, 0.00000000000000000000e+00) (0, 0, 0.00000000000000000000e+00) (0, 0, 0.00000000000000000000e+00) (0, 0, 0.00000000000000000000e+00) (0, 0, 0.00000000000000000000e+00) (10, 3, 5.00000000000000000000e-01) (10, 3, 5.00000000000000000000e-01) (0, 3, 0.00000000000000000000e+00) (3, 3, 5.00000000000000000000e-01) (0, 3, 0.00000000000000000000e+00) 
connections (connected_to_neuron, weight)=(0, 6.13492667675018310547e-01) (1, 1.18641138076782226562e+01) (2, 6.93232107162475585938e+00) (3, -5.46759700775146484375e+00) (4, -2.51885652542114257812e+00) (5, 2.33695483207702636719e+00) (6, -8.37608909606933593750e+00) (7, -8.20555782318115234375e+00) (8, -2.39100456237792968750e+00) (9, -1.42051672935485839844e+00) (0, 9.83133077621459960938e-01) (1, -1.17052364349365234375e+01) (2, -1.33921175003051757812e+01) (3, 9.77862262725830078125e+00) (4, 5.25527095794677734375e+00) (5, 1.06270372867584228516e-01) (6, 7.27104520797729492188e+00) (7, 8.28052043914794921875e+00) (8, 1.18129940032958984375e+01) (9, -6.32533073425292968750e+00) (10, 6.69014978408813476562e+00) (11, 2.36483883857727050781e+00) (12, -1.24212086200714111328e+00) 
