FANN_FLO_2.1
num_layers=3
learning_rate=0.500000
connection_rate=1.000000
network_type=0
learning_momentum=0.000000
training_algorithm=2
train_error_function=1
train_stop_function=0
cascade_output_change_fraction=0.010000
quickprop_decay=-0.000100
quickprop_mu=1.750000
rprop_increase_factor=1.200000
rprop_decrease_factor=0.500000
rprop_delta_min=0.000000
rprop_delta_max=50.000000
rprop_delta_zero=0.100000
cascade_output_stagnation_epochs=12
cascade_candidate_change_fraction=0.010000
cascade_candidate_stagnation_epochs=12
cascade_max_out_epochs=150
cascade_min_out_epochs=50
cascade_max_cand_epochs=150
cascade_min_cand_epochs=50
cascade_num_candidate_groups=2
bit_fail_limit=3.49999994039535522461e-01
cascade_candidate_limit=1.00000000000000000000e+03
cascade_weight_multiplier=4.00000005960464477539e-01
cascade_activation_functions_count=10
cascade_activation_functions=3 5 7 8 10 11 14 15 16 17 
cascade_activation_steepnesses_count=4
cascade_activation_steepnesses=2.50000000000000000000e-01 5.00000000000000000000e-01 7.50000000000000000000e-01 1.00000000000000000000e+00 
layer_sizes=10 5 2 
scale_included=0
neurons (num_inputs, activation_function, activation_steepness)=(0, 0, 0.00000000000000000000e+00) (0, 0, 0.00000000000000000000e+00) (0, 0, 0.00000000000000000000e+00) (0, 0, 0.00000000000000000000e+00) (0, 0, 0.00000000000000000000e+00) (0, 0, 0.00000000000000000000e+00) (0, 0, 0.00000000000000000000e+00) (0, 0, 0.00000000000000000000e+00) (0, 0, 0.00000000000000000000e+00) (0, 0, 0.00000000000000000000e+00) (10, 3, 5.00000000000000000000e-01) (10, 3, 5.00000000000000000000e-01) (10, 3, 5.00000000000000000000e-01) (10, 3, 5.00000000000000000000e-01) (0, 3, 0.00000000000000000000e+00) (5, 3, 5.00000000000000000000e-01) (0, 3, 0.00000000000000000000e+00) 
connections (connected_to_neuron, weight)=(0, -1.97175875306129455566e-01) (1, 9.56969916820526123047e-01) (2, 1.32050544023513793945e-01) (3, 1.61118113994598388672e+00) (4, -9.30626451969146728516e-01) (5, 5.66718935966491699219e-01) (6, 7.31003046035766601562e-01) (7, -1.32700711488723754883e-01) (8, 1.24609434604644775391e+00) (9, -2.36880350112915039062e+00) (0, 1.33848190307617187500e-01) (1, 3.52650570869445800781e+00) (2, 6.00916719436645507812e+00) (3, 4.04989242553710937500e+00) (4, -2.10792684555053710938e+00) (5, 8.27249622344970703125e+00) (6, 7.05782794952392578125e+00) (7, 3.05046081542968750000e+00) (8, -9.01679694652557373047e-01) (9, -7.66454601287841796875e+00) (0, -2.50020146369934082031e+00) (1, 8.39952087402343750000e+00) (2, 6.50243043899536132812e-01) (3, 5.39650583267211914062e+00) (4, -5.31851816177368164062e+00) (5, 5.63093662261962890625e+00) (6, 7.10516691207885742188e+00) (7, 2.19639867544174194336e-01) (8, 4.69404554367065429688e+00) (9, -7.22370433807373046875e+00) (0, -3.58788228034973144531e+00) (1, 5.83050394058227539062e+00) (2, 2.72813987731933593750e+00) (3, 6.11705350875854492188e+00) (4, -3.73637604713439941406e+00) (5, 6.17695856094360351562e+00) (6, 6.59749269485473632812e+00) (7, -3.38754028081893920898e-01) (8, 2.67924118041992187500e+00) (9, -6.60679340362548828125e+00) (10, -4.78375434875488281250e+00) (11, 7.34246194362640380859e-01) (12, 2.70139336585998535156e+00) (13, 6.40955507755279541016e-01) (14, -5.68623244762420654297e-01) 
