FANN_FLO_2.1
num_layers=3
learning_rate=0.500000
connection_rate=1.000000
network_type=0
learning_momentum=0.000000
training_algorithm=2
train_error_function=1
train_stop_function=0
cascade_output_change_fraction=0.010000
quickprop_decay=-0.000100
quickprop_mu=1.750000
rprop_increase_factor=1.200000
rprop_decrease_factor=0.500000
rprop_delta_min=0.000000
rprop_delta_max=50.000000
rprop_delta_zero=0.100000
cascade_output_stagnation_epochs=12
cascade_candidate_change_fraction=0.010000
cascade_candidate_stagnation_epochs=12
cascade_max_out_epochs=150
cascade_min_out_epochs=50
cascade_max_cand_epochs=150
cascade_min_cand_epochs=50
cascade_num_candidate_groups=2
bit_fail_limit=3.49999994039535522461e-01
cascade_candidate_limit=1.00000000000000000000e+03
cascade_weight_multiplier=4.00000005960464477539e-01
cascade_activation_functions_count=10
cascade_activation_functions=3 5 7 8 10 11 14 15 16 17 
cascade_activation_steepnesses_count=4
cascade_activation_steepnesses=2.50000000000000000000e-01 5.00000000000000000000e-01 7.50000000000000000000e-01 1.00000000000000000000e+00 
layer_sizes=6 5 2 
scale_included=0
neurons (num_inputs, activation_function, activation_steepness)=(0, 0, 0.00000000000000000000e+00) (0, 0, 0.00000000000000000000e+00) (0, 0, 0.00000000000000000000e+00) (0, 0, 0.00000000000000000000e+00) (0, 0, 0.00000000000000000000e+00) (0, 0, 0.00000000000000000000e+00) (6, 3, 5.00000000000000000000e-01) (6, 3, 5.00000000000000000000e-01) (6, 3, 5.00000000000000000000e-01) (6, 3, 5.00000000000000000000e-01) (0, 3, 0.00000000000000000000e+00) (5, 0, 5.00000000000000000000e-01) (0, 0, 0.00000000000000000000e+00) 
connections (connected_to_neuron, weight)=(0, -4.25717085599899291992e-02) (1, -1.43215898424386978149e-02) (2, 2.17781201004981994629e-01) (3, 9.61186945438385009766e-01) (4, -5.94376660883426666260e-02) (5, 3.14101636409759521484e-01) (0, 1.48968768119812011719e+00) (1, 5.77489328384399414062e+00) (2, -7.04518508911132812500e+00) (3, 2.17445993423461914062e+00) (4, -1.40357112884521484375e+00) (5, 2.79281711578369140625e+00) (0, -3.98928634822368621826e-02) (1, -2.26142466068267822266e-01) (2, 1.89624130725860595703e-01) (3, -9.79510247707366943359e-01) (4, -3.71435919078066945076e-04) (5, 2.63708680868148803711e-01) (0, 1.50277876853942871094e+00) (1, 5.96682310104370117188e+00) (2, -7.03956222534179687500e+00) (3, 2.17721557617187500000e+00) (4, -1.36956870555877685547e+00) (5, 2.78171110153198242188e+00) (6, 9.77623522281646728516e-01) (7, 1.13581955432891845703e+00) (8, 1.05299174785614013672e+00) (9, 1.13019597530364990234e+00) (10, 9.65456664562225341797e-01) 
