FANN_FLO_2.1
num_layers=3
learning_rate=0.500000
connection_rate=1.000000
network_type=0
learning_momentum=0.000000
training_algorithm=2
train_error_function=1
train_stop_function=0
cascade_output_change_fraction=0.010000
quickprop_decay=-0.000100
quickprop_mu=1.750000
rprop_increase_factor=1.200000
rprop_decrease_factor=0.500000
rprop_delta_min=0.000000
rprop_delta_max=50.000000
rprop_delta_zero=0.100000
cascade_output_stagnation_epochs=12
cascade_candidate_change_fraction=0.010000
cascade_candidate_stagnation_epochs=12
cascade_max_out_epochs=150
cascade_min_out_epochs=50
cascade_max_cand_epochs=150
cascade_min_cand_epochs=50
cascade_num_candidate_groups=2
bit_fail_limit=3.49999994039535522461e-01
cascade_candidate_limit=1.00000000000000000000e+03
cascade_weight_multiplier=4.00000005960464477539e-01
cascade_activation_functions_count=10
cascade_activation_functions=3 5 7 8 10 11 14 15 16 17 
cascade_activation_steepnesses_count=4
cascade_activation_steepnesses=2.50000000000000000000e-01 5.00000000000000000000e-01 7.50000000000000000000e-01 1.00000000000000000000e+00 
layer_sizes=10 3 2 
scale_included=0
neurons (num_inputs, activation_function, activation_steepness)=(0, 0, 0.00000000000000000000e+00) (0, 0, 0.00000000000000000000e+00) (0, 0, 0.00000000000000000000e+00) (0, 0, 0.00000000000000000000e+00) (0, 0, 0.00000000000000000000e+00) (0, 0, 0.00000000000000000000e+00) (0, 0, 0.00000000000000000000e+00) (0, 0, 0.00000000000000000000e+00) (0, 0, 0.00000000000000000000e+00) (0, 0, 0.00000000000000000000e+00) (10, 3, 5.00000000000000000000e-01) (10, 3, 5.00000000000000000000e-01) (0, 3, 0.00000000000000000000e+00) (3, 3, 5.00000000000000000000e-01) (0, 3, 0.00000000000000000000e+00) 
connections (connected_to_neuron, weight)=(0, -7.25288438796997070312e+00) (1, 2.17862396240234375000e+01) (2, 5.81997394561767578125e+00) (3, -5.71142768859863281250e+00) (4, 4.43868255615234375000e+00) (5, 2.66048717498779296875e+01) (6, -1.08857688903808593750e+01) (7, -1.35737390518188476562e+01) (8, 4.39363145828247070312e+00) (9, -8.27373409271240234375e+00) (0, 1.60557663440704345703e+00) (1, -7.75177240371704101562e+00) (2, -6.76478052139282226562e+00) (3, 6.92175292968750000000e+00) (4, -2.96862578392028808594e+00) (5, -1.06807041168212890625e+01) (6, 4.90228748321533203125e+00) (7, 9.78953647613525390625e+00) (8, -1.26936399936676025391e+00) (9, -9.84563827514648437500e-01) (10, 2.25968766212463378906e+00) (11, 6.41116666793823242188e+00) (12, -1.16676783561706542969e+00) 
