FANN_FLO_2.1
num_layers=3
learning_rate=0.500000
connection_rate=1.000000
network_type=0
learning_momentum=0.000000
training_algorithm=2
train_error_function=1
train_stop_function=0
cascade_output_change_fraction=0.010000
quickprop_decay=-0.000100
quickprop_mu=1.750000
rprop_increase_factor=1.200000
rprop_decrease_factor=0.500000
rprop_delta_min=0.000000
rprop_delta_max=50.000000
rprop_delta_zero=0.100000
cascade_output_stagnation_epochs=12
cascade_candidate_change_fraction=0.010000
cascade_candidate_stagnation_epochs=12
cascade_max_out_epochs=150
cascade_min_out_epochs=50
cascade_max_cand_epochs=150
cascade_min_cand_epochs=50
cascade_num_candidate_groups=2
bit_fail_limit=3.49999994039535522461e-01
cascade_candidate_limit=1.00000000000000000000e+03
cascade_weight_multiplier=4.00000005960464477539e-01
cascade_activation_functions_count=10
cascade_activation_functions=3 5 7 8 10 11 14 15 16 17 
cascade_activation_steepnesses_count=4
cascade_activation_steepnesses=2.50000000000000000000e-01 5.00000000000000000000e-01 7.50000000000000000000e-01 1.00000000000000000000e+00 
layer_sizes=10 5 2 
scale_included=0
neurons (num_inputs, activation_function, activation_steepness)=(0, 0, 0.00000000000000000000e+00) (0, 0, 0.00000000000000000000e+00) (0, 0, 0.00000000000000000000e+00) (0, 0, 0.00000000000000000000e+00) (0, 0, 0.00000000000000000000e+00) (0, 0, 0.00000000000000000000e+00) (0, 0, 0.00000000000000000000e+00) (0, 0, 0.00000000000000000000e+00) (0, 0, 0.00000000000000000000e+00) (0, 0, 0.00000000000000000000e+00) (10, 3, 5.00000000000000000000e-01) (10, 3, 5.00000000000000000000e-01) (10, 3, 5.00000000000000000000e-01) (10, 3, 5.00000000000000000000e-01) (0, 3, 0.00000000000000000000e+00) (5, 3, 5.00000000000000000000e-01) (0, 3, 0.00000000000000000000e+00) 
connections (connected_to_neuron, weight)=(0, -2.04806804656982421875e+01) (1, -2.30314044952392578125e+01) (2, 1.87184607982635498047e+00) (3, -1.33823547363281250000e+01) (4, 8.18416500091552734375e+00) (5, 4.15626764297485351562e+00) (6, -6.33466184139251708984e-01) (7, 1.57114124298095703125e+01) (8, 2.40245037078857421875e+01) (9, -4.52521514892578125000e+00) (0, 8.99326610565185546875e+00) (1, 6.26452589035034179688e+00) (2, -6.00317828357219696045e-02) (3, 2.34496220946311950684e-01) (4, 1.55951309204101562500e+00) (5, -2.61748766899108886719e+00) (6, -5.93412593007087707520e-02) (7, -1.08970222473144531250e+01) (8, -9.29053592681884765625e+00) (9, 4.03077423572540283203e-01) (0, -4.16917115449905395508e-01) (1, -6.24701976776123046875e+00) (2, 6.54321908950805664062e+00) (3, 6.09092235565185546875e+00) (4, 9.18452167510986328125e+00) (5, 7.46037578582763671875e+00) (6, -3.58963894844055175781e+00) (7, 2.00816402435302734375e+01) (8, -2.64801740646362304688e+00) (9, -1.08931589126586914062e+01) (0, -1.20214242935180664062e+01) (1, -4.30404514074325561523e-01) (2, -5.85075259208679199219e-01) (3, -2.02633595466613769531e+00) (4, -1.06049804687500000000e+01) (5, 1.94468784332275390625e+01) (6, 2.06116466522216796875e+01) (7, 1.40553176403045654297e+00) (8, 6.38302707672119140625e+00) (9, -5.49766302108764648438e+00) (10, 3.65003323554992675781e+00) (11, 4.90681695938110351562e+00) (12, 1.26581943035125732422e+00) (13, 1.35660219192504882812e+00) (14, -2.52215743064880371094e+00) 
