FANN_FLO_2.1
num_layers=3
learning_rate=0.500000
connection_rate=1.000000
network_type=0
learning_momentum=0.000000
training_algorithm=2
train_error_function=1
train_stop_function=0
cascade_output_change_fraction=0.010000
quickprop_decay=-0.000100
quickprop_mu=1.750000
rprop_increase_factor=1.200000
rprop_decrease_factor=0.500000
rprop_delta_min=0.000000
rprop_delta_max=50.000000
rprop_delta_zero=0.100000
cascade_output_stagnation_epochs=12
cascade_candidate_change_fraction=0.010000
cascade_candidate_stagnation_epochs=12
cascade_max_out_epochs=150
cascade_min_out_epochs=50
cascade_max_cand_epochs=150
cascade_min_cand_epochs=50
cascade_num_candidate_groups=2
bit_fail_limit=3.49999994039535522461e-01
cascade_candidate_limit=1.00000000000000000000e+03
cascade_weight_multiplier=4.00000005960464477539e-01
cascade_activation_functions_count=10
cascade_activation_functions=3 5 7 8 10 11 14 15 16 17 
cascade_activation_steepnesses_count=4
cascade_activation_steepnesses=2.50000000000000000000e-01 5.00000000000000000000e-01 7.50000000000000000000e-01 1.00000000000000000000e+00 
layer_sizes=6 5 2 
scale_included=0
neurons (num_inputs, activation_function, activation_steepness)=(0, 0, 0.00000000000000000000e+00) (0, 0, 0.00000000000000000000e+00) (0, 0, 0.00000000000000000000e+00) (0, 0, 0.00000000000000000000e+00) (0, 0, 0.00000000000000000000e+00) (0, 0, 0.00000000000000000000e+00) (6, 3, 5.00000000000000000000e-01) (6, 3, 5.00000000000000000000e-01) (6, 3, 5.00000000000000000000e-01) (6, 3, 5.00000000000000000000e-01) (0, 3, 0.00000000000000000000e+00) (5, 0, 5.00000000000000000000e-01) (0, 0, 0.00000000000000000000e+00) 
connections (connected_to_neuron, weight)=(0, 2.72418767213821411133e-01) (1, 9.23931360244750976562e-01) (2, -4.15390920639038085938e+00) (3, 2.72814065217971801758e-01) (4, -3.73030360788106918335e-03) (5, 6.43476545810699462891e-01) (0, 1.15563225746154785156e+00) (1, 7.36984074115753173828e-01) (2, 8.25467467308044433594e-01) (3, 8.31250488758087158203e-01) (4, -4.64762091636657714844e-01) (5, 2.09992313385009765625e+01) (0, -1.13589607179164886475e-01) (1, -6.03482089936733245850e-02) (2, 5.20980298519134521484e-01) (3, -1.42149046063423156738e-01) (4, -1.75862282514572143555e-01) (5, 4.86594915390014648438e-01) (0, -1.06006912887096405029e-01) (1, -7.28449285030364990234e-01) (2, 2.67689037322998046875e+00) (3, -1.08664683997631072998e-01) (4, 5.49766048789024353027e-02) (5, 4.53812420368194580078e-01) (6, 1.09927797317504882812e+00) (7, 1.23360729217529296875e+00) (8, 1.03842318058013916016e+00) (9, 1.07556104660034179688e+00) (10, 1.08177113533020019531e+00) 
