FANN_FLO_2.1
num_layers=3
learning_rate=0.500000
connection_rate=1.000000
network_type=0
learning_momentum=0.000000
training_algorithm=2
train_error_function=1
train_stop_function=0
cascade_output_change_fraction=0.010000
quickprop_decay=-0.000100
quickprop_mu=1.750000
rprop_increase_factor=1.200000
rprop_decrease_factor=0.500000
rprop_delta_min=0.000000
rprop_delta_max=50.000000
rprop_delta_zero=0.100000
cascade_output_stagnation_epochs=12
cascade_candidate_change_fraction=0.010000
cascade_candidate_stagnation_epochs=12
cascade_max_out_epochs=150
cascade_min_out_epochs=50
cascade_max_cand_epochs=150
cascade_min_cand_epochs=50
cascade_num_candidate_groups=2
bit_fail_limit=3.49999994039535522461e-01
cascade_candidate_limit=1.00000000000000000000e+03
cascade_weight_multiplier=4.00000005960464477539e-01
cascade_activation_functions_count=10
cascade_activation_functions=3 5 7 8 10 11 14 15 16 17 
cascade_activation_steepnesses_count=4
cascade_activation_steepnesses=2.50000000000000000000e-01 5.00000000000000000000e-01 7.50000000000000000000e-01 1.00000000000000000000e+00 
layer_sizes=10 3 2 
scale_included=0
neurons (num_inputs, activation_function, activation_steepness)=(0, 0, 0.00000000000000000000e+00) (0, 0, 0.00000000000000000000e+00) (0, 0, 0.00000000000000000000e+00) (0, 0, 0.00000000000000000000e+00) (0, 0, 0.00000000000000000000e+00) (0, 0, 0.00000000000000000000e+00) (0, 0, 0.00000000000000000000e+00) (0, 0, 0.00000000000000000000e+00) (0, 0, 0.00000000000000000000e+00) (0, 0, 0.00000000000000000000e+00) (10, 3, 5.00000000000000000000e-01) (10, 3, 5.00000000000000000000e-01) (0, 3, 0.00000000000000000000e+00) (3, 3, 5.00000000000000000000e-01) (0, 3, 0.00000000000000000000e+00) 
connections (connected_to_neuron, weight)=(0, -7.88880288600921630859e-01) (1, 1.06516695022583007812e+01) (2, 8.00791072845458984375e+00) (3, 1.97510313987731933594e+00) (4, 2.29079341888427734375e+00) (5, 5.88765287399291992188e+00) (6, -9.69882249832153320312e-01) (7, -1.36560134887695312500e+01) (8, 6.39128780364990234375e+00) (9, -6.64130115509033203125e+00) (0, 2.26751589775085449219e+00) (1, -1.24670810699462890625e+01) (2, -8.12156772613525390625e+00) (3, 2.59243756532669067383e-01) (4, -1.26406908035278320312e-01) (5, -2.83607959747314453125e+00) (6, 5.41671705245971679688e+00) (7, 1.10472335815429687500e+01) (8, -3.09556126594543457031e+00) (9, -6.05681300163269042969e-01) (10, 2.79043030738830566406e+00) (11, 7.71207571029663085938e+00) (12, -1.62293791770935058594e+00) 
