FANN_FLO_2.1
num_layers=3
learning_rate=0.500000
connection_rate=1.000000
network_type=0
learning_momentum=0.000000
training_algorithm=2
train_error_function=1
train_stop_function=0
cascade_output_change_fraction=0.010000
quickprop_decay=-0.000100
quickprop_mu=1.750000
rprop_increase_factor=1.200000
rprop_decrease_factor=0.500000
rprop_delta_min=0.000000
rprop_delta_max=50.000000
rprop_delta_zero=0.100000
cascade_output_stagnation_epochs=12
cascade_candidate_change_fraction=0.010000
cascade_candidate_stagnation_epochs=12
cascade_max_out_epochs=150
cascade_min_out_epochs=50
cascade_max_cand_epochs=150
cascade_min_cand_epochs=50
cascade_num_candidate_groups=2
bit_fail_limit=3.49999994039535522461e-01
cascade_candidate_limit=1.00000000000000000000e+03
cascade_weight_multiplier=4.00000005960464477539e-01
cascade_activation_functions_count=10
cascade_activation_functions=3 5 7 8 10 11 14 15 16 17 
cascade_activation_steepnesses_count=4
cascade_activation_steepnesses=2.50000000000000000000e-01 5.00000000000000000000e-01 7.50000000000000000000e-01 1.00000000000000000000e+00 
layer_sizes=10 3 2
scale_included=0
neurons (num_inputs, activation_function, activation_steepness)=(0, 0, 0.00000000000000000000e+00) (0, 0, 0.00000000000000000000e+00) (0, 0, 0.00000000000000000000e+00) (0, 0, 0.00000000000000000000e+00) (0, 0, 0.00000000000000000000e+00) (0, 0, 0.00000000000000000000e+00) (0, 0, 0.00000000000000000000e+00) (0, 0, 0.00000000000000000000e+00) (0, 0, 0.00000000000000000000e+00) (0, 0, 0.00000000000000000000e+00) (10, 3, 5.00000000000000000000e-01) (10, 3, 5.00000000000000000000e-01) (0, 3, 0.00000000000000000000e+00) (3, 3, 5.00000000000000000000e-01) (0, 3, 0.00000000000000000000e+00) 
connections (connected_to_neuron, weight)=(0, 5.94635233283042907715e-02) (1, 1.64874792098999023438e-01) (2, 1.26902714371681213379e-01) (3, 1.21801778674125671387e-01) (4, 2.15638518333435058594e-01) (5, 1.59063994884490966797e-01) (6, 2.00122371315956115723e-02) (7, 8.35951939225196838379e-02) (8, 3.98419350385665893555e-02) (9, 2.59717851877212524414e-02) (0, 1.73879444599151611328e-01) (1, 1.61158502101898193359e-01) (2, 6.16384074091911315918e-02) (3, 1.15728132426738739014e-01) (4, 1.88751965761184692383e-01) (5, 3.75507324934005737305e-02) (6, 1.99355810880661010742e-01) (7, 1.47183597087860107422e-01) (8, 1.37955695390701293945e-01) (9, 1.31107419729232788086e-01) (10, -1.22061535716056823730e-01) (11, -1.92630186676979064941e-01) (12, -2.17461735010147094727e-01) 
