FANN_FLO_2.1
num_layers=3
learning_rate=0.500000
connection_rate=1.000000
network_type=0
learning_momentum=0.000000
training_algorithm=2
train_error_function=1
train_stop_function=0
cascade_output_change_fraction=0.010000
quickprop_decay=-0.000100
quickprop_mu=1.750000
rprop_increase_factor=1.200000
rprop_decrease_factor=0.500000
rprop_delta_min=0.000000
rprop_delta_max=50.000000
rprop_delta_zero=0.100000
cascade_output_stagnation_epochs=12
cascade_candidate_change_fraction=0.010000
cascade_candidate_stagnation_epochs=12
cascade_max_out_epochs=150
cascade_min_out_epochs=50
cascade_max_cand_epochs=150
cascade_min_cand_epochs=50
cascade_num_candidate_groups=2
bit_fail_limit=3.49999994039535522461e-01
cascade_candidate_limit=1.00000000000000000000e+03
cascade_weight_multiplier=4.00000005960464477539e-01
cascade_activation_functions_count=10
cascade_activation_functions=3 5 7 8 10 11 14 15 16 17 
cascade_activation_steepnesses_count=4
cascade_activation_steepnesses=2.50000000000000000000e-01 5.00000000000000000000e-01 7.50000000000000000000e-01 1.00000000000000000000e+00 
layer_sizes=6 5 2 
scale_included=0
neurons (num_inputs, activation_function, activation_steepness)=(0, 0, 0.00000000000000000000e+00) (0, 0, 0.00000000000000000000e+00) (0, 0, 0.00000000000000000000e+00) (0, 0, 0.00000000000000000000e+00) (0, 0, 0.00000000000000000000e+00) (0, 0, 0.00000000000000000000e+00) (6, 3, 5.00000000000000000000e-01) (6, 3, 5.00000000000000000000e-01) (6, 3, 5.00000000000000000000e-01) (6, 3, 5.00000000000000000000e-01) (0, 3, 0.00000000000000000000e+00) (5, 0, 5.00000000000000000000e-01) (0, 0, 0.00000000000000000000e+00) 
connections (connected_to_neuron, weight)=(0, 1.28317999839782714844e+00) (1, 1.85931909084320068359e+00) (2, -1.05802021026611328125e+01) (3, -1.80976696014404296875e+01) (4, -4.14004802703857421875e+00) (5, 3.71394181251525878906e+00) (0, 3.27674329280853271484e-01) (1, -2.74365758895874023438e+00) (2, 3.05238276720046997070e-01) (3, -1.74304866790771484375e+00) (4, 1.09356021881103515625e+00) (5, 3.49025338888168334961e-01) (0, 8.57491716742515563965e-02) (1, 1.44069457054138183594e+00) (2, -1.70575335621833801270e-01) (3, 1.82882750034332275391e+00) (4, -8.13815057277679443359e-01) (5, 4.21729654073715209961e-01) (0, -3.87755423784255981445e-01) (1, 8.28948616981506347656e-01) (2, -1.87398605048656463623e-02) (3, 4.16844695806503295898e-01) (4, -9.07989293336868286133e-02) (5, 4.49193388223648071289e-01) (6, 1.17921686172485351562e+00) (7, 1.13240611553192138672e+00) (8, 1.06079459190368652344e+00) (9, 1.12123847007751464844e+00) (10, 1.18346285820007324219e+00) 
