FANN_FLO_2.1
num_layers=3
learning_rate=0.500000
connection_rate=1.000000
network_type=0
learning_momentum=0.000000
training_algorithm=2
train_error_function=1
train_stop_function=0
cascade_output_change_fraction=0.010000
quickprop_decay=-0.000100
quickprop_mu=1.750000
rprop_increase_factor=1.200000
rprop_decrease_factor=0.500000
rprop_delta_min=0.000000
rprop_delta_max=50.000000
rprop_delta_zero=0.100000
cascade_output_stagnation_epochs=12
cascade_candidate_change_fraction=0.010000
cascade_candidate_stagnation_epochs=12
cascade_max_out_epochs=150
cascade_min_out_epochs=50
cascade_max_cand_epochs=150
cascade_min_cand_epochs=50
cascade_num_candidate_groups=2
bit_fail_limit=3.49999994039535522461e-01
cascade_candidate_limit=1.00000000000000000000e+03
cascade_weight_multiplier=4.00000005960464477539e-01
cascade_activation_functions_count=10
cascade_activation_functions=3 5 7 8 10 11 14 15 16 17 
cascade_activation_steepnesses_count=4
cascade_activation_steepnesses=2.50000000000000000000e-01 5.00000000000000000000e-01 7.50000000000000000000e-01 1.00000000000000000000e+00 
layer_sizes=6 5 2 
scale_included=0
neurons (num_inputs, activation_function, activation_steepness)=(0, 0, 0.00000000000000000000e+00) (0, 0, 0.00000000000000000000e+00) (0, 0, 0.00000000000000000000e+00) (0, 0, 0.00000000000000000000e+00) (0, 0, 0.00000000000000000000e+00) (0, 0, 0.00000000000000000000e+00) (6, 3, 5.00000000000000000000e-01) (6, 3, 5.00000000000000000000e-01) (6, 3, 5.00000000000000000000e-01) (6, 3, 5.00000000000000000000e-01) (0, 3, 0.00000000000000000000e+00) (5, 0, 5.00000000000000000000e-01) (0, 0, 0.00000000000000000000e+00) 
connections (connected_to_neuron, weight)=(0, -3.60200479626655578613e-02) (1, -6.68449401855468750000e-01) (2, 4.14590865373611450195e-01) (3, -3.81188601255416870117e-01) (4, -2.24889963865280151367e-02) (5, 3.43623906373977661133e-01) (0, 1.47567820549011230469e+00) (1, 1.09980363845825195312e+01) (2, -4.16286373138427734375e+00) (3, 1.17648925781250000000e+01) (4, 1.71202106475830078125e+01) (5, 2.44014596939086914062e+00) (0, -6.07787817716598510742e-02) (1, 7.59048108011484146118e-03) (2, 6.73578120768070220947e-03) (3, 3.86364571750164031982e-02) (4, 1.94593206048011779785e-01) (5, 2.85052150487899780273e-01) (0, 1.69764900207519531250e+00) (1, 8.69905531406402587891e-01) (2, -6.12132787704467773438e+00) (3, -1.19783067703247070312e+00) (4, -2.10584239959716796875e+01) (5, 2.63555264472961425781e+00) (6, 9.71174180507659912109e-01) (7, 1.07242333889007568359e+00) (8, 9.75435078144073486328e-01) (9, 1.10202789306640625000e+00) (10, 1.10061860084533691406e+00) 
