FANN_FLO_2.1
num_layers=3
learning_rate=0.500000
connection_rate=1.000000
network_type=0
learning_momentum=0.000000
training_algorithm=2
train_error_function=1
train_stop_function=0
cascade_output_change_fraction=0.010000
quickprop_decay=-0.000100
quickprop_mu=1.750000
rprop_increase_factor=1.200000
rprop_decrease_factor=0.500000
rprop_delta_min=0.000000
rprop_delta_max=50.000000
rprop_delta_zero=0.100000
cascade_output_stagnation_epochs=12
cascade_candidate_change_fraction=0.010000
cascade_candidate_stagnation_epochs=12
cascade_max_out_epochs=150
cascade_min_out_epochs=50
cascade_max_cand_epochs=150
cascade_min_cand_epochs=50
cascade_num_candidate_groups=2
bit_fail_limit=3.49999994039535522461e-01
cascade_candidate_limit=1.00000000000000000000e+03
cascade_weight_multiplier=4.00000005960464477539e-01
cascade_activation_functions_count=10
cascade_activation_functions=3 5 7 8 10 11 14 15 16 17 
cascade_activation_steepnesses_count=4
cascade_activation_steepnesses=2.50000000000000000000e-01 5.00000000000000000000e-01 7.50000000000000000000e-01 1.00000000000000000000e+00 
layer_sizes=6 5 2 
scale_included=0
neurons (num_inputs, activation_function, activation_steepness)=(0, 0, 0.00000000000000000000e+00) (0, 0, 0.00000000000000000000e+00) (0, 0, 0.00000000000000000000e+00) (0, 0, 0.00000000000000000000e+00) (0, 0, 0.00000000000000000000e+00) (0, 0, 0.00000000000000000000e+00) (6, 3, 5.00000000000000000000e-01) (6, 3, 5.00000000000000000000e-01) (6, 3, 5.00000000000000000000e-01) (6, 3, 5.00000000000000000000e-01) (0, 3, 0.00000000000000000000e+00) (5, 0, 5.00000000000000000000e-01) (0, 0, 0.00000000000000000000e+00) 
connections (connected_to_neuron, weight)=(0, -2.14667066931724548340e-01) (1, -1.74642235040664672852e-01) (2, -4.97988551855087280273e-01) (3, 3.14468294382095336914e-01) (4, 5.57296350598335266113e-02) (5, 1.94411531090736389160e-01) (0, 1.19011127948760986328e+00) (1, -1.48483526706695556641e+00) (2, -1.14062500000000000000e+01) (3, -1.23772060871124267578e+00) (4, -1.21412956714630126953e+00) (5, 2.89268374443054199219e+00) (0, 1.06227040290832519531e+00) (1, -2.45415091514587402344e+00) (2, 6.42440986633300781250e+00) (3, -3.73145580291748046875e+00) (4, 1.43940344452857971191e-01) (5, 1.76986813545227050781e+00) (0, 1.19939720630645751953e+00) (1, 1.08798103332519531250e+01) (2, 1.57012629508972167969e+00) (3, 3.39849781990051269531e+00) (4, 2.95387101173400878906e+00) (5, 2.65419387817382812500e+00) (6, 9.13033306598663330078e-01) (7, 9.81652379035949707031e-01) (8, 1.02527081966400146484e+00) (9, 9.78453993797302246094e-01) (10, 9.94366705417633056641e-01) 
