FANN_FLO_2.1
num_layers=3
learning_rate=0.500000
connection_rate=1.000000
network_type=0
learning_momentum=0.000000
training_algorithm=2
train_error_function=1
train_stop_function=0
cascade_output_change_fraction=0.010000
quickprop_decay=-0.000100
quickprop_mu=1.750000
rprop_increase_factor=1.200000
rprop_decrease_factor=0.500000
rprop_delta_min=0.000000
rprop_delta_max=50.000000
rprop_delta_zero=0.100000
cascade_output_stagnation_epochs=12
cascade_candidate_change_fraction=0.010000
cascade_candidate_stagnation_epochs=12
cascade_max_out_epochs=150
cascade_min_out_epochs=50
cascade_max_cand_epochs=150
cascade_min_cand_epochs=50
cascade_num_candidate_groups=2
bit_fail_limit=3.49999994039535522461e-01
cascade_candidate_limit=1.00000000000000000000e+03
cascade_weight_multiplier=4.00000005960464477539e-01
cascade_activation_functions_count=10
cascade_activation_functions=3 5 7 8 10 11 14 15 16 17 
cascade_activation_steepnesses_count=4
cascade_activation_steepnesses=2.50000000000000000000e-01 5.00000000000000000000e-01 7.50000000000000000000e-01 1.00000000000000000000e+00 
layer_sizes=6 5 2 
scale_included=0
neurons (num_inputs, activation_function, activation_steepness)=(0, 0, 0.00000000000000000000e+00) (0, 0, 0.00000000000000000000e+00) (0, 0, 0.00000000000000000000e+00) (0, 0, 0.00000000000000000000e+00) (0, 0, 0.00000000000000000000e+00) (0, 0, 0.00000000000000000000e+00) (6, 3, 5.00000000000000000000e-01) (6, 3, 5.00000000000000000000e-01) (6, 3, 5.00000000000000000000e-01) (6, 3, 5.00000000000000000000e-01) (0, 3, 0.00000000000000000000e+00) (5, 0, 5.00000000000000000000e-01) (0, 0, 0.00000000000000000000e+00) 
connections (connected_to_neuron, weight)=(0, -2.77799684554338455200e-02) (1, -1.93981647491455078125e-01) (2, -1.78137168288230895996e-01) (3, 1.14349111914634704590e-01) (4, 5.93881249427795410156e-01) (5, 1.76160648465156555176e-01) (0, 1.47087228298187255859e+00) (1, 1.92552888393402099609e+00) (2, 2.45870813727378845215e-01) (3, 8.13629806041717529297e-01) (4, -2.80220394134521484375e+01) (5, 4.12905216217041015625e+00) (0, -1.89596805721521377563e-02) (1, -2.35760748386383056641e-01) (2, 1.72138527035713195801e-01) (3, 2.37299382686614990234e-01) (4, 2.97911643981933593750e-01) (5, 3.18494826555252075195e-01) (0, 1.04319441318511962891e+00) (1, 1.24533061981201171875e+01) (2, -1.95639038085937500000e+00) (3, -5.14853525161743164062e+00) (4, -8.18379974365234375000e+00) (5, 3.41895413398742675781e+00) (6, 9.85455155372619628906e-01) (7, 1.11440670490264892578e+00) (8, 1.03612208366394042969e+00) (9, 1.06110727787017822266e+00) (10, 1.06023669242858886719e+00) 
