FANN_FLO_2.1
num_layers=3
learning_rate=0.500000
connection_rate=1.000000
network_type=0
learning_momentum=0.000000
training_algorithm=2
train_error_function=1
train_stop_function=0
cascade_output_change_fraction=0.010000
quickprop_decay=-0.000100
quickprop_mu=1.750000
rprop_increase_factor=1.200000
rprop_decrease_factor=0.500000
rprop_delta_min=0.000000
rprop_delta_max=50.000000
rprop_delta_zero=0.100000
cascade_output_stagnation_epochs=12
cascade_candidate_change_fraction=0.010000
cascade_candidate_stagnation_epochs=12
cascade_max_out_epochs=150
cascade_min_out_epochs=50
cascade_max_cand_epochs=150
cascade_min_cand_epochs=50
cascade_num_candidate_groups=2
bit_fail_limit=3.49999994039535522461e-01
cascade_candidate_limit=1.00000000000000000000e+03
cascade_weight_multiplier=4.00000005960464477539e-01
cascade_activation_functions_count=10
cascade_activation_functions=3 5 7 8 10 11 14 15 16 17 
cascade_activation_steepnesses_count=4
cascade_activation_steepnesses=2.50000000000000000000e-01 5.00000000000000000000e-01 7.50000000000000000000e-01 1.00000000000000000000e+00 
layer_sizes=10 5 2 
scale_included=0
neurons (num_inputs, activation_function, activation_steepness)=(0, 0, 0.00000000000000000000e+00) (0, 0, 0.00000000000000000000e+00) (0, 0, 0.00000000000000000000e+00) (0, 0, 0.00000000000000000000e+00) (0, 0, 0.00000000000000000000e+00) (0, 0, 0.00000000000000000000e+00) (0, 0, 0.00000000000000000000e+00) (0, 0, 0.00000000000000000000e+00) (0, 0, 0.00000000000000000000e+00) (0, 0, 0.00000000000000000000e+00) (10, 3, 5.00000000000000000000e-01) (10, 3, 5.00000000000000000000e-01) (10, 3, 5.00000000000000000000e-01) (10, 3, 5.00000000000000000000e-01) (0, 3, 0.00000000000000000000e+00) (5, 3, 5.00000000000000000000e-01) (0, 3, 0.00000000000000000000e+00) 
connections (connected_to_neuron, weight)=(0, 1.05004262924194335938e+01) (1, -2.93199157714843750000e+00) (2, -3.00843477249145507812e+00) (3, 1.63685359954833984375e+01) (4, 3.58402633666992187500e+00) (5, -2.56269149780273437500e+01) (6, 9.09966373443603515625e+00) (7, -4.92376708984375000000e+00) (8, -6.42815160751342773438e+00) (9, -1.87294852733612060547e+00) (0, -5.58697795867919921875e+00) (1, 1.49430990219116210938e+01) (2, -7.59010791778564453125e-01) (3, 9.90336704254150390625e+00) (4, -3.76572418212890625000e+00) (5, 2.78709149360656738281e+00) (6, -7.17171955108642578125e+00) (7, 1.82176914215087890625e+01) (8, 3.55025839805603027344e+00) (9, -1.04484119415283203125e+01) (0, 2.99799799919128417969e-01) (1, 1.50000000000000000000e+03) (2, 1.50000000000000000000e+03) (3, 2.50200557708740234375e+00) (4, -2.72644102573394775391e-01) (5, -2.02013754844665527344e+00) (6, 1.18383140563964843750e+01) (7, 1.50000000000000000000e+03) (8, 5.15897949218750000000e+02) (9, -2.83963143825531005859e-01) (0, -7.76083183288574218750e+00) (1, -1.04085803031921386719e+00) (2, 7.31579685211181640625e+00) (3, -1.99851112365722656250e+01) (4, -2.40771579742431640625e+00) (5, 1.58749160766601562500e+01) (6, -9.21111392974853515625e+00) (7, 2.17096757888793945312e+00) (8, 1.30178537368774414062e+01) (9, -2.79204535484313964844e+00) (10, 3.59807538986206054688e+00) (11, 1.12442421913146972656e+00) (12, -7.27265119552612304688e-01) (13, 4.02731370925903320312e+00) (14, -5.03442525863647460938e-01) 
