FANN_FLO_2.1
num_layers=3
learning_rate=0.500000
connection_rate=1.000000
network_type=0
learning_momentum=0.000000
training_algorithm=2
train_error_function=1
train_stop_function=0
cascade_output_change_fraction=0.010000
quickprop_decay=-0.000100
quickprop_mu=1.750000
rprop_increase_factor=1.200000
rprop_decrease_factor=0.500000
rprop_delta_min=0.000000
rprop_delta_max=50.000000
rprop_delta_zero=0.100000
cascade_output_stagnation_epochs=12
cascade_candidate_change_fraction=0.010000
cascade_candidate_stagnation_epochs=12
cascade_max_out_epochs=150
cascade_min_out_epochs=50
cascade_max_cand_epochs=150
cascade_min_cand_epochs=50
cascade_num_candidate_groups=2
bit_fail_limit=3.49999994039535522461e-01
cascade_candidate_limit=1.00000000000000000000e+03
cascade_weight_multiplier=4.00000005960464477539e-01
cascade_activation_functions_count=10
cascade_activation_functions=3 5 7 8 10 11 14 15 16 17 
cascade_activation_steepnesses_count=4
cascade_activation_steepnesses=2.50000000000000000000e-01 5.00000000000000000000e-01 7.50000000000000000000e-01 1.00000000000000000000e+00 
layer_sizes=6 5 2 
scale_included=0
neurons (num_inputs, activation_function, activation_steepness)=(0, 0, 0.00000000000000000000e+00) (0, 0, 0.00000000000000000000e+00) (0, 0, 0.00000000000000000000e+00) (0, 0, 0.00000000000000000000e+00) (0, 0, 0.00000000000000000000e+00) (0, 0, 0.00000000000000000000e+00) (6, 3, 5.00000000000000000000e-01) (6, 3, 5.00000000000000000000e-01) (6, 3, 5.00000000000000000000e-01) (6, 3, 5.00000000000000000000e-01) (0, 3, 0.00000000000000000000e+00) (5, 0, 5.00000000000000000000e-01) (0, 0, 0.00000000000000000000e+00) 
connections (connected_to_neuron, weight)=(0, -2.63806395232677459717e-02) (1, -2.72913634777069091797e-01) (2, 8.17175060510635375977e-02) (3, 1.63667455315589904785e-01) (4, -4.21127900481224060059e-02) (5, 3.63204538822174072266e-01) (0, -5.75407296419143676758e-02) (1, 2.65010833740234375000e-01) (2, 3.03205475211143493652e-02) (3, -8.77315327525138854980e-02) (4, -4.50391359627246856689e-02) (5, 3.32409888505935668945e-01) (0, 5.97726814448833465576e-02) (1, -4.27476316690444946289e-01) (2, 2.12201535701751708984e-01) (3, 1.63583353161811828613e-01) (4, -1.12190902233123779297e-01) (5, 3.55382502079010009766e-01) (0, 1.09977805614471435547e+00) (1, 1.03375129699707031250e+01) (2, -1.23949861526489257812e+01) (3, -5.39091169834136962891e-01) (4, 5.72250723838806152344e-01) (5, 3.96895694732666015625e+00) (6, 1.09205985069274902344e+00) (7, 1.15317022800445556641e+00) (8, 1.11329841613769531250e+00) (9, 1.24186098575592041016e+00) (10, 1.14888966083526611328e+00) 
