FANN_FLO_2.1
num_layers=3
learning_rate=0.500000
connection_rate=1.000000
network_type=0
learning_momentum=0.000000
training_algorithm=2
train_error_function=1
train_stop_function=0
cascade_output_change_fraction=0.010000
quickprop_decay=-0.000100
quickprop_mu=1.750000
rprop_increase_factor=1.200000
rprop_decrease_factor=0.500000
rprop_delta_min=0.000000
rprop_delta_max=50.000000
rprop_delta_zero=0.100000
cascade_output_stagnation_epochs=12
cascade_candidate_change_fraction=0.010000
cascade_candidate_stagnation_epochs=12
cascade_max_out_epochs=150
cascade_min_out_epochs=50
cascade_max_cand_epochs=150
cascade_min_cand_epochs=50
cascade_num_candidate_groups=2
bit_fail_limit=3.49999994039535522461e-01
cascade_candidate_limit=1.00000000000000000000e+03
cascade_weight_multiplier=4.00000005960464477539e-01
cascade_activation_functions_count=10
cascade_activation_functions=3 5 7 8 10 11 14 15 16 17 
cascade_activation_steepnesses_count=4
cascade_activation_steepnesses=2.50000000000000000000e-01 5.00000000000000000000e-01 7.50000000000000000000e-01 1.00000000000000000000e+00 
layer_sizes=6 5 2 
scale_included=0
neurons (num_inputs, activation_function, activation_steepness)=(0, 0, 0.00000000000000000000e+00) (0, 0, 0.00000000000000000000e+00) (0, 0, 0.00000000000000000000e+00) (0, 0, 0.00000000000000000000e+00) (0, 0, 0.00000000000000000000e+00) (0, 0, 0.00000000000000000000e+00) (6, 3, 5.00000000000000000000e-01) (6, 3, 5.00000000000000000000e-01) (6, 3, 5.00000000000000000000e-01) (6, 3, 5.00000000000000000000e-01) (0, 3, 0.00000000000000000000e+00) (5, 0, 5.00000000000000000000e-01) (0, 0, 0.00000000000000000000e+00) 
connections (connected_to_neuron, weight)=(0, -5.71373179554939270020e-02) (1, 2.77571320533752441406e+00) (2, -5.76070976257324218750e+00) (3, 1.64850926399230957031e+00) (4, -5.04135191440582275391e-01) (5, 3.64859485626220703125e+00) (0, 8.25507581233978271484e-01) (1, -5.81330060958862304688e+00) (2, -3.53836822509765625000e+00) (3, -1.08309621810913085938e+01) (4, 6.85697984695434570312e+00) (5, 3.69969511032104492188e+00) (0, 5.91626048088073730469e-01) (1, -7.51764535903930664062e+00) (2, 2.44735836982727050781e+00) (3, 3.29075837135314941406e+00) (4, -5.16286420822143554688e+00) (5, 3.22818064689636230469e+00) (0, 7.49025046825408935547e-02) (1, 4.22688436508178710938e+00) (2, 7.78183460235595703125e+00) (3, 1.94658315181732177734e+00) (4, 6.66424274444580078125e+00) (5, 3.97148823738098144531e+00) (6, 8.92919480800628662109e-01) (7, 8.63330304622650146484e-01) (8, 8.50669741630554199219e-01) (9, 8.68734657764434814453e-01) (10, 9.32939291000366210938e-01) 
