FANN_FLO_2.1
num_layers=3
learning_rate=0.500000
connection_rate=1.000000
network_type=0
learning_momentum=0.000000
training_algorithm=2
train_error_function=1
train_stop_function=0
cascade_output_change_fraction=0.010000
quickprop_decay=-0.000100
quickprop_mu=1.750000
rprop_increase_factor=1.200000
rprop_decrease_factor=0.500000
rprop_delta_min=0.000000
rprop_delta_max=50.000000
rprop_delta_zero=0.100000
cascade_output_stagnation_epochs=12
cascade_candidate_change_fraction=0.010000
cascade_candidate_stagnation_epochs=12
cascade_max_out_epochs=150
cascade_min_out_epochs=50
cascade_max_cand_epochs=150
cascade_min_cand_epochs=50
cascade_num_candidate_groups=2
bit_fail_limit=3.49999994039535522461e-01
cascade_candidate_limit=1.00000000000000000000e+03
cascade_weight_multiplier=4.00000005960464477539e-01
cascade_activation_functions_count=10
cascade_activation_functions=3 5 7 8 10 11 14 15 16 17 
cascade_activation_steepnesses_count=4
cascade_activation_steepnesses=2.50000000000000000000e-01 5.00000000000000000000e-01 7.50000000000000000000e-01 1.00000000000000000000e+00 
layer_sizes=6 5 2 
scale_included=0
neurons (num_inputs, activation_function, activation_steepness)=(0, 0, 0.00000000000000000000e+00) (0, 0, 0.00000000000000000000e+00) (0, 0, 0.00000000000000000000e+00) (0, 0, 0.00000000000000000000e+00) (0, 0, 0.00000000000000000000e+00) (0, 0, 0.00000000000000000000e+00) (6, 3, 5.00000000000000000000e-01) (6, 3, 5.00000000000000000000e-01) (6, 3, 5.00000000000000000000e-01) (6, 3, 5.00000000000000000000e-01) (0, 3, 0.00000000000000000000e+00) (5, 0, 5.00000000000000000000e-01) (0, 0, 0.00000000000000000000e+00) 
connections (connected_to_neuron, weight)=(0, 2.45456814765930175781e-01) (1, 1.21157608926296234131e-01) (2, -1.80068874359130859375e+00) (3, 4.62766923010349273682e-02) (4, -3.46089094877243041992e-01) (5, 5.55036008358001708984e-01) (0, -2.13868603110313415527e-01) (1, -5.70680610835552215576e-02) (2, 8.83880674839019775391e-01) (3, -5.76210133731365203857e-02) (4, 1.52290090918540954590e-01) (5, 4.65874135494232177734e-01) (0, 2.62937992811203002930e-01) (1, 3.91916513442993164062e-01) (2, -4.03121328353881835938e+00) (3, -6.09686672687530517578e-02) (4, 4.86155338585376739502e-02) (5, 6.15005016326904296875e-01) (0, -1.93563193082809448242e-01) (1, -4.56974893808364868164e-01) (2, 3.71954226493835449219e+00) (3, 4.95478808879852294922e-02) (4, 7.19687342643737792969e-02) (5, 4.51999843120574951172e-01) (6, 1.18548226356506347656e+00) (7, 1.16046798229217529297e+00) (8, 1.14750480651855468750e+00) (9, 1.14051187038421630859e+00) (10, 1.41911303997039794922e+00) 
