FANN_FLO_2.1
num_layers=3
learning_rate=0.500000
connection_rate=1.000000
network_type=0
learning_momentum=0.000000
training_algorithm=2
train_error_function=1
train_stop_function=0
cascade_output_change_fraction=0.010000
quickprop_decay=-0.000100
quickprop_mu=1.750000
rprop_increase_factor=1.200000
rprop_decrease_factor=0.500000
rprop_delta_min=0.000000
rprop_delta_max=50.000000
rprop_delta_zero=0.100000
cascade_output_stagnation_epochs=12
cascade_candidate_change_fraction=0.010000
cascade_candidate_stagnation_epochs=12
cascade_max_out_epochs=150
cascade_min_out_epochs=50
cascade_max_cand_epochs=150
cascade_min_cand_epochs=50
cascade_num_candidate_groups=2
bit_fail_limit=3.49999994039535522461e-01
cascade_candidate_limit=1.00000000000000000000e+03
cascade_weight_multiplier=4.00000005960464477539e-01
cascade_activation_functions_count=10
cascade_activation_functions=3 5 7 8 10 11 14 15 16 17 
cascade_activation_steepnesses_count=4
cascade_activation_steepnesses=2.50000000000000000000e-01 5.00000000000000000000e-01 7.50000000000000000000e-01 1.00000000000000000000e+00 
layer_sizes=10 5 2 
scale_included=0
neurons (num_inputs, activation_function, activation_steepness)=(0, 0, 0.00000000000000000000e+00) (0, 0, 0.00000000000000000000e+00) (0, 0, 0.00000000000000000000e+00) (0, 0, 0.00000000000000000000e+00) (0, 0, 0.00000000000000000000e+00) (0, 0, 0.00000000000000000000e+00) (0, 0, 0.00000000000000000000e+00) (0, 0, 0.00000000000000000000e+00) (0, 0, 0.00000000000000000000e+00) (0, 0, 0.00000000000000000000e+00) (10, 3, 5.00000000000000000000e-01) (10, 3, 5.00000000000000000000e-01) (10, 3, 5.00000000000000000000e-01) (10, 3, 5.00000000000000000000e-01) (0, 3, 0.00000000000000000000e+00) (5, 3, 5.00000000000000000000e-01) (0, 3, 0.00000000000000000000e+00) 
connections (connected_to_neuron, weight)=(0, 1.79607963562011718750e+01) (1, 6.05463457107543945312e+00) (2, -8.03310680389404296875e+00) (3, -7.58475446701049804688e+00) (4, 2.69807100296020507812e+00) (5, 5.24707603454589843750e+00) (6, -1.33165168762207031250e+01) (7, 1.75631275177001953125e+01) (8, 6.77624082565307617188e+00) (9, -7.79735183715820312500e+00) (0, -2.09217586517333984375e+01) (1, 4.08213520050048828125e+00) (2, 5.92634057998657226562e+00) (3, 1.54143323898315429688e+01) (4, -1.56815683841705322266e+00) (5, 3.52939391136169433594e+00) (6, 4.49903726577758789062e+00) (7, -1.27958559989929199219e+00) (8, -1.22289466857910156250e+01) (9, 7.96556186676025390625e+00) (0, -7.82653284072875976562e+00) (1, 5.15071201324462890625e+00) (2, 3.74053955078125000000e+00) (3, 1.50730676651000976562e+01) (4, -8.00574302673339843750e-01) (5, 7.02444505691528320312e+00) (6, 4.74564361572265625000e+00) (7, -6.31199419498443603516e-01) (8, 6.98230788111686706543e-02) (9, -7.24714708328247070312e+00) (0, -4.87544631958007812500e+00) (1, 2.66004467010498046875e+00) (2, 4.37083244323730468750e+00) (3, 1.25621519088745117188e+01) (4, 1.96583402156829833984e+00) (5, 6.13915395736694335938e+00) (6, 3.70820641517639160156e+00) (7, 2.01849728822708129883e-01) (8, -8.04933071136474609375e-01) (9, -7.17767143249511718750e+00) (10, 1.03729498386383056641e+00) (11, 7.70321488380432128906e-01) (12, 6.90282821655273437500e-01) (13, 5.63625335693359375000e-01) (14, -1.55259048938751220703e+00) 
