FANN_FLO_2.1
num_layers=3
learning_rate=0.500000
connection_rate=1.000000
network_type=0
learning_momentum=0.000000
training_algorithm=2
train_error_function=1
train_stop_function=0
cascade_output_change_fraction=0.010000
quickprop_decay=-0.000100
quickprop_mu=1.750000
rprop_increase_factor=1.200000
rprop_decrease_factor=0.500000
rprop_delta_min=0.000000
rprop_delta_max=50.000000
rprop_delta_zero=0.100000
cascade_output_stagnation_epochs=12
cascade_candidate_change_fraction=0.010000
cascade_candidate_stagnation_epochs=12
cascade_max_out_epochs=150
cascade_min_out_epochs=50
cascade_max_cand_epochs=150
cascade_min_cand_epochs=50
cascade_num_candidate_groups=2
bit_fail_limit=3.49999994039535522461e-01
cascade_candidate_limit=1.00000000000000000000e+03
cascade_weight_multiplier=4.00000005960464477539e-01
cascade_activation_functions_count=10
cascade_activation_functions=3 5 7 8 10 11 14 15 16 17 
cascade_activation_steepnesses_count=4
cascade_activation_steepnesses=2.50000000000000000000e-01 5.00000000000000000000e-01 7.50000000000000000000e-01 1.00000000000000000000e+00 
layer_sizes=10 3 2 
scale_included=0
neurons (num_inputs, activation_function, activation_steepness)=(0, 0, 0.00000000000000000000e+00) (0, 0, 0.00000000000000000000e+00) (0, 0, 0.00000000000000000000e+00) (0, 0, 0.00000000000000000000e+00) (0, 0, 0.00000000000000000000e+00) (0, 0, 0.00000000000000000000e+00) (0, 0, 0.00000000000000000000e+00) (0, 0, 0.00000000000000000000e+00) (0, 0, 0.00000000000000000000e+00) (0, 0, 0.00000000000000000000e+00) (10, 3, 5.00000000000000000000e-01) (10, 3, 5.00000000000000000000e-01) (0, 3, 0.00000000000000000000e+00) (3, 3, 5.00000000000000000000e-01) (0, 3, 0.00000000000000000000e+00) 
connections (connected_to_neuron, weight)=(0, 2.82206225395202636719e+00) (1, 1.62519681453704833984e+00) (2, 1.00015478134155273438e+01) (3, 3.29921960830688476562e+00) (4, 5.29418563842773437500e+00) (5, -2.18258786201477050781e+00) (6, 6.25898694992065429688e+00) (7, 5.42620706558227539062e+00) (8, 3.62335276603698730469e+00) (9, -1.02294301986694335938e+01) (0, 1.34145534038543701172e+00) (1, 1.29032697677612304688e+01) (2, 1.07012987136840820312e+01) (3, 2.67049598693847656250e+00) (4, 6.93917322158813476562e+00) (5, -1.35282592773437500000e+01) (6, -2.05919265747070312500e+00) (7, 1.74293174743652343750e+01) (8, 5.12353658676147460938e+00) (9, -1.15203695297241210938e+01) (10, 1.64820516109466552734e+00) (11, 7.10806787014007568359e-01) (12, -9.48760509490966796875e-01) 
