FANN_FLO_2.1
num_layers=3
learning_rate=0.500000
connection_rate=1.000000
network_type=0
learning_momentum=0.000000
training_algorithm=2
train_error_function=1
train_stop_function=0
cascade_output_change_fraction=0.010000
quickprop_decay=-0.000100
quickprop_mu=1.750000
rprop_increase_factor=1.200000
rprop_decrease_factor=0.500000
rprop_delta_min=0.000000
rprop_delta_max=50.000000
rprop_delta_zero=0.100000
cascade_output_stagnation_epochs=12
cascade_candidate_change_fraction=0.010000
cascade_candidate_stagnation_epochs=12
cascade_max_out_epochs=150
cascade_min_out_epochs=50
cascade_max_cand_epochs=150
cascade_min_cand_epochs=50
cascade_num_candidate_groups=2
bit_fail_limit=3.49999994039535522461e-01
cascade_candidate_limit=1.00000000000000000000e+03
cascade_weight_multiplier=4.00000005960464477539e-01
cascade_activation_functions_count=10
cascade_activation_functions=3 5 7 8 10 11 14 15 16 17 
cascade_activation_steepnesses_count=4
cascade_activation_steepnesses=2.50000000000000000000e-01 5.00000000000000000000e-01 7.50000000000000000000e-01 1.00000000000000000000e+00 
layer_sizes=10 3 2 
scale_included=0
neurons (num_inputs, activation_function, activation_steepness)=(0, 0, 0.00000000000000000000e+00) (0, 0, 0.00000000000000000000e+00) (0, 0, 0.00000000000000000000e+00) (0, 0, 0.00000000000000000000e+00) (0, 0, 0.00000000000000000000e+00) (0, 0, 0.00000000000000000000e+00) (0, 0, 0.00000000000000000000e+00) (0, 0, 0.00000000000000000000e+00) (0, 0, 0.00000000000000000000e+00) (0, 0, 0.00000000000000000000e+00) (10, 3, 5.00000000000000000000e-01) (10, 3, 5.00000000000000000000e-01) (0, 3, 0.00000000000000000000e+00) (3, 3, 5.00000000000000000000e-01) (0, 3, 0.00000000000000000000e+00) 
connections (connected_to_neuron, weight)=(0, -4.47967958450317382812e+00) (1, -2.90426588058471679688e+00) (2, -7.33248519897460937500e+00) (3, 1.09924325942993164062e+01) (4, -2.04422378540039062500e+00) (5, 5.45247793197631835938e+00) (6, -1.43265557289123535156e+00) (7, 1.40047187805175781250e+01) (8, 1.06087303161621093750e+01) (9, -6.68649101257324218750e+00) (0, 5.60727405548095703125e+00) (1, 5.92503643035888671875e+00) (2, 5.24864768981933593750e+00) (3, -6.07586145401000976562e-01) (4, 4.39268261194229125977e-01) (5, -2.09366297721862792969e+00) (6, -1.16047239303588867188e+00) (7, -1.53271036148071289062e+01) (8, -4.52004289627075195312e+00) (9, -1.24076175689697265625e+00) (10, 3.21100068092346191406e+00) (11, 9.71854400634765625000e+00) (12, -1.90060150623321533203e+00) 
