FANN_FLO_2.1
num_layers=3
learning_rate=0.500000
connection_rate=1.000000
network_type=0
learning_momentum=0.000000
training_algorithm=2
train_error_function=1
train_stop_function=0
cascade_output_change_fraction=0.010000
quickprop_decay=-0.000100
quickprop_mu=1.750000
rprop_increase_factor=1.200000
rprop_decrease_factor=0.500000
rprop_delta_min=0.000000
rprop_delta_max=50.000000
rprop_delta_zero=0.100000
cascade_output_stagnation_epochs=12
cascade_candidate_change_fraction=0.010000
cascade_candidate_stagnation_epochs=12
cascade_max_out_epochs=150
cascade_min_out_epochs=50
cascade_max_cand_epochs=150
cascade_min_cand_epochs=50
cascade_num_candidate_groups=2
bit_fail_limit=3.49999994039535522461e-01
cascade_candidate_limit=1.00000000000000000000e+03
cascade_weight_multiplier=4.00000005960464477539e-01
cascade_activation_functions_count=10
cascade_activation_functions=3 5 7 8 10 11 14 15 16 17 
cascade_activation_steepnesses_count=4
cascade_activation_steepnesses=2.50000000000000000000e-01 5.00000000000000000000e-01 7.50000000000000000000e-01 1.00000000000000000000e+00 
layer_sizes=10 3 2 
scale_included=0
neurons (num_inputs, activation_function, activation_steepness)=(0, 0, 0.00000000000000000000e+00) (0, 0, 0.00000000000000000000e+00) (0, 0, 0.00000000000000000000e+00) (0, 0, 0.00000000000000000000e+00) (0, 0, 0.00000000000000000000e+00) (0, 0, 0.00000000000000000000e+00) (0, 0, 0.00000000000000000000e+00) (0, 0, 0.00000000000000000000e+00) (0, 0, 0.00000000000000000000e+00) (0, 0, 0.00000000000000000000e+00) (10, 3, 5.00000000000000000000e-01) (10, 3, 5.00000000000000000000e-01) (0, 3, 0.00000000000000000000e+00) (3, 3, 5.00000000000000000000e-01) (0, 3, 0.00000000000000000000e+00) 
connections (connected_to_neuron, weight)=(0, 5.80904054641723632812e+00) (1, -6.49402189254760742188e+00) (2, -9.24532890319824218750e+00) (3, 8.20519733428955078125e+00) (4, 5.85833191871643066406e-01) (5, -1.24771976470947265625e+01) (6, 1.01949834823608398438e+01) (7, 5.28377771377563476562e+00) (8, -1.54708337783813476562e+00) (9, -3.02846932411193847656e+00) (0, -6.17802858352661132812e-01) (1, 8.18977642059326171875e+00) (2, 7.44831800460815429688e+00) (3, -6.92249870300292968750e+00) (4, -7.44088947772979736328e-01) (5, 1.11964597702026367188e+01) (6, -1.08786554336547851562e+01) (7, -4.71293067932128906250e+00) (8, 1.06377646327018737793e-01) (9, -3.80975151062011718750e+00) (10, 4.45055437088012695312e+00) (11, 4.44786024093627929688e+00) (12, -6.91939711570739746094e-01) 
