FANN_FLO_2.1
num_layers=3
learning_rate=0.500000
connection_rate=1.000000
network_type=0
learning_momentum=0.000000
training_algorithm=2
train_error_function=1
train_stop_function=0
cascade_output_change_fraction=0.010000
quickprop_decay=-0.000100
quickprop_mu=1.750000
rprop_increase_factor=1.200000
rprop_decrease_factor=0.500000
rprop_delta_min=0.000000
rprop_delta_max=50.000000
rprop_delta_zero=0.100000
cascade_output_stagnation_epochs=12
cascade_candidate_change_fraction=0.010000
cascade_candidate_stagnation_epochs=12
cascade_max_out_epochs=150
cascade_min_out_epochs=50
cascade_max_cand_epochs=150
cascade_min_cand_epochs=50
cascade_num_candidate_groups=2
bit_fail_limit=3.49999994039535522461e-01
cascade_candidate_limit=1.00000000000000000000e+03
cascade_weight_multiplier=4.00000005960464477539e-01
cascade_activation_functions_count=10
cascade_activation_functions=3 5 7 8 10 11 14 15 16 17 
cascade_activation_steepnesses_count=4
cascade_activation_steepnesses=2.50000000000000000000e-01 5.00000000000000000000e-01 7.50000000000000000000e-01 1.00000000000000000000e+00 
layer_sizes=10 5 2 
scale_included=0
neurons (num_inputs, activation_function, activation_steepness)=(0, 0, 0.00000000000000000000e+00) (0, 0, 0.00000000000000000000e+00) (0, 0, 0.00000000000000000000e+00) (0, 0, 0.00000000000000000000e+00) (0, 0, 0.00000000000000000000e+00) (0, 0, 0.00000000000000000000e+00) (0, 0, 0.00000000000000000000e+00) (0, 0, 0.00000000000000000000e+00) (0, 0, 0.00000000000000000000e+00) (0, 0, 0.00000000000000000000e+00) (10, 3, 5.00000000000000000000e-01) (10, 3, 5.00000000000000000000e-01) (10, 3, 5.00000000000000000000e-01) (10, 3, 5.00000000000000000000e-01) (0, 3, 0.00000000000000000000e+00) (5, 3, 5.00000000000000000000e-01) (0, 3, 0.00000000000000000000e+00) 
connections (connected_to_neuron, weight)=(0, -2.75551176071166992188e+00) (1, 7.37863159179687500000e+00) (2, 1.79786908626556396484e+00) (3, 4.94285488128662109375e+00) (4, -5.27905893325805664062e+00) (5, 6.01319789886474609375e+00) (6, 7.25040960311889648438e+00) (7, 2.86937355995178222656e-01) (8, 3.74373722076416015625e+00) (9, -6.62946081161499023438e+00) (0, -4.78397101163864135742e-01) (1, 6.66755318641662597656e-01) (2, 6.12255632877349853516e-01) (3, 1.08271610736846923828e+00) (4, -1.31754446029663085938e+00) (5, 7.96432197093963623047e-01) (6, 5.64030110836029052734e-01) (7, 3.93624186515808105469e-01) (8, 3.25172483921051025391e-01) (9, -1.63107419013977050781e+00) (0, 1.18978269398212432861e-01) (1, 1.71759235858917236328e+00) (2, -6.72358751296997070312e-01) (3, 2.10638999938964843750e+00) (4, 1.10563114285469055176e-01) (5, 6.91906273365020751953e-01) (6, 1.14209699630737304688e+00) (7, -6.61060929298400878906e-01) (8, 2.50104713439941406250e+00) (9, -5.01715469360351562500e+00) (0, 1.13771080970764160156e-01) (1, 8.86588156223297119141e-01) (2, 1.80104732513427734375e-01) (3, 1.45855557918548583984e+00) (4, -3.32977938652038574219e+00) (5, 1.27616775035858154297e+00) (6, 6.53207540512084960938e-01) (7, 2.71564215421676635742e-01) (8, 6.74979329109191894531e-01) (9, -2.09576582908630371094e+00) (10, 3.95481824874877929688e+00) (11, -1.14383602142333984375e+00) (12, -2.70121836662292480469e+00) (13, -1.50781750679016113281e+00) (14, -9.61633145809173583984e-01) 
