FANN_FLO_2.1
num_layers=3
learning_rate=0.500000
connection_rate=1.000000
network_type=0
learning_momentum=0.000000
training_algorithm=2
train_error_function=1
train_stop_function=0
cascade_output_change_fraction=0.010000
quickprop_decay=-0.000100
quickprop_mu=1.750000
rprop_increase_factor=1.200000
rprop_decrease_factor=0.500000
rprop_delta_min=0.000000
rprop_delta_max=50.000000
rprop_delta_zero=0.100000
cascade_output_stagnation_epochs=12
cascade_candidate_change_fraction=0.010000
cascade_candidate_stagnation_epochs=12
cascade_max_out_epochs=150
cascade_min_out_epochs=50
cascade_max_cand_epochs=150
cascade_min_cand_epochs=50
cascade_num_candidate_groups=2
bit_fail_limit=3.49999994039535522461e-01
cascade_candidate_limit=1.00000000000000000000e+03
cascade_weight_multiplier=4.00000005960464477539e-01
cascade_activation_functions_count=10
cascade_activation_functions=3 5 7 8 10 11 14 15 16 17 
cascade_activation_steepnesses_count=4
cascade_activation_steepnesses=2.50000000000000000000e-01 5.00000000000000000000e-01 7.50000000000000000000e-01 1.00000000000000000000e+00 
layer_sizes=6 5 2 
scale_included=0
neurons (num_inputs, activation_function, activation_steepness)=(0, 0, 0.00000000000000000000e+00) (0, 0, 0.00000000000000000000e+00) (0, 0, 0.00000000000000000000e+00) (0, 0, 0.00000000000000000000e+00) (0, 0, 0.00000000000000000000e+00) (0, 0, 0.00000000000000000000e+00) (6, 3, 5.00000000000000000000e-01) (6, 3, 5.00000000000000000000e-01) (6, 3, 5.00000000000000000000e-01) (6, 3, 5.00000000000000000000e-01) (0, 3, 0.00000000000000000000e+00) (5, 0, 5.00000000000000000000e-01) (0, 0, 0.00000000000000000000e+00) 
connections (connected_to_neuron, weight)=(0, 1.03102672100067138672e+00) (1, 8.76271188259124755859e-01) (2, 5.24842929840087890625e+00) (3, 1.34472060203552246094e+00) (4, -6.78771781921386718750e+00) (5, 1.79413270950317382812e+00) (0, 1.17636418342590332031e+00) (1, -6.30958986282348632812e+00) (2, 1.31580185890197753906e+00) (3, 1.76137909293174743652e-01) (4, 6.37574481964111328125e+00) (5, 1.69009900093078613281e+00) (0, -3.79708111286163330078e-01) (1, 2.52468436956405639648e-02) (2, -2.97668993473052978516e-01) (3, -4.28224921226501464844e-01) (4, -1.78133621811866760254e-01) (5, 3.10518562793731689453e-01) (0, 1.20190083980560302734e+00) (1, 4.66550397872924804688e+00) (2, -5.66308355331420898438e+00) (3, 1.89444994926452636719e+00) (4, 1.63389515876770019531e+00) (5, 1.66973340511322021484e+00) (6, 9.96019005775451660156e-01) (7, 1.06832826137542724609e+00) (8, 9.48711395263671875000e-01) (9, 1.02661061286926269531e+00) (10, 9.48844611644744873047e-01) 
