FANN_FLO_2.1
num_layers=3
learning_rate=0.500000
connection_rate=1.000000
network_type=0
learning_momentum=0.000000
training_algorithm=2
train_error_function=1
train_stop_function=0
cascade_output_change_fraction=0.010000
quickprop_decay=-0.000100
quickprop_mu=1.750000
rprop_increase_factor=1.200000
rprop_decrease_factor=0.500000
rprop_delta_min=0.000000
rprop_delta_max=50.000000
rprop_delta_zero=0.100000
cascade_output_stagnation_epochs=12
cascade_candidate_change_fraction=0.010000
cascade_candidate_stagnation_epochs=12
cascade_max_out_epochs=150
cascade_min_out_epochs=50
cascade_max_cand_epochs=150
cascade_min_cand_epochs=50
cascade_num_candidate_groups=2
bit_fail_limit=3.49999994039535522461e-01
cascade_candidate_limit=1.00000000000000000000e+03
cascade_weight_multiplier=4.00000005960464477539e-01
cascade_activation_functions_count=10
cascade_activation_functions=3 5 7 8 10 11 14 15 16 17 
cascade_activation_steepnesses_count=4
cascade_activation_steepnesses=2.50000000000000000000e-01 5.00000000000000000000e-01 7.50000000000000000000e-01 1.00000000000000000000e+00 
layer_sizes=6 5 2 
scale_included=0
neurons (num_inputs, activation_function, activation_steepness)=(0, 0, 0.00000000000000000000e+00) (0, 0, 0.00000000000000000000e+00) (0, 0, 0.00000000000000000000e+00) (0, 0, 0.00000000000000000000e+00) (0, 0, 0.00000000000000000000e+00) (0, 0, 0.00000000000000000000e+00) (6, 3, 5.00000000000000000000e-01) (6, 3, 5.00000000000000000000e-01) (6, 3, 5.00000000000000000000e-01) (6, 3, 5.00000000000000000000e-01) (0, 3, 0.00000000000000000000e+00) (5, 0, 5.00000000000000000000e-01) (0, 0, 0.00000000000000000000e+00) 
connections (connected_to_neuron, weight)=(0, 1.62218880653381347656e+00) (1, -3.33304929733276367188e+00) (2, 8.43080615997314453125e+00) (3, -1.09932832717895507812e+01) (4, 3.22876977920532226562e+00) (5, 1.98403072357177734375e+00) (0, 1.15357780456542968750e+00) (1, 3.98533177375793457031e+00) (2, -5.33636045455932617188e+00) (3, 3.08662843704223632812e+00) (4, 4.47290897369384765625e+00) (5, 1.69094169139862060547e+00) (0, 1.24643373489379882812e+00) (1, -1.29023456573486328125e+00) (2, 5.46623659133911132812e+00) (3, 3.15741014480590820312e+00) (4, -1.08582706451416015625e+01) (5, 2.25297474861145019531e+00) (0, -2.81019628047943115234e-01) (1, -4.67052042484283447266e-01) (2, -2.63379603624343872070e-01) (3, -7.00241373851895332336e-03) (4, -6.60558342933654785156e-02) (5, 2.48262166976928710938e-01) (6, 1.04754328727722167969e+00) (7, 9.91162180900573730469e-01) (8, 9.95427846908569335938e-01) (9, 8.95520210266113281250e-01) (10, 9.72013771533966064453e-01) 
