FANN_FLO_2.1
num_layers=3
learning_rate=0.500000
connection_rate=1.000000
network_type=0
learning_momentum=0.000000
training_algorithm=2
train_error_function=1
train_stop_function=0
cascade_output_change_fraction=0.010000
quickprop_decay=-0.000100
quickprop_mu=1.750000
rprop_increase_factor=1.200000
rprop_decrease_factor=0.500000
rprop_delta_min=0.000000
rprop_delta_max=50.000000
rprop_delta_zero=0.100000
cascade_output_stagnation_epochs=12
cascade_candidate_change_fraction=0.010000
cascade_candidate_stagnation_epochs=12
cascade_max_out_epochs=150
cascade_min_out_epochs=50
cascade_max_cand_epochs=150
cascade_min_cand_epochs=50
cascade_num_candidate_groups=2
bit_fail_limit=3.49999994039535522461e-01
cascade_candidate_limit=1.00000000000000000000e+03
cascade_weight_multiplier=4.00000005960464477539e-01
cascade_activation_functions_count=10
cascade_activation_functions=3 5 7 8 10 11 14 15 16 17 
cascade_activation_steepnesses_count=4
cascade_activation_steepnesses=2.50000000000000000000e-01 5.00000000000000000000e-01 7.50000000000000000000e-01 1.00000000000000000000e+00 
layer_sizes=10 5 2 
scale_included=0
neurons (num_inputs, activation_function, activation_steepness)=(0, 0, 0.00000000000000000000e+00) (0, 0, 0.00000000000000000000e+00) (0, 0, 0.00000000000000000000e+00) (0, 0, 0.00000000000000000000e+00) (0, 0, 0.00000000000000000000e+00) (0, 0, 0.00000000000000000000e+00) (0, 0, 0.00000000000000000000e+00) (0, 0, 0.00000000000000000000e+00) (0, 0, 0.00000000000000000000e+00) (0, 0, 0.00000000000000000000e+00) (10, 3, 5.00000000000000000000e-01) (10, 3, 5.00000000000000000000e-01) (10, 3, 5.00000000000000000000e-01) (10, 3, 5.00000000000000000000e-01) (0, 3, 0.00000000000000000000e+00) (5, 3, 5.00000000000000000000e-01) (0, 3, 0.00000000000000000000e+00) 
connections (connected_to_neuron, weight)=(0, 5.85548305511474609375e+00) (1, 7.21231222152709960938e+00) (2, -8.17893886566162109375e+00) (3, 1.37867536544799804688e+01) (4, -2.12338161468505859375e+00) (5, -1.10920019149780273438e+01) (6, 1.14444458484649658203e+00) (7, -3.97289180755615234375e+00) (8, -9.77215385437011718750e+00) (9, -7.98189267516136169434e-02) (0, -4.78434944152832031250e+00) (1, 2.56514608860015869141e-01) (2, 4.64107227325439453125e+00) (3, -1.85116310119628906250e+01) (4, 2.13296508789062500000e+00) (5, 1.29842796325683593750e+01) (6, -8.64217948913574218750e+00) (7, 1.21832585334777832031e+00) (8, 3.80295944213867187500e+00) (9, -5.76123446226119995117e-02) (0, -1.72119879722595214844e+00) (1, -8.55674839019775390625e+00) (2, 1.99374866485595703125e+01) (3, 1.38615894317626953125e+01) (4, -1.93376979827880859375e+01) (5, -2.67575240135192871094e+00) (6, 1.24889907836914062500e+01) (7, 1.78479976654052734375e+01) (8, 3.56389641761779785156e-01) (9, -1.09360179901123046875e+01) (0, 1.19769392013549804688e+01) (1, -4.69840812683105468750e+00) (2, -4.85086584091186523438e+00) (3, 2.02828063964843750000e+01) (4, -8.03520679473876953125e+00) (5, -1.13238513469696044922e+00) (6, 7.30475997924804687500e+00) (7, 7.68919229507446289062e+00) (8, 8.19743824005126953125e+00) (9, -1.38629655838012695312e+01) (10, 4.56561088562011718750e+00) (11, 4.82763957977294921875e+00) (12, 1.41842889785766601562e+00) (13, 1.27450740337371826172e+00) (14, -2.35222148895263671875e+00) 
