FANN_FLO_2.1
num_layers=3
learning_rate=0.500000
connection_rate=1.000000
network_type=0
learning_momentum=0.000000
training_algorithm=2
train_error_function=1
train_stop_function=0
cascade_output_change_fraction=0.010000
quickprop_decay=-0.000100
quickprop_mu=1.750000
rprop_increase_factor=1.200000
rprop_decrease_factor=0.500000
rprop_delta_min=0.000000
rprop_delta_max=50.000000
rprop_delta_zero=0.100000
cascade_output_stagnation_epochs=12
cascade_candidate_change_fraction=0.010000
cascade_candidate_stagnation_epochs=12
cascade_max_out_epochs=150
cascade_min_out_epochs=50
cascade_max_cand_epochs=150
cascade_min_cand_epochs=50
cascade_num_candidate_groups=2
bit_fail_limit=3.49999994039535522461e-01
cascade_candidate_limit=1.00000000000000000000e+03
cascade_weight_multiplier=4.00000005960464477539e-01
cascade_activation_functions_count=10
cascade_activation_functions=3 5 7 8 10 11 14 15 16 17 
cascade_activation_steepnesses_count=4
cascade_activation_steepnesses=2.50000000000000000000e-01 5.00000000000000000000e-01 7.50000000000000000000e-01 1.00000000000000000000e+00 
layer_sizes=10 3 2 
scale_included=0
neurons (num_inputs, activation_function, activation_steepness)=(0, 0, 0.00000000000000000000e+00) (0, 0, 0.00000000000000000000e+00) (0, 0, 0.00000000000000000000e+00) (0, 0, 0.00000000000000000000e+00) (0, 0, 0.00000000000000000000e+00) (0, 0, 0.00000000000000000000e+00) (0, 0, 0.00000000000000000000e+00) (0, 0, 0.00000000000000000000e+00) (0, 0, 0.00000000000000000000e+00) (0, 0, 0.00000000000000000000e+00) (10, 3, 5.00000000000000000000e-01) (10, 3, 5.00000000000000000000e-01) (0, 3, 0.00000000000000000000e+00) (3, 3, 5.00000000000000000000e-01) (0, 3, 0.00000000000000000000e+00) 
connections (connected_to_neuron, weight)=(0, 9.92632389068603515625e+00) (1, 1.15361862182617187500e+01) (2, -1.28354101181030273438e+01) (3, 2.51026248931884765625e+00) (4, 2.03394198417663574219e+00) (5, 2.26317501068115234375e+00) (6, 3.67534065246582031250e+00) (7, 5.43544101715087890625e+00) (8, 1.12073535919189453125e+01) (9, -8.88273429870605468750e+00) (0, -3.76345539093017578125e+00) (1, 6.71944999694824218750e+00) (2, 1.38138389587402343750e+01) (3, 7.35899400711059570312e+00) (4, -6.18711805343627929688e+00) (5, -1.56771826744079589844e+00) (6, 5.45088243484497070312e+00) (7, 1.02150659561157226562e+01) (8, -1.66722691059112548828e+00) (9, -6.70332860946655273438e+00) (10, 1.02732646465301513672e+00) (11, 2.56212186813354492188e+00) (12, -2.23292326927185058594e+00) 
