FANN_FLO_2.1
num_layers=3
learning_rate=0.500000
connection_rate=1.000000
network_type=0
learning_momentum=0.000000
training_algorithm=2
train_error_function=1
train_stop_function=0
cascade_output_change_fraction=0.010000
quickprop_decay=-0.000100
quickprop_mu=1.750000
rprop_increase_factor=1.200000
rprop_decrease_factor=0.500000
rprop_delta_min=0.000000
rprop_delta_max=50.000000
rprop_delta_zero=0.100000
cascade_output_stagnation_epochs=12
cascade_candidate_change_fraction=0.010000
cascade_candidate_stagnation_epochs=12
cascade_max_out_epochs=150
cascade_min_out_epochs=50
cascade_max_cand_epochs=150
cascade_min_cand_epochs=50
cascade_num_candidate_groups=2
bit_fail_limit=3.49999994039535522461e-01
cascade_candidate_limit=1.00000000000000000000e+03
cascade_weight_multiplier=4.00000005960464477539e-01
cascade_activation_functions_count=10
cascade_activation_functions=3 5 7 8 10 11 14 15 16 17 
cascade_activation_steepnesses_count=4
cascade_activation_steepnesses=2.50000000000000000000e-01 5.00000000000000000000e-01 7.50000000000000000000e-01 1.00000000000000000000e+00 
layer_sizes=6 5 2 
scale_included=0
neurons (num_inputs, activation_function, activation_steepness)=(0, 0, 0.00000000000000000000e+00) (0, 0, 0.00000000000000000000e+00) (0, 0, 0.00000000000000000000e+00) (0, 0, 0.00000000000000000000e+00) (0, 0, 0.00000000000000000000e+00) (0, 0, 0.00000000000000000000e+00) (6, 3, 5.00000000000000000000e-01) (6, 3, 5.00000000000000000000e-01) (6, 3, 5.00000000000000000000e-01) (6, 3, 5.00000000000000000000e-01) (0, 3, 0.00000000000000000000e+00) (5, 0, 5.00000000000000000000e-01) (0, 0, 0.00000000000000000000e+00) 
connections (connected_to_neuron, weight)=(0, 1.19769442081451416016e+00) (1, -1.56646561622619628906e+00) (2, 6.49082040786743164062e+00) (3, 1.44763135910034179688e+00) (4, 9.95430052280426025391e-01) (5, 1.30052912235260009766e+00) (0, 1.12791681289672851562e+00) (1, 1.31856083869934082031e+00) (2, -3.80972790718078613281e+00) (3, 2.00828456878662109375e+00) (4, 7.17980957031250000000e+00) (5, 1.27299833297729492188e+00) (0, -2.14955732226371765137e-01) (1, 1.47709712386131286621e-01) (2, -1.73616990447044372559e-01) (3, -3.56107890605926513672e-01) (4, -1.06577837467193603516e+00) (5, 2.60022461414337158203e-01) (0, -1.65802210569381713867e-01) (1, -2.48239114880561828613e-02) (2, -1.19324371218681335449e-01) (3, -3.50216805934906005859e-01) (4, -3.07053327560424804688e-01) (5, 2.38415315747261047363e-01) (6, 1.18869447708129882812e+00) (7, 1.16507005691528320312e+00) (8, 1.03834974765777587891e+00) (9, 1.10981571674346923828e+00) (10, 1.05554628372192382812e+00) 
