FANN_FLO_2.1
num_layers=3
learning_rate=0.500000
connection_rate=1.000000
network_type=0
learning_momentum=0.000000
training_algorithm=2
train_error_function=1
train_stop_function=0
cascade_output_change_fraction=0.010000
quickprop_decay=-0.000100
quickprop_mu=1.750000
rprop_increase_factor=1.200000
rprop_decrease_factor=0.500000
rprop_delta_min=0.000000
rprop_delta_max=50.000000
rprop_delta_zero=0.100000
cascade_output_stagnation_epochs=12
cascade_candidate_change_fraction=0.010000
cascade_candidate_stagnation_epochs=12
cascade_max_out_epochs=150
cascade_min_out_epochs=50
cascade_max_cand_epochs=150
cascade_min_cand_epochs=50
cascade_num_candidate_groups=2
bit_fail_limit=3.49999994039535522461e-01
cascade_candidate_limit=1.00000000000000000000e+03
cascade_weight_multiplier=4.00000005960464477539e-01
cascade_activation_functions_count=10
cascade_activation_functions=3 5 7 8 10 11 14 15 16 17 
cascade_activation_steepnesses_count=4
cascade_activation_steepnesses=2.50000000000000000000e-01 5.00000000000000000000e-01 7.50000000000000000000e-01 1.00000000000000000000e+00 
layer_sizes=6 5 2 
scale_included=0
neurons (num_inputs, activation_function, activation_steepness)=(0, 0, 0.00000000000000000000e+00) (0, 0, 0.00000000000000000000e+00) (0, 0, 0.00000000000000000000e+00) (0, 0, 0.00000000000000000000e+00) (0, 0, 0.00000000000000000000e+00) (0, 0, 0.00000000000000000000e+00) (6, 3, 5.00000000000000000000e-01) (6, 3, 5.00000000000000000000e-01) (6, 3, 5.00000000000000000000e-01) (6, 3, 5.00000000000000000000e-01) (0, 3, 0.00000000000000000000e+00) (5, 0, 5.00000000000000000000e-01) (0, 0, 0.00000000000000000000e+00) 
connections (connected_to_neuron, weight)=(0, 1.29170513153076171875e+00) (1, 4.67052602767944335938e+00) (2, -6.83917140960693359375e+00) (3, 1.01924514770507812500e+00) (4, 1.73941934108734130859e+00) (5, 1.91030812263488769531e+00) (0, 1.88727825880050659180e-01) (1, -5.78169345855712890625e-01) (2, 2.94756829738616943359e-01) (3, -8.45757797360420227051e-02) (4, -3.71097564697265625000e-01) (5, 3.05972218513488769531e-01) (0, 1.22793674468994140625e+00) (1, -8.11966514587402343750e+00) (2, 1.31873142719268798828e+00) (3, 8.05102229118347167969e-01) (4, -2.22198050469160079956e-02) (5, 1.95428323745727539062e+00) (0, -3.59654635190963745117e-01) (1, 7.20378518104553222656e-01) (2, 1.45255550742149353027e-01) (3, -2.44998097419738769531e-01) (4, 3.51721405982971191406e-01) (5, 2.57973551750183105469e-01) (6, 1.14605152606964111328e+00) (7, 1.02358639240264892578e+00) (8, 1.09882628917694091797e+00) (9, 1.06686210632324218750e+00) (10, 1.03902149200439453125e+00) 
