FANN_FLO_2.1
num_layers=3
learning_rate=0.500000
connection_rate=1.000000
network_type=0
learning_momentum=0.000000
training_algorithm=2
train_error_function=1
train_stop_function=0
cascade_output_change_fraction=0.010000
quickprop_decay=-0.000100
quickprop_mu=1.750000
rprop_increase_factor=1.200000
rprop_decrease_factor=0.500000
rprop_delta_min=0.000000
rprop_delta_max=50.000000
rprop_delta_zero=0.100000
cascade_output_stagnation_epochs=12
cascade_candidate_change_fraction=0.010000
cascade_candidate_stagnation_epochs=12
cascade_max_out_epochs=150
cascade_min_out_epochs=50
cascade_max_cand_epochs=150
cascade_min_cand_epochs=50
cascade_num_candidate_groups=2
bit_fail_limit=3.49999994039535522461e-01
cascade_candidate_limit=1.00000000000000000000e+03
cascade_weight_multiplier=4.00000005960464477539e-01
cascade_activation_functions_count=10
cascade_activation_functions=3 5 7 8 10 11 14 15 16 17 
cascade_activation_steepnesses_count=4
cascade_activation_steepnesses=2.50000000000000000000e-01 5.00000000000000000000e-01 7.50000000000000000000e-01 1.00000000000000000000e+00 
layer_sizes=10 3 2 
scale_included=0
neurons (num_inputs, activation_function, activation_steepness)=(0, 0, 0.00000000000000000000e+00) (0, 0, 0.00000000000000000000e+00) (0, 0, 0.00000000000000000000e+00) (0, 0, 0.00000000000000000000e+00) (0, 0, 0.00000000000000000000e+00) (0, 0, 0.00000000000000000000e+00) (0, 0, 0.00000000000000000000e+00) (0, 0, 0.00000000000000000000e+00) (0, 0, 0.00000000000000000000e+00) (0, 0, 0.00000000000000000000e+00) (10, 3, 5.00000000000000000000e-01) (10, 3, 5.00000000000000000000e-01) (0, 3, 0.00000000000000000000e+00) (3, 3, 5.00000000000000000000e-01) (0, 3, 0.00000000000000000000e+00) 
connections (connected_to_neuron, weight)=(0, 8.32541370391845703125e+00) (1, -3.74687695503234863281e+00) (2, 4.29156112670898437500e+00) (3, 8.17043113708496093750e+00) (4, 4.05051708221435546875e+00) (5, -1.06894516944885253906e+00) (6, 7.50185370445251464844e-01) (7, -1.04467067718505859375e+01) (8, 1.60851097106933593750e+01) (9, -6.38222122192382812500e+00) (0, -3.55273580551147460938e+00) (1, 1.75656356811523437500e+01) (2, -1.33248615264892578125e+01) (3, 1.04070434570312500000e+01) (4, 9.69228744506835937500e+00) (5, 1.16601438522338867188e+01) (6, -5.95869302749633789062e-01) (7, 1.04976585134863853455e-02) (8, 3.21875357627868652344e+00) (9, -9.81189823150634765625e+00) (10, 1.21145439147949218750e+00) (11, 8.21882963180541992188e-01) (12, -7.15547502040863037109e-01) 
