FANN_FLO_2.1
num_layers=3
learning_rate=0.500000
connection_rate=1.000000
network_type=0
learning_momentum=0.000000
training_algorithm=2
train_error_function=1
train_stop_function=0
cascade_output_change_fraction=0.010000
quickprop_decay=-0.000100
quickprop_mu=1.750000
rprop_increase_factor=1.200000
rprop_decrease_factor=0.500000
rprop_delta_min=0.000000
rprop_delta_max=50.000000
rprop_delta_zero=0.100000
cascade_output_stagnation_epochs=12
cascade_candidate_change_fraction=0.010000
cascade_candidate_stagnation_epochs=12
cascade_max_out_epochs=150
cascade_min_out_epochs=50
cascade_max_cand_epochs=150
cascade_min_cand_epochs=50
cascade_num_candidate_groups=2
bit_fail_limit=3.49999994039535522461e-01
cascade_candidate_limit=1.00000000000000000000e+03
cascade_weight_multiplier=4.00000005960464477539e-01
cascade_activation_functions_count=10
cascade_activation_functions=3 5 7 8 10 11 14 15 16 17 
cascade_activation_steepnesses_count=4
cascade_activation_steepnesses=2.50000000000000000000e-01 5.00000000000000000000e-01 7.50000000000000000000e-01 1.00000000000000000000e+00 
layer_sizes=10 3 2 
scale_included=0
neurons (num_inputs, activation_function, activation_steepness)=(0, 0, 0.00000000000000000000e+00) (0, 0, 0.00000000000000000000e+00) (0, 0, 0.00000000000000000000e+00) (0, 0, 0.00000000000000000000e+00) (0, 0, 0.00000000000000000000e+00) (0, 0, 0.00000000000000000000e+00) (0, 0, 0.00000000000000000000e+00) (0, 0, 0.00000000000000000000e+00) (0, 0, 0.00000000000000000000e+00) (0, 0, 0.00000000000000000000e+00) (10, 3, 5.00000000000000000000e-01) (10, 3, 5.00000000000000000000e-01) (0, 3, 0.00000000000000000000e+00) (3, 3, 5.00000000000000000000e-01) (0, 3, 0.00000000000000000000e+00) 
connections (connected_to_neuron, weight)=(0, -2.67852354049682617188e+00) (1, -1.03519258499145507812e+01) (2, -7.53721141815185546875e+00) (3, 5.87054729461669921875e-01) (4, -1.65090417861938476562e+00) (5, -4.48562097549438476562e+00) (6, 5.10221672058105468750e+00) (7, 1.30583429336547851562e+01) (8, 1.23671472072601318359e+00) (9, -4.63640332221984863281e-01) (0, 3.28946495056152343750e+00) (1, 9.50623416900634765625e+00) (2, 1.15711517333984375000e+01) (3, 6.64806032180786132812e+00) (4, 6.56115174293518066406e-01) (5, 1.03319902420043945312e+01) (6, -5.31050443649291992188e+00) (7, -1.72491550445556640625e+01) (8, 5.14920043945312500000e+00) (9, -8.05586242675781250000e+00) (10, 5.64269638061523437500e+00) (11, 2.77951288223266601562e+00) (12, -1.66042506694793701172e+00) 
