FANN_FLO_2.1
num_layers=3
learning_rate=0.500000
connection_rate=1.000000
network_type=0
learning_momentum=0.000000
training_algorithm=2
train_error_function=1
train_stop_function=0
cascade_output_change_fraction=0.010000
quickprop_decay=-0.000100
quickprop_mu=1.750000
rprop_increase_factor=1.200000
rprop_decrease_factor=0.500000
rprop_delta_min=0.000000
rprop_delta_max=50.000000
rprop_delta_zero=0.100000
cascade_output_stagnation_epochs=12
cascade_candidate_change_fraction=0.010000
cascade_candidate_stagnation_epochs=12
cascade_max_out_epochs=150
cascade_min_out_epochs=50
cascade_max_cand_epochs=150
cascade_min_cand_epochs=50
cascade_num_candidate_groups=2
bit_fail_limit=3.49999994039535522461e-01
cascade_candidate_limit=1.00000000000000000000e+03
cascade_weight_multiplier=4.00000005960464477539e-01
cascade_activation_functions_count=10
cascade_activation_functions=3 5 7 8 10 11 14 15 16 17 
cascade_activation_steepnesses_count=4
cascade_activation_steepnesses=2.50000000000000000000e-01 5.00000000000000000000e-01 7.50000000000000000000e-01 1.00000000000000000000e+00 
layer_sizes=6 5 2 
scale_included=0
neurons (num_inputs, activation_function, activation_steepness)=(0, 0, 0.00000000000000000000e+00) (0, 0, 0.00000000000000000000e+00) (0, 0, 0.00000000000000000000e+00) (0, 0, 0.00000000000000000000e+00) (0, 0, 0.00000000000000000000e+00) (0, 0, 0.00000000000000000000e+00) (6, 3, 5.00000000000000000000e-01) (6, 3, 5.00000000000000000000e-01) (6, 3, 5.00000000000000000000e-01) (6, 3, 5.00000000000000000000e-01) (0, 3, 0.00000000000000000000e+00) (5, 0, 5.00000000000000000000e-01) (0, 0, 0.00000000000000000000e+00) 
connections (connected_to_neuron, weight)=(0, 1.59328734874725341797e+00) (1, -4.89574050903320312500e+00) (2, -1.93568170070648193359e+00) (3, 5.71555614471435546875e-01) (4, -1.55301660299301147461e-01) (5, 7.96861839294433593750e+00) (0, -4.34886999428272247314e-02) (1, -8.28708857297897338867e-02) (2, -1.40167951583862304688e-01) (3, 6.77131488919258117676e-02) (4, 2.09294945001602172852e-01) (5, 2.39892244338989257812e-01) (0, 1.20921665802597999573e-02) (1, 3.12259104102849960327e-02) (2, 2.60149780660867691040e-02) (3, 1.54410541057586669922e-01) (4, 1.41353696584701538086e-01) (5, 1.78123131394386291504e-01) (0, 1.69333350658416748047e+00) (1, -5.20448064804077148438e+00) (2, 1.33502408862113952637e-01) (3, 5.57278037071228027344e-01) (4, 4.48449671268463134766e-01) (5, 7.93148565292358398438e+00) (6, 1.11395740509033203125e+00) (7, 9.53242719173431396484e-01) (8, 9.67872679233551025391e-01) (9, 1.11020708084106445312e+00) (10, 1.06900334358215332031e+00) 
