FANN_FLO_2.1
num_layers=3
learning_rate=0.500000
connection_rate=1.000000
network_type=0
learning_momentum=0.000000
training_algorithm=2
train_error_function=1
train_stop_function=0
cascade_output_change_fraction=0.010000
quickprop_decay=-0.000100
quickprop_mu=1.750000
rprop_increase_factor=1.200000
rprop_decrease_factor=0.500000
rprop_delta_min=0.000000
rprop_delta_max=50.000000
rprop_delta_zero=0.100000
cascade_output_stagnation_epochs=12
cascade_candidate_change_fraction=0.010000
cascade_candidate_stagnation_epochs=12
cascade_max_out_epochs=150
cascade_min_out_epochs=50
cascade_max_cand_epochs=150
cascade_min_cand_epochs=50
cascade_num_candidate_groups=2
bit_fail_limit=3.49999994039535522461e-01
cascade_candidate_limit=1.00000000000000000000e+03
cascade_weight_multiplier=4.00000005960464477539e-01
cascade_activation_functions_count=10
cascade_activation_functions=3 5 7 8 10 11 14 15 16 17 
cascade_activation_steepnesses_count=4
cascade_activation_steepnesses=2.50000000000000000000e-01 5.00000000000000000000e-01 7.50000000000000000000e-01 1.00000000000000000000e+00 
layer_sizes=6 5 2 
scale_included=0
neurons (num_inputs, activation_function, activation_steepness)=(0, 0, 0.00000000000000000000e+00) (0, 0, 0.00000000000000000000e+00) (0, 0, 0.00000000000000000000e+00) (0, 0, 0.00000000000000000000e+00) (0, 0, 0.00000000000000000000e+00) (0, 0, 0.00000000000000000000e+00) (6, 3, 5.00000000000000000000e-01) (6, 3, 5.00000000000000000000e-01) (6, 3, 5.00000000000000000000e-01) (6, 3, 5.00000000000000000000e-01) (0, 3, 0.00000000000000000000e+00) (5, 0, 5.00000000000000000000e-01) (0, 0, 0.00000000000000000000e+00) 
connections (connected_to_neuron, weight)=(0, 8.93382012844085693359e-01) (1, 7.62530088424682617188e+00) (2, -9.42230987548828125000e+00) (3, 7.49927639961242675781e-01) (4, 4.85050916671752929688e-01) (5, 3.21458196640014648438e+00) (0, -1.25668831169605255127e-02) (1, -5.69667398929595947266e-01) (2, 1.64218986034393310547e+00) (3, 1.16359360516071319580e-01) (4, -2.67185151576995849609e-01) (5, 2.19694212079048156738e-01) (0, -4.60938028991222381592e-02) (1, 1.96473076939582824707e-01) (2, -9.99019086360931396484e-01) (3, -1.34377285838127136230e-01) (4, 5.37555217742919921875e-01) (5, 2.87431210279464721680e-01) (0, 1.10413241386413574219e+00) (1, -4.83619880676269531250e+00) (2, -7.09367275238037109375e+00) (3, 1.75258970260620117188e+00) (4, -1.41877508163452148438e+01) (5, 3.55595898628234863281e+00) (6, 1.09537017345428466797e+00) (7, 1.01822209358215332031e+00) (8, 1.01335048675537109375e+00) (9, 1.10374915599822998047e+00) (10, 1.04486441612243652344e+00) 
