FANN_FLO_2.1
num_layers=3
learning_rate=0.500000
connection_rate=1.000000
network_type=0
learning_momentum=0.000000
training_algorithm=2
train_error_function=1
train_stop_function=0
cascade_output_change_fraction=0.010000
quickprop_decay=-0.000100
quickprop_mu=1.750000
rprop_increase_factor=1.200000
rprop_decrease_factor=0.500000
rprop_delta_min=0.000000
rprop_delta_max=50.000000
rprop_delta_zero=0.100000
cascade_output_stagnation_epochs=12
cascade_candidate_change_fraction=0.010000
cascade_candidate_stagnation_epochs=12
cascade_max_out_epochs=150
cascade_min_out_epochs=50
cascade_max_cand_epochs=150
cascade_min_cand_epochs=50
cascade_num_candidate_groups=2
bit_fail_limit=3.49999994039535522461e-01
cascade_candidate_limit=1.00000000000000000000e+03
cascade_weight_multiplier=4.00000005960464477539e-01
cascade_activation_functions_count=10
cascade_activation_functions=3 5 7 8 10 11 14 15 16 17 
cascade_activation_steepnesses_count=4
cascade_activation_steepnesses=2.50000000000000000000e-01 5.00000000000000000000e-01 7.50000000000000000000e-01 1.00000000000000000000e+00 
layer_sizes=10 3 2 
scale_included=0
neurons (num_inputs, activation_function, activation_steepness)=(0, 0, 0.00000000000000000000e+00) (0, 0, 0.00000000000000000000e+00) (0, 0, 0.00000000000000000000e+00) (0, 0, 0.00000000000000000000e+00) (0, 0, 0.00000000000000000000e+00) (0, 0, 0.00000000000000000000e+00) (0, 0, 0.00000000000000000000e+00) (0, 0, 0.00000000000000000000e+00) (0, 0, 0.00000000000000000000e+00) (0, 0, 0.00000000000000000000e+00) (10, 3, 5.00000000000000000000e-01) (10, 3, 5.00000000000000000000e-01) (0, 3, 0.00000000000000000000e+00) (3, 3, 5.00000000000000000000e-01) (0, 3, 0.00000000000000000000e+00) 
connections (connected_to_neuron, weight)=(0, 2.73118329048156738281e+00) (1, 1.03715648651123046875e+01) (2, 7.88365221023559570312e+00) (3, -4.91256141662597656250e+00) (4, 4.45771366357803344727e-02) (5, 1.10320985317230224609e+00) (6, -9.74568367004394531250e+00) (7, -9.36070156097412109375e+00) (8, -5.60256147384643554688e+00) (9, -2.31875419616699218750e-01) (0, 2.09499382972717285156e+00) (1, -1.03967657089233398438e+01) (2, -7.23453903198242187500e+00) (3, 8.88496208190917968750e+00) (4, 2.18305253982543945312e+00) (5, 3.87384891510009765625e+00) (6, 1.18825101852416992188e+01) (7, 1.32622158527374267578e+00) (8, 8.60577106475830078125e+00) (9, -7.14459466934204101562e+00) (10, 5.71941232681274414062e+00) (11, 2.98655104637145996094e+00) (12, -1.80196738243103027344e+00) 
