FANN_FLO_2.1
num_layers=3
learning_rate=0.500000
connection_rate=1.000000
network_type=0
learning_momentum=0.000000
training_algorithm=2
train_error_function=1
train_stop_function=0
cascade_output_change_fraction=0.010000
quickprop_decay=-0.000100
quickprop_mu=1.750000
rprop_increase_factor=1.200000
rprop_decrease_factor=0.500000
rprop_delta_min=0.000000
rprop_delta_max=50.000000
rprop_delta_zero=0.100000
cascade_output_stagnation_epochs=12
cascade_candidate_change_fraction=0.010000
cascade_candidate_stagnation_epochs=12
cascade_max_out_epochs=150
cascade_min_out_epochs=50
cascade_max_cand_epochs=150
cascade_min_cand_epochs=50
cascade_num_candidate_groups=2
bit_fail_limit=3.49999994039535522461e-01
cascade_candidate_limit=1.00000000000000000000e+03
cascade_weight_multiplier=4.00000005960464477539e-01
cascade_activation_functions_count=10
cascade_activation_functions=3 5 7 8 10 11 14 15 16 17 
cascade_activation_steepnesses_count=4
cascade_activation_steepnesses=2.50000000000000000000e-01 5.00000000000000000000e-01 7.50000000000000000000e-01 1.00000000000000000000e+00 
layer_sizes=6 5 2 
scale_included=0
neurons (num_inputs, activation_function, activation_steepness)=(0, 0, 0.00000000000000000000e+00) (0, 0, 0.00000000000000000000e+00) (0, 0, 0.00000000000000000000e+00) (0, 0, 0.00000000000000000000e+00) (0, 0, 0.00000000000000000000e+00) (0, 0, 0.00000000000000000000e+00) (6, 3, 5.00000000000000000000e-01) (6, 3, 5.00000000000000000000e-01) (6, 3, 5.00000000000000000000e-01) (6, 3, 5.00000000000000000000e-01) (0, 3, 0.00000000000000000000e+00) (5, 0, 5.00000000000000000000e-01) (0, 0, 0.00000000000000000000e+00) 
connections (connected_to_neuron, weight)=(0, 7.62383732944726943970e-03) (1, 3.33627843856811523438e+00) (2, 8.62779855728149414062e-01) (3, 3.81461095809936523438e+00) (4, -5.59867620468139648438e+00) (5, 3.59224748611450195312e+00) (0, -1.69605612754821777344e-02) (1, -6.19865465164184570312e+00) (2, -4.56460809707641601562e+00) (3, 4.37425583600997924805e-01) (4, 1.65500676631927490234e+00) (5, 3.62799692153930664062e+00) (0, 7.22504615783691406250e-01) (1, -2.75992202758789062500e+00) (2, 1.03921909332275390625e+01) (3, -6.79271507263183593750e+00) (4, 9.27707433700561523438e-01) (5, 3.48606014251708984375e+00) (0, 6.64783298969268798828e-01) (1, 9.43111419677734375000e+00) (2, -3.00791049003601074219e+00) (3, -1.73504799604415893555e-01) (4, 1.52941188812255859375e+01) (5, 3.64573407173156738281e+00) (6, 8.45213651657104492188e-01) (7, 8.54445755481719970703e-01) (8, 8.90362799167633056641e-01) (9, 8.95045518875122070312e-01) (10, 9.28224921226501464844e-01) 
