FANN_FLO_2.1
num_layers=3
learning_rate=0.500000
connection_rate=1.000000
network_type=0
learning_momentum=0.000000
training_algorithm=2
train_error_function=1
train_stop_function=0
cascade_output_change_fraction=0.010000
quickprop_decay=-0.000100
quickprop_mu=1.750000
rprop_increase_factor=1.200000
rprop_decrease_factor=0.500000
rprop_delta_min=0.000000
rprop_delta_max=50.000000
rprop_delta_zero=0.100000
cascade_output_stagnation_epochs=12
cascade_candidate_change_fraction=0.010000
cascade_candidate_stagnation_epochs=12
cascade_max_out_epochs=150
cascade_min_out_epochs=50
cascade_max_cand_epochs=150
cascade_min_cand_epochs=50
cascade_num_candidate_groups=2
bit_fail_limit=3.49999994039535522461e-01
cascade_candidate_limit=1.00000000000000000000e+03
cascade_weight_multiplier=4.00000005960464477539e-01
cascade_activation_functions_count=10
cascade_activation_functions=3 5 7 8 10 11 14 15 16 17 
cascade_activation_steepnesses_count=4
cascade_activation_steepnesses=2.50000000000000000000e-01 5.00000000000000000000e-01 7.50000000000000000000e-01 1.00000000000000000000e+00 
layer_sizes=10 3 2 
scale_included=0
neurons (num_inputs, activation_function, activation_steepness)=(0, 0, 0.00000000000000000000e+00) (0, 0, 0.00000000000000000000e+00) (0, 0, 0.00000000000000000000e+00) (0, 0, 0.00000000000000000000e+00) (0, 0, 0.00000000000000000000e+00) (0, 0, 0.00000000000000000000e+00) (0, 0, 0.00000000000000000000e+00) (0, 0, 0.00000000000000000000e+00) (0, 0, 0.00000000000000000000e+00) (0, 0, 0.00000000000000000000e+00) (10, 3, 5.00000000000000000000e-01) (10, 3, 5.00000000000000000000e-01) (0, 3, 0.00000000000000000000e+00) (3, 3, 5.00000000000000000000e-01) (0, 3, 0.00000000000000000000e+00) 
connections (connected_to_neuron, weight)=(0, -1.65141627192497253418e-01) (1, 9.94761085510253906250e+00) (2, 1.12364187240600585938e+01) (3, -6.86677789688110351562e+00) (4, 1.52590584754943847656e+00) (5, 5.76844120025634765625e+00) (6, -1.57119941711425781250e+01) (7, -5.24839925765991210938e+00) (8, 3.04561913013458251953e-01) (9, -3.97083377838134765625e+00) (0, 3.85404849052429199219e+00) (1, -1.24997253417968750000e+01) (2, -9.06792163848876953125e+00) (3, 8.28249645233154296875e+00) (4, -5.84498357772827148438e+00) (5, -2.26071357727050781250e+00) (6, 1.64150505065917968750e+01) (7, 5.15044069290161132812e+00) (8, 9.62504446506500244141e-01) (9, -3.68271994590759277344e+00) (10, 4.81135034561157226562e+00) (11, 2.49888777732849121094e+00) (12, -6.08585417270660400391e-01) 
