FANN_FLO_2.1
num_layers=3
learning_rate=0.500000
connection_rate=1.000000
network_type=0
learning_momentum=0.000000
training_algorithm=2
train_error_function=1
train_stop_function=0
cascade_output_change_fraction=0.010000
quickprop_decay=-0.000100
quickprop_mu=1.750000
rprop_increase_factor=1.200000
rprop_decrease_factor=0.500000
rprop_delta_min=0.000000
rprop_delta_max=50.000000
rprop_delta_zero=0.100000
cascade_output_stagnation_epochs=12
cascade_candidate_change_fraction=0.010000
cascade_candidate_stagnation_epochs=12
cascade_max_out_epochs=150
cascade_min_out_epochs=50
cascade_max_cand_epochs=150
cascade_min_cand_epochs=50
cascade_num_candidate_groups=2
bit_fail_limit=3.49999994039535522461e-01
cascade_candidate_limit=1.00000000000000000000e+03
cascade_weight_multiplier=4.00000005960464477539e-01
cascade_activation_functions_count=10
cascade_activation_functions=3 5 7 8 10 11 14 15 16 17 
cascade_activation_steepnesses_count=4
cascade_activation_steepnesses=2.50000000000000000000e-01 5.00000000000000000000e-01 7.50000000000000000000e-01 1.00000000000000000000e+00 
layer_sizes=6 5 2 
scale_included=0
neurons (num_inputs, activation_function, activation_steepness)=(0, 0, 0.00000000000000000000e+00) (0, 0, 0.00000000000000000000e+00) (0, 0, 0.00000000000000000000e+00) (0, 0, 0.00000000000000000000e+00) (0, 0, 0.00000000000000000000e+00) (0, 0, 0.00000000000000000000e+00) (6, 3, 5.00000000000000000000e-01) (6, 3, 5.00000000000000000000e-01) (6, 3, 5.00000000000000000000e-01) (6, 3, 5.00000000000000000000e-01) (0, 3, 0.00000000000000000000e+00) (5, 0, 5.00000000000000000000e-01) (0, 0, 0.00000000000000000000e+00) 
connections (connected_to_neuron, weight)=(0, 1.24263298511505126953e+00) (1, -4.15095180273056030273e-01) (2, 1.14111032485961914062e+01) (3, -2.36164689064025878906e+00) (4, 2.84404587745666503906e+00) (5, 2.55760765075683593750e+00) (0, 1.06113398075103759766e+00) (1, 7.18187904357910156250e+00) (2, -2.62846684455871582031e+00) (3, 3.88793945312500000000e+00) (4, 3.13532304763793945312e+00) (5, 2.16093277931213378906e+00) (0, -3.43228071928024291992e-01) (1, 5.96428848803043365479e-02) (2, -2.80902206897735595703e-01) (3, 1.48313909769058227539e-01) (4, -3.57036367058753967285e-02) (5, 2.40129932761192321777e-01) (0, 9.67393279075622558594e-01) (1, -3.80924510955810546875e+00) (2, -5.70481240749359130859e-01) (3, -2.14564871788024902344e+00) (4, -1.23543977737426757812e+00) (5, 1.42373943328857421875e+00) (6, 1.00085651874542236328e+00) (7, 1.03902554512023925781e+00) (8, 9.36957776546478271484e-01) (9, 1.07604050636291503906e+00) (10, 9.26728546619415283203e-01) 
