FANN_FLO_2.1
num_layers=3
learning_rate=0.500000
connection_rate=1.000000
network_type=0
learning_momentum=0.000000
training_algorithm=2
train_error_function=1
train_stop_function=0
cascade_output_change_fraction=0.010000
quickprop_decay=-0.000100
quickprop_mu=1.750000
rprop_increase_factor=1.200000
rprop_decrease_factor=0.500000
rprop_delta_min=0.000000
rprop_delta_max=50.000000
rprop_delta_zero=0.100000
cascade_output_stagnation_epochs=12
cascade_candidate_change_fraction=0.010000
cascade_candidate_stagnation_epochs=12
cascade_max_out_epochs=150
cascade_min_out_epochs=50
cascade_max_cand_epochs=150
cascade_min_cand_epochs=50
cascade_num_candidate_groups=2
bit_fail_limit=3.49999994039535522461e-01
cascade_candidate_limit=1.00000000000000000000e+03
cascade_weight_multiplier=4.00000005960464477539e-01
cascade_activation_functions_count=10
cascade_activation_functions=3 5 7 8 10 11 14 15 16 17 
cascade_activation_steepnesses_count=4
cascade_activation_steepnesses=2.50000000000000000000e-01 5.00000000000000000000e-01 7.50000000000000000000e-01 1.00000000000000000000e+00 
layer_sizes=10 5 2 
scale_included=0
neurons (num_inputs, activation_function, activation_steepness)=(0, 0, 0.00000000000000000000e+00) (0, 0, 0.00000000000000000000e+00) (0, 0, 0.00000000000000000000e+00) (0, 0, 0.00000000000000000000e+00) (0, 0, 0.00000000000000000000e+00) (0, 0, 0.00000000000000000000e+00) (0, 0, 0.00000000000000000000e+00) (0, 0, 0.00000000000000000000e+00) (0, 0, 0.00000000000000000000e+00) (0, 0, 0.00000000000000000000e+00) (10, 3, 5.00000000000000000000e-01) (10, 3, 5.00000000000000000000e-01) (10, 3, 5.00000000000000000000e-01) (10, 3, 5.00000000000000000000e-01) (0, 3, 0.00000000000000000000e+00) (5, 3, 5.00000000000000000000e-01) (0, 3, 0.00000000000000000000e+00) 
connections (connected_to_neuron, weight)=(0, 1.60313415527343750000e+01) (1, -1.10834054946899414062e+01) (2, -9.78367996215820312500e+00) (3, -3.31074327230453491211e-01) (4, 9.89222908020019531250e+00) (5, 1.63406372070312500000e+01) (6, -5.36023044586181640625e+00) (7, -3.86672902107238769531e+00) (8, 1.20692157745361328125e+00) (9, -3.01718020439147949219e+00) (0, 1.08678035736083984375e+01) (1, 1.75886547565460205078e+00) (2, 6.70135927200317382812e+00) (3, -2.55312776565551757812e+00) (4, -1.05754508972167968750e+01) (5, 5.10927772521972656250e+00) (6, 5.06306076049804687500e+00) (7, 8.66008281707763671875e+00) (8, 3.62327075004577636719e+00) (9, -8.37402057647705078125e+00) (0, -1.98519396781921386719e+00) (1, 1.20211496353149414062e+01) (2, 6.22858238220214843750e+00) (3, -4.21551609039306640625e+00) (4, -9.36325073242187500000e+00) (5, 2.47813987731933593750e+00) (6, -9.59468364715576171875e+00) (7, 2.64371623992919921875e+01) (8, -7.53421306610107421875e+00) (9, -3.26066994667053222656e+00) (0, -7.03381681442260742188e+00) (1, 8.48565196990966796875e+00) (2, -9.61355507373809814453e-01) (3, 1.33865499496459960938e+01) (4, 2.51096267700195312500e+01) (5, 1.15488195419311523438e+01) (6, 9.18253803253173828125e+00) (7, -4.32850509881973266602e-01) (8, -7.09335851669311523438e+00) (9, -1.20934238433837890625e+01) (10, 6.08846187591552734375e-01) (11, 7.42906332015991210938e-01) (12, 6.68460011482238769531e-01) (13, 1.41336739063262939453e+00) (14, -1.75572097301483154297e+00) 
