FANN_FLO_2.1
num_layers=3
learning_rate=0.500000
connection_rate=1.000000
network_type=0
learning_momentum=0.000000
training_algorithm=2
train_error_function=1
train_stop_function=0
cascade_output_change_fraction=0.010000
quickprop_decay=-0.000100
quickprop_mu=1.750000
rprop_increase_factor=1.200000
rprop_decrease_factor=0.500000
rprop_delta_min=0.000000
rprop_delta_max=50.000000
rprop_delta_zero=0.100000
cascade_output_stagnation_epochs=12
cascade_candidate_change_fraction=0.010000
cascade_candidate_stagnation_epochs=12
cascade_max_out_epochs=150
cascade_min_out_epochs=50
cascade_max_cand_epochs=150
cascade_min_cand_epochs=50
cascade_num_candidate_groups=2
bit_fail_limit=3.49999994039535522461e-01
cascade_candidate_limit=1.00000000000000000000e+03
cascade_weight_multiplier=4.00000005960464477539e-01
cascade_activation_functions_count=10
cascade_activation_functions=3 5 7 8 10 11 14 15 16 17 
cascade_activation_steepnesses_count=4
cascade_activation_steepnesses=2.50000000000000000000e-01 5.00000000000000000000e-01 7.50000000000000000000e-01 1.00000000000000000000e+00 
layer_sizes=6 5 2 
scale_included=0
neurons (num_inputs, activation_function, activation_steepness)=(0, 0, 0.00000000000000000000e+00) (0, 0, 0.00000000000000000000e+00) (0, 0, 0.00000000000000000000e+00) (0, 0, 0.00000000000000000000e+00) (0, 0, 0.00000000000000000000e+00) (0, 0, 0.00000000000000000000e+00) (6, 3, 5.00000000000000000000e-01) (6, 3, 5.00000000000000000000e-01) (6, 3, 5.00000000000000000000e-01) (6, 3, 5.00000000000000000000e-01) (0, 3, 0.00000000000000000000e+00) (5, 0, 5.00000000000000000000e-01) (0, 0, 0.00000000000000000000e+00) 
connections (connected_to_neuron, weight)=(0, 1.12024652957916259766e+00) (1, 5.61704444885253906250e+00) (2, -7.95087432861328125000e+00) (3, 1.76252126693725585938e+00) (4, -2.84121751785278320312e-01) (5, 2.64506316184997558594e+00) (0, 2.25042104721069335938e-02) (1, 9.54900234937667846680e-02) (2, 2.51763403415679931641e-01) (3, 1.08279466629028320312e-01) (4, -1.46791785955429077148e-01) (5, 2.54866480827331542969e-01) (0, 1.16681146621704101562e+00) (1, -1.55959749221801757812e+01) (2, -7.96034753322601318359e-01) (3, -3.77024912834167480469e+00) (4, -2.73479312658309936523e-01) (5, 3.65774154663085937500e+00) (0, -9.30381268262863159180e-02) (1, -1.70745477080345153809e-02) (2, 2.67348796129226684570e-01) (3, -9.31693315505981445312e-02) (4, 1.61297097802162170410e-01) (5, 2.33979672193527221680e-01) (6, 1.09753656387329101562e+00) (7, 9.61921334266662597656e-01) (8, 1.09169673919677734375e+00) (9, 9.43142175674438476562e-01) (10, 1.13438487052917480469e+00) 
