FANN_FLO_2.1
num_layers=3
learning_rate=0.500000
connection_rate=1.000000
network_type=0
learning_momentum=0.000000
training_algorithm=2
train_error_function=1
train_stop_function=0
cascade_output_change_fraction=0.010000
quickprop_decay=-0.000100
quickprop_mu=1.750000
rprop_increase_factor=1.200000
rprop_decrease_factor=0.500000
rprop_delta_min=0.000000
rprop_delta_max=50.000000
rprop_delta_zero=0.100000
cascade_output_stagnation_epochs=12
cascade_candidate_change_fraction=0.010000
cascade_candidate_stagnation_epochs=12
cascade_max_out_epochs=150
cascade_min_out_epochs=50
cascade_max_cand_epochs=150
cascade_min_cand_epochs=50
cascade_num_candidate_groups=2
bit_fail_limit=3.49999994039535522461e-01
cascade_candidate_limit=1.00000000000000000000e+03
cascade_weight_multiplier=4.00000005960464477539e-01
cascade_activation_functions_count=10
cascade_activation_functions=3 5 7 8 10 11 14 15 16 17 
cascade_activation_steepnesses_count=4
cascade_activation_steepnesses=2.50000000000000000000e-01 5.00000000000000000000e-01 7.50000000000000000000e-01 1.00000000000000000000e+00 
layer_sizes=6 5 2 
scale_included=0
neurons (num_inputs, activation_function, activation_steepness)=(0, 0, 0.00000000000000000000e+00) (0, 0, 0.00000000000000000000e+00) (0, 0, 0.00000000000000000000e+00) (0, 0, 0.00000000000000000000e+00) (0, 0, 0.00000000000000000000e+00) (0, 0, 0.00000000000000000000e+00) (6, 3, 5.00000000000000000000e-01) (6, 3, 5.00000000000000000000e-01) (6, 3, 5.00000000000000000000e-01) (6, 3, 5.00000000000000000000e-01) (0, 3, 0.00000000000000000000e+00) (5, 0, 5.00000000000000000000e-01) (0, 0, 0.00000000000000000000e+00) 
connections (connected_to_neuron, weight)=(0, -8.43583345413208007812e-02) (1, 1.22033819556236267090e-01) (2, 9.25614237785339355469e-01) (3, -1.93655580282211303711e-01) (4, 3.39098900556564331055e-01) (5, 3.55056792497634887695e-01) (0, -9.37464833259582519531e-02) (1, 3.68726164102554321289e-01) (2, 5.33470690250396728516e-01) (3, -8.35301131010055541992e-02) (4, -4.61901098489761352539e-01) (5, 3.21062535047531127930e-01) (0, 2.51797977834939956665e-02) (1, -4.44577373564243316650e-02) (2, -2.60116314888000488281e+00) (3, -1.11782884597778320312e+00) (4, 5.88479489088058471680e-02) (5, 4.47662204504013061523e-01) (0, 1.09138989448547363281e+00) (1, -3.87408304214477539062e+00) (2, 5.43958711624145507812e+00) (3, 8.83781719207763671875e+00) (4, 2.30058145523071289062e+00) (5, 1.67821979522705078125e+00) (6, 1.12978577613830566406e+00) (7, 1.08768403530120849609e+00) (8, 1.05915927886962890625e+00) (9, 1.25049281120300292969e+00) (10, 1.26549506187438964844e+00) 
