FANN_FLO_2.1
num_layers=3
learning_rate=0.500000
connection_rate=1.000000
network_type=0
learning_momentum=0.000000
training_algorithm=2
train_error_function=1
train_stop_function=0
cascade_output_change_fraction=0.010000
quickprop_decay=-0.000100
quickprop_mu=1.750000
rprop_increase_factor=1.200000
rprop_decrease_factor=0.500000
rprop_delta_min=0.000000
rprop_delta_max=50.000000
rprop_delta_zero=0.100000
cascade_output_stagnation_epochs=12
cascade_candidate_change_fraction=0.010000
cascade_candidate_stagnation_epochs=12
cascade_max_out_epochs=150
cascade_min_out_epochs=50
cascade_max_cand_epochs=150
cascade_min_cand_epochs=50
cascade_num_candidate_groups=2
bit_fail_limit=3.49999994039535522461e-01
cascade_candidate_limit=1.00000000000000000000e+03
cascade_weight_multiplier=4.00000005960464477539e-01
cascade_activation_functions_count=10
cascade_activation_functions=3 5 7 8 10 11 14 15 16 17 
cascade_activation_steepnesses_count=4
cascade_activation_steepnesses=2.50000000000000000000e-01 5.00000000000000000000e-01 7.50000000000000000000e-01 1.00000000000000000000e+00 
layer_sizes=10 5 2 
scale_included=0
neurons (num_inputs, activation_function, activation_steepness)=(0, 0, 0.00000000000000000000e+00) (0, 0, 0.00000000000000000000e+00) (0, 0, 0.00000000000000000000e+00) (0, 0, 0.00000000000000000000e+00) (0, 0, 0.00000000000000000000e+00) (0, 0, 0.00000000000000000000e+00) (0, 0, 0.00000000000000000000e+00) (0, 0, 0.00000000000000000000e+00) (0, 0, 0.00000000000000000000e+00) (0, 0, 0.00000000000000000000e+00) (10, 3, 5.00000000000000000000e-01) (10, 3, 5.00000000000000000000e-01) (10, 3, 5.00000000000000000000e-01) (10, 3, 5.00000000000000000000e-01) (0, 3, 0.00000000000000000000e+00) (5, 3, 5.00000000000000000000e-01) (0, 3, 0.00000000000000000000e+00) 
connections (connected_to_neuron, weight)=(0, 1.07953500747680664062e+01) (1, 5.14556407928466796875e+00) (2, 8.67000371217727661133e-02) (3, 1.14203157424926757812e+01) (4, 1.36534519195556640625e+01) (5, 9.16334211826324462891e-01) (6, 5.60933589935302734375e+00) (7, 3.01299991607666015625e+01) (8, 5.60597181320190429688e+00) (9, -8.63524341583251953125e+00) (0, 2.16736030578613281250e+00) (1, 1.19290132522583007812e+01) (2, 5.76369476318359375000e+00) (3, -5.39054250717163085938e+00) (4, -3.10825914144515991211e-01) (5, 8.56738758087158203125e+00) (6, -1.02497673034667968750e+01) (7, -1.08572835922241210938e+01) (8, -3.23687529563903808594e+00) (9, -1.82123088836669921875e+00) (0, -3.06157827377319335938e+00) (1, 1.75474655628204345703e+00) (2, 4.37564706802368164062e+00) (3, -8.10277748107910156250e+00) (4, 6.08662426471710205078e-01) (5, 8.76601600646972656250e+00) (6, -5.94349384307861328125e+00) (7, -8.46250712871551513672e-01) (8, 2.05074477195739746094e+00) (9, 1.42148625850677490234e+00) (0, -8.40752696990966796875e+00) (1, -9.21364498138427734375e+00) (2, 1.86236321926116943359e+00) (3, -1.12019672393798828125e+01) (4, 9.26271200180053710938e-01) (5, 1.15944509506225585938e+01) (6, -2.26873064041137695312e+00) (7, 9.09972572326660156250e+00) (8, 6.62650394439697265625e+00) (9, -2.19314050674438476562e+00) (10, 2.12267470359802246094e+00) (11, 5.95267963409423828125e+00) (12, -6.47251367568969726562e+00) (13, 6.23042058944702148438e+00) (14, 6.28825902938842773438e-01) 
