FANN_FLO_2.1
num_layers=3
learning_rate=0.500000
connection_rate=1.000000
network_type=0
learning_momentum=0.000000
training_algorithm=2
train_error_function=1
train_stop_function=0
cascade_output_change_fraction=0.010000
quickprop_decay=-0.000100
quickprop_mu=1.750000
rprop_increase_factor=1.200000
rprop_decrease_factor=0.500000
rprop_delta_min=0.000000
rprop_delta_max=50.000000
rprop_delta_zero=0.100000
cascade_output_stagnation_epochs=12
cascade_candidate_change_fraction=0.010000
cascade_candidate_stagnation_epochs=12
cascade_max_out_epochs=150
cascade_min_out_epochs=50
cascade_max_cand_epochs=150
cascade_min_cand_epochs=50
cascade_num_candidate_groups=2
bit_fail_limit=3.49999994039535522461e-01
cascade_candidate_limit=1.00000000000000000000e+03
cascade_weight_multiplier=4.00000005960464477539e-01
cascade_activation_functions_count=10
cascade_activation_functions=3 5 7 8 10 11 14 15 16 17 
cascade_activation_steepnesses_count=4
cascade_activation_steepnesses=2.50000000000000000000e-01 5.00000000000000000000e-01 7.50000000000000000000e-01 1.00000000000000000000e+00 
layer_sizes=10 5 2 
scale_included=0
neurons (num_inputs, activation_function, activation_steepness)=(0, 0, 0.00000000000000000000e+00) (0, 0, 0.00000000000000000000e+00) (0, 0, 0.00000000000000000000e+00) (0, 0, 0.00000000000000000000e+00) (0, 0, 0.00000000000000000000e+00) (0, 0, 0.00000000000000000000e+00) (0, 0, 0.00000000000000000000e+00) (0, 0, 0.00000000000000000000e+00) (0, 0, 0.00000000000000000000e+00) (0, 0, 0.00000000000000000000e+00) (10, 3, 5.00000000000000000000e-01) (10, 3, 5.00000000000000000000e-01) (10, 3, 5.00000000000000000000e-01) (10, 3, 5.00000000000000000000e-01) (0, 3, 0.00000000000000000000e+00) (5, 3, 5.00000000000000000000e-01) (0, 3, 0.00000000000000000000e+00) 
connections (connected_to_neuron, weight)=(0, 7.69446611404418945312e+00) (1, -1.38268828392028808594e+00) (2, -3.21435523033142089844e+00) (3, 1.16842088699340820312e+01) (4, 7.78483822941780090332e-02) (5, -1.47709503173828125000e+01) (6, 3.58174109458923339844e+00) (7, -2.45670938491821289062e+00) (8, -5.04430866241455078125e+00) (9, -1.90348756313323974609e+00) (0, -2.00913925170898437500e+01) (1, 2.98917502164840698242e-01) (2, 1.03183679580688476562e+01) (3, -3.18169078826904296875e+01) (4, -1.89719259738922119141e+00) (5, 4.05366096496582031250e+01) (6, -1.64281101226806640625e+01) (7, 2.45381665229797363281e+00) (8, 1.52372169494628906250e+01) (9, -5.93057250976562500000e+00) (0, -1.55177221298217773438e+01) (1, 2.07737255096435546875e+01) (2, 8.01086664199829101562e-01) (3, -7.00024127960205078125e+00) (4, 3.22427421808242797852e-01) (5, 3.92331171035766601562e+00) (6, 5.34117555618286132812e+00) (7, 4.67281198501586914062e+00) (8, 7.95677804946899414062e+00) (9, -6.16492843627929687500e+00) (0, 9.64563179016113281250e+00) (1, -6.81115484237670898438e+00) (2, -2.85959601402282714844e-01) (3, 1.47282123565673828125e+01) (4, -1.75115287303924560547e+00) (5, -2.13818435668945312500e+01) (6, 5.17922639846801757812e+00) (7, -1.04935293197631835938e+01) (8, 1.47003568708896636963e-02) (9, -5.36243677139282226562e-01) (10, 1.00575180053710937500e+01) (11, 2.56441116333007812500e+00) (12, 1.45040190219879150391e+00) (13, -4.94078159332275390625e+00) (14, -1.27777349948883056641e+00) 
