FANN_FLO_2.1
num_layers=3
learning_rate=0.500000
connection_rate=1.000000
network_type=0
learning_momentum=0.000000
training_algorithm=2
train_error_function=1
train_stop_function=0
cascade_output_change_fraction=0.010000
quickprop_decay=-0.000100
quickprop_mu=1.750000
rprop_increase_factor=1.200000
rprop_decrease_factor=0.500000
rprop_delta_min=0.000000
rprop_delta_max=50.000000
rprop_delta_zero=0.100000
cascade_output_stagnation_epochs=12
cascade_candidate_change_fraction=0.010000
cascade_candidate_stagnation_epochs=12
cascade_max_out_epochs=150
cascade_min_out_epochs=50
cascade_max_cand_epochs=150
cascade_min_cand_epochs=50
cascade_num_candidate_groups=2
bit_fail_limit=3.49999994039535522461e-01
cascade_candidate_limit=1.00000000000000000000e+03
cascade_weight_multiplier=4.00000005960464477539e-01
cascade_activation_functions_count=10
cascade_activation_functions=3 5 7 8 10 11 14 15 16 17 
cascade_activation_steepnesses_count=4
cascade_activation_steepnesses=2.50000000000000000000e-01 5.00000000000000000000e-01 7.50000000000000000000e-01 1.00000000000000000000e+00 
layer_sizes=6 5 2 
scale_included=0
neurons (num_inputs, activation_function, activation_steepness)=(0, 0, 0.00000000000000000000e+00) (0, 0, 0.00000000000000000000e+00) (0, 0, 0.00000000000000000000e+00) (0, 0, 0.00000000000000000000e+00) (0, 0, 0.00000000000000000000e+00) (0, 0, 0.00000000000000000000e+00) (6, 3, 5.00000000000000000000e-01) (6, 3, 5.00000000000000000000e-01) (6, 3, 5.00000000000000000000e-01) (6, 3, 5.00000000000000000000e-01) (0, 3, 0.00000000000000000000e+00) (5, 0, 5.00000000000000000000e-01) (0, 0, 0.00000000000000000000e+00) 
connections (connected_to_neuron, weight)=(0, 1.00812268257141113281e+00) (1, 3.29926395416259765625e+00) (2, -3.34995007514953613281e+00) (3, 4.41949367523193359375e+00) (4, -4.58767175674438476562e+00) (5, 1.59447360038757324219e+00) (0, -3.90546500682830810547e-01) (1, -6.88530266284942626953e-01) (2, -6.08926892280578613281e-01) (3, -1.03060030937194824219e+00) (4, 7.76392996311187744141e-01) (5, 1.51395440101623535156e-01) (0, 1.00919508934020996094e+00) (1, -4.56060314178466796875e+00) (2, 5.10181093215942382812e+00) (3, 4.95956134796142578125e+00) (4, -1.15050852298736572266e+00) (5, 2.03433609008789062500e+00) (0, 1.09249496459960937500e+00) (1, 5.73081827163696289062e+00) (2, 4.66843795776367187500e+00) (3, -4.35839128494262695312e+00) (4, 1.99786341190338134766e+00) (5, 1.91958451271057128906e+00) (6, 1.04976367950439453125e+00) (7, 9.16528403759002685547e-01) (8, 1.04610347747802734375e+00) (9, 1.03733420372009277344e+00) (10, 9.64676439762115478516e-01) 
