FANN_FLO_2.1
num_layers=3
learning_rate=0.500000
connection_rate=1.000000
network_type=0
learning_momentum=0.000000
training_algorithm=2
train_error_function=1
train_stop_function=0
cascade_output_change_fraction=0.010000
quickprop_decay=-0.000100
quickprop_mu=1.750000
rprop_increase_factor=1.200000
rprop_decrease_factor=0.500000
rprop_delta_min=0.000000
rprop_delta_max=50.000000
rprop_delta_zero=0.100000
cascade_output_stagnation_epochs=12
cascade_candidate_change_fraction=0.010000
cascade_candidate_stagnation_epochs=12
cascade_max_out_epochs=150
cascade_min_out_epochs=50
cascade_max_cand_epochs=150
cascade_min_cand_epochs=50
cascade_num_candidate_groups=2
bit_fail_limit=3.49999994039535522461e-01
cascade_candidate_limit=1.00000000000000000000e+03
cascade_weight_multiplier=4.00000005960464477539e-01
cascade_activation_functions_count=10
cascade_activation_functions=3 5 7 8 10 11 14 15 16 17 
cascade_activation_steepnesses_count=4
cascade_activation_steepnesses=2.50000000000000000000e-01 5.00000000000000000000e-01 7.50000000000000000000e-01 1.00000000000000000000e+00 
layer_sizes=10 5 2 
scale_included=0
neurons (num_inputs, activation_function, activation_steepness)=(0, 0, 0.00000000000000000000e+00) (0, 0, 0.00000000000000000000e+00) (0, 0, 0.00000000000000000000e+00) (0, 0, 0.00000000000000000000e+00) (0, 0, 0.00000000000000000000e+00) (0, 0, 0.00000000000000000000e+00) (0, 0, 0.00000000000000000000e+00) (0, 0, 0.00000000000000000000e+00) (0, 0, 0.00000000000000000000e+00) (0, 0, 0.00000000000000000000e+00) (10, 3, 5.00000000000000000000e-01) (10, 3, 5.00000000000000000000e-01) (10, 3, 5.00000000000000000000e-01) (10, 3, 5.00000000000000000000e-01) (0, 3, 0.00000000000000000000e+00) (5, 3, 5.00000000000000000000e-01) (0, 3, 0.00000000000000000000e+00) 
connections (connected_to_neuron, weight)=(0, 1.55194025039672851562e+01) (1, 6.01124954223632812500e+00) (2, -1.78501343727111816406e+00) (3, 1.89922103881835937500e+01) (4, 3.03149771690368652344e+00) (5, -2.29137477874755859375e+01) (6, 8.23412704467773437500e+00) (7, -9.48846721649169921875e+00) (8, -1.51921939849853515625e+01) (9, -6.15761804580688476562e+00) (0, -7.97924399375915527344e-01) (1, 1.08997688293457031250e+01) (2, 1.20328845977783203125e+01) (3, -1.70076026916503906250e+01) (4, -1.65538713335990905762e-02) (5, 1.56779108047485351562e+01) (6, -1.43667697906494140625e+01) (7, -1.02825326919555664062e+01) (8, 5.27639746665954589844e-01) (9, -2.52525019645690917969e+00) (0, 1.32661075592041015625e+01) (1, 1.16726140975952148438e+01) (2, -1.48068399429321289062e+01) (3, 2.72068023681640625000e+01) (4, 5.90025472640991210938e+00) (5, -5.40515279769897460938e+00) (6, -9.84222030639648437500e+00) (7, 3.97202324867248535156e+00) (8, 4.25456571578979492188e+00) (9, -8.63477230072021484375e+00) (0, -1.70222282409667968750e+01) (1, -3.15839786529541015625e+01) (2, -1.21838150024414062500e+01) (3, -4.31744515895843505859e-01) (4, 4.08195525407791137695e-01) (5, 3.26200032234191894531e+00) (6, 1.37264995574951171875e+01) (7, 3.02270870208740234375e+01) (8, 1.23590164184570312500e+01) (9, -4.95438909530639648438e+00) (10, 4.20775461196899414062e+00) (11, 4.49470901489257812500e+00) (12, 8.35980415344238281250e-01) (13, 3.73393917083740234375e+00) (14, -2.04775094985961914062e+00) 
