FANN_FLO_2.1
num_layers=3
learning_rate=0.500000
connection_rate=1.000000
network_type=0
learning_momentum=0.000000
training_algorithm=2
train_error_function=1
train_stop_function=0
cascade_output_change_fraction=0.010000
quickprop_decay=-0.000100
quickprop_mu=1.750000
rprop_increase_factor=1.200000
rprop_decrease_factor=0.500000
rprop_delta_min=0.000000
rprop_delta_max=50.000000
rprop_delta_zero=0.100000
cascade_output_stagnation_epochs=12
cascade_candidate_change_fraction=0.010000
cascade_candidate_stagnation_epochs=12
cascade_max_out_epochs=150
cascade_min_out_epochs=50
cascade_max_cand_epochs=150
cascade_min_cand_epochs=50
cascade_num_candidate_groups=2
bit_fail_limit=3.49999994039535522461e-01
cascade_candidate_limit=1.00000000000000000000e+03
cascade_weight_multiplier=4.00000005960464477539e-01
cascade_activation_functions_count=10
cascade_activation_functions=3 5 7 8 10 11 14 15 16 17 
cascade_activation_steepnesses_count=4
cascade_activation_steepnesses=2.50000000000000000000e-01 5.00000000000000000000e-01 7.50000000000000000000e-01 1.00000000000000000000e+00 
layer_sizes=10 3 2 
scale_included=0
neurons (num_inputs, activation_function, activation_steepness)=(0, 0, 0.00000000000000000000e+00) (0, 0, 0.00000000000000000000e+00) (0, 0, 0.00000000000000000000e+00) (0, 0, 0.00000000000000000000e+00) (0, 0, 0.00000000000000000000e+00) (0, 0, 0.00000000000000000000e+00) (0, 0, 0.00000000000000000000e+00) (0, 0, 0.00000000000000000000e+00) (0, 0, 0.00000000000000000000e+00) (0, 0, 0.00000000000000000000e+00) (10, 3, 5.00000000000000000000e-01) (10, 3, 5.00000000000000000000e-01) (0, 3, 0.00000000000000000000e+00) (3, 3, 5.00000000000000000000e-01) (0, 3, 0.00000000000000000000e+00) 
connections (connected_to_neuron, weight)=(0, -8.18465518951416015625e+00) (1, -1.26526298522949218750e+01) (2, 1.99358558654785156250e+01) (3, 2.49290523529052734375e+01) (4, -2.00327658653259277344e+00) (5, 1.46852855682373046875e+01) (6, -1.52699673175811767578e+00) (7, -1.54277682304382324219e+00) (8, -7.10592508316040039062e+00) (9, -3.53954267501831054688e+00) (0, 5.65523147583007812500e+00) (1, 8.28993320465087890625e+00) (2, -7.35505998134613037109e-01) (3, 1.26391971111297607422e+00) (4, -1.03190221786499023438e+01) (5, 2.01271748542785644531e+00) (6, 4.83820343017578125000e+00) (7, 3.06638264656066894531e+00) (8, 7.58837366104125976562e+00) (9, -6.23088121414184570312e+00) (10, 1.38824820518493652344e+00) (11, 1.83987283706665039062e+00) (12, -1.74838113784790039062e+00) 
