FANN_FLO_2.1
num_layers=3
learning_rate=0.500000
connection_rate=1.000000
network_type=0
learning_momentum=0.000000
training_algorithm=2
train_error_function=1
train_stop_function=0
cascade_output_change_fraction=0.010000
quickprop_decay=-0.000100
quickprop_mu=1.750000
rprop_increase_factor=1.200000
rprop_decrease_factor=0.500000
rprop_delta_min=0.000000
rprop_delta_max=50.000000
rprop_delta_zero=0.100000
cascade_output_stagnation_epochs=12
cascade_candidate_change_fraction=0.010000
cascade_candidate_stagnation_epochs=12
cascade_max_out_epochs=150
cascade_min_out_epochs=50
cascade_max_cand_epochs=150
cascade_min_cand_epochs=50
cascade_num_candidate_groups=2
bit_fail_limit=3.49999994039535522461e-01
cascade_candidate_limit=1.00000000000000000000e+03
cascade_weight_multiplier=4.00000005960464477539e-01
cascade_activation_functions_count=10
cascade_activation_functions=3 5 7 8 10 11 14 15 16 17 
cascade_activation_steepnesses_count=4
cascade_activation_steepnesses=2.50000000000000000000e-01 5.00000000000000000000e-01 7.50000000000000000000e-01 1.00000000000000000000e+00 
layer_sizes=10 3 2 
scale_included=0
neurons (num_inputs, activation_function, activation_steepness)=(0, 0, 0.00000000000000000000e+00) (0, 0, 0.00000000000000000000e+00) (0, 0, 0.00000000000000000000e+00) (0, 0, 0.00000000000000000000e+00) (0, 0, 0.00000000000000000000e+00) (0, 0, 0.00000000000000000000e+00) (0, 0, 0.00000000000000000000e+00) (0, 0, 0.00000000000000000000e+00) (0, 0, 0.00000000000000000000e+00) (0, 0, 0.00000000000000000000e+00) (10, 3, 5.00000000000000000000e-01) (10, 3, 5.00000000000000000000e-01) (0, 3, 0.00000000000000000000e+00) (3, 3, 5.00000000000000000000e-01) (0, 3, 0.00000000000000000000e+00) 
connections (connected_to_neuron, weight)=(0, 4.71557950973510742188e+00) (1, -7.08951520919799804688e+00) (2, 8.98337459564208984375e+00) (3, 1.97415752410888671875e+01) (4, -2.11471004486083984375e+01) (5, 6.82215261459350585938e+00) (6, -6.68252885341644287109e-01) (7, -3.17773193120956420898e-01) (8, 5.41393041610717773438e+00) (9, -3.50789451599121093750e+00) (0, 4.80380487442016601562e+00) (1, 8.81139564514160156250e+00) (2, -2.66226649284362792969e+00) (3, 3.70997881889343261719e+00) (4, -1.14326143264770507812e+01) (5, 8.57095241546630859375e+00) (6, -3.32519221305847167969e+00) (7, 1.50772705078125000000e+01) (8, -7.19313919544219970703e-01) (9, -6.80502367019653320312e+00) (10, 8.32461476325988769531e-01) (11, 1.19938230514526367188e+00) (12, -6.97814464569091796875e-01) 
