FANN_FLO_2.1
num_layers=3
learning_rate=0.500000
connection_rate=1.000000
network_type=0
learning_momentum=0.000000
training_algorithm=2
train_error_function=1
train_stop_function=0
cascade_output_change_fraction=0.010000
quickprop_decay=-0.000100
quickprop_mu=1.750000
rprop_increase_factor=1.200000
rprop_decrease_factor=0.500000
rprop_delta_min=0.000000
rprop_delta_max=50.000000
rprop_delta_zero=0.100000
cascade_output_stagnation_epochs=12
cascade_candidate_change_fraction=0.010000
cascade_candidate_stagnation_epochs=12
cascade_max_out_epochs=150
cascade_min_out_epochs=50
cascade_max_cand_epochs=150
cascade_min_cand_epochs=50
cascade_num_candidate_groups=2
bit_fail_limit=3.49999994039535522461e-01
cascade_candidate_limit=1.00000000000000000000e+03
cascade_weight_multiplier=4.00000005960464477539e-01
cascade_activation_functions_count=10
cascade_activation_functions=3 5 7 8 10 11 14 15 16 17 
cascade_activation_steepnesses_count=4
cascade_activation_steepnesses=2.50000000000000000000e-01 5.00000000000000000000e-01 7.50000000000000000000e-01 1.00000000000000000000e+00 
layer_sizes=10 5 2 
scale_included=0
neurons (num_inputs, activation_function, activation_steepness)=(0, 0, 0.00000000000000000000e+00) (0, 0, 0.00000000000000000000e+00) (0, 0, 0.00000000000000000000e+00) (0, 0, 0.00000000000000000000e+00) (0, 0, 0.00000000000000000000e+00) (0, 0, 0.00000000000000000000e+00) (0, 0, 0.00000000000000000000e+00) (0, 0, 0.00000000000000000000e+00) (0, 0, 0.00000000000000000000e+00) (0, 0, 0.00000000000000000000e+00) (10, 3, 5.00000000000000000000e-01) (10, 3, 5.00000000000000000000e-01) (10, 3, 5.00000000000000000000e-01) (10, 3, 5.00000000000000000000e-01) (0, 3, 0.00000000000000000000e+00) (5, 3, 5.00000000000000000000e-01) (0, 3, 0.00000000000000000000e+00) 
connections (connected_to_neuron, weight)=(0, -1.68814392089843750000e+01) (1, -4.55066934227943420410e-03) (2, 6.73803758621215820312e+00) (3, 2.01414322853088378906e+00) (4, 6.09560012817382812500e-01) (5, 1.35782184600830078125e+01) (6, -1.64780235290527343750e+00) (7, 1.05738124847412109375e+01) (8, 2.48798513412475585938e+00) (9, -5.91155815124511718750e+00) (0, -1.92101135253906250000e+01) (1, -2.16790580749511718750e+01) (2, 2.50185871124267578125e+00) (3, -1.87520084381103515625e+01) (4, -8.72141718864440917969e-01) (5, 1.79512157440185546875e+01) (6, 1.64014399051666259766e+00) (7, 1.93930454254150390625e+01) (8, 1.95875797271728515625e+01) (9, -6.94047403335571289062e+00) (0, 6.68787050247192382812e+00) (1, -2.78401279449462890625e+00) (2, -7.55108499526977539062e+00) (3, 1.07159442901611328125e+01) (4, -3.02848339080810546875e-01) (5, -1.33573198318481445312e+01) (6, 6.27219247817993164062e+00) (7, 1.00530475378036499023e-01) (8, -3.22288203239440917969e+00) (9, -1.07719361782073974609e+00) (0, 6.18623733520507812500e+00) (1, 1.51028404235839843750e+01) (2, 1.15954399108886718750e+01) (3, -7.53053665161132812500e+00) (4, -7.35419809818267822266e-01) (5, 6.78707265853881835938e+00) (6, -1.24054832458496093750e+01) (7, -1.44641294479370117188e+01) (8, -6.73130559921264648438e+00) (9, -2.93139886856079101562e+00) (10, 1.47723948955535888672e+00) (11, 4.17571258544921875000e+00) (12, 5.48172903060913085938e+00) (13, 4.69771385192871093750e+00) (14, -2.55505371093750000000e+00) 
