FANN_FLO_2.1
num_layers=3
learning_rate=0.500000
connection_rate=1.000000
network_type=0
learning_momentum=0.000000
training_algorithm=2
train_error_function=1
train_stop_function=0
cascade_output_change_fraction=0.010000
quickprop_decay=-0.000100
quickprop_mu=1.750000
rprop_increase_factor=1.200000
rprop_decrease_factor=0.500000
rprop_delta_min=0.000000
rprop_delta_max=50.000000
rprop_delta_zero=0.100000
cascade_output_stagnation_epochs=12
cascade_candidate_change_fraction=0.010000
cascade_candidate_stagnation_epochs=12
cascade_max_out_epochs=150
cascade_min_out_epochs=50
cascade_max_cand_epochs=150
cascade_min_cand_epochs=50
cascade_num_candidate_groups=2
bit_fail_limit=3.49999994039535522461e-01
cascade_candidate_limit=1.00000000000000000000e+03
cascade_weight_multiplier=4.00000005960464477539e-01
cascade_activation_functions_count=10
cascade_activation_functions=3 5 7 8 10 11 14 15 16 17 
cascade_activation_steepnesses_count=4
cascade_activation_steepnesses=2.50000000000000000000e-01 5.00000000000000000000e-01 7.50000000000000000000e-01 1.00000000000000000000e+00 
layer_sizes=6 5 2 
scale_included=0
neurons (num_inputs, activation_function, activation_steepness)=(0, 0, 0.00000000000000000000e+00) (0, 0, 0.00000000000000000000e+00) (0, 0, 0.00000000000000000000e+00) (0, 0, 0.00000000000000000000e+00) (0, 0, 0.00000000000000000000e+00) (0, 0, 0.00000000000000000000e+00) (6, 3, 5.00000000000000000000e-01) (6, 3, 5.00000000000000000000e-01) (6, 3, 5.00000000000000000000e-01) (6, 3, 5.00000000000000000000e-01) (0, 3, 0.00000000000000000000e+00) (5, 0, 5.00000000000000000000e-01) (0, 0, 0.00000000000000000000e+00) 
connections (connected_to_neuron, weight)=(0, 2.02136099338531494141e-01) (1, -1.96884000301361083984e+00) (2, 2.85632228851318359375e+00) (3, -8.96741300821304321289e-02) (4, -1.94815561175346374512e-01) (5, 4.75140213966369628906e-01) (0, -1.26430600881576538086e-01) (1, 1.86492204666137695312e+00) (2, -1.74972832202911376953e+00) (3, 6.28118962049484252930e-02) (4, 2.72186808288097381592e-02) (5, 2.81248748302459716797e-01) (0, 1.66482150554656982422e+00) (1, -7.39899587631225585938e+00) (2, 4.69909524917602539062e+00) (3, -9.50312986969947814941e-02) (4, -3.49844479560852050781e+00) (5, 2.59915256500244140625e+00) (0, -8.76801982522010803223e-02) (1, -1.50003377348184585571e-02) (2, -1.00563597679138183594e+00) (3, -3.17445620894432067871e-02) (4, 1.11064352095127105713e-01) (5, 3.43221187591552734375e-01) (6, 1.15189433097839355469e+00) (7, 1.06430351734161376953e+00) (8, 1.17445898056030273438e+00) (9, 1.05444359779357910156e+00) (10, 1.25132608413696289062e+00) 
