FANN_FLO_2.1
num_layers=3
learning_rate=0.500000
connection_rate=1.000000
network_type=0
learning_momentum=0.000000
training_algorithm=2
train_error_function=1
train_stop_function=0
cascade_output_change_fraction=0.010000
quickprop_decay=-0.000100
quickprop_mu=1.750000
rprop_increase_factor=1.200000
rprop_decrease_factor=0.500000
rprop_delta_min=0.000000
rprop_delta_max=50.000000
rprop_delta_zero=0.100000
cascade_output_stagnation_epochs=12
cascade_candidate_change_fraction=0.010000
cascade_candidate_stagnation_epochs=12
cascade_max_out_epochs=150
cascade_min_out_epochs=50
cascade_max_cand_epochs=150
cascade_min_cand_epochs=50
cascade_num_candidate_groups=2
bit_fail_limit=3.49999994039535522461e-01
cascade_candidate_limit=1.00000000000000000000e+03
cascade_weight_multiplier=4.00000005960464477539e-01
cascade_activation_functions_count=10
cascade_activation_functions=3 5 7 8 10 11 14 15 16 17 
cascade_activation_steepnesses_count=4
cascade_activation_steepnesses=2.50000000000000000000e-01 5.00000000000000000000e-01 7.50000000000000000000e-01 1.00000000000000000000e+00 
layer_sizes=10 3 2 
scale_included=0
neurons (num_inputs, activation_function, activation_steepness)=(0, 0, 0.00000000000000000000e+00) (0, 0, 0.00000000000000000000e+00) (0, 0, 0.00000000000000000000e+00) (0, 0, 0.00000000000000000000e+00) (0, 0, 0.00000000000000000000e+00) (0, 0, 0.00000000000000000000e+00) (0, 0, 0.00000000000000000000e+00) (0, 0, 0.00000000000000000000e+00) (0, 0, 0.00000000000000000000e+00) (0, 0, 0.00000000000000000000e+00) (10, 3, 5.00000000000000000000e-01) (10, 3, 5.00000000000000000000e-01) (0, 3, 0.00000000000000000000e+00) (3, 3, 5.00000000000000000000e-01) (0, 3, 0.00000000000000000000e+00) 
connections (connected_to_neuron, weight)=(0, 3.27902555465698242188e+00) (1, 6.54838609695434570312e+00) (2, -4.45799732208251953125e+00) (3, 9.85715103149414062500e+00) (4, -9.61369514465332031250e+00) (5, 9.04117584228515625000e+00) (6, 1.00917541980743408203e+00) (7, 2.14350008964538574219e+00) (8, 7.85470199584960937500e+00) (9, -7.30363655090332031250e+00) (0, -3.89924287796020507812e+00) (1, 1.02369225025177001953e+00) (2, 1.70077819824218750000e+01) (3, 1.32369971275329589844e+00) (4, -8.18253421783447265625e+00) (5, -3.74690294265747070312e+00) (6, 7.32606792449951171875e+00) (7, 5.67498540878295898438e+00) (8, -3.90562915802001953125e+00) (9, -2.35928130149841308594e+00) (10, 1.69491326808929443359e+00) (11, 1.02080464363098144531e+00) (12, -1.21731078624725341797e+00) 
