FANN_FLO_2.1
num_layers=3
learning_rate=0.500000
connection_rate=1.000000
network_type=0
learning_momentum=0.000000
training_algorithm=2
train_error_function=1
train_stop_function=0
cascade_output_change_fraction=0.010000
quickprop_decay=-0.000100
quickprop_mu=1.750000
rprop_increase_factor=1.200000
rprop_decrease_factor=0.500000
rprop_delta_min=0.000000
rprop_delta_max=50.000000
rprop_delta_zero=0.100000
cascade_output_stagnation_epochs=12
cascade_candidate_change_fraction=0.010000
cascade_candidate_stagnation_epochs=12
cascade_max_out_epochs=150
cascade_min_out_epochs=50
cascade_max_cand_epochs=150
cascade_min_cand_epochs=50
cascade_num_candidate_groups=2
bit_fail_limit=3.49999994039535522461e-01
cascade_candidate_limit=1.00000000000000000000e+03
cascade_weight_multiplier=4.00000005960464477539e-01
cascade_activation_functions_count=10
cascade_activation_functions=3 5 7 8 10 11 14 15 16 17 
cascade_activation_steepnesses_count=4
cascade_activation_steepnesses=2.50000000000000000000e-01 5.00000000000000000000e-01 7.50000000000000000000e-01 1.00000000000000000000e+00 
layer_sizes=10 3 2 
scale_included=0
neurons (num_inputs, activation_function, activation_steepness)=(0, 0, 0.00000000000000000000e+00) (0, 0, 0.00000000000000000000e+00) (0, 0, 0.00000000000000000000e+00) (0, 0, 0.00000000000000000000e+00) (0, 0, 0.00000000000000000000e+00) (0, 0, 0.00000000000000000000e+00) (0, 0, 0.00000000000000000000e+00) (0, 0, 0.00000000000000000000e+00) (0, 0, 0.00000000000000000000e+00) (0, 0, 0.00000000000000000000e+00) (10, 3, 5.00000000000000000000e-01) (10, 3, 5.00000000000000000000e-01) (0, 3, 0.00000000000000000000e+00) (3, 3, 5.00000000000000000000e-01) (0, 3, 0.00000000000000000000e+00) 
connections (connected_to_neuron, weight)=(0, 3.92780065536499023438e+00) (1, -6.45958757400512695312e+00) (2, 7.70976638793945312500e+00) (3, 1.93945293426513671875e+01) (4, -1.84991359710693359375e+01) (5, 5.52898550033569335938e+00) (6, -1.87121117115020751953e+00) (7, -5.37672662734985351562e+00) (8, 9.53925991058349609375e+00) (9, -1.98351657390594482422e+00) (0, 3.81434035301208496094e+00) (1, 7.40342569351196289062e+00) (2, -1.74246406555175781250e+00) (3, 2.15203785896301269531e+00) (4, -9.17424583435058593750e+00) (5, 7.44152688980102539062e+00) (6, -1.95992457866668701172e+00) (7, 1.43123273849487304688e+01) (8, -2.44184398651123046875e+00) (9, -5.59923934936523437500e+00) (10, 1.03344142436981201172e+00) (11, 1.41979455947875976562e+00) (12, -1.11030459403991699219e+00) 
