FANN_FLO_2.1
num_layers=3
learning_rate=0.500000
connection_rate=1.000000
network_type=0
learning_momentum=0.000000
training_algorithm=2
train_error_function=1
train_stop_function=0
cascade_output_change_fraction=0.010000
quickprop_decay=-0.000100
quickprop_mu=1.750000
rprop_increase_factor=1.200000
rprop_decrease_factor=0.500000
rprop_delta_min=0.000000
rprop_delta_max=50.000000
rprop_delta_zero=0.100000
cascade_output_stagnation_epochs=12
cascade_candidate_change_fraction=0.010000
cascade_candidate_stagnation_epochs=12
cascade_max_out_epochs=150
cascade_min_out_epochs=50
cascade_max_cand_epochs=150
cascade_min_cand_epochs=50
cascade_num_candidate_groups=2
bit_fail_limit=3.49999994039535522461e-01
cascade_candidate_limit=1.00000000000000000000e+03
cascade_weight_multiplier=4.00000005960464477539e-01
cascade_activation_functions_count=10
cascade_activation_functions=3 5 7 8 10 11 14 15 16 17 
cascade_activation_steepnesses_count=4
cascade_activation_steepnesses=2.50000000000000000000e-01 5.00000000000000000000e-01 7.50000000000000000000e-01 1.00000000000000000000e+00 
layer_sizes=10 5 2 
scale_included=0
neurons (num_inputs, activation_function, activation_steepness)=(0, 0, 0.00000000000000000000e+00) (0, 0, 0.00000000000000000000e+00) (0, 0, 0.00000000000000000000e+00) (0, 0, 0.00000000000000000000e+00) (0, 0, 0.00000000000000000000e+00) (0, 0, 0.00000000000000000000e+00) (0, 0, 0.00000000000000000000e+00) (0, 0, 0.00000000000000000000e+00) (0, 0, 0.00000000000000000000e+00) (0, 0, 0.00000000000000000000e+00) (10, 3, 5.00000000000000000000e-01) (10, 3, 5.00000000000000000000e-01) (10, 3, 5.00000000000000000000e-01) (10, 3, 5.00000000000000000000e-01) (0, 3, 0.00000000000000000000e+00) (5, 3, 5.00000000000000000000e-01) (0, 3, 0.00000000000000000000e+00) 
connections (connected_to_neuron, weight)=(0, 5.63383960723876953125e+00) (1, -5.22128343582153320312e+00) (2, -2.08623886108398437500e+01) (3, 1.45996589660644531250e+01) (4, -3.94008660316467285156e+00) (5, 4.59359979629516601562e+00) (6, 1.63736610412597656250e+01) (7, 4.25510883331298828125e+00) (8, 1.51797266006469726562e+01) (9, -1.03212966918945312500e+01) (0, -1.07829354703426361084e-01) (1, 1.17284431457519531250e+01) (2, 6.86412239074707031250e+00) (3, -8.56608295440673828125e+00) (4, -1.43652117252349853516e+00) (5, 7.15342473983764648438e+00) (6, -1.04027280807495117188e+01) (7, -8.44539928436279296875e+00) (8, -2.25927054882049560547e-01) (9, -2.63462233543395996094e+00) (0, 1.58234329223632812500e+01) (1, -1.04157304763793945312e+01) (2, -5.53710975646972656250e+01) (3, 1.97580928802490234375e+01) (4, -1.40321111679077148438e+00) (5, -2.18244266510009765625e+01) (6, 1.46890439987182617188e+01) (7, 3.16677532196044921875e+01) (8, 3.13317060470581054688e+00) (9, -1.98941558599472045898e-01) (0, -1.01967601776123046875e+01) (1, -2.59901199340820312500e+01) (2, 1.58167419433593750000e+01) (3, 2.59732666015625000000e+01) (4, -4.92667722702026367188e+00) (5, -1.20806738734245300293e-01) (6, 2.14189567565917968750e+01) (7, 6.80678892135620117188e+00) (8, -4.71114110946655273438e+00) (9, -4.95559024810791015625e+00) (10, 8.69761407375335693359e-01) (11, 9.05819797515869140625e+00) (12, 1.56251895427703857422e+00) (13, 1.89076423645019531250e+00) (14, -2.53836631774902343750e+00) 
