FANN_FLO_2.1
num_layers=3
learning_rate=0.500000
connection_rate=1.000000
network_type=0
learning_momentum=0.000000
training_algorithm=2
train_error_function=1
train_stop_function=0
cascade_output_change_fraction=0.010000
quickprop_decay=-0.000100
quickprop_mu=1.750000
rprop_increase_factor=1.200000
rprop_decrease_factor=0.500000
rprop_delta_min=0.000000
rprop_delta_max=50.000000
rprop_delta_zero=0.100000
cascade_output_stagnation_epochs=12
cascade_candidate_change_fraction=0.010000
cascade_candidate_stagnation_epochs=12
cascade_max_out_epochs=150
cascade_min_out_epochs=50
cascade_max_cand_epochs=150
cascade_min_cand_epochs=50
cascade_num_candidate_groups=2
bit_fail_limit=3.49999994039535522461e-01
cascade_candidate_limit=1.00000000000000000000e+03
cascade_weight_multiplier=4.00000005960464477539e-01
cascade_activation_functions_count=10
cascade_activation_functions=3 5 7 8 10 11 14 15 16 17 
cascade_activation_steepnesses_count=4
cascade_activation_steepnesses=2.50000000000000000000e-01 5.00000000000000000000e-01 7.50000000000000000000e-01 1.00000000000000000000e+00 
layer_sizes=6 5 2 
scale_included=0
neurons (num_inputs, activation_function, activation_steepness)=(0, 0, 0.00000000000000000000e+00) (0, 0, 0.00000000000000000000e+00) (0, 0, 0.00000000000000000000e+00) (0, 0, 0.00000000000000000000e+00) (0, 0, 0.00000000000000000000e+00) (0, 0, 0.00000000000000000000e+00) (6, 3, 5.00000000000000000000e-01) (6, 3, 5.00000000000000000000e-01) (6, 3, 5.00000000000000000000e-01) (6, 3, 5.00000000000000000000e-01) (0, 3, 0.00000000000000000000e+00) (5, 0, 5.00000000000000000000e-01) (0, 0, 0.00000000000000000000e+00) 
connections (connected_to_neuron, weight)=(0, -1.15754812955856323242e-01) (1, -1.19349867105484008789e-01) (2, -2.98701897263526916504e-02) (3, -3.70309203863143920898e-02) (4, -3.56859147548675537109e-01) (5, 2.12169334292411804199e-01) (0, -1.18018560111522674561e-01) (1, -1.41955167055130004883e-01) (2, 1.05466190725564956665e-02) (3, -4.89592775702476501465e-02) (4, -4.02483731508255004883e-01) (5, 2.69112497568130493164e-01) (0, 1.31756281852722167969e+00) (1, -5.74618482589721679688e+00) (2, 3.59857678413391113281e+00) (3, -2.85804057121276855469e+00) (4, 2.79374718666076660156e+00) (5, 1.85986924171447753906e+00) (0, 1.12553358078002929688e+00) (1, 6.83673286437988281250e+00) (2, -1.24846339225769042969e+00) (3, 1.84393954277038574219e+00) (4, 4.64181995391845703125e+00) (5, 1.67850089073181152344e+00) (6, 1.07987511157989501953e+00) (7, 1.02868282794952392578e+00) (8, 1.15649724006652832031e+00) (9, 1.15257048606872558594e+00) (10, 1.01836061477661132812e+00) 
