FANN_FLO_2.1
num_layers=3
learning_rate=0.500000
connection_rate=1.000000
network_type=0
learning_momentum=0.000000
training_algorithm=2
train_error_function=1
train_stop_function=0
cascade_output_change_fraction=0.010000
quickprop_decay=-0.000100
quickprop_mu=1.750000
rprop_increase_factor=1.200000
rprop_decrease_factor=0.500000
rprop_delta_min=0.000000
rprop_delta_max=50.000000
rprop_delta_zero=0.100000
cascade_output_stagnation_epochs=12
cascade_candidate_change_fraction=0.010000
cascade_candidate_stagnation_epochs=12
cascade_max_out_epochs=150
cascade_min_out_epochs=50
cascade_max_cand_epochs=150
cascade_min_cand_epochs=50
cascade_num_candidate_groups=2
bit_fail_limit=3.49999994039535522461e-01
cascade_candidate_limit=1.00000000000000000000e+03
cascade_weight_multiplier=4.00000005960464477539e-01
cascade_activation_functions_count=10
cascade_activation_functions=3 5 7 8 10 11 14 15 16 17 
cascade_activation_steepnesses_count=4
cascade_activation_steepnesses=2.50000000000000000000e-01 5.00000000000000000000e-01 7.50000000000000000000e-01 1.00000000000000000000e+00 
layer_sizes=6 5 2 
scale_included=0
neurons (num_inputs, activation_function, activation_steepness)=(0, 0, 0.00000000000000000000e+00) (0, 0, 0.00000000000000000000e+00) (0, 0, 0.00000000000000000000e+00) (0, 0, 0.00000000000000000000e+00) (0, 0, 0.00000000000000000000e+00) (0, 0, 0.00000000000000000000e+00) (6, 3, 5.00000000000000000000e-01) (6, 3, 5.00000000000000000000e-01) (6, 3, 5.00000000000000000000e-01) (6, 3, 5.00000000000000000000e-01) (0, 3, 0.00000000000000000000e+00) (5, 0, 5.00000000000000000000e-01) (0, 0, 0.00000000000000000000e+00) 
connections (connected_to_neuron, weight)=(0, 8.96027125418186187744e-03) (1, -1.40692651271820068359e+00) (2, 7.45709538459777832031e-01) (3, 1.93170273303985595703e+00) (4, -3.91905963420867919922e-01) (5, 3.89196634292602539062e-01) (0, -1.24403182417154312134e-02) (1, 2.37252786755561828613e-01) (2, -1.96313392370939254761e-03) (3, -9.03052985668182373047e-01) (4, -3.77115488052368164062e-01) (5, 3.16108167171478271484e-01) (0, -5.83154261112213134766e-02) (1, 1.07465744018554687500e+00) (2, -4.42208617925643920898e-01) (3, -9.76758718490600585938e-01) (4, -2.39474624395370483398e-01) (5, 3.64379465579986572266e-01) (0, 1.28635966777801513672e+00) (1, 3.27257251739501953125e+00) (2, -4.18172359466552734375e+00) (3, -1.08780174255371093750e+01) (4, 1.38135194778442382812e+01) (5, 2.95991039276123046875e+00) (6, 1.09391701221466064453e+00) (7, 1.10185968875885009766e+00) (8, 1.12506020069122314453e+00) (9, 1.19948482513427734375e+00) (10, 1.22710657119750976562e+00) 
