FANN_FLO_2.1
num_layers=3
learning_rate=0.500000
connection_rate=1.000000
network_type=0
learning_momentum=0.000000
training_algorithm=2
train_error_function=1
train_stop_function=0
cascade_output_change_fraction=0.010000
quickprop_decay=-0.000100
quickprop_mu=1.750000
rprop_increase_factor=1.200000
rprop_decrease_factor=0.500000
rprop_delta_min=0.000000
rprop_delta_max=50.000000
rprop_delta_zero=0.100000
cascade_output_stagnation_epochs=12
cascade_candidate_change_fraction=0.010000
cascade_candidate_stagnation_epochs=12
cascade_max_out_epochs=150
cascade_min_out_epochs=50
cascade_max_cand_epochs=150
cascade_min_cand_epochs=50
cascade_num_candidate_groups=2
bit_fail_limit=3.49999994039535522461e-01
cascade_candidate_limit=1.00000000000000000000e+03
cascade_weight_multiplier=4.00000005960464477539e-01
cascade_activation_functions_count=10
cascade_activation_functions=3 5 7 8 10 11 14 15 16 17 
cascade_activation_steepnesses_count=4
cascade_activation_steepnesses=2.50000000000000000000e-01 5.00000000000000000000e-01 7.50000000000000000000e-01 1.00000000000000000000e+00 
layer_sizes=6 5 2 
scale_included=0
neurons (num_inputs, activation_function, activation_steepness)=(0, 0, 0.00000000000000000000e+00) (0, 0, 0.00000000000000000000e+00) (0, 0, 0.00000000000000000000e+00) (0, 0, 0.00000000000000000000e+00) (0, 0, 0.00000000000000000000e+00) (0, 0, 0.00000000000000000000e+00) (6, 3, 5.00000000000000000000e-01) (6, 3, 5.00000000000000000000e-01) (6, 3, 5.00000000000000000000e-01) (6, 3, 5.00000000000000000000e-01) (0, 3, 0.00000000000000000000e+00) (5, 0, 5.00000000000000000000e-01) (0, 0, 0.00000000000000000000e+00) 
connections (connected_to_neuron, weight)=(0, 1.78485822677612304688e+00) (1, 6.27448987960815429688e+00) (2, -7.29519605636596679688e+00) (3, -8.63650131225585937500e+00) (4, -4.11426973342895507812e+00) (5, 2.44321775436401367188e+00) (0, 1.80411684513092041016e+00) (1, 6.93617391586303710938e+00) (2, -7.88972377777099609375e+00) (3, 7.76310014724731445312e+00) (4, -8.71853923797607421875e+00) (5, 2.50545787811279296875e+00) (0, -1.33342981338500976562e-01) (1, -4.37209367752075195312e-01) (2, 6.36633038520812988281e-01) (3, -8.76489803194999694824e-02) (4, -4.39864695072174072266e-01) (5, 2.93731302022933959961e-01) (0, 2.02891802787780761719e+00) (1, 4.48932790756225585938e+00) (2, 8.28233242034912109375e-01) (3, -5.55205583572387695312e+00) (4, -8.18154513835906982422e-01) (5, 2.41532969474792480469e+00) (6, 8.88435125350952148438e-01) (7, 8.66203784942626953125e-01) (8, 7.60885953903198242188e-01) (9, 9.04237270355224609375e-01) (10, 1.30393123626708984375e+00) 
