FANN_FLO_2.1
num_layers=3
learning_rate=0.500000
connection_rate=1.000000
network_type=0
learning_momentum=0.000000
training_algorithm=2
train_error_function=1
train_stop_function=0
cascade_output_change_fraction=0.010000
quickprop_decay=-0.000100
quickprop_mu=1.750000
rprop_increase_factor=1.200000
rprop_decrease_factor=0.500000
rprop_delta_min=0.000000
rprop_delta_max=50.000000
rprop_delta_zero=0.100000
cascade_output_stagnation_epochs=12
cascade_candidate_change_fraction=0.010000
cascade_candidate_stagnation_epochs=12
cascade_max_out_epochs=150
cascade_min_out_epochs=50
cascade_max_cand_epochs=150
cascade_min_cand_epochs=50
cascade_num_candidate_groups=2
bit_fail_limit=3.49999994039535522461e-01
cascade_candidate_limit=1.00000000000000000000e+03
cascade_weight_multiplier=4.00000005960464477539e-01
cascade_activation_functions_count=10
cascade_activation_functions=3 5 7 8 10 11 14 15 16 17 
cascade_activation_steepnesses_count=4
cascade_activation_steepnesses=2.50000000000000000000e-01 5.00000000000000000000e-01 7.50000000000000000000e-01 1.00000000000000000000e+00 
layer_sizes=10 5 2 
scale_included=0
neurons (num_inputs, activation_function, activation_steepness)=(0, 0, 0.00000000000000000000e+00) (0, 0, 0.00000000000000000000e+00) (0, 0, 0.00000000000000000000e+00) (0, 0, 0.00000000000000000000e+00) (0, 0, 0.00000000000000000000e+00) (0, 0, 0.00000000000000000000e+00) (0, 0, 0.00000000000000000000e+00) (0, 0, 0.00000000000000000000e+00) (0, 0, 0.00000000000000000000e+00) (0, 0, 0.00000000000000000000e+00) (10, 3, 5.00000000000000000000e-01) (10, 3, 5.00000000000000000000e-01) (10, 3, 5.00000000000000000000e-01) (10, 3, 5.00000000000000000000e-01) (0, 3, 0.00000000000000000000e+00) (5, 3, 5.00000000000000000000e-01) (0, 3, 0.00000000000000000000e+00) 
connections (connected_to_neuron, weight)=(0, -3.88353919982910156250e+00) (1, 3.41103005409240722656e+00) (2, 8.98886394500732421875e+00) (3, -1.23144369125366210938e+01) (4, -1.42800462245941162109e+00) (5, 1.52897949218750000000e+01) (6, -9.53461265563964843750e+00) (7, -5.31969428062438964844e-01) (8, 4.71241569519042968750e+00) (9, 6.11160248517990112305e-02) (0, 4.18818664550781250000e+00) (1, -3.38635396957397460938e+00) (2, -4.35528612136840820312e+00) (3, 1.83940410614013671875e+01) (4, -1.42510390281677246094e+00) (5, 5.21517324447631835938e+00) (6, 1.00164585113525390625e+01) (7, 2.69540905952453613281e+00) (8, -2.14080184698104858398e-01) (9, -1.12016382217407226562e+01) (0, -9.04420471191406250000e+00) (1, -1.01289653778076171875e+01) (2, 2.59303450584411621094e-02) (3, -1.27760477066040039062e+01) (4, -2.85667777061462402344e+00) (5, 1.09452438354492187500e+01) (6, -1.90987396240234375000e+00) (7, 1.03063659667968750000e+01) (8, 9.92087173461914062500e+00) (9, -1.10327732563018798828e+00) (0, 1.64990305900573730469e+00) (1, 1.22641534805297851562e+01) (2, 6.67159748077392578125e+00) (3, -6.56746721267700195312e+00) (4, -1.86536157131195068359e+00) (5, 5.22800350189208984375e+00) (6, -9.64300918579101562500e+00) (7, -9.29150772094726562500e+00) (8, -3.24577426910400390625e+00) (9, -8.20391237735748291016e-01) (10, -3.89800906181335449219e+00) (11, 2.33830595016479492188e+00) (12, 5.45305585861206054688e+00) (13, 6.24524164199829101562e+00) (14, 1.03624530136585235596e-01) 
