FANN_FLO_2.1
num_layers=3
learning_rate=0.500000
connection_rate=1.000000
network_type=0
learning_momentum=0.000000
training_algorithm=2
train_error_function=1
train_stop_function=0
cascade_output_change_fraction=0.010000
quickprop_decay=-0.000100
quickprop_mu=1.750000
rprop_increase_factor=1.200000
rprop_decrease_factor=0.500000
rprop_delta_min=0.000000
rprop_delta_max=50.000000
rprop_delta_zero=0.100000
cascade_output_stagnation_epochs=12
cascade_candidate_change_fraction=0.010000
cascade_candidate_stagnation_epochs=12
cascade_max_out_epochs=150
cascade_min_out_epochs=50
cascade_max_cand_epochs=150
cascade_min_cand_epochs=50
cascade_num_candidate_groups=2
bit_fail_limit=3.49999994039535522461e-01
cascade_candidate_limit=1.00000000000000000000e+03
cascade_weight_multiplier=4.00000005960464477539e-01
cascade_activation_functions_count=10
cascade_activation_functions=3 5 7 8 10 11 14 15 16 17 
cascade_activation_steepnesses_count=4
cascade_activation_steepnesses=2.50000000000000000000e-01 5.00000000000000000000e-01 7.50000000000000000000e-01 1.00000000000000000000e+00 
layer_sizes=10 3 2 
scale_included=0
neurons (num_inputs, activation_function, activation_steepness)=(0, 0, 0.00000000000000000000e+00) (0, 0, 0.00000000000000000000e+00) (0, 0, 0.00000000000000000000e+00) (0, 0, 0.00000000000000000000e+00) (0, 0, 0.00000000000000000000e+00) (0, 0, 0.00000000000000000000e+00) (0, 0, 0.00000000000000000000e+00) (0, 0, 0.00000000000000000000e+00) (0, 0, 0.00000000000000000000e+00) (0, 0, 0.00000000000000000000e+00) (10, 3, 5.00000000000000000000e-01) (10, 3, 5.00000000000000000000e-01) (0, 3, 0.00000000000000000000e+00) (3, 3, 5.00000000000000000000e-01) (0, 3, 0.00000000000000000000e+00) 
connections (connected_to_neuron, weight)=(0, 3.06002926826477050781e+00) (1, 9.09491348266601562500e+00) (2, 5.30155944824218750000e+00) (3, -3.84792780876159667969e+00) (4, -6.31713747978210449219e-01) (5, 5.09724080562591552734e-01) (6, -7.65032482147216796875e+00) (7, -8.82388019561767578125e+00) (8, -4.59034633636474609375e+00) (9, 5.41383624076843261719e-02) (0, -3.69129419326782226562e-01) (1, -8.33367443084716796875e+00) (2, -4.46621274948120117188e+00) (3, 7.57131576538085937500e+00) (4, 4.18824481964111328125e+00) (5, 2.89102697372436523438e+00) (6, 1.04413404464721679688e+01) (7, 1.08781826496124267578e+00) (8, 8.12830257415771484375e+00) (9, -6.87094640731811523438e+00) (10, 6.17709589004516601562e+00) (11, 3.21869540214538574219e+00) (12, -2.05830359458923339844e+00) 
