FANN_FLO_2.1
num_layers=3
learning_rate=0.500000
connection_rate=1.000000
network_type=0
learning_momentum=0.000000
training_algorithm=2
train_error_function=1
train_stop_function=0
cascade_output_change_fraction=0.010000
quickprop_decay=-0.000100
quickprop_mu=1.750000
rprop_increase_factor=1.200000
rprop_decrease_factor=0.500000
rprop_delta_min=0.000000
rprop_delta_max=50.000000
rprop_delta_zero=0.100000
cascade_output_stagnation_epochs=12
cascade_candidate_change_fraction=0.010000
cascade_candidate_stagnation_epochs=12
cascade_max_out_epochs=150
cascade_min_out_epochs=50
cascade_max_cand_epochs=150
cascade_min_cand_epochs=50
cascade_num_candidate_groups=2
bit_fail_limit=3.49999994039535522461e-01
cascade_candidate_limit=1.00000000000000000000e+03
cascade_weight_multiplier=4.00000005960464477539e-01
cascade_activation_functions_count=10
cascade_activation_functions=3 5 7 8 10 11 14 15 16 17 
cascade_activation_steepnesses_count=4
cascade_activation_steepnesses=2.50000000000000000000e-01 5.00000000000000000000e-01 7.50000000000000000000e-01 1.00000000000000000000e+00 
layer_sizes=6 5 2 
scale_included=0
neurons (num_inputs, activation_function, activation_steepness)=(0, 0, 0.00000000000000000000e+00) (0, 0, 0.00000000000000000000e+00) (0, 0, 0.00000000000000000000e+00) (0, 0, 0.00000000000000000000e+00) (0, 0, 0.00000000000000000000e+00) (0, 0, 0.00000000000000000000e+00) (6, 3, 5.00000000000000000000e-01) (6, 3, 5.00000000000000000000e-01) (6, 3, 5.00000000000000000000e-01) (6, 3, 5.00000000000000000000e-01) (0, 3, 0.00000000000000000000e+00) (5, 0, 5.00000000000000000000e-01) (0, 0, 0.00000000000000000000e+00) 
connections (connected_to_neuron, weight)=(0, 1.13681936264038085938e+00) (1, 1.13558411598205566406e+00) (2, -5.03316211700439453125e+00) (3, 9.62843179702758789062e-01) (4, 1.08555250167846679688e+01) (5, 1.89921665191650390625e+00) (0, -3.46951425075531005859e-01) (1, -5.96180148422718048096e-02) (2, -3.76193821430206298828e-01) (3, -4.97404545545578002930e-01) (4, -5.42021512985229492188e-01) (5, 2.35823780298233032227e-01) (0, 9.16125535964965820312e-01) (1, 3.36067771911621093750e+00) (2, -4.22468096017837524414e-01) (3, 1.61493217945098876953e+00) (4, -6.77437114715576171875e+00) (5, 2.02940273284912109375e+00) (0, 1.14705967903137207031e+00) (1, -3.13357543945312500000e+00) (2, 8.47589969635009765625e+00) (3, 1.07221949100494384766e+00) (4, 2.59160089492797851562e+00) (5, 1.85633659362792968750e+00) (6, 9.77103888988494873047e-01) (7, 8.87976288795471191406e-01) (8, 1.00590169429779052734e+00) (9, 1.03300011157989501953e+00) (10, 1.04290056228637695312e+00) 
