FANN_FLO_2.1
num_layers=3
learning_rate=0.500000
connection_rate=1.000000
network_type=0
learning_momentum=0.000000
training_algorithm=2
train_error_function=1
train_stop_function=0
cascade_output_change_fraction=0.010000
quickprop_decay=-0.000100
quickprop_mu=1.750000
rprop_increase_factor=1.200000
rprop_decrease_factor=0.500000
rprop_delta_min=0.000000
rprop_delta_max=50.000000
rprop_delta_zero=0.100000
cascade_output_stagnation_epochs=12
cascade_candidate_change_fraction=0.010000
cascade_candidate_stagnation_epochs=12
cascade_max_out_epochs=150
cascade_min_out_epochs=50
cascade_max_cand_epochs=150
cascade_min_cand_epochs=50
cascade_num_candidate_groups=2
bit_fail_limit=3.49999994039535522461e-01
cascade_candidate_limit=1.00000000000000000000e+03
cascade_weight_multiplier=4.00000005960464477539e-01
cascade_activation_functions_count=10
cascade_activation_functions=3 5 7 8 10 11 14 15 16 17 
cascade_activation_steepnesses_count=4
cascade_activation_steepnesses=2.50000000000000000000e-01 5.00000000000000000000e-01 7.50000000000000000000e-01 1.00000000000000000000e+00 
layer_sizes=10 3 2 
scale_included=0
neurons (num_inputs, activation_function, activation_steepness)=(0, 0, 0.00000000000000000000e+00) (0, 0, 0.00000000000000000000e+00) (0, 0, 0.00000000000000000000e+00) (0, 0, 0.00000000000000000000e+00) (0, 0, 0.00000000000000000000e+00) (0, 0, 0.00000000000000000000e+00) (0, 0, 0.00000000000000000000e+00) (0, 0, 0.00000000000000000000e+00) (0, 0, 0.00000000000000000000e+00) (0, 0, 0.00000000000000000000e+00) (10, 3, 5.00000000000000000000e-01) (10, 3, 5.00000000000000000000e-01) (0, 3, 0.00000000000000000000e+00) (3, 3, 5.00000000000000000000e-01) (0, 3, 0.00000000000000000000e+00) 
connections (connected_to_neuron, weight)=(0, 5.42681336402893066406e-01) (1, 1.39642648696899414062e+01) (2, -1.49162597656250000000e+01) (3, 1.46559543609619140625e+01) (4, -7.62481975555419921875e+00) (5, 1.22249383926391601562e+01) (6, -9.55586719512939453125e+00) (7, -6.53918027877807617188e-01) (8, 2.27678146362304687500e+01) (9, -5.82491827011108398438e+00) (0, -5.12046861648559570312e+00) (1, 1.22660951614379882812e+01) (2, 7.05657815933227539062e+00) (3, 1.12673568725585937500e+01) (4, -5.53340244293212890625e+00) (5, 2.68885684013366699219e+00) (6, 1.03767013549804687500e+00) (7, 9.36296176910400390625e+00) (8, 3.38930392265319824219e+00) (9, -1.13649663925170898438e+01) (10, 8.61662089824676513672e-01) (11, 1.43548369407653808594e+00) (12, -9.47784602642059326172e-01) 
