FANN_FLO_2.1
num_layers=3
learning_rate=0.500000
connection_rate=1.000000
network_type=0
learning_momentum=0.000000
training_algorithm=2
train_error_function=1
train_stop_function=0
cascade_output_change_fraction=0.010000
quickprop_decay=-0.000100
quickprop_mu=1.750000
rprop_increase_factor=1.200000
rprop_decrease_factor=0.500000
rprop_delta_min=0.000000
rprop_delta_max=50.000000
rprop_delta_zero=0.100000
cascade_output_stagnation_epochs=12
cascade_candidate_change_fraction=0.010000
cascade_candidate_stagnation_epochs=12
cascade_max_out_epochs=150
cascade_min_out_epochs=50
cascade_max_cand_epochs=150
cascade_min_cand_epochs=50
cascade_num_candidate_groups=2
bit_fail_limit=3.49999994039535522461e-01
cascade_candidate_limit=1.00000000000000000000e+03
cascade_weight_multiplier=4.00000005960464477539e-01
cascade_activation_functions_count=10
cascade_activation_functions=3 5 7 8 10 11 14 15 16 17 
cascade_activation_steepnesses_count=4
cascade_activation_steepnesses=2.50000000000000000000e-01 5.00000000000000000000e-01 7.50000000000000000000e-01 1.00000000000000000000e+00 
layer_sizes=10 3 2 
scale_included=0
neurons (num_inputs, activation_function, activation_steepness)=(0, 0, 0.00000000000000000000e+00) (0, 0, 0.00000000000000000000e+00) (0, 0, 0.00000000000000000000e+00) (0, 0, 0.00000000000000000000e+00) (0, 0, 0.00000000000000000000e+00) (0, 0, 0.00000000000000000000e+00) (0, 0, 0.00000000000000000000e+00) (0, 0, 0.00000000000000000000e+00) (0, 0, 0.00000000000000000000e+00) (0, 0, 0.00000000000000000000e+00) (10, 3, 5.00000000000000000000e-01) (10, 3, 5.00000000000000000000e-01) (0, 3, 0.00000000000000000000e+00) (3, 3, 5.00000000000000000000e-01) (0, 3, 0.00000000000000000000e+00) 
connections (connected_to_neuron, weight)=(0, -1.48282849788665771484e+00) (1, 2.47496545314788818359e-01) (2, 2.81014881134033203125e+01) (3, 4.96769571304321289062e+00) (4, -2.00482387542724609375e+01) (5, -7.83151292800903320312e+00) (6, 6.97498703002929687500e+00) (7, 8.57813930511474609375e+00) (8, 3.95731687545776367188e+00) (9, -7.07627630233764648438e+00) (0, 4.62079572677612304688e+00) (1, 8.08745765686035156250e+00) (2, -9.40600776672363281250e+00) (3, 1.03866271972656250000e+01) (4, -1.00431404113769531250e+01) (5, 1.48593225479125976562e+01) (6, 1.92102229595184326172e+00) (7, 3.64756035804748535156e+00) (8, 6.45992326736450195312e+00) (9, -8.75636672973632812500e+00) (10, 9.23206627368927001953e-01) (11, 1.44716536998748779297e+00) (12, -8.29048514366149902344e-01) 
