FANN_FLO_2.1
num_layers=3
learning_rate=0.500000
connection_rate=1.000000
network_type=0
learning_momentum=0.000000
training_algorithm=2
train_error_function=1
train_stop_function=0
cascade_output_change_fraction=0.010000
quickprop_decay=-0.000100
quickprop_mu=1.750000
rprop_increase_factor=1.200000
rprop_decrease_factor=0.500000
rprop_delta_min=0.000000
rprop_delta_max=50.000000
rprop_delta_zero=0.100000
cascade_output_stagnation_epochs=12
cascade_candidate_change_fraction=0.010000
cascade_candidate_stagnation_epochs=12
cascade_max_out_epochs=150
cascade_min_out_epochs=50
cascade_max_cand_epochs=150
cascade_min_cand_epochs=50
cascade_num_candidate_groups=2
bit_fail_limit=3.49999994039535522461e-01
cascade_candidate_limit=1.00000000000000000000e+03
cascade_weight_multiplier=4.00000005960464477539e-01
cascade_activation_functions_count=10
cascade_activation_functions=3 5 7 8 10 11 14 15 16 17 
cascade_activation_steepnesses_count=4
cascade_activation_steepnesses=2.50000000000000000000e-01 5.00000000000000000000e-01 7.50000000000000000000e-01 1.00000000000000000000e+00 
layer_sizes=10 3 2 
scale_included=0
neurons (num_inputs, activation_function, activation_steepness)=(0, 0, 0.00000000000000000000e+00) (0, 0, 0.00000000000000000000e+00) (0, 0, 0.00000000000000000000e+00) (0, 0, 0.00000000000000000000e+00) (0, 0, 0.00000000000000000000e+00) (0, 0, 0.00000000000000000000e+00) (0, 0, 0.00000000000000000000e+00) (0, 0, 0.00000000000000000000e+00) (0, 0, 0.00000000000000000000e+00) (0, 0, 0.00000000000000000000e+00) (10, 3, 5.00000000000000000000e-01) (10, 3, 5.00000000000000000000e-01) (0, 3, 0.00000000000000000000e+00) (3, 3, 5.00000000000000000000e-01) (0, 3, 0.00000000000000000000e+00) 
connections (connected_to_neuron, weight)=(0, -4.89204692840576171875e+00) (1, 1.37717401981353759766e+00) (2, 4.57675457000732421875e+00) (3, -1.45596485137939453125e+01) (4, 7.83292114734649658203e-01) (5, 1.22266674041748046875e+01) (6, -5.74358081817626953125e+00) (7, 1.32992160320281982422e+00) (8, 5.83191919326782226562e+00) (9, -3.24004077911376953125e+00) (0, 1.47192049026489257812e+01) (1, -7.93574142456054687500e+00) (2, -7.63191270828247070312e+00) (3, 1.76613159179687500000e+01) (4, 1.85556864738464355469e+00) (5, -2.12047348022460937500e+01) (6, 1.16840877532958984375e+01) (7, 1.11105430126190185547e+00) (8, -1.05138301849365234375e+01) (9, -3.55789518356323242188e+00) (10, 4.18609046936035156250e+00) (11, 3.26598596572875976562e+00) (12, -4.20395582914352416992e-01) 
