FANN_FLO_2.1
num_layers=3
learning_rate=0.500000
connection_rate=1.000000
network_type=0
learning_momentum=0.000000
training_algorithm=2
train_error_function=1
train_stop_function=0
cascade_output_change_fraction=0.010000
quickprop_decay=-0.000100
quickprop_mu=1.750000
rprop_increase_factor=1.200000
rprop_decrease_factor=0.500000
rprop_delta_min=0.000000
rprop_delta_max=50.000000
rprop_delta_zero=0.100000
cascade_output_stagnation_epochs=12
cascade_candidate_change_fraction=0.010000
cascade_candidate_stagnation_epochs=12
cascade_max_out_epochs=150
cascade_min_out_epochs=50
cascade_max_cand_epochs=150
cascade_min_cand_epochs=50
cascade_num_candidate_groups=2
bit_fail_limit=3.49999994039535522461e-01
cascade_candidate_limit=1.00000000000000000000e+03
cascade_weight_multiplier=4.00000005960464477539e-01
cascade_activation_functions_count=10
cascade_activation_functions=3 5 7 8 10 11 14 15 16 17 
cascade_activation_steepnesses_count=4
cascade_activation_steepnesses=2.50000000000000000000e-01 5.00000000000000000000e-01 7.50000000000000000000e-01 1.00000000000000000000e+00 
layer_sizes=6 5 2 
scale_included=0
neurons (num_inputs, activation_function, activation_steepness)=(0, 0, 0.00000000000000000000e+00) (0, 0, 0.00000000000000000000e+00) (0, 0, 0.00000000000000000000e+00) (0, 0, 0.00000000000000000000e+00) (0, 0, 0.00000000000000000000e+00) (0, 0, 0.00000000000000000000e+00) (6, 3, 5.00000000000000000000e-01) (6, 3, 5.00000000000000000000e-01) (6, 3, 5.00000000000000000000e-01) (6, 3, 5.00000000000000000000e-01) (0, 3, 0.00000000000000000000e+00) (5, 0, 5.00000000000000000000e-01) (0, 0, 0.00000000000000000000e+00) 
connections (connected_to_neuron, weight)=(0, 7.70147323608398437500e-01) (1, -3.85285586118698120117e-01) (2, -2.00202636718750000000e+01) (3, 6.32325935363769531250e+00) (4, 1.44097948074340820312e+01) (5, 5.99952793121337890625e+00) (0, 7.29071050882339477539e-02) (1, -2.28977417945861816406e+00) (2, 8.03390920162200927734e-01) (3, 3.85148614645004272461e-01) (4, -1.34368622303009033203e+00) (5, 5.11316955089569091797e-01) (0, 7.99991935491561889648e-02) (1, 1.95572721958160400391e+00) (2, -7.24122405052185058594e-01) (3, -4.63396310806274414062e-01) (4, 4.84743475914001464844e-01) (5, 3.92088770866394042969e-01) (0, -1.58142104744911193848e-01) (1, 2.03650861978530883789e-01) (2, 1.85310602188110351562e-01) (3, 5.28357736766338348389e-03) (4, 3.37746679782867431641e-01) (5, 4.16402965784072875977e-01) (6, 1.25160944461822509766e+00) (7, 1.05746328830718994141e+00) (8, 1.06602168083190917969e+00) (9, 1.06487321853637695312e+00) (10, 1.16015923023223876953e+00) 
