FANN_FLO_2.1
num_layers=3
learning_rate=0.500000
connection_rate=1.000000
network_type=0
learning_momentum=0.000000
training_algorithm=2
train_error_function=1
train_stop_function=0
cascade_output_change_fraction=0.010000
quickprop_decay=-0.000100
quickprop_mu=1.750000
rprop_increase_factor=1.200000
rprop_decrease_factor=0.500000
rprop_delta_min=0.000000
rprop_delta_max=50.000000
rprop_delta_zero=0.100000
cascade_output_stagnation_epochs=12
cascade_candidate_change_fraction=0.010000
cascade_candidate_stagnation_epochs=12
cascade_max_out_epochs=150
cascade_min_out_epochs=50
cascade_max_cand_epochs=150
cascade_min_cand_epochs=50
cascade_num_candidate_groups=2
bit_fail_limit=3.49999994039535522461e-01
cascade_candidate_limit=1.00000000000000000000e+03
cascade_weight_multiplier=4.00000005960464477539e-01
cascade_activation_functions_count=10
cascade_activation_functions=3 5 7 8 10 11 14 15 16 17 
cascade_activation_steepnesses_count=4
cascade_activation_steepnesses=2.50000000000000000000e-01 5.00000000000000000000e-01 7.50000000000000000000e-01 1.00000000000000000000e+00 
layer_sizes=10 3 2 
scale_included=0
neurons (num_inputs, activation_function, activation_steepness)=(0, 0, 0.00000000000000000000e+00) (0, 0, 0.00000000000000000000e+00) (0, 0, 0.00000000000000000000e+00) (0, 0, 0.00000000000000000000e+00) (0, 0, 0.00000000000000000000e+00) (0, 0, 0.00000000000000000000e+00) (0, 0, 0.00000000000000000000e+00) (0, 0, 0.00000000000000000000e+00) (0, 0, 0.00000000000000000000e+00) (0, 0, 0.00000000000000000000e+00) (10, 3, 5.00000000000000000000e-01) (10, 3, 5.00000000000000000000e-01) (0, 3, 0.00000000000000000000e+00) (3, 3, 5.00000000000000000000e-01) (0, 3, 0.00000000000000000000e+00) 
connections (connected_to_neuron, weight)=(0, 5.04099464416503906250e+00) (1, 1.99768352508544921875e+00) (2, 1.98917949199676513672e+00) (3, 8.59124183654785156250e+00) (4, -1.18114585876464843750e+01) (5, 2.08329792022705078125e+01) (6, 5.83490896224975585938e+00) (7, 1.26281547546386718750e+01) (8, -1.21464719772338867188e+01) (9, -1.04322376251220703125e+01) (0, 3.17312669754028320312e+00) (1, -1.17683362960815429688e+00) (2, 1.40246140956878662109e+00) (3, 1.60998039245605468750e+01) (4, -3.92023420333862304688e+00) (5, 1.83985786437988281250e+01) (6, 1.08977389335632324219e+00) (7, 6.73446512222290039062e+00) (8, -5.47995424270629882812e+00) (9, -1.09924716949462890625e+01) (10, 1.24942541122436523438e+00) (11, 1.02498508989810943604e-01) (12, 4.12013940513134002686e-02) 
