FANN_FLO_2.1
num_layers=3
learning_rate=0.500000
connection_rate=1.000000
network_type=0
learning_momentum=0.000000
training_algorithm=2
train_error_function=1
train_stop_function=0
cascade_output_change_fraction=0.010000
quickprop_decay=-0.000100
quickprop_mu=1.750000
rprop_increase_factor=1.200000
rprop_decrease_factor=0.500000
rprop_delta_min=0.000000
rprop_delta_max=50.000000
rprop_delta_zero=0.100000
cascade_output_stagnation_epochs=12
cascade_candidate_change_fraction=0.010000
cascade_candidate_stagnation_epochs=12
cascade_max_out_epochs=150
cascade_min_out_epochs=50
cascade_max_cand_epochs=150
cascade_min_cand_epochs=50
cascade_num_candidate_groups=2
bit_fail_limit=3.49999994039535522461e-01
cascade_candidate_limit=1.00000000000000000000e+03
cascade_weight_multiplier=4.00000005960464477539e-01
cascade_activation_functions_count=10
cascade_activation_functions=3 5 7 8 10 11 14 15 16 17 
cascade_activation_steepnesses_count=4
cascade_activation_steepnesses=2.50000000000000000000e-01 5.00000000000000000000e-01 7.50000000000000000000e-01 1.00000000000000000000e+00 
layer_sizes=6 5 2 
scale_included=0
neurons (num_inputs, activation_function, activation_steepness)=(0, 0, 0.00000000000000000000e+00) (0, 0, 0.00000000000000000000e+00) (0, 0, 0.00000000000000000000e+00) (0, 0, 0.00000000000000000000e+00) (0, 0, 0.00000000000000000000e+00) (0, 0, 0.00000000000000000000e+00) (6, 3, 5.00000000000000000000e-01) (6, 3, 5.00000000000000000000e-01) (6, 3, 5.00000000000000000000e-01) (6, 3, 5.00000000000000000000e-01) (0, 3, 0.00000000000000000000e+00) (5, 0, 5.00000000000000000000e-01) (0, 0, 0.00000000000000000000e+00) 
connections (connected_to_neuron, weight)=(0, 1.19309508800506591797e+00) (1, -5.45415353775024414062e+00) (2, -9.69564056396484375000e+00) (3, 4.17482757568359375000e+00) (4, -2.23457288742065429688e+00) (5, 3.14352416992187500000e+00) (0, 9.30948555469512939453e-02) (1, 3.18008244037628173828e-01) (2, -2.17714607715606689453e-01) (3, -1.80291235446929931641e-01) (4, 9.21645164489746093750e-02) (5, 2.24309638142585754395e-01) (0, 1.09625828266143798828e+00) (1, -5.74075460433959960938e+00) (2, 7.50817441940307617188e+00) (3, 1.39277076721191406250e+00) (4, 8.54896754026412963867e-02) (5, 2.31616640090942382812e+00) (0, -2.00842231512069702148e-01) (1, 2.81489759683609008789e-01) (2, -1.53901860117912292480e-01) (3, -1.68051034212112426758e-01) (4, 1.05384930968284606934e-01) (5, 2.16769203543663024902e-01) (6, 1.11184012889862060547e+00) (7, 9.71738457679748535156e-01) (8, 1.13035595417022705078e+00) (9, 1.02652394771575927734e+00) (10, 1.07160174846649169922e+00) 
