FANN_FLO_2.1
num_layers=3
learning_rate=0.500000
connection_rate=1.000000
network_type=0
learning_momentum=0.000000
training_algorithm=2
train_error_function=1
train_stop_function=0
cascade_output_change_fraction=0.010000
quickprop_decay=-0.000100
quickprop_mu=1.750000
rprop_increase_factor=1.200000
rprop_decrease_factor=0.500000
rprop_delta_min=0.000000
rprop_delta_max=50.000000
rprop_delta_zero=0.100000
cascade_output_stagnation_epochs=12
cascade_candidate_change_fraction=0.010000
cascade_candidate_stagnation_epochs=12
cascade_max_out_epochs=150
cascade_min_out_epochs=50
cascade_max_cand_epochs=150
cascade_min_cand_epochs=50
cascade_num_candidate_groups=2
bit_fail_limit=3.49999994039535522461e-01
cascade_candidate_limit=1.00000000000000000000e+03
cascade_weight_multiplier=4.00000005960464477539e-01
cascade_activation_functions_count=10
cascade_activation_functions=3 5 7 8 10 11 14 15 16 17 
cascade_activation_steepnesses_count=4
cascade_activation_steepnesses=2.50000000000000000000e-01 5.00000000000000000000e-01 7.50000000000000000000e-01 1.00000000000000000000e+00 
layer_sizes=10 3 2 
scale_included=0
neurons (num_inputs, activation_function, activation_steepness)=(0, 0, 0.00000000000000000000e+00) (0, 0, 0.00000000000000000000e+00) (0, 0, 0.00000000000000000000e+00) (0, 0, 0.00000000000000000000e+00) (0, 0, 0.00000000000000000000e+00) (0, 0, 0.00000000000000000000e+00) (0, 0, 0.00000000000000000000e+00) (0, 0, 0.00000000000000000000e+00) (0, 0, 0.00000000000000000000e+00) (0, 0, 0.00000000000000000000e+00) (10, 3, 5.00000000000000000000e-01) (10, 3, 5.00000000000000000000e-01) (0, 3, 0.00000000000000000000e+00) (3, 3, 5.00000000000000000000e-01) (0, 3, 0.00000000000000000000e+00) 
connections (connected_to_neuron, weight)=(0, 9.98794746398925781250e+00) (1, 1.69374823570251464844e+00) (2, 5.64928293228149414062e+00) (3, 2.38095712661743164062e+00) (4, 9.58122730255126953125e-01) (5, 2.42939925193786621094e+00) (6, 4.21935749053955078125e+00) (7, 4.13079166412353515625e+00) (8, -6.04517650604248046875e+00) (9, -6.84220123291015625000e+00) (0, 2.64600830078125000000e+01) (1, 2.96759986877441406250e+00) (2, 1.24724650382995605469e+00) (3, 6.63953399658203125000e+00) (4, -1.85108971595764160156e+00) (5, -6.55039834976196289062e+00) (6, 2.49830275774002075195e-01) (7, 4.25954401493072509766e-01) (8, -1.41925182342529296875e+01) (9, -1.15854048728942871094e+00) (10, 3.51609230041503906250e+00) (11, -2.98502945899963378906e+00) (12, 8.44919562339782714844e-01) 
