FANN_FLO_2.1
num_layers=3
learning_rate=0.500000
connection_rate=1.000000
network_type=0
learning_momentum=0.000000
training_algorithm=2
train_error_function=1
train_stop_function=0
cascade_output_change_fraction=0.010000
quickprop_decay=-0.000100
quickprop_mu=1.750000
rprop_increase_factor=1.200000
rprop_decrease_factor=0.500000
rprop_delta_min=0.000000
rprop_delta_max=50.000000
rprop_delta_zero=0.100000
cascade_output_stagnation_epochs=12
cascade_candidate_change_fraction=0.010000
cascade_candidate_stagnation_epochs=12
cascade_max_out_epochs=150
cascade_min_out_epochs=50
cascade_max_cand_epochs=150
cascade_min_cand_epochs=50
cascade_num_candidate_groups=2
bit_fail_limit=3.49999994039535522461e-01
cascade_candidate_limit=1.00000000000000000000e+03
cascade_weight_multiplier=4.00000005960464477539e-01
cascade_activation_functions_count=10
cascade_activation_functions=3 5 7 8 10 11 14 15 16 17 
cascade_activation_steepnesses_count=4
cascade_activation_steepnesses=2.50000000000000000000e-01 5.00000000000000000000e-01 7.50000000000000000000e-01 1.00000000000000000000e+00 
layer_sizes=10 3 2 
scale_included=0
neurons (num_inputs, activation_function, activation_steepness)=(0, 0, 0.00000000000000000000e+00) (0, 0, 0.00000000000000000000e+00) (0, 0, 0.00000000000000000000e+00) (0, 0, 0.00000000000000000000e+00) (0, 0, 0.00000000000000000000e+00) (0, 0, 0.00000000000000000000e+00) (0, 0, 0.00000000000000000000e+00) (0, 0, 0.00000000000000000000e+00) (0, 0, 0.00000000000000000000e+00) (0, 0, 0.00000000000000000000e+00) (10, 3, 5.00000000000000000000e-01) (10, 3, 5.00000000000000000000e-01) (0, 3, 0.00000000000000000000e+00) (3, 3, 5.00000000000000000000e-01) (0, 3, 0.00000000000000000000e+00) 
connections (connected_to_neuron, weight)=(0, 7.34603309631347656250e+00) (1, -2.04863524436950683594e+00) (2, -2.23041648864746093750e+01) (3, 1.90827713012695312500e+01) (4, -5.04939699172973632812e+00) (5, 3.61619901657104492188e+00) (6, 1.40795307159423828125e+01) (7, 9.57631015777587890625e+00) (8, 2.52390336990356445312e+00) (9, -9.11213970184326171875e+00) (0, -1.73128104209899902344e+00) (1, 4.66120767593383789062e+00) (2, 8.80053520202636718750e+00) (3, -8.63126850128173828125e+00) (4, 1.70055791735649108887e-01) (5, 6.70867776870727539062e+00) (6, -9.48250484466552734375e+00) (7, -4.18299961090087890625e+00) (8, 3.03959220647811889648e-01) (9, -1.94116938114166259766e+00) (10, 2.42840695381164550781e+00) (11, 6.61311912536621093750e+00) (12, -1.33214437961578369141e+00) 
