FANN_FLO_2.1
num_layers=3
learning_rate=0.500000
connection_rate=1.000000
network_type=0
learning_momentum=0.000000
training_algorithm=2
train_error_function=1
train_stop_function=0
cascade_output_change_fraction=0.010000
quickprop_decay=-0.000100
quickprop_mu=1.750000
rprop_increase_factor=1.200000
rprop_decrease_factor=0.500000
rprop_delta_min=0.000000
rprop_delta_max=50.000000
rprop_delta_zero=0.100000
cascade_output_stagnation_epochs=12
cascade_candidate_change_fraction=0.010000
cascade_candidate_stagnation_epochs=12
cascade_max_out_epochs=150
cascade_min_out_epochs=50
cascade_max_cand_epochs=150
cascade_min_cand_epochs=50
cascade_num_candidate_groups=2
bit_fail_limit=3.49999994039535522461e-01
cascade_candidate_limit=1.00000000000000000000e+03
cascade_weight_multiplier=4.00000005960464477539e-01
cascade_activation_functions_count=10
cascade_activation_functions=3 5 7 8 10 11 14 15 16 17 
cascade_activation_steepnesses_count=4
cascade_activation_steepnesses=2.50000000000000000000e-01 5.00000000000000000000e-01 7.50000000000000000000e-01 1.00000000000000000000e+00 
layer_sizes=10 3 2 
scale_included=0
neurons (num_inputs, activation_function, activation_steepness)=(0, 0, 0.00000000000000000000e+00) (0, 0, 0.00000000000000000000e+00) (0, 0, 0.00000000000000000000e+00) (0, 0, 0.00000000000000000000e+00) (0, 0, 0.00000000000000000000e+00) (0, 0, 0.00000000000000000000e+00) (0, 0, 0.00000000000000000000e+00) (0, 0, 0.00000000000000000000e+00) (0, 0, 0.00000000000000000000e+00) (0, 0, 0.00000000000000000000e+00) (10, 3, 5.00000000000000000000e-01) (10, 3, 5.00000000000000000000e-01) (0, 3, 0.00000000000000000000e+00) (3, 3, 5.00000000000000000000e-01) (0, 3, 0.00000000000000000000e+00) 
connections (connected_to_neuron, weight)=(0, 1.18238449096679687500e+00) (1, 7.35051536560058593750e+00) (2, 5.98158502578735351562e+00) (3, -4.03658294677734375000e+00) (4, -2.74041444063186645508e-01) (5, 6.74740934371948242188e+00) (6, -8.50745487213134765625e+00) (7, -6.11148929595947265625e+00) (8, 1.64208024740219116211e-01) (9, -3.68067836761474609375e+00) (0, 1.77513253688812255859e+00) (1, -1.54014701843261718750e+01) (2, -1.36526861190795898438e+01) (3, 5.18479251861572265625e+00) (4, -1.32059067487716674805e-01) (5, -7.91266918182373046875e+00) (6, 1.16766271591186523438e+01) (7, 1.51945238113403320312e+01) (8, 3.82581710815429687500e+00) (9, -4.22479200363159179688e+00) (10, 5.25167369842529296875e+00) (11, 4.04051589965820312500e+00) (12, -3.99976104497909545898e-01) 
