FANN_FLO_2.1
num_layers=3
learning_rate=0.500000
connection_rate=1.000000
network_type=0
learning_momentum=0.000000
training_algorithm=2
train_error_function=1
train_stop_function=0
cascade_output_change_fraction=0.010000
quickprop_decay=-0.000100
quickprop_mu=1.750000
rprop_increase_factor=1.200000
rprop_decrease_factor=0.500000
rprop_delta_min=0.000000
rprop_delta_max=50.000000
rprop_delta_zero=0.100000
cascade_output_stagnation_epochs=12
cascade_candidate_change_fraction=0.010000
cascade_candidate_stagnation_epochs=12
cascade_max_out_epochs=150
cascade_min_out_epochs=50
cascade_max_cand_epochs=150
cascade_min_cand_epochs=50
cascade_num_candidate_groups=2
bit_fail_limit=3.49999994039535522461e-01
cascade_candidate_limit=1.00000000000000000000e+03
cascade_weight_multiplier=4.00000005960464477539e-01
cascade_activation_functions_count=10
cascade_activation_functions=3 5 7 8 10 11 14 15 16 17 
cascade_activation_steepnesses_count=4
cascade_activation_steepnesses=2.50000000000000000000e-01 5.00000000000000000000e-01 7.50000000000000000000e-01 1.00000000000000000000e+00 
layer_sizes=10 5 2 
scale_included=0
neurons (num_inputs, activation_function, activation_steepness)=(0, 0, 0.00000000000000000000e+00) (0, 0, 0.00000000000000000000e+00) (0, 0, 0.00000000000000000000e+00) (0, 0, 0.00000000000000000000e+00) (0, 0, 0.00000000000000000000e+00) (0, 0, 0.00000000000000000000e+00) (0, 0, 0.00000000000000000000e+00) (0, 0, 0.00000000000000000000e+00) (0, 0, 0.00000000000000000000e+00) (0, 0, 0.00000000000000000000e+00) (10, 3, 5.00000000000000000000e-01) (10, 3, 5.00000000000000000000e-01) (10, 3, 5.00000000000000000000e-01) (10, 3, 5.00000000000000000000e-01) (0, 3, 0.00000000000000000000e+00) (5, 3, 5.00000000000000000000e-01) (0, 3, 0.00000000000000000000e+00) 
connections (connected_to_neuron, weight)=(0, 7.98295450210571289062e+00) (1, -7.23317777737975120544e-03) (2, -6.37481403350830078125e+00) (3, 1.08997535705566406250e+01) (4, -1.46877080202102661133e-01) (5, -1.67308120727539062500e+01) (6, 7.91839218139648437500e+00) (7, 3.68302702903747558594e+00) (8, -7.28170204162597656250e+00) (9, 2.77957916259765625000e+00) (0, 1.89053314208984375000e+02) (1, 5.11878723144531250000e+02) (2, -1.29755004882812500000e+03) (3, 1.50000000000000000000e+03) (4, 5.56700897216796875000e+00) (5, -1.40570874023437500000e+03) (6, 8.01604858398437500000e+02) (7, -7.95098876953125000000e+02) (8, -1.36580004882812500000e+03) (9, 1.30729125976562500000e+03) (0, 5.17244625091552734375e+00) (1, 9.63679790496826171875e+00) (2, 5.65695381164550781250e+00) (3, -1.70048844814300537109e+00) (4, 4.89303922653198242188e+00) (5, -6.97139596939086914062e+00) (6, 6.98574161529541015625e+00) (7, 5.06469392776489257812e+00) (8, 1.16544365882873535156e+00) (9, -6.73045396804809570312e+00) (0, 1.22003641128540039062e+01) (1, -3.39835572242736816406e+00) (2, -1.96804656982421875000e+01) (3, 3.00900363922119140625e+01) (4, 1.31527347564697265625e+01) (5, -4.76916198730468750000e+01) (6, 1.41678714752197265625e+01) (7, 7.63779878616333007812e+00) (8, -7.20659732818603515625e+00) (9, -6.44767427444458007812e+00) (10, -3.03173327445983886719e+00) (11, -2.95142699033021926880e-02) (12, 2.25392913818359375000e+00) (13, 2.77844357490539550781e+00) (14, 8.29673111438751220703e-01) 
