FANN_FLO_2.1
num_layers=3
learning_rate=0.500000
connection_rate=1.000000
network_type=0
learning_momentum=0.000000
training_algorithm=2
train_error_function=1
train_stop_function=0
cascade_output_change_fraction=0.010000
quickprop_decay=-0.000100
quickprop_mu=1.750000
rprop_increase_factor=1.200000
rprop_decrease_factor=0.500000
rprop_delta_min=0.000000
rprop_delta_max=50.000000
rprop_delta_zero=0.100000
cascade_output_stagnation_epochs=12
cascade_candidate_change_fraction=0.010000
cascade_candidate_stagnation_epochs=12
cascade_max_out_epochs=150
cascade_min_out_epochs=50
cascade_max_cand_epochs=150
cascade_min_cand_epochs=50
cascade_num_candidate_groups=2
bit_fail_limit=3.49999994039535522461e-01
cascade_candidate_limit=1.00000000000000000000e+03
cascade_weight_multiplier=4.00000005960464477539e-01
cascade_activation_functions_count=10
cascade_activation_functions=3 5 7 8 10 11 14 15 16 17 
cascade_activation_steepnesses_count=4
cascade_activation_steepnesses=2.50000000000000000000e-01 5.00000000000000000000e-01 7.50000000000000000000e-01 1.00000000000000000000e+00 
layer_sizes=10 3 2 
scale_included=0
neurons (num_inputs, activation_function, activation_steepness)=(0, 0, 0.00000000000000000000e+00) (0, 0, 0.00000000000000000000e+00) (0, 0, 0.00000000000000000000e+00) (0, 0, 0.00000000000000000000e+00) (0, 0, 0.00000000000000000000e+00) (0, 0, 0.00000000000000000000e+00) (0, 0, 0.00000000000000000000e+00) (0, 0, 0.00000000000000000000e+00) (0, 0, 0.00000000000000000000e+00) (0, 0, 0.00000000000000000000e+00) (10, 3, 5.00000000000000000000e-01) (10, 3, 5.00000000000000000000e-01) (0, 3, 0.00000000000000000000e+00) (3, 3, 5.00000000000000000000e-01) (0, 3, 0.00000000000000000000e+00) 
connections (connected_to_neuron, weight)=(0, -1.58484544754028320312e+01) (1, -1.89066708087921142578e-01) (2, 1.14097008481621742249e-02) (3, 5.69736433029174804688e+00) (4, -1.06102714538574218750e+01) (5, 2.09538054466247558594e+00) (6, -4.13146162033081054688e+00) (7, -4.88434982299804687500e+00) (8, -7.30937719345092773438e+00) (9, 1.82288379669189453125e+01) (0, 7.59527778625488281250e+00) (1, -8.20653080940246582031e-01) (2, 8.23010921478271484375e+00) (3, 1.17224419116973876953e+00) (4, 1.51950836181640625000e+00) (5, 2.86496829986572265625e+00) (6, 4.11711788177490234375e+00) (7, 4.14815235137939453125e+00) (8, 1.02430140972137451172e+00) (9, -8.76213073730468750000e+00) (10, 7.87988364696502685547e-01) (11, 2.58042502403259277344e+00) (12, -1.45385468006134033203e+00) 
