FANN_FLO_2.1
num_layers=3
learning_rate=0.500000
connection_rate=1.000000
network_type=0
learning_momentum=0.000000
training_algorithm=2
train_error_function=1
train_stop_function=0
cascade_output_change_fraction=0.010000
quickprop_decay=-0.000100
quickprop_mu=1.750000
rprop_increase_factor=1.200000
rprop_decrease_factor=0.500000
rprop_delta_min=0.000000
rprop_delta_max=50.000000
rprop_delta_zero=0.100000
cascade_output_stagnation_epochs=12
cascade_candidate_change_fraction=0.010000
cascade_candidate_stagnation_epochs=12
cascade_max_out_epochs=150
cascade_min_out_epochs=50
cascade_max_cand_epochs=150
cascade_min_cand_epochs=50
cascade_num_candidate_groups=2
bit_fail_limit=3.49999994039535522461e-01
cascade_candidate_limit=1.00000000000000000000e+03
cascade_weight_multiplier=4.00000005960464477539e-01
cascade_activation_functions_count=10
cascade_activation_functions=3 5 7 8 10 11 14 15 16 17 
cascade_activation_steepnesses_count=4
cascade_activation_steepnesses=2.50000000000000000000e-01 5.00000000000000000000e-01 7.50000000000000000000e-01 1.00000000000000000000e+00 
layer_sizes=10 3 2 
scale_included=0
neurons (num_inputs, activation_function, activation_steepness)=(0, 0, 0.00000000000000000000e+00) (0, 0, 0.00000000000000000000e+00) (0, 0, 0.00000000000000000000e+00) (0, 0, 0.00000000000000000000e+00) (0, 0, 0.00000000000000000000e+00) (0, 0, 0.00000000000000000000e+00) (0, 0, 0.00000000000000000000e+00) (0, 0, 0.00000000000000000000e+00) (0, 0, 0.00000000000000000000e+00) (0, 0, 0.00000000000000000000e+00) (10, 3, 5.00000000000000000000e-01) (10, 3, 5.00000000000000000000e-01) (0, 3, 0.00000000000000000000e+00) (3, 3, 5.00000000000000000000e-01) (0, 3, 0.00000000000000000000e+00) 
connections (connected_to_neuron, weight)=(0, 6.75745534896850585938e+00) (1, -6.24315643310546875000e+00) (2, -9.78580665588378906250e+00) (3, 8.34046077728271484375e+00) (4, 3.84414941072463989258e-01) (5, -1.39803895950317382812e+01) (6, 1.17894868850708007812e+01) (7, 5.62481307983398437500e+00) (8, -2.26171851158142089844e+00) (9, -3.20868945121765136719e+00) (0, -7.22821533679962158203e-01) (1, 7.73110866546630859375e+00) (2, 7.31008434295654296875e+00) (3, -6.67623710632324218750e+00) (4, -6.29468381404876708984e-01) (5, 1.10853719711303710938e+01) (6, -1.07127122879028320312e+01) (7, -4.68937826156616210938e+00) (8, 2.95052260160446166992e-01) (9, -3.80735516548156738281e+00) (10, 4.17351913452148437500e+00) (11, 4.53529834747314453125e+00) (12, -6.62760972976684570312e-01) 
