FANN_FLO_2.1
num_layers=3
learning_rate=0.500000
connection_rate=1.000000
network_type=0
learning_momentum=0.000000
training_algorithm=2
train_error_function=1
train_stop_function=0
cascade_output_change_fraction=0.010000
quickprop_decay=-0.000100
quickprop_mu=1.750000
rprop_increase_factor=1.200000
rprop_decrease_factor=0.500000
rprop_delta_min=0.000000
rprop_delta_max=50.000000
rprop_delta_zero=0.100000
cascade_output_stagnation_epochs=12
cascade_candidate_change_fraction=0.010000
cascade_candidate_stagnation_epochs=12
cascade_max_out_epochs=150
cascade_min_out_epochs=50
cascade_max_cand_epochs=150
cascade_min_cand_epochs=50
cascade_num_candidate_groups=2
bit_fail_limit=3.49999994039535522461e-01
cascade_candidate_limit=1.00000000000000000000e+03
cascade_weight_multiplier=4.00000005960464477539e-01
cascade_activation_functions_count=10
cascade_activation_functions=3 5 7 8 10 11 14 15 16 17 
cascade_activation_steepnesses_count=4
cascade_activation_steepnesses=2.50000000000000000000e-01 5.00000000000000000000e-01 7.50000000000000000000e-01 1.00000000000000000000e+00 
layer_sizes=10 3 2 
scale_included=0
neurons (num_inputs, activation_function, activation_steepness)=(0, 0, 0.00000000000000000000e+00) (0, 0, 0.00000000000000000000e+00) (0, 0, 0.00000000000000000000e+00) (0, 0, 0.00000000000000000000e+00) (0, 0, 0.00000000000000000000e+00) (0, 0, 0.00000000000000000000e+00) (0, 0, 0.00000000000000000000e+00) (0, 0, 0.00000000000000000000e+00) (0, 0, 0.00000000000000000000e+00) (0, 0, 0.00000000000000000000e+00) (10, 3, 5.00000000000000000000e-01) (10, 3, 5.00000000000000000000e-01) (0, 3, 0.00000000000000000000e+00) (3, 3, 5.00000000000000000000e-01) (0, 3, 0.00000000000000000000e+00) 
connections (connected_to_neuron, weight)=(0, 1.62782537937164306641e+00) (1, 2.05693006515502929688e+00) (2, -4.74975776672363281250e+00) (3, 7.70631599426269531250e+00) (4, -4.33673053979873657227e-01) (5, -2.93642663955688476562e+00) (6, 8.14704227447509765625e+00) (7, -9.75109517574310302734e-01) (8, 2.95339584350585937500e+00) (9, -4.05567407608032226562e+00) (0, 1.26449167728424072266e+00) (1, -9.25784409046173095703e-01) (2, -1.07610359191894531250e+01) (3, 1.87137603759765625000e+01) (4, -1.01446978747844696045e-01) (5, -1.31035223007202148438e+01) (6, 1.45955476760864257812e+01) (7, 5.46387720108032226562e+00) (8, -3.28496956825256347656e+00) (9, -4.80605512857437133789e-01) (10, 3.43119239807128906250e+00) (11, -3.96601557731628417969e+00) (12, 1.80952942371368408203e+00) 
