FANN_FLO_2.1
num_layers=3
learning_rate=0.500000
connection_rate=1.000000
network_type=0
learning_momentum=0.000000
training_algorithm=2
train_error_function=1
train_stop_function=0
cascade_output_change_fraction=0.010000
quickprop_decay=-0.000100
quickprop_mu=1.750000
rprop_increase_factor=1.200000
rprop_decrease_factor=0.500000
rprop_delta_min=0.000000
rprop_delta_max=50.000000
rprop_delta_zero=0.100000
cascade_output_stagnation_epochs=12
cascade_candidate_change_fraction=0.010000
cascade_candidate_stagnation_epochs=12
cascade_max_out_epochs=150
cascade_min_out_epochs=50
cascade_max_cand_epochs=150
cascade_min_cand_epochs=50
cascade_num_candidate_groups=2
bit_fail_limit=3.49999994039535522461e-01
cascade_candidate_limit=1.00000000000000000000e+03
cascade_weight_multiplier=4.00000005960464477539e-01
cascade_activation_functions_count=10
cascade_activation_functions=3 5 7 8 10 11 14 15 16 17 
cascade_activation_steepnesses_count=4
cascade_activation_steepnesses=2.50000000000000000000e-01 5.00000000000000000000e-01 7.50000000000000000000e-01 1.00000000000000000000e+00 
layer_sizes=6 5 2 
scale_included=0
neurons (num_inputs, activation_function, activation_steepness)=(0, 0, 0.00000000000000000000e+00) (0, 0, 0.00000000000000000000e+00) (0, 0, 0.00000000000000000000e+00) (0, 0, 0.00000000000000000000e+00) (0, 0, 0.00000000000000000000e+00) (0, 0, 0.00000000000000000000e+00) (6, 3, 5.00000000000000000000e-01) (6, 3, 5.00000000000000000000e-01) (6, 3, 5.00000000000000000000e-01) (6, 3, 5.00000000000000000000e-01) (0, 3, 0.00000000000000000000e+00) (5, 0, 5.00000000000000000000e-01) (0, 0, 0.00000000000000000000e+00) 
connections (connected_to_neuron, weight)=(0, 1.41701507568359375000e+00) (1, 1.12978076934814453125e+00) (2, -1.23417508602142333984e+00) (3, -4.14150047302246093750e+01) (4, 1.12794904708862304688e+01) (5, 6.70560932159423828125e+00) (0, 1.13388419151306152344e+00) (1, 1.31497821807861328125e+01) (2, 7.29445397853851318359e-01) (3, 4.29501503705978393555e-01) (4, 2.82055974006652832031e+00) (5, 2.77349472045898437500e+00) (0, -2.53612063825130462646e-02) (1, -3.78817439079284667969e-01) (2, 8.48321914672851562500e-02) (3, 8.02031382918357849121e-02) (4, -2.77929991483688354492e-01) (5, 2.86742478609085083008e-01) (0, -2.77347788214683532715e-02) (1, -3.41465204954147338867e-01) (2, 5.85144832730293273926e-02) (3, -8.05047675967216491699e-02) (4, -3.57676386833190917969e-01) (5, 3.18960607051849365234e-01) (6, 1.08655440807342529297e+00) (7, 1.12503826618194580078e+00) (8, 9.95302081108093261719e-01) (9, 9.63882088661193847656e-01) (10, 1.04026663303375244141e+00) 
