FANN_FLO_2.1
num_layers=3
learning_rate=0.500000
connection_rate=1.000000
network_type=0
learning_momentum=0.000000
training_algorithm=2
train_error_function=1
train_stop_function=0
cascade_output_change_fraction=0.010000
quickprop_decay=-0.000100
quickprop_mu=1.750000
rprop_increase_factor=1.200000
rprop_decrease_factor=0.500000
rprop_delta_min=0.000000
rprop_delta_max=50.000000
rprop_delta_zero=0.100000
cascade_output_stagnation_epochs=12
cascade_candidate_change_fraction=0.010000
cascade_candidate_stagnation_epochs=12
cascade_max_out_epochs=150
cascade_min_out_epochs=50
cascade_max_cand_epochs=150
cascade_min_cand_epochs=50
cascade_num_candidate_groups=2
bit_fail_limit=3.49999994039535522461e-01
cascade_candidate_limit=1.00000000000000000000e+03
cascade_weight_multiplier=4.00000005960464477539e-01
cascade_activation_functions_count=10
cascade_activation_functions=3 5 7 8 10 11 14 15 16 17 
cascade_activation_steepnesses_count=4
cascade_activation_steepnesses=2.50000000000000000000e-01 5.00000000000000000000e-01 7.50000000000000000000e-01 1.00000000000000000000e+00 
layer_sizes=10 5 2 
scale_included=0
neurons (num_inputs, activation_function, activation_steepness)=(0, 0, 0.00000000000000000000e+00) (0, 0, 0.00000000000000000000e+00) (0, 0, 0.00000000000000000000e+00) (0, 0, 0.00000000000000000000e+00) (0, 0, 0.00000000000000000000e+00) (0, 0, 0.00000000000000000000e+00) (0, 0, 0.00000000000000000000e+00) (0, 0, 0.00000000000000000000e+00) (0, 0, 0.00000000000000000000e+00) (0, 0, 0.00000000000000000000e+00) (10, 3, 5.00000000000000000000e-01) (10, 3, 5.00000000000000000000e-01) (10, 3, 5.00000000000000000000e-01) (10, 3, 5.00000000000000000000e-01) (0, 3, 0.00000000000000000000e+00) (5, 3, 5.00000000000000000000e-01) (0, 3, 0.00000000000000000000e+00) 
connections (connected_to_neuron, weight)=(0, -1.83598098754882812500e+01) (1, -7.47531938552856445312e+00) (2, 2.51780319213867187500e+00) (3, -1.05597791671752929688e+01) (4, 2.28036671876907348633e-01) (5, 1.55531063079833984375e+01) (6, 2.25561514496803283691e-01) (7, 1.19919509887695312500e+01) (8, 1.42993164062500000000e+01) (9, -3.29299539327621459961e-01) (0, 3.08062505722045898438e+00) (1, -1.39995031356811523438e+01) (2, -9.04088401794433593750e+00) (3, 9.32483863830566406250e+00) (4, -5.11973679065704345703e-01) (5, -1.18946599960327148438e+01) (6, 1.07180595397949218750e+01) (7, 1.59416551589965820312e+01) (8, -3.60421442985534667969e+00) (9, 3.62152123451232910156e+00) (0, -5.54673719406127929688e+00) (1, -1.21691818237304687500e+01) (2, -4.03817892074584960938e+00) (3, -3.49839985370635986328e-01) (4, -1.18727695941925048828e+00) (5, -4.23081591725349426270e-02) (6, 4.65430021286010742188e+00) (7, 1.40921678543090820312e+01) (8, 3.70127725601196289062e+00) (9, -2.15666556358337402344e+00) (0, -7.42067515850067138672e-01) (1, -1.82456940412521362305e-01) (2, 9.01490974426269531250e+00) (3, 5.82639551162719726562e+00) (4, 2.47901701927185058594e+00) (5, 4.72242069244384765625e+00) (6, 6.55070781707763671875e+00) (7, 1.03072023391723632812e+00) (8, 2.48029661178588867188e+00) (9, -7.59778165817260742188e+00) (10, -2.91217494010925292969e+00) (11, -3.44422125816345214844e+00) (12, 4.99625253677368164062e+00) (13, 3.47694158554077148438e+00) (14, 1.76903545856475830078e+00) 
