FANN_FLO_2.1
num_layers=3
learning_rate=0.500000
connection_rate=1.000000
network_type=0
learning_momentum=0.000000
training_algorithm=2
train_error_function=1
train_stop_function=0
cascade_output_change_fraction=0.010000
quickprop_decay=-0.000100
quickprop_mu=1.750000
rprop_increase_factor=1.200000
rprop_decrease_factor=0.500000
rprop_delta_min=0.000000
rprop_delta_max=50.000000
rprop_delta_zero=0.100000
cascade_output_stagnation_epochs=12
cascade_candidate_change_fraction=0.010000
cascade_candidate_stagnation_epochs=12
cascade_max_out_epochs=150
cascade_min_out_epochs=50
cascade_max_cand_epochs=150
cascade_min_cand_epochs=50
cascade_num_candidate_groups=2
bit_fail_limit=3.49999994039535522461e-01
cascade_candidate_limit=1.00000000000000000000e+03
cascade_weight_multiplier=4.00000005960464477539e-01
cascade_activation_functions_count=10
cascade_activation_functions=3 5 7 8 10 11 14 15 16 17 
cascade_activation_steepnesses_count=4
cascade_activation_steepnesses=2.50000000000000000000e-01 5.00000000000000000000e-01 7.50000000000000000000e-01 1.00000000000000000000e+00 
layer_sizes=10 5 2 
scale_included=0
neurons (num_inputs, activation_function, activation_steepness)=(0, 0, 0.00000000000000000000e+00) (0, 0, 0.00000000000000000000e+00) (0, 0, 0.00000000000000000000e+00) (0, 0, 0.00000000000000000000e+00) (0, 0, 0.00000000000000000000e+00) (0, 0, 0.00000000000000000000e+00) (0, 0, 0.00000000000000000000e+00) (0, 0, 0.00000000000000000000e+00) (0, 0, 0.00000000000000000000e+00) (0, 0, 0.00000000000000000000e+00) (10, 3, 5.00000000000000000000e-01) (10, 3, 5.00000000000000000000e-01) (10, 3, 5.00000000000000000000e-01) (10, 3, 5.00000000000000000000e-01) (0, 3, 0.00000000000000000000e+00) (5, 3, 5.00000000000000000000e-01) (0, 3, 0.00000000000000000000e+00) 
connections (connected_to_neuron, weight)=(0, -7.88138055801391601562e+00) (1, 2.40139794349670410156e+00) (2, 4.07966184616088867188e+00) (3, 1.48245048522949218750e+01) (4, 1.90613389015197753906e+00) (5, 6.16784095764160156250e+00) (6, 3.57086420059204101562e+00) (7, -1.54722571372985839844e+00) (8, -7.29146480560302734375e-01) (9, -6.16818284988403320312e+00) (0, 1.84425544738769531250e+01) (1, 5.48524761199951171875e+00) (2, -7.45480680465698242188e+00) (3, -7.79428100585937500000e+00) (4, 3.57896065711975097656e+00) (5, 5.42076063156127929688e+00) (6, -1.35752458572387695312e+01) (7, 1.67871208190917968750e+01) (8, 6.49450111389160156250e+00) (9, -7.84587049484252929688e+00) (0, -1.10450315475463867188e+01) (1, 2.78946280479431152344e+00) (2, 6.27008676528930664062e+00) (3, 1.40130167007446289062e+01) (4, 2.50915646553039550781e+00) (5, 1.76560592651367187500e+00) (6, 5.24557924270629882812e+00) (7, 1.72206789255142211914e-01) (8, -3.86386156082153320312e+00) (9, -2.58292889595031738281e+00) (0, 5.27834951877593994141e-01) (1, 1.53118648529052734375e+01) (2, -2.95777726173400878906e+00) (3, 4.32414197921752929688e+00) (4, -1.40392799377441406250e+01) (5, 4.59777688980102539062e+00) (6, 3.29643416404724121094e+00) (7, 6.71896553039550781250e+00) (8, 5.74191522598266601562e+00) (9, -5.40467262268066406250e+00) (10, 7.17165112495422363281e-01) (11, 9.49564456939697265625e-01) (12, 6.34212553501129150391e-01) (13, 5.91327190399169921875e-01) (14, -1.44853091239929199219e+00) 
