FANN_FLO_2.1
num_layers=3
learning_rate=0.500000
connection_rate=1.000000
network_type=0
learning_momentum=0.000000
training_algorithm=2
train_error_function=1
train_stop_function=0
cascade_output_change_fraction=0.010000
quickprop_decay=-0.000100
quickprop_mu=1.750000
rprop_increase_factor=1.200000
rprop_decrease_factor=0.500000
rprop_delta_min=0.000000
rprop_delta_max=50.000000
rprop_delta_zero=0.100000
cascade_output_stagnation_epochs=12
cascade_candidate_change_fraction=0.010000
cascade_candidate_stagnation_epochs=12
cascade_max_out_epochs=150
cascade_min_out_epochs=50
cascade_max_cand_epochs=150
cascade_min_cand_epochs=50
cascade_num_candidate_groups=2
bit_fail_limit=3.49999994039535522461e-01
cascade_candidate_limit=1.00000000000000000000e+03
cascade_weight_multiplier=4.00000005960464477539e-01
cascade_activation_functions_count=10
cascade_activation_functions=3 5 7 8 10 11 14 15 16 17 
cascade_activation_steepnesses_count=4
cascade_activation_steepnesses=2.50000000000000000000e-01 5.00000000000000000000e-01 7.50000000000000000000e-01 1.00000000000000000000e+00 
layer_sizes=10 5 2 
scale_included=0
neurons (num_inputs, activation_function, activation_steepness)=(0, 0, 0.00000000000000000000e+00) (0, 0, 0.00000000000000000000e+00) (0, 0, 0.00000000000000000000e+00) (0, 0, 0.00000000000000000000e+00) (0, 0, 0.00000000000000000000e+00) (0, 0, 0.00000000000000000000e+00) (0, 0, 0.00000000000000000000e+00) (0, 0, 0.00000000000000000000e+00) (0, 0, 0.00000000000000000000e+00) (0, 0, 0.00000000000000000000e+00) (10, 3, 5.00000000000000000000e-01) (10, 3, 5.00000000000000000000e-01) (10, 3, 5.00000000000000000000e-01) (10, 3, 5.00000000000000000000e-01) (0, 3, 0.00000000000000000000e+00) (5, 3, 5.00000000000000000000e-01) (0, 3, 0.00000000000000000000e+00) 
connections (connected_to_neuron, weight)=(0, 7.17659902572631835938e+00) (1, 1.33897485733032226562e+01) (2, 3.28195190429687500000e+00) (3, 5.62242031097412109375e+00) (4, -1.64272844791412353516e+00) (5, -2.32861089706420898438e+00) (6, -5.17558908462524414062e+00) (7, -1.31150150299072265625e+01) (8, -8.37557411193847656250e+00) (9, -2.16668891906738281250e+00) (0, 4.72463458776473999023e-01) (1, -1.28732004165649414062e+01) (2, -9.61053657531738281250e+00) (3, 9.60203647613525390625e+00) (4, 1.01357543468475341797e+00) (5, -1.29809322357177734375e+01) (6, 1.29358186721801757812e+01) (7, 1.19457759857177734375e+01) (8, 9.27449285984039306641e-01) (9, -2.41452217102050781250e+00) (0, -7.32428121566772460938e+00) (1, -1.07119846343994140625e+00) (2, 4.28585052490234375000e+00) (3, -1.29908494949340820312e+01) (4, 2.44305118918418884277e-01) (5, 1.24268922805786132812e+01) (6, -5.29217433929443359375e+00) (7, 1.67610907554626464844e+00) (8, 7.19502735137939453125e+00) (9, -2.14647769927978515625e+00) (0, -2.76770263910293579102e-01) (1, -1.31649322509765625000e+01) (2, -1.11443185806274414062e+01) (3, 6.82937860488891601562e+00) (4, -5.09319663047790527344e-01) (5, -6.91281557083129882812e+00) (6, 9.87833309173583984375e+00) (7, 1.41712770462036132812e+01) (8, 1.17915868759155273438e-01) (9, -8.68143749237060546875e+00) (10, 5.40155696868896484375e+00) (11, 2.92223024368286132812e+00) (12, 5.73473930358886718750e+00) (13, 1.21304031372070312500e+02) (14, -2.74485230445861816406e+00) 
