FANN_FLO_2.1
num_layers=3
learning_rate=0.500000
connection_rate=1.000000
network_type=0
learning_momentum=0.000000
training_algorithm=2
train_error_function=1
train_stop_function=0
cascade_output_change_fraction=0.010000
quickprop_decay=-0.000100
quickprop_mu=1.750000
rprop_increase_factor=1.200000
rprop_decrease_factor=0.500000
rprop_delta_min=0.000000
rprop_delta_max=50.000000
rprop_delta_zero=0.100000
cascade_output_stagnation_epochs=12
cascade_candidate_change_fraction=0.010000
cascade_candidate_stagnation_epochs=12
cascade_max_out_epochs=150
cascade_min_out_epochs=50
cascade_max_cand_epochs=150
cascade_min_cand_epochs=50
cascade_num_candidate_groups=2
bit_fail_limit=3.49999994039535522461e-01
cascade_candidate_limit=1.00000000000000000000e+03
cascade_weight_multiplier=4.00000005960464477539e-01
cascade_activation_functions_count=10
cascade_activation_functions=3 5 7 8 10 11 14 15 16 17 
cascade_activation_steepnesses_count=4
cascade_activation_steepnesses=2.50000000000000000000e-01 5.00000000000000000000e-01 7.50000000000000000000e-01 1.00000000000000000000e+00 
layer_sizes=6 5 2 
scale_included=0
neurons (num_inputs, activation_function, activation_steepness)=(0, 0, 0.00000000000000000000e+00) (0, 0, 0.00000000000000000000e+00) (0, 0, 0.00000000000000000000e+00) (0, 0, 0.00000000000000000000e+00) (0, 0, 0.00000000000000000000e+00) (0, 0, 0.00000000000000000000e+00) (6, 3, 5.00000000000000000000e-01) (6, 3, 5.00000000000000000000e-01) (6, 3, 5.00000000000000000000e-01) (6, 3, 5.00000000000000000000e-01) (0, 3, 0.00000000000000000000e+00) (5, 0, 5.00000000000000000000e-01) (0, 0, 0.00000000000000000000e+00) 
connections (connected_to_neuron, weight)=(0, 1.03527510166168212891e+00) (1, 3.43016433715820312500e+00) (2, -2.34931230545043945312e+00) (3, 3.91059130430221557617e-01) (4, 1.04549379348754882812e+01) (5, 1.57800018787384033203e+00) (0, -3.39679211378097534180e-01) (1, -1.74796819686889648438e-01) (2, 1.74389496445655822754e-01) (3, -1.14500951766967773438e+00) (4, -1.86064994335174560547e+00) (5, 2.41427600383758544922e-01) (0, 1.25545930862426757812e+00) (1, -4.83523750305175781250e+00) (2, 4.90824222564697265625e+00) (3, 3.98763608932495117188e+00) (4, 1.10503053665161132812e+00) (5, 1.68803834915161132812e+00) (0, 1.55144619941711425781e+00) (1, 4.49504804611206054688e+00) (2, -7.60695743560791015625e+00) (3, 1.09117317199707031250e+01) (4, -4.23350000381469726562e+00) (5, 2.52980327606201171875e+00) (6, 1.02141451835632324219e+00) (7, 8.91663432121276855469e-01) (8, 1.02496266365051269531e+00) (9, 1.03633534908294677734e+00) (10, 9.64520990848541259766e-01) 
