FANN_FLO_2.1
num_layers=3
learning_rate=0.500000
connection_rate=1.000000
network_type=0
learning_momentum=0.000000
training_algorithm=2
train_error_function=1
train_stop_function=0
cascade_output_change_fraction=0.010000
quickprop_decay=-0.000100
quickprop_mu=1.750000
rprop_increase_factor=1.200000
rprop_decrease_factor=0.500000
rprop_delta_min=0.000000
rprop_delta_max=50.000000
rprop_delta_zero=0.100000
cascade_output_stagnation_epochs=12
cascade_candidate_change_fraction=0.010000
cascade_candidate_stagnation_epochs=12
cascade_max_out_epochs=150
cascade_min_out_epochs=50
cascade_max_cand_epochs=150
cascade_min_cand_epochs=50
cascade_num_candidate_groups=2
bit_fail_limit=3.49999994039535522461e-01
cascade_candidate_limit=1.00000000000000000000e+03
cascade_weight_multiplier=4.00000005960464477539e-01
cascade_activation_functions_count=10
cascade_activation_functions=3 5 7 8 10 11 14 15 16 17 
cascade_activation_steepnesses_count=4
cascade_activation_steepnesses=2.50000000000000000000e-01 5.00000000000000000000e-01 7.50000000000000000000e-01 1.00000000000000000000e+00 
layer_sizes=6 5 2 
scale_included=0
neurons (num_inputs, activation_function, activation_steepness)=(0, 0, 0.00000000000000000000e+00) (0, 0, 0.00000000000000000000e+00) (0, 0, 0.00000000000000000000e+00) (0, 0, 0.00000000000000000000e+00) (0, 0, 0.00000000000000000000e+00) (0, 0, 0.00000000000000000000e+00) (6, 3, 5.00000000000000000000e-01) (6, 3, 5.00000000000000000000e-01) (6, 3, 5.00000000000000000000e-01) (6, 3, 5.00000000000000000000e-01) (0, 3, 0.00000000000000000000e+00) (5, 0, 5.00000000000000000000e-01) (0, 0, 0.00000000000000000000e+00) 
connections (connected_to_neuron, weight)=(0, 1.46128432825207710266e-02) (1, -4.74925599992275238037e-02) (2, 3.63868549466133117676e-02) (3, 1.36191830039024353027e-01) (4, 2.37115487456321716309e-01) (5, 2.79934644699096679688e-01) (0, 1.17072582244873046875e+00) (1, 5.54980373382568359375e+00) (2, -8.22731852531433105469e-01) (3, 1.51515603065490722656e+00) (4, -2.64811458587646484375e+01) (5, 5.03020048141479492188e+00) (0, -4.29236255586147308350e-02) (1, -5.96113875508308410645e-02) (2, -1.64306044578552246094e-01) (3, 1.74335598945617675781e-01) (4, 5.75889825820922851562e-01) (5, 3.33157747983932495117e-01) (0, 1.16223204135894775391e+00) (1, 5.53437328338623046875e+00) (2, -6.60801649093627929688e-01) (3, 9.64700222015380859375e-01) (4, -2.64456806182861328125e+01) (5, 4.97730588912963867188e+00) (6, 1.00468754768371582031e+00) (7, 1.10398745536804199219e+00) (8, 9.78696227073669433594e-01) (9, 1.01507103443145751953e+00) (10, 1.09402942657470703125e+00) 
