FANN_FLO_2.1
num_layers=3
learning_rate=0.500000
connection_rate=1.000000
network_type=0
learning_momentum=0.000000
training_algorithm=2
train_error_function=1
train_stop_function=0
cascade_output_change_fraction=0.010000
quickprop_decay=-0.000100
quickprop_mu=1.750000
rprop_increase_factor=1.200000
rprop_decrease_factor=0.500000
rprop_delta_min=0.000000
rprop_delta_max=50.000000
rprop_delta_zero=0.100000
cascade_output_stagnation_epochs=12
cascade_candidate_change_fraction=0.010000
cascade_candidate_stagnation_epochs=12
cascade_max_out_epochs=150
cascade_min_out_epochs=50
cascade_max_cand_epochs=150
cascade_min_cand_epochs=50
cascade_num_candidate_groups=2
bit_fail_limit=3.49999994039535522461e-01
cascade_candidate_limit=1.00000000000000000000e+03
cascade_weight_multiplier=4.00000005960464477539e-01
cascade_activation_functions_count=10
cascade_activation_functions=3 5 7 8 10 11 14 15 16 17 
cascade_activation_steepnesses_count=4
cascade_activation_steepnesses=2.50000000000000000000e-01 5.00000000000000000000e-01 7.50000000000000000000e-01 1.00000000000000000000e+00 
layer_sizes=6 5 2 
scale_included=0
neurons (num_inputs, activation_function, activation_steepness)=(0, 0, 0.00000000000000000000e+00) (0, 0, 0.00000000000000000000e+00) (0, 0, 0.00000000000000000000e+00) (0, 0, 0.00000000000000000000e+00) (0, 0, 0.00000000000000000000e+00) (0, 0, 0.00000000000000000000e+00) (6, 3, 5.00000000000000000000e-01) (6, 3, 5.00000000000000000000e-01) (6, 3, 5.00000000000000000000e-01) (6, 3, 5.00000000000000000000e-01) (0, 3, 0.00000000000000000000e+00) (5, 0, 5.00000000000000000000e-01) (0, 0, 0.00000000000000000000e+00) 
connections (connected_to_neuron, weight)=(0, -2.77947276830673217773e-01) (1, -2.58928924798965454102e-01) (2, 1.86691954731941223145e-01) (3, -6.57439529895782470703e-02) (4, -3.13901871442794799805e-01) (5, 3.76343697309494018555e-01) (0, 1.35227370262145996094e+00) (1, 6.65102767944335937500e+00) (2, -6.43667364120483398438e+00) (3, -1.23186480998992919922e+00) (4, -1.30733833312988281250e+01) (5, 2.86396384239196777344e+00) (0, 2.00165003538131713867e-01) (1, -3.39707791805267333984e-01) (2, 2.70730882883071899414e-01) (3, 1.69045150279998779297e-01) (4, 1.32770314812660217285e-01) (5, 2.65975058078765869141e-01) (0, 1.29059374332427978516e+00) (1, 3.61707305908203125000e+00) (2, -7.94393444061279296875e+00) (3, -1.26541817188262939453e+00) (4, 1.54440298080444335938e+01) (5, 2.85893082618713378906e+00) (6, 9.88935649394989013672e-01) (7, 1.06766164302825927734e+00) (8, 1.02425396442413330078e+00) (9, 1.10287177562713623047e+00) (10, 1.05722010135650634766e+00) 
