FANN_FLO_2.1
num_layers=3
learning_rate=0.500000
connection_rate=1.000000
network_type=0
learning_momentum=0.000000
training_algorithm=2
train_error_function=1
train_stop_function=0
cascade_output_change_fraction=0.010000
quickprop_decay=-0.000100
quickprop_mu=1.750000
rprop_increase_factor=1.200000
rprop_decrease_factor=0.500000
rprop_delta_min=0.000000
rprop_delta_max=50.000000
rprop_delta_zero=0.100000
cascade_output_stagnation_epochs=12
cascade_candidate_change_fraction=0.010000
cascade_candidate_stagnation_epochs=12
cascade_max_out_epochs=150
cascade_min_out_epochs=50
cascade_max_cand_epochs=150
cascade_min_cand_epochs=50
cascade_num_candidate_groups=2
bit_fail_limit=3.49999994039535522461e-01
cascade_candidate_limit=1.00000000000000000000e+03
cascade_weight_multiplier=4.00000005960464477539e-01
cascade_activation_functions_count=10
cascade_activation_functions=3 5 7 8 10 11 14 15 16 17 
cascade_activation_steepnesses_count=4
cascade_activation_steepnesses=2.50000000000000000000e-01 5.00000000000000000000e-01 7.50000000000000000000e-01 1.00000000000000000000e+00 
layer_sizes=10 3 2 
scale_included=0
neurons (num_inputs, activation_function, activation_steepness)=(0, 0, 0.00000000000000000000e+00) (0, 0, 0.00000000000000000000e+00) (0, 0, 0.00000000000000000000e+00) (0, 0, 0.00000000000000000000e+00) (0, 0, 0.00000000000000000000e+00) (0, 0, 0.00000000000000000000e+00) (0, 0, 0.00000000000000000000e+00) (0, 0, 0.00000000000000000000e+00) (0, 0, 0.00000000000000000000e+00) (0, 0, 0.00000000000000000000e+00) (10, 3, 5.00000000000000000000e-01) (10, 3, 5.00000000000000000000e-01) (0, 3, 0.00000000000000000000e+00) (3, 3, 5.00000000000000000000e-01) (0, 3, 0.00000000000000000000e+00) 
connections (connected_to_neuron, weight)=(0, 3.04652905464172363281e+00) (1, 6.53205680847167968750e+00) (2, 1.04724140167236328125e+01) (3, 1.84577727317810058594e+00) (4, 5.86883783340454101562e+00) (5, -5.86132621765136718750e+00) (6, 6.58323001861572265625e+00) (7, 9.64990901947021484375e+00) (8, 3.79612350463867187500e+00) (9, -1.19415130615234375000e+01) (0, 3.26679992675781250000e+00) (1, 1.41073727607727050781e+00) (2, 1.33354225158691406250e+01) (3, 4.22557163238525390625e+00) (4, 7.97558021545410156250e+00) (5, -4.51920175552368164062e+00) (6, 5.13027715682983398438e+00) (7, 7.04265117645263671875e+00) (8, 5.26607561111450195312e+00) (9, -1.23554124832153320312e+01) (10, 1.21192169189453125000e+00) (11, 9.87195372581481933594e-01) (12, -8.12668502330780029297e-01) 
