FANN_FLO_2.1
num_layers=3
learning_rate=0.500000
connection_rate=1.000000
network_type=0
learning_momentum=0.000000
training_algorithm=2
train_error_function=1
train_stop_function=0
cascade_output_change_fraction=0.010000
quickprop_decay=-0.000100
quickprop_mu=1.750000
rprop_increase_factor=1.200000
rprop_decrease_factor=0.500000
rprop_delta_min=0.000000
rprop_delta_max=50.000000
rprop_delta_zero=0.100000
cascade_output_stagnation_epochs=12
cascade_candidate_change_fraction=0.010000
cascade_candidate_stagnation_epochs=12
cascade_max_out_epochs=150
cascade_min_out_epochs=50
cascade_max_cand_epochs=150
cascade_min_cand_epochs=50
cascade_num_candidate_groups=2
bit_fail_limit=3.49999994039535522461e-01
cascade_candidate_limit=1.00000000000000000000e+03
cascade_weight_multiplier=4.00000005960464477539e-01
cascade_activation_functions_count=10
cascade_activation_functions=3 5 7 8 10 11 14 15 16 17 
cascade_activation_steepnesses_count=4
cascade_activation_steepnesses=2.50000000000000000000e-01 5.00000000000000000000e-01 7.50000000000000000000e-01 1.00000000000000000000e+00 
layer_sizes=10 3 2 
scale_included=0
neurons (num_inputs, activation_function, activation_steepness)=(0, 0, 0.00000000000000000000e+00) (0, 0, 0.00000000000000000000e+00) (0, 0, 0.00000000000000000000e+00) (0, 0, 0.00000000000000000000e+00) (0, 0, 0.00000000000000000000e+00) (0, 0, 0.00000000000000000000e+00) (0, 0, 0.00000000000000000000e+00) (0, 0, 0.00000000000000000000e+00) (0, 0, 0.00000000000000000000e+00) (0, 0, 0.00000000000000000000e+00) (10, 3, 5.00000000000000000000e-01) (10, 3, 5.00000000000000000000e-01) (0, 3, 0.00000000000000000000e+00) (3, 3, 5.00000000000000000000e-01) (0, 3, 0.00000000000000000000e+00) 
connections (connected_to_neuron, weight)=(0, 9.61474323272705078125e+00) (1, 1.16949653625488281250e+00) (2, -1.15819520950317382812e+01) (3, 2.08237705230712890625e+01) (4, -3.51169037818908691406e+00) (5, -1.88322734832763671875e+01) (6, 7.32534885406494140625e+00) (7, 3.67039060592651367188e+00) (8, -8.27151775360107421875e+00) (9, -3.68806672096252441406e+00) (0, -1.45583963394165039062e+00) (1, 4.11478996276855468750e+00) (2, 7.17784976959228515625e+00) (3, -1.12257823944091796875e+01) (4, 4.38668578863143920898e-01) (5, 1.14182825088500976562e+01) (6, -8.25691318511962890625e+00) (7, -3.01734685897827148438e+00) (8, 2.48698568344116210938e+00) (9, -4.29844903945922851562e+00) (10, 3.19989967346191406250e+00) (11, 5.73478126525878906250e+00) (12, -2.91052967309951782227e-01) 
