FANN_FLO_2.1
num_layers=3
learning_rate=0.500000
connection_rate=1.000000
network_type=0
learning_momentum=0.000000
training_algorithm=2
train_error_function=1
train_stop_function=0
cascade_output_change_fraction=0.010000
quickprop_decay=-0.000100
quickprop_mu=1.750000
rprop_increase_factor=1.200000
rprop_decrease_factor=0.500000
rprop_delta_min=0.000000
rprop_delta_max=50.000000
rprop_delta_zero=0.100000
cascade_output_stagnation_epochs=12
cascade_candidate_change_fraction=0.010000
cascade_candidate_stagnation_epochs=12
cascade_max_out_epochs=150
cascade_min_out_epochs=50
cascade_max_cand_epochs=150
cascade_min_cand_epochs=50
cascade_num_candidate_groups=2
bit_fail_limit=3.49999994039535522461e-01
cascade_candidate_limit=1.00000000000000000000e+03
cascade_weight_multiplier=4.00000005960464477539e-01
cascade_activation_functions_count=10
cascade_activation_functions=3 5 7 8 10 11 14 15 16 17 
cascade_activation_steepnesses_count=4
cascade_activation_steepnesses=2.50000000000000000000e-01 5.00000000000000000000e-01 7.50000000000000000000e-01 1.00000000000000000000e+00 
layer_sizes=6 5 2 
scale_included=0
neurons (num_inputs, activation_function, activation_steepness)=(0, 0, 0.00000000000000000000e+00) (0, 0, 0.00000000000000000000e+00) (0, 0, 0.00000000000000000000e+00) (0, 0, 0.00000000000000000000e+00) (0, 0, 0.00000000000000000000e+00) (0, 0, 0.00000000000000000000e+00) (6, 3, 5.00000000000000000000e-01) (6, 3, 5.00000000000000000000e-01) (6, 3, 5.00000000000000000000e-01) (6, 3, 5.00000000000000000000e-01) (0, 3, 0.00000000000000000000e+00) (5, 0, 5.00000000000000000000e-01) (0, 0, 0.00000000000000000000e+00) 
connections (connected_to_neuron, weight)=(0, -1.28778219223022460938e-01) (1, 4.15410608053207397461e-01) (2, 3.74509543180465698242e-01) (3, -2.17172205448150634766e-01) (4, -1.14863574504852294922e-01) (5, 2.15166836977005004883e-01) (0, 1.20781028270721435547e+00) (1, -4.32409286499023437500e+00) (2, -1.01240980625152587891e+00) (3, 1.49458312988281250000e+01) (4, -3.48728299140930175781e+00) (5, 3.37923407554626464844e+00) (0, 3.95108237862586975098e-02) (1, -5.15953660011291503906e-01) (2, 3.66800397634506225586e-01) (3, -3.17923635244369506836e-01) (4, -8.70845243334770202637e-02) (5, 3.13088864088058471680e-01) (0, 1.09163522720336914062e+00) (1, 4.16135549545288085938e+00) (2, -9.25700092315673828125e+00) (3, 2.02764177322387695312e+00) (4, 3.19093966484069824219e+00) (5, 2.68756270408630371094e+00) (6, 9.71826910972595214844e-01) (7, 1.06568074226379394531e+00) (8, 1.02697181701660156250e+00) (9, 1.14990592002868652344e+00) (10, 1.05457031726837158203e+00) 
