FANN_FLO_2.1
num_layers=3
learning_rate=0.500000
connection_rate=1.000000
network_type=0
learning_momentum=0.000000
training_algorithm=2
train_error_function=1
train_stop_function=0
cascade_output_change_fraction=0.010000
quickprop_decay=-0.000100
quickprop_mu=1.750000
rprop_increase_factor=1.200000
rprop_decrease_factor=0.500000
rprop_delta_min=0.000000
rprop_delta_max=50.000000
rprop_delta_zero=0.100000
cascade_output_stagnation_epochs=12
cascade_candidate_change_fraction=0.010000
cascade_candidate_stagnation_epochs=12
cascade_max_out_epochs=150
cascade_min_out_epochs=50
cascade_max_cand_epochs=150
cascade_min_cand_epochs=50
cascade_num_candidate_groups=2
bit_fail_limit=3.49999994039535522461e-01
cascade_candidate_limit=1.00000000000000000000e+03
cascade_weight_multiplier=4.00000005960464477539e-01
cascade_activation_functions_count=10
cascade_activation_functions=3 5 7 8 10 11 14 15 16 17 
cascade_activation_steepnesses_count=4
cascade_activation_steepnesses=2.50000000000000000000e-01 5.00000000000000000000e-01 7.50000000000000000000e-01 1.00000000000000000000e+00 
layer_sizes=10 3 2 
scale_included=0
neurons (num_inputs, activation_function, activation_steepness)=(0, 0, 0.00000000000000000000e+00) (0, 0, 0.00000000000000000000e+00) (0, 0, 0.00000000000000000000e+00) (0, 0, 0.00000000000000000000e+00) (0, 0, 0.00000000000000000000e+00) (0, 0, 0.00000000000000000000e+00) (0, 0, 0.00000000000000000000e+00) (0, 0, 0.00000000000000000000e+00) (0, 0, 0.00000000000000000000e+00) (0, 0, 0.00000000000000000000e+00) (10, 3, 5.00000000000000000000e-01) (10, 3, 5.00000000000000000000e-01) (0, 3, 0.00000000000000000000e+00) (3, 3, 5.00000000000000000000e-01) (0, 3, 0.00000000000000000000e+00) 
connections (connected_to_neuron, weight)=(0, 6.76250040531158447266e-01) (1, 4.93281221389770507812e+00) (2, 7.71387052536010742188e+00) (3, -6.59166717529296875000e+00) (4, 1.15696442127227783203e+00) (5, 4.99456930160522460938e+00) (6, -8.02297878265380859375e+00) (7, -4.89488315582275390625e+00) (8, -3.43474364280700683594e+00) (9, -2.42491436004638671875e+00) (0, 4.47226572036743164062e+00) (1, 2.73175597190856933594e-01) (2, -1.92841377258300781250e+01) (3, 1.23833274841308593750e+01) (4, -4.11229753494262695312e+00) (5, -3.42487668991088867188e+00) (6, 2.02355213165283203125e+01) (7, 4.13598012924194335938e+00) (8, 1.55359144210815429688e+01) (9, -8.56694793701171875000e+00) (10, 8.37369155883789062500e+00) (11, 2.60862159729003906250e+00) (12, -1.54280269145965576172e+00) 
