FANN_FLO_2.1
num_layers=3
learning_rate=0.500000
connection_rate=1.000000
network_type=0
learning_momentum=0.000000
training_algorithm=2
train_error_function=1
train_stop_function=0
cascade_output_change_fraction=0.010000
quickprop_decay=-0.000100
quickprop_mu=1.750000
rprop_increase_factor=1.200000
rprop_decrease_factor=0.500000
rprop_delta_min=0.000000
rprop_delta_max=50.000000
rprop_delta_zero=0.100000
cascade_output_stagnation_epochs=12
cascade_candidate_change_fraction=0.010000
cascade_candidate_stagnation_epochs=12
cascade_max_out_epochs=150
cascade_min_out_epochs=50
cascade_max_cand_epochs=150
cascade_min_cand_epochs=50
cascade_num_candidate_groups=2
bit_fail_limit=3.49999994039535522461e-01
cascade_candidate_limit=1.00000000000000000000e+03
cascade_weight_multiplier=4.00000005960464477539e-01
cascade_activation_functions_count=10
cascade_activation_functions=3 5 7 8 10 11 14 15 16 17 
cascade_activation_steepnesses_count=4
cascade_activation_steepnesses=2.50000000000000000000e-01 5.00000000000000000000e-01 7.50000000000000000000e-01 1.00000000000000000000e+00 
layer_sizes=10 3 2 
scale_included=0
neurons (num_inputs, activation_function, activation_steepness)=(0, 0, 0.00000000000000000000e+00) (0, 0, 0.00000000000000000000e+00) (0, 0, 0.00000000000000000000e+00) (0, 0, 0.00000000000000000000e+00) (0, 0, 0.00000000000000000000e+00) (0, 0, 0.00000000000000000000e+00) (0, 0, 0.00000000000000000000e+00) (0, 0, 0.00000000000000000000e+00) (0, 0, 0.00000000000000000000e+00) (0, 0, 0.00000000000000000000e+00) (10, 3, 5.00000000000000000000e-01) (10, 3, 5.00000000000000000000e-01) (0, 3, 0.00000000000000000000e+00) (3, 3, 5.00000000000000000000e-01) (0, 3, 0.00000000000000000000e+00) 
connections (connected_to_neuron, weight)=(0, 2.22171592712402343750e+00) (1, 1.05488624572753906250e+01) (2, 8.35708427429199218750e+00) (3, -3.87604331970214843750e+00) (4, -4.30507749319076538086e-01) (5, 5.18904256820678710938e+00) (6, -8.24218845367431640625e+00) (7, -9.52279376983642578125e+00) (8, -2.53983807563781738281e+00) (9, -4.34417724609375000000e+00) (0, -1.71714198589324951172e+00) (1, -1.38237609863281250000e+01) (2, -1.08529081344604492188e+01) (3, 8.20684814453125000000e+00) (4, -1.55481147766113281250e+00) (5, -4.71828365325927734375e+00) (6, 9.00526905059814453125e+00) (7, 1.16721019744873046875e+01) (8, 4.93824100494384765625e+00) (9, -3.84626197814941406250e+00) (10, 5.45240163803100585938e+00) (11, 3.90277266502380371094e+00) (12, -2.94592082500457763672e-01) 
