FANN_FLO_2.1
num_layers=3
learning_rate=0.500000
connection_rate=1.000000
network_type=0
learning_momentum=0.000000
training_algorithm=2
train_error_function=1
train_stop_function=0
cascade_output_change_fraction=0.010000
quickprop_decay=-0.000100
quickprop_mu=1.750000
rprop_increase_factor=1.200000
rprop_decrease_factor=0.500000
rprop_delta_min=0.000000
rprop_delta_max=50.000000
rprop_delta_zero=0.100000
cascade_output_stagnation_epochs=12
cascade_candidate_change_fraction=0.010000
cascade_candidate_stagnation_epochs=12
cascade_max_out_epochs=150
cascade_min_out_epochs=50
cascade_max_cand_epochs=150
cascade_min_cand_epochs=50
cascade_num_candidate_groups=2
bit_fail_limit=3.49999994039535522461e-01
cascade_candidate_limit=1.00000000000000000000e+03
cascade_weight_multiplier=4.00000005960464477539e-01
cascade_activation_functions_count=10
cascade_activation_functions=3 5 7 8 10 11 14 15 16 17 
cascade_activation_steepnesses_count=4
cascade_activation_steepnesses=2.50000000000000000000e-01 5.00000000000000000000e-01 7.50000000000000000000e-01 1.00000000000000000000e+00 
layer_sizes=10 5 2 
scale_included=0
neurons (num_inputs, activation_function, activation_steepness)=(0, 0, 0.00000000000000000000e+00) (0, 0, 0.00000000000000000000e+00) (0, 0, 0.00000000000000000000e+00) (0, 0, 0.00000000000000000000e+00) (0, 0, 0.00000000000000000000e+00) (0, 0, 0.00000000000000000000e+00) (0, 0, 0.00000000000000000000e+00) (0, 0, 0.00000000000000000000e+00) (0, 0, 0.00000000000000000000e+00) (0, 0, 0.00000000000000000000e+00) (10, 3, 5.00000000000000000000e-01) (10, 3, 5.00000000000000000000e-01) (10, 3, 5.00000000000000000000e-01) (10, 3, 5.00000000000000000000e-01) (0, 3, 0.00000000000000000000e+00) (5, 3, 5.00000000000000000000e-01) (0, 3, 0.00000000000000000000e+00) 
connections (connected_to_neuron, weight)=(0, 8.13867032527923583984e-01) (1, 7.50307273864746093750e+00) (2, 6.19220972061157226562e+00) (3, -9.73622512817382812500e+00) (4, 6.63948178291320800781e-01) (5, 9.81478023529052734375e+00) (6, -7.84405088424682617188e+00) (7, -1.13505477905273437500e+01) (8, -2.28877162933349609375e+00) (9, -1.64842262864112854004e-01) (0, 8.90894889831542968750e+00) (1, -1.04911363124847412109e+00) (2, -5.09086894989013671875e+00) (3, 1.57348623275756835938e+01) (4, 3.94559890031814575195e-01) (5, -1.73734722137451171875e+01) (6, 6.18955802917480468750e+00) (7, -3.08119606971740722656e+00) (8, -7.78375387191772460938e+00) (9, -1.46104085445404052734e+00) (0, -1.31807746887207031250e+01) (1, -8.90319442749023437500e+00) (2, -2.53456974029541015625e+00) (3, -3.34892868995666503906e+00) (4, 5.88997244834899902344e-01) (5, 5.69911146163940429688e+00) (6, -2.42094285786151885986e-02) (7, 1.01642761230468750000e+01) (8, 9.06923961639404296875e+00) (9, -2.16674184799194335938e+00) (0, -1.43304169178009033203e+00) (1, 4.31319618225097656250e+00) (2, 8.19365692138671875000e+00) (3, 5.68116760253906250000e+00) (4, 1.27198779582977294922e+00) (5, -1.43184101581573486328e+00) (6, 4.73574733734130859375e+00) (7, 3.94524224102497100830e-02) (8, 4.55804109573364257812e+00) (9, -1.05245265960693359375e+01) (10, 5.24212741851806640625e+00) (11, 4.91173171997070312500e+00) (12, 5.89003372192382812500e+00) (13, 1.56485235691070556641e+00) (14, -3.06120920181274414062e+00) 
