FANN_FLO_2.1
num_layers=3
learning_rate=0.500000
connection_rate=1.000000
network_type=0
learning_momentum=0.000000
training_algorithm=2
train_error_function=1
train_stop_function=0
cascade_output_change_fraction=0.010000
quickprop_decay=-0.000100
quickprop_mu=1.750000
rprop_increase_factor=1.200000
rprop_decrease_factor=0.500000
rprop_delta_min=0.000000
rprop_delta_max=50.000000
rprop_delta_zero=0.100000
cascade_output_stagnation_epochs=12
cascade_candidate_change_fraction=0.010000
cascade_candidate_stagnation_epochs=12
cascade_max_out_epochs=150
cascade_min_out_epochs=50
cascade_max_cand_epochs=150
cascade_min_cand_epochs=50
cascade_num_candidate_groups=2
bit_fail_limit=3.49999994039535522461e-01
cascade_candidate_limit=1.00000000000000000000e+03
cascade_weight_multiplier=4.00000005960464477539e-01
cascade_activation_functions_count=10
cascade_activation_functions=3 5 7 8 10 11 14 15 16 17 
cascade_activation_steepnesses_count=4
cascade_activation_steepnesses=2.50000000000000000000e-01 5.00000000000000000000e-01 7.50000000000000000000e-01 1.00000000000000000000e+00 
layer_sizes=10 5 2 
scale_included=0
neurons (num_inputs, activation_function, activation_steepness)=(0, 0, 0.00000000000000000000e+00) (0, 0, 0.00000000000000000000e+00) (0, 0, 0.00000000000000000000e+00) (0, 0, 0.00000000000000000000e+00) (0, 0, 0.00000000000000000000e+00) (0, 0, 0.00000000000000000000e+00) (0, 0, 0.00000000000000000000e+00) (0, 0, 0.00000000000000000000e+00) (0, 0, 0.00000000000000000000e+00) (0, 0, 0.00000000000000000000e+00) (10, 3, 5.00000000000000000000e-01) (10, 3, 5.00000000000000000000e-01) (10, 3, 5.00000000000000000000e-01) (10, 3, 5.00000000000000000000e-01) (0, 3, 0.00000000000000000000e+00) (5, 3, 5.00000000000000000000e-01) (0, 3, 0.00000000000000000000e+00) 
connections (connected_to_neuron, weight)=(0, -1.19362602233886718750e+01) (1, -1.17423171997070312500e+01) (2, 1.16057194769382476807e-01) (3, -1.07937622070312500000e+01) (4, 2.15084299445152282715e-01) (5, 9.78462696075439453125e+00) (6, -1.72757160663604736328e+00) (7, 1.14773750305175781250e+01) (8, 1.32802095413208007812e+01) (9, -3.25904417037963867188e+00) (0, 1.74660549163818359375e+01) (1, -1.18173551559448242188e+01) (2, -2.40313796997070312500e+01) (3, 2.86936855316162109375e+01) (4, 1.01583015918731689453e+00) (5, -3.08709545135498046875e+01) (6, 2.20279369354248046875e+01) (7, 3.33210635185241699219e+00) (8, -1.52176990509033203125e+01) (9, -1.70784556865692138672e+00) (0, -4.86422061920166015625e+00) (1, 3.25682818889617919922e-01) (2, 5.58091402053833007812e+00) (3, 6.65236234664916992188e+00) (4, 6.74894332885742187500e+00) (5, -4.98574018478393554688e-01) (6, 1.15539731979370117188e+01) (7, 3.88241624832153320312e+00) (8, -1.07382506132125854492e-01) (9, -1.02959938049316406250e+01) (0, 9.21001148223876953125e+00) (1, 1.40361766815185546875e+01) (2, 9.76812267303466796875e+00) (3, -7.16048002243041992188e+00) (4, 7.54133462905883789062e-01) (5, 2.78681325912475585938e+00) (6, -7.52041578292846679688e+00) (7, -2.02322635650634765625e+01) (8, -5.60243272781372070312e+00) (9, -1.98664402961730957031e+00) (10, 4.66351699829101562500e+00) (11, 3.38762521743774414062e+00) (12, 1.19808506965637207031e+00) (13, 4.61372423171997070312e+00) (14, -2.12985754013061523438e+00) 
