FANN_FLO_2.1
num_layers=3
learning_rate=0.500000
connection_rate=1.000000
network_type=0
learning_momentum=0.000000
training_algorithm=2
train_error_function=1
train_stop_function=0
cascade_output_change_fraction=0.010000
quickprop_decay=-0.000100
quickprop_mu=1.750000
rprop_increase_factor=1.200000
rprop_decrease_factor=0.500000
rprop_delta_min=0.000000
rprop_delta_max=50.000000
rprop_delta_zero=0.100000
cascade_output_stagnation_epochs=12
cascade_candidate_change_fraction=0.010000
cascade_candidate_stagnation_epochs=12
cascade_max_out_epochs=150
cascade_min_out_epochs=50
cascade_max_cand_epochs=150
cascade_min_cand_epochs=50
cascade_num_candidate_groups=2
bit_fail_limit=3.49999994039535522461e-01
cascade_candidate_limit=1.00000000000000000000e+03
cascade_weight_multiplier=4.00000005960464477539e-01
cascade_activation_functions_count=10
cascade_activation_functions=3 5 7 8 10 11 14 15 16 17 
cascade_activation_steepnesses_count=4
cascade_activation_steepnesses=2.50000000000000000000e-01 5.00000000000000000000e-01 7.50000000000000000000e-01 1.00000000000000000000e+00 
layer_sizes=6 5 2 
scale_included=0
neurons (num_inputs, activation_function, activation_steepness)=(0, 0, 0.00000000000000000000e+00) (0, 0, 0.00000000000000000000e+00) (0, 0, 0.00000000000000000000e+00) (0, 0, 0.00000000000000000000e+00) (0, 0, 0.00000000000000000000e+00) (0, 0, 0.00000000000000000000e+00) (6, 3, 5.00000000000000000000e-01) (6, 3, 5.00000000000000000000e-01) (6, 3, 5.00000000000000000000e-01) (6, 3, 5.00000000000000000000e-01) (0, 3, 0.00000000000000000000e+00) (5, 0, 5.00000000000000000000e-01) (0, 0, 0.00000000000000000000e+00) 
connections (connected_to_neuron, weight)=(0, 4.59482595324516296387e-02) (1, 6.28685593605041503906e-01) (2, -9.99951839447021484375e-01) (3, -1.94132700562477111816e-01) (4, 3.89558970928192138672e-01) (5, 2.52152800559997558594e-01) (0, 1.19337332248687744141e+00) (1, 1.34552562236785888672e+00) (2, 2.22496719360351562500e+01) (3, 4.54958820343017578125e+00) (4, -2.71938819885253906250e+01) (5, 9.02747917175292968750e+00) (0, -8.72860997915267944336e-02) (1, -9.15897309780120849609e-01) (2, 9.31127488613128662109e-01) (3, 2.39261209964752197266e-01) (4, -3.43635350465774536133e-01) (5, 3.16362500190734863281e-01) (0, 1.28076350688934326172e+00) (1, 1.49668388366699218750e+01) (2, -1.91925987601280212402e-01) (3, 5.63502454757690429688e+00) (4, -1.56380186080932617188e+01) (5, 4.35073900222778320312e+00) (6, 1.00375950336456298828e+00) (7, 1.10735094547271728516e+00) (8, 1.00793373584747314453e+00) (9, 1.10151362419128417969e+00) (10, 1.00423073768615722656e+00) 
