FANN_FLO_2.1
num_layers=3
learning_rate=0.500000
connection_rate=1.000000
network_type=0
learning_momentum=0.000000
training_algorithm=2
train_error_function=1
train_stop_function=0
cascade_output_change_fraction=0.010000
quickprop_decay=-0.000100
quickprop_mu=1.750000
rprop_increase_factor=1.200000
rprop_decrease_factor=0.500000
rprop_delta_min=0.000000
rprop_delta_max=50.000000
rprop_delta_zero=0.100000
cascade_output_stagnation_epochs=12
cascade_candidate_change_fraction=0.010000
cascade_candidate_stagnation_epochs=12
cascade_max_out_epochs=150
cascade_min_out_epochs=50
cascade_max_cand_epochs=150
cascade_min_cand_epochs=50
cascade_num_candidate_groups=2
bit_fail_limit=3.49999994039535522461e-01
cascade_candidate_limit=1.00000000000000000000e+03
cascade_weight_multiplier=4.00000005960464477539e-01
cascade_activation_functions_count=10
cascade_activation_functions=3 5 7 8 10 11 14 15 16 17 
cascade_activation_steepnesses_count=4
cascade_activation_steepnesses=2.50000000000000000000e-01 5.00000000000000000000e-01 7.50000000000000000000e-01 1.00000000000000000000e+00 
layer_sizes=10 3 2 
scale_included=0
neurons (num_inputs, activation_function, activation_steepness)=(0, 0, 0.00000000000000000000e+00) (0, 0, 0.00000000000000000000e+00) (0, 0, 0.00000000000000000000e+00) (0, 0, 0.00000000000000000000e+00) (0, 0, 0.00000000000000000000e+00) (0, 0, 0.00000000000000000000e+00) (0, 0, 0.00000000000000000000e+00) (0, 0, 0.00000000000000000000e+00) (0, 0, 0.00000000000000000000e+00) (0, 0, 0.00000000000000000000e+00) (10, 3, 5.00000000000000000000e-01) (10, 3, 5.00000000000000000000e-01) (0, 3, 0.00000000000000000000e+00) (3, 3, 5.00000000000000000000e-01) (0, 3, 0.00000000000000000000e+00) 
connections (connected_to_neuron, weight)=(0, 1.21775712966918945312e+01) (1, -1.95505738258361816406e-01) (2, -3.68886780738830566406e+00) (3, 8.22646713256835937500e+00) (4, -5.69019174575805664062e+00) (5, -7.56180095672607421875e+00) (6, 1.34422607421875000000e+01) (7, 1.28515949249267578125e+01) (8, -1.30073747634887695312e+01) (9, -6.28113889694213867188e+00) (0, -2.86684656143188476562e+00) (1, 1.19516503810882568359e+00) (2, 4.49506092071533203125e+00) (3, -1.06708269119262695312e+01) (4, 1.50723755359649658203e+00) (5, 1.20423212051391601562e+01) (6, -8.82337093353271484375e+00) (7, -3.22432875633239746094e+00) (8, 3.19807434082031250000e+00) (9, -1.81346452236175537109e+00) (10, 2.44131731986999511719e+00) (11, 5.52822399139404296875e+00) (12, -1.04729974269866943359e+00) 
