FANN_FLO_2.1
num_layers=3
learning_rate=0.500000
connection_rate=1.000000
network_type=0
learning_momentum=0.000000
training_algorithm=2
train_error_function=1
train_stop_function=0
cascade_output_change_fraction=0.010000
quickprop_decay=-0.000100
quickprop_mu=1.750000
rprop_increase_factor=1.200000
rprop_decrease_factor=0.500000
rprop_delta_min=0.000000
rprop_delta_max=50.000000
rprop_delta_zero=0.100000
cascade_output_stagnation_epochs=12
cascade_candidate_change_fraction=0.010000
cascade_candidate_stagnation_epochs=12
cascade_max_out_epochs=150
cascade_min_out_epochs=50
cascade_max_cand_epochs=150
cascade_min_cand_epochs=50
cascade_num_candidate_groups=2
bit_fail_limit=3.49999994039535522461e-01
cascade_candidate_limit=1.00000000000000000000e+03
cascade_weight_multiplier=4.00000005960464477539e-01
cascade_activation_functions_count=10
cascade_activation_functions=3 5 7 8 10 11 14 15 16 17 
cascade_activation_steepnesses_count=4
cascade_activation_steepnesses=2.50000000000000000000e-01 5.00000000000000000000e-01 7.50000000000000000000e-01 1.00000000000000000000e+00 
layer_sizes=6 5 2 
scale_included=0
neurons (num_inputs, activation_function, activation_steepness)=(0, 0, 0.00000000000000000000e+00) (0, 0, 0.00000000000000000000e+00) (0, 0, 0.00000000000000000000e+00) (0, 0, 0.00000000000000000000e+00) (0, 0, 0.00000000000000000000e+00) (0, 0, 0.00000000000000000000e+00) (6, 3, 5.00000000000000000000e-01) (6, 3, 5.00000000000000000000e-01) (6, 3, 5.00000000000000000000e-01) (6, 3, 5.00000000000000000000e-01) (0, 3, 0.00000000000000000000e+00) (5, 0, 5.00000000000000000000e-01) (0, 0, 0.00000000000000000000e+00) 
connections (connected_to_neuron, weight)=(0, 1.15861463546752929688e+00) (1, -2.18616038560867309570e-01) (2, -2.94621437788009643555e-01) (3, 1.15061414241790771484e+00) (4, -1.35964908599853515625e+01) (5, 6.30249261856079101562e+00) (0, -5.54124116897583007812e-02) (1, 1.24236755073070526123e-02) (2, -1.01646341383457183838e-01) (3, 1.37669942341744899750e-03) (4, 9.52472686767578125000e-01) (5, 1.71337738633155822754e-01) (0, 1.39881093055009841919e-02) (1, -1.54603689908981323242e-01) (2, 4.67906594276428222656e-01) (3, 1.84829443693161010742e-01) (4, -6.54077231884002685547e-01) (5, 3.66351902484893798828e-01) (0, 1.20624446868896484375e+00) (1, 2.53297758102416992188e+00) (2, -1.48028497695922851562e+01) (3, -2.77828812599182128906e+00) (4, -9.64142322540283203125e+00) (5, 3.79926514625549316406e+00) (6, 1.06435286998748779297e+00) (7, 9.70156550407409667969e-01) (8, 9.73569989204406738281e-01) (9, 1.12356603145599365234e+00) (10, 1.07522213459014892578e+00) 
