FANN_FLO_2.1
num_layers=3
learning_rate=0.500000
connection_rate=1.000000
network_type=0
learning_momentum=0.000000
training_algorithm=2
train_error_function=1
train_stop_function=0
cascade_output_change_fraction=0.010000
quickprop_decay=-0.000100
quickprop_mu=1.750000
rprop_increase_factor=1.200000
rprop_decrease_factor=0.500000
rprop_delta_min=0.000000
rprop_delta_max=50.000000
rprop_delta_zero=0.100000
cascade_output_stagnation_epochs=12
cascade_candidate_change_fraction=0.010000
cascade_candidate_stagnation_epochs=12
cascade_max_out_epochs=150
cascade_min_out_epochs=50
cascade_max_cand_epochs=150
cascade_min_cand_epochs=50
cascade_num_candidate_groups=2
bit_fail_limit=3.49999994039535522461e-01
cascade_candidate_limit=1.00000000000000000000e+03
cascade_weight_multiplier=4.00000005960464477539e-01
cascade_activation_functions_count=10
cascade_activation_functions=3 5 7 8 10 11 14 15 16 17 
cascade_activation_steepnesses_count=4
cascade_activation_steepnesses=2.50000000000000000000e-01 5.00000000000000000000e-01 7.50000000000000000000e-01 1.00000000000000000000e+00 
layer_sizes=10 5 2 
scale_included=0
neurons (num_inputs, activation_function, activation_steepness)=(0, 0, 0.00000000000000000000e+00) (0, 0, 0.00000000000000000000e+00) (0, 0, 0.00000000000000000000e+00) (0, 0, 0.00000000000000000000e+00) (0, 0, 0.00000000000000000000e+00) (0, 0, 0.00000000000000000000e+00) (0, 0, 0.00000000000000000000e+00) (0, 0, 0.00000000000000000000e+00) (0, 0, 0.00000000000000000000e+00) (0, 0, 0.00000000000000000000e+00) (10, 3, 5.00000000000000000000e-01) (10, 3, 5.00000000000000000000e-01) (10, 3, 5.00000000000000000000e-01) (10, 3, 5.00000000000000000000e-01) (0, 3, 0.00000000000000000000e+00) (5, 3, 5.00000000000000000000e-01) (0, 3, 0.00000000000000000000e+00) 
connections (connected_to_neuron, weight)=(0, 2.77488183975219726562e+00) (1, 4.13152873516082763672e-01) (2, -8.74018955230712890625e+00) (3, 7.08331012725830078125e+00) (4, 1.66887497901916503906e+00) (5, -4.62171840667724609375e+00) (6, -1.05067434310913085938e+01) (7, 2.56584701538085937500e+01) (8, -1.95331755094230175018e-03) (9, -4.29957962036132812500e+00) (0, 1.74434983730316162109e+00) (1, -1.13873100280761718750e+01) (2, -1.00646734237670898438e+01) (3, 5.00287246704101562500e+00) (4, 2.77064800262451171875e+00) (5, -1.64087162017822265625e+01) (6, 1.61300601959228515625e+01) (7, 1.10193767547607421875e+01) (8, 8.60647857189178466797e-01) (9, -4.89021062850952148438e+00) (0, 1.25794572830200195312e+01) (1, -1.95116691589355468750e+01) (2, -8.47726154327392578125e+00) (3, 2.27320442199707031250e+01) (4, 5.16320514678955078125e+00) (5, 1.90221631526947021484e+00) (6, -7.01674365997314453125e+00) (7, 8.48188781738281250000e+00) (8, 7.14531278610229492188e+00) (9, -7.78484535217285156250e+00) (0, -3.51361446082592010498e-02) (1, 1.06864032745361328125e+01) (2, 1.80131206512451171875e+01) (3, -1.30668420791625976562e+01) (4, 2.75116753578186035156e+00) (5, 4.52168178558349609375e+00) (6, -7.28302478790283203125e+00) (7, -1.60716228485107421875e+01) (8, -2.35047578811645507812e+00) (9, -3.42547512054443359375e+00) (10, 1.01282262802124023438e+00) (11, 3.93331289291381835938e+00) (12, 1.01021373271942138672e+00) (13, 4.96424627304077148438e+00) (14, -1.25143218040466308594e+00) 
