FANN_FLO_2.1
num_layers=3
learning_rate=0.500000
connection_rate=1.000000
network_type=0
learning_momentum=0.000000
training_algorithm=2
train_error_function=1
train_stop_function=0
cascade_output_change_fraction=0.010000
quickprop_decay=-0.000100
quickprop_mu=1.750000
rprop_increase_factor=1.200000
rprop_decrease_factor=0.500000
rprop_delta_min=0.000000
rprop_delta_max=50.000000
rprop_delta_zero=0.100000
cascade_output_stagnation_epochs=12
cascade_candidate_change_fraction=0.010000
cascade_candidate_stagnation_epochs=12
cascade_max_out_epochs=150
cascade_min_out_epochs=50
cascade_max_cand_epochs=150
cascade_min_cand_epochs=50
cascade_num_candidate_groups=2
bit_fail_limit=3.49999994039535522461e-01
cascade_candidate_limit=1.00000000000000000000e+03
cascade_weight_multiplier=4.00000005960464477539e-01
cascade_activation_functions_count=10
cascade_activation_functions=3 5 7 8 10 11 14 15 16 17 
cascade_activation_steepnesses_count=4
cascade_activation_steepnesses=2.50000000000000000000e-01 5.00000000000000000000e-01 7.50000000000000000000e-01 1.00000000000000000000e+00 
layer_sizes=6 5 2 
scale_included=0
neurons (num_inputs, activation_function, activation_steepness)=(0, 0, 0.00000000000000000000e+00) (0, 0, 0.00000000000000000000e+00) (0, 0, 0.00000000000000000000e+00) (0, 0, 0.00000000000000000000e+00) (0, 0, 0.00000000000000000000e+00) (0, 0, 0.00000000000000000000e+00) (6, 3, 5.00000000000000000000e-01) (6, 3, 5.00000000000000000000e-01) (6, 3, 5.00000000000000000000e-01) (6, 3, 5.00000000000000000000e-01) (0, 3, 0.00000000000000000000e+00) (5, 0, 5.00000000000000000000e-01) (0, 0, 0.00000000000000000000e+00) 
connections (connected_to_neuron, weight)=(0, -3.76497149467468261719e-01) (1, 5.96046686172485351562e-01) (2, 3.91121536493301391602e-01) (3, -4.68753650784492492676e-02) (4, -7.30416253209114074707e-02) (5, 3.69979351758956909180e-01) (0, 1.23635864257812500000e+00) (1, -7.10040140151977539062e+00) (2, 1.84924781322479248047e+00) (3, 1.87598264217376708984e+00) (4, 8.18628132343292236328e-01) (5, 1.74206197261810302734e+00) (0, 6.44822493195533752441e-02) (1, -4.68660205602645874023e-01) (2, 1.61000207066535949707e-01) (3, -3.65491032600402832031e-01) (4, -2.34785184264183044434e-01) (5, 3.29620450735092163086e-01) (0, 1.10709226131439208984e+00) (1, 3.51718759536743164062e+00) (2, -5.21987438201904296875e+00) (3, -1.91906958818435668945e-01) (4, 2.57878446578979492188e+00) (5, 1.43366086483001708984e+00) (6, 9.27674293518066406250e-01) (7, 1.18831396102905273438e+00) (8, 9.17576968669891357422e-01) (9, 1.05673372745513916016e+00) (10, 1.21265399456024169922e+00) 
