FANN_FLO_2.1
num_layers=3
learning_rate=0.500000
connection_rate=1.000000
network_type=0
learning_momentum=0.000000
training_algorithm=2
train_error_function=1
train_stop_function=0
cascade_output_change_fraction=0.010000
quickprop_decay=-0.000100
quickprop_mu=1.750000
rprop_increase_factor=1.200000
rprop_decrease_factor=0.500000
rprop_delta_min=0.000000
rprop_delta_max=50.000000
rprop_delta_zero=0.100000
cascade_output_stagnation_epochs=12
cascade_candidate_change_fraction=0.010000
cascade_candidate_stagnation_epochs=12
cascade_max_out_epochs=150
cascade_min_out_epochs=50
cascade_max_cand_epochs=150
cascade_min_cand_epochs=50
cascade_num_candidate_groups=2
bit_fail_limit=3.49999994039535522461e-01
cascade_candidate_limit=1.00000000000000000000e+03
cascade_weight_multiplier=4.00000005960464477539e-01
cascade_activation_functions_count=10
cascade_activation_functions=3 5 7 8 10 11 14 15 16 17 
cascade_activation_steepnesses_count=4
cascade_activation_steepnesses=2.50000000000000000000e-01 5.00000000000000000000e-01 7.50000000000000000000e-01 1.00000000000000000000e+00 
layer_sizes=10 3 2 
scale_included=0
neurons (num_inputs, activation_function, activation_steepness)=(0, 0, 0.00000000000000000000e+00) (0, 0, 0.00000000000000000000e+00) (0, 0, 0.00000000000000000000e+00) (0, 0, 0.00000000000000000000e+00) (0, 0, 0.00000000000000000000e+00) (0, 0, 0.00000000000000000000e+00) (0, 0, 0.00000000000000000000e+00) (0, 0, 0.00000000000000000000e+00) (0, 0, 0.00000000000000000000e+00) (0, 0, 0.00000000000000000000e+00) (10, 3, 5.00000000000000000000e-01) (10, 3, 5.00000000000000000000e-01) (0, 3, 0.00000000000000000000e+00) (3, 3, 5.00000000000000000000e-01) (0, 3, 0.00000000000000000000e+00) 
connections (connected_to_neuron, weight)=(0, 9.25454902648925781250e+00) (1, 1.83520469665527343750e+01) (2, 1.37784547805786132812e+01) (3, -6.54192066192626953125e+00) (4, -1.77463638782501220703e+00) (5, 4.38251733779907226562e+00) (6, -1.24632501602172851562e+01) (7, -1.90891399383544921875e+01) (8, -3.22552967071533203125e+00) (9, -5.53505277633666992188e+00) (0, -4.73422479629516601562e+00) (1, -1.07131137847900390625e+01) (2, -7.87553262710571289062e+00) (3, 5.43403339385986328125e+00) (4, -3.66018009185791015625e+00) (5, -8.47481608390808105469e-01) (6, 5.21410083770751953125e+00) (7, 1.39930591583251953125e+01) (8, 3.93599843978881835938e+00) (9, -2.98473000526428222656e+00) (10, 3.49443888664245605469e+00) (11, 3.55535197257995605469e+00) (12, -4.49545204639434814453e-01) 
