FANN_FLO_2.1
num_layers=3
learning_rate=0.500000
connection_rate=1.000000
network_type=0
learning_momentum=0.000000
training_algorithm=2
train_error_function=1
train_stop_function=0
cascade_output_change_fraction=0.010000
quickprop_decay=-0.000100
quickprop_mu=1.750000
rprop_increase_factor=1.200000
rprop_decrease_factor=0.500000
rprop_delta_min=0.000000
rprop_delta_max=50.000000
rprop_delta_zero=0.100000
cascade_output_stagnation_epochs=12
cascade_candidate_change_fraction=0.010000
cascade_candidate_stagnation_epochs=12
cascade_max_out_epochs=150
cascade_min_out_epochs=50
cascade_max_cand_epochs=150
cascade_min_cand_epochs=50
cascade_num_candidate_groups=2
bit_fail_limit=3.49999994039535522461e-01
cascade_candidate_limit=1.00000000000000000000e+03
cascade_weight_multiplier=4.00000005960464477539e-01
cascade_activation_functions_count=10
cascade_activation_functions=3 5 7 8 10 11 14 15 16 17 
cascade_activation_steepnesses_count=4
cascade_activation_steepnesses=2.50000000000000000000e-01 5.00000000000000000000e-01 7.50000000000000000000e-01 1.00000000000000000000e+00 
layer_sizes=10 3 2 
scale_included=0
neurons (num_inputs, activation_function, activation_steepness)=(0, 0, 0.00000000000000000000e+00) (0, 0, 0.00000000000000000000e+00) (0, 0, 0.00000000000000000000e+00) (0, 0, 0.00000000000000000000e+00) (0, 0, 0.00000000000000000000e+00) (0, 0, 0.00000000000000000000e+00) (0, 0, 0.00000000000000000000e+00) (0, 0, 0.00000000000000000000e+00) (0, 0, 0.00000000000000000000e+00) (0, 0, 0.00000000000000000000e+00) (10, 3, 5.00000000000000000000e-01) (10, 3, 5.00000000000000000000e-01) (0, 3, 0.00000000000000000000e+00) (3, 3, 5.00000000000000000000e-01) (0, 3, 0.00000000000000000000e+00) 
connections (connected_to_neuron, weight)=(0, -1.83807528018951416016e+00) (1, 1.82432591915130615234e+00) (2, 1.35223850607872009277e-01) (3, 4.13322830200195312500e+00) (4, -9.96123969554901123047e-01) (5, 1.46142053604125976562e+00) (6, 8.16328823566436767578e-01) (7, -7.68266499042510986328e-01) (8, 1.51010096073150634766e+00) (9, -4.21793031692504882812e+00) (0, -2.88093477487564086914e-01) (1, 4.80267429351806640625e+00) (2, 1.25392362475395202637e-01) (3, 5.96335601806640625000e+00) (4, -3.93097591400146484375e+00) (5, 7.23076105117797851562e+00) (6, 5.79519939422607421875e+00) (7, 4.58661794662475585938e-01) (8, 1.74929708242416381836e-01) (9, -7.24860906600952148438e+00) (10, -4.96455812454223632812e+00) (11, 3.00281763076782226562e+00) (12, 2.23098531365394592285e-01) 
