FANN_FLO_2.1
num_layers=3
learning_rate=0.500000
connection_rate=1.000000
network_type=0
learning_momentum=0.000000
training_algorithm=2
train_error_function=1
train_stop_function=0
cascade_output_change_fraction=0.010000
quickprop_decay=-0.000100
quickprop_mu=1.750000
rprop_increase_factor=1.200000
rprop_decrease_factor=0.500000
rprop_delta_min=0.000000
rprop_delta_max=50.000000
rprop_delta_zero=0.100000
cascade_output_stagnation_epochs=12
cascade_candidate_change_fraction=0.010000
cascade_candidate_stagnation_epochs=12
cascade_max_out_epochs=150
cascade_min_out_epochs=50
cascade_max_cand_epochs=150
cascade_min_cand_epochs=50
cascade_num_candidate_groups=2
bit_fail_limit=3.49999994039535522461e-01
cascade_candidate_limit=1.00000000000000000000e+03
cascade_weight_multiplier=4.00000005960464477539e-01
cascade_activation_functions_count=10
cascade_activation_functions=3 5 7 8 10 11 14 15 16 17 
cascade_activation_steepnesses_count=4
cascade_activation_steepnesses=2.50000000000000000000e-01 5.00000000000000000000e-01 7.50000000000000000000e-01 1.00000000000000000000e+00 
layer_sizes=10 3 2 
scale_included=0
neurons (num_inputs, activation_function, activation_steepness)=(0, 0, 0.00000000000000000000e+00) (0, 0, 0.00000000000000000000e+00) (0, 0, 0.00000000000000000000e+00) (0, 0, 0.00000000000000000000e+00) (0, 0, 0.00000000000000000000e+00) (0, 0, 0.00000000000000000000e+00) (0, 0, 0.00000000000000000000e+00) (0, 0, 0.00000000000000000000e+00) (0, 0, 0.00000000000000000000e+00) (0, 0, 0.00000000000000000000e+00) (10, 3, 5.00000000000000000000e-01) (10, 3, 5.00000000000000000000e-01) (0, 3, 0.00000000000000000000e+00) (3, 3, 5.00000000000000000000e-01) (0, 3, 0.00000000000000000000e+00) 
connections (connected_to_neuron, weight)=(0, 7.06466627120971679688e+00) (1, 3.37180584669113159180e-01) (2, -4.76103496551513671875e+00) (3, 8.45162773132324218750e+00) (4, -3.40463280677795410156e+00) (5, -1.04647121429443359375e+01) (6, 2.80774450302124023438e+00) (7, 4.94371056556701660156e-01) (8, -7.42767620086669921875e+00) (9, -8.96884083747863769531e-01) (0, -6.12388467788696289062e+00) (1, 6.95967960357666015625e+00) (2, 3.68907546997070312500e+00) (3, -9.94559860229492187500e+00) (4, 1.08974909782409667969e+00) (5, 1.60992908477783203125e+01) (6, 4.95666360855102539062e+00) (7, 7.41020262241363525391e-01) (8, 6.26050233840942382812e+00) (9, -7.19993591308593750000e+00) (10, 5.95059633255004882812e+00) (11, 2.84902119636535644531e+00) (12, -1.76699995994567871094e+00) 
