FANN_FLO_2.1
num_layers=3
learning_rate=0.500000
connection_rate=1.000000
network_type=0
learning_momentum=0.000000
training_algorithm=2
train_error_function=1
train_stop_function=0
cascade_output_change_fraction=0.010000
quickprop_decay=-0.000100
quickprop_mu=1.750000
rprop_increase_factor=1.200000
rprop_decrease_factor=0.500000
rprop_delta_min=0.000000
rprop_delta_max=50.000000
rprop_delta_zero=0.100000
cascade_output_stagnation_epochs=12
cascade_candidate_change_fraction=0.010000
cascade_candidate_stagnation_epochs=12
cascade_max_out_epochs=150
cascade_min_out_epochs=50
cascade_max_cand_epochs=150
cascade_min_cand_epochs=50
cascade_num_candidate_groups=2
bit_fail_limit=3.49999994039535522461e-01
cascade_candidate_limit=1.00000000000000000000e+03
cascade_weight_multiplier=4.00000005960464477539e-01
cascade_activation_functions_count=10
cascade_activation_functions=3 5 7 8 10 11 14 15 16 17 
cascade_activation_steepnesses_count=4
cascade_activation_steepnesses=2.50000000000000000000e-01 5.00000000000000000000e-01 7.50000000000000000000e-01 1.00000000000000000000e+00 
layer_sizes=10 3 2 
scale_included=0
neurons (num_inputs, activation_function, activation_steepness)=(0, 0, 0.00000000000000000000e+00) (0, 0, 0.00000000000000000000e+00) (0, 0, 0.00000000000000000000e+00) (0, 0, 0.00000000000000000000e+00) (0, 0, 0.00000000000000000000e+00) (0, 0, 0.00000000000000000000e+00) (0, 0, 0.00000000000000000000e+00) (0, 0, 0.00000000000000000000e+00) (0, 0, 0.00000000000000000000e+00) (0, 0, 0.00000000000000000000e+00) (10, 3, 5.00000000000000000000e-01) (10, 3, 5.00000000000000000000e-01) (0, 3, 0.00000000000000000000e+00) (3, 3, 5.00000000000000000000e-01) (0, 3, 0.00000000000000000000e+00) 
connections (connected_to_neuron, weight)=(0, 7.39862632751464843750e+00) (1, -1.61203110218048095703e+00) (2, 3.57547354698181152344e+00) (3, 2.68583512306213378906e+00) (4, -2.73263311386108398438e+00) (5, 1.15362491607666015625e+01) (6, 1.56725132465362548828e+00) (7, 1.16814899444580078125e+01) (8, -8.41624450683593750000e+00) (9, -7.42476749420166015625e+00) (0, 2.17853474617004394531e+00) (1, -4.74536561965942382812e+00) (2, 7.01135587692260742188e+00) (3, 8.45569992065429687500e+00) (4, -8.93623232841491699219e-01) (5, 7.45695686340332031250e+00) (6, 1.15348625183105468750e+00) (7, 7.56515312194824218750e+00) (8, -2.37374663352966308594e+00) (9, -5.99473381042480468750e+00) (10, 1.50570225715637207031e+00) (11, 1.15993034839630126953e+00) (12, -1.15475499629974365234e+00) 
