FANN_FLO_2.1
num_layers=3
learning_rate=0.500000
connection_rate=1.000000
network_type=0
learning_momentum=0.000000
training_algorithm=2
train_error_function=1
train_stop_function=0
cascade_output_change_fraction=0.010000
quickprop_decay=-0.000100
quickprop_mu=1.750000
rprop_increase_factor=1.200000
rprop_decrease_factor=0.500000
rprop_delta_min=0.000000
rprop_delta_max=50.000000
rprop_delta_zero=0.100000
cascade_output_stagnation_epochs=12
cascade_candidate_change_fraction=0.010000
cascade_candidate_stagnation_epochs=12
cascade_max_out_epochs=150
cascade_min_out_epochs=50
cascade_max_cand_epochs=150
cascade_min_cand_epochs=50
cascade_num_candidate_groups=2
bit_fail_limit=3.49999994039535522461e-01
cascade_candidate_limit=1.00000000000000000000e+03
cascade_weight_multiplier=4.00000005960464477539e-01
cascade_activation_functions_count=10
cascade_activation_functions=3 5 7 8 10 11 14 15 16 17 
cascade_activation_steepnesses_count=4
cascade_activation_steepnesses=2.50000000000000000000e-01 5.00000000000000000000e-01 7.50000000000000000000e-01 1.00000000000000000000e+00 
layer_sizes=10 5 2 
scale_included=0
neurons (num_inputs, activation_function, activation_steepness)=(0, 0, 0.00000000000000000000e+00) (0, 0, 0.00000000000000000000e+00) (0, 0, 0.00000000000000000000e+00) (0, 0, 0.00000000000000000000e+00) (0, 0, 0.00000000000000000000e+00) (0, 0, 0.00000000000000000000e+00) (0, 0, 0.00000000000000000000e+00) (0, 0, 0.00000000000000000000e+00) (0, 0, 0.00000000000000000000e+00) (0, 0, 0.00000000000000000000e+00) (10, 3, 5.00000000000000000000e-01) (10, 3, 5.00000000000000000000e-01) (10, 3, 5.00000000000000000000e-01) (10, 3, 5.00000000000000000000e-01) (0, 3, 0.00000000000000000000e+00) (5, 3, 5.00000000000000000000e-01) (0, 3, 0.00000000000000000000e+00) 
connections (connected_to_neuron, weight)=(0, 1.66634979248046875000e+01) (1, 1.03669681549072265625e+01) (2, -1.23511095046997070312e+01) (3, -3.22346901893615722656e+00) (4, -4.84335851669311523438e+00) (5, 9.47054958343505859375e+00) (6, -1.85024070739746093750e+01) (7, 2.11915702819824218750e+01) (8, 3.82517266273498535156e+00) (9, -5.65452909469604492188e+00) (0, -5.05212354660034179688e+00) (1, 2.14537358283996582031e+00) (2, 4.49277400970458984375e+00) (3, 1.13605794906616210938e+01) (4, 4.76306629180908203125e+00) (5, 3.51773357391357421875e+00) (6, 5.02957534790039062500e+00) (7, -1.40278184413909912109e+00) (8, 9.22345519065856933594e-01) (9, -6.98167085647583007812e+00) (0, -6.05148613452911376953e-01) (1, 1.13064479827880859375e+01) (2, -1.43536233901977539062e+00) (3, 3.32112765312194824219e+00) (4, -9.76247501373291015625e+00) (5, 3.26473760604858398438e+00) (6, 3.68203234672546386719e+00) (7, 4.51635551452636718750e+00) (8, 3.10674166679382324219e+00) (9, -3.13996911048889160156e+00) (0, 7.61409425735473632812e+00) (1, 1.95398750305175781250e+01) (2, -4.60132741928100585938e+00) (3, -4.45249700546264648438e+00) (4, -2.18966503143310546875e+01) (5, 4.38483953475952148438e+00) (6, 2.09840208292007446289e-01) (7, 1.42930116653442382812e+01) (8, 5.85812568664550781250e+00) (9, -2.98597097396850585938e+00) (10, 8.08029949665069580078e-01) (11, 1.46032190322875976562e+00) (12, 1.34812533855438232422e-01) (13, 5.16497075557708740234e-01) (14, -1.48191475868225097656e+00) 
