FANN_FLO_2.1
num_layers=3
learning_rate=0.500000
connection_rate=1.000000
network_type=0
learning_momentum=0.000000
training_algorithm=2
train_error_function=1
train_stop_function=0
cascade_output_change_fraction=0.010000
quickprop_decay=-0.000100
quickprop_mu=1.750000
rprop_increase_factor=1.200000
rprop_decrease_factor=0.500000
rprop_delta_min=0.000000
rprop_delta_max=50.000000
rprop_delta_zero=0.100000
cascade_output_stagnation_epochs=12
cascade_candidate_change_fraction=0.010000
cascade_candidate_stagnation_epochs=12
cascade_max_out_epochs=150
cascade_min_out_epochs=50
cascade_max_cand_epochs=150
cascade_min_cand_epochs=50
cascade_num_candidate_groups=2
bit_fail_limit=3.49999994039535522461e-01
cascade_candidate_limit=1.00000000000000000000e+03
cascade_weight_multiplier=4.00000005960464477539e-01
cascade_activation_functions_count=10
cascade_activation_functions=3 5 7 8 10 11 14 15 16 17 
cascade_activation_steepnesses_count=4
cascade_activation_steepnesses=2.50000000000000000000e-01 5.00000000000000000000e-01 7.50000000000000000000e-01 1.00000000000000000000e+00 
layer_sizes=10 5 2 
scale_included=0
neurons (num_inputs, activation_function, activation_steepness)=(0, 0, 0.00000000000000000000e+00) (0, 0, 0.00000000000000000000e+00) (0, 0, 0.00000000000000000000e+00) (0, 0, 0.00000000000000000000e+00) (0, 0, 0.00000000000000000000e+00) (0, 0, 0.00000000000000000000e+00) (0, 0, 0.00000000000000000000e+00) (0, 0, 0.00000000000000000000e+00) (0, 0, 0.00000000000000000000e+00) (0, 0, 0.00000000000000000000e+00) (10, 3, 5.00000000000000000000e-01) (10, 3, 5.00000000000000000000e-01) (10, 3, 5.00000000000000000000e-01) (10, 3, 5.00000000000000000000e-01) (0, 3, 0.00000000000000000000e+00) (5, 3, 5.00000000000000000000e-01) (0, 3, 0.00000000000000000000e+00) 
connections (connected_to_neuron, weight)=(0, 1.09907312393188476562e+01) (1, 3.83165210485458374023e-01) (2, 1.47229881286621093750e+01) (3, -1.16138286590576171875e+01) (4, 5.19769906997680664062e+00) (5, -2.58651685714721679688e+00) (6, -3.73336911201477050781e+00) (7, 2.23955860137939453125e+01) (8, -4.71895933151245117188e+00) (9, -6.76089859008789062500e+00) (0, 4.05711889266967773438e+00) (1, 3.80247330665588378906e+00) (2, 1.34469375610351562500e+01) (3, -6.90026521682739257812e+00) (4, 5.95042037963867187500e+00) (5, -4.74456024169921875000e+00) (6, 6.93415403366088867188e+00) (7, 7.72585344314575195312e+00) (8, 4.42140340805053710938e+00) (9, -8.49423313140869140625e+00) (0, -9.63178157806396484375e+00) (1, 7.23712396621704101562e+00) (2, 1.35158491134643554688e+00) (3, 4.07260322570800781250e+00) (4, 2.14564990997314453125e+01) (5, 4.02612590789794921875e+00) (6, -2.63191342353820800781e+00) (7, 7.90440511703491210938e+00) (8, 3.65552163124084472656e+00) (9, -1.09696702957153320312e+01) (0, -3.91585946083068847656e+00) (1, -3.31630206108093261719e+00) (2, 5.26218175888061523438e+00) (3, 2.54508380889892578125e+01) (4, 1.14706144332885742188e+01) (5, 4.58289813995361328125e+00) (6, -1.61633911132812500000e+01) (7, -2.62907433509826660156e+00) (8, 1.17205533981323242188e+01) (9, -9.19154167175292968750e+00) (10, 6.92431986331939697266e-01) (11, 1.39039611816406250000e+00) (12, 1.29136785864830017090e-01) (13, 5.98688185214996337891e-01) (14, -1.40115833282470703125e+00) 
