FANN_FLO_2.1
num_layers=3
learning_rate=0.500000
connection_rate=1.000000
network_type=0
learning_momentum=0.000000
training_algorithm=2
train_error_function=1
train_stop_function=0
cascade_output_change_fraction=0.010000
quickprop_decay=-0.000100
quickprop_mu=1.750000
rprop_increase_factor=1.200000
rprop_decrease_factor=0.500000
rprop_delta_min=0.000000
rprop_delta_max=50.000000
rprop_delta_zero=0.100000
cascade_output_stagnation_epochs=12
cascade_candidate_change_fraction=0.010000
cascade_candidate_stagnation_epochs=12
cascade_max_out_epochs=150
cascade_min_out_epochs=50
cascade_max_cand_epochs=150
cascade_min_cand_epochs=50
cascade_num_candidate_groups=2
bit_fail_limit=3.49999994039535522461e-01
cascade_candidate_limit=1.00000000000000000000e+03
cascade_weight_multiplier=4.00000005960464477539e-01
cascade_activation_functions_count=10
cascade_activation_functions=3 5 7 8 10 11 14 15 16 17 
cascade_activation_steepnesses_count=4
cascade_activation_steepnesses=2.50000000000000000000e-01 5.00000000000000000000e-01 7.50000000000000000000e-01 1.00000000000000000000e+00 
layer_sizes=6 5 2 
scale_included=0
neurons (num_inputs, activation_function, activation_steepness)=(0, 0, 0.00000000000000000000e+00) (0, 0, 0.00000000000000000000e+00) (0, 0, 0.00000000000000000000e+00) (0, 0, 0.00000000000000000000e+00) (0, 0, 0.00000000000000000000e+00) (0, 0, 0.00000000000000000000e+00) (6, 3, 5.00000000000000000000e-01) (6, 3, 5.00000000000000000000e-01) (6, 3, 5.00000000000000000000e-01) (6, 3, 5.00000000000000000000e-01) (0, 3, 0.00000000000000000000e+00) (5, 0, 5.00000000000000000000e-01) (0, 0, 0.00000000000000000000e+00) 
connections (connected_to_neuron, weight)=(0, -2.27962717413902282715e-01) (1, 2.41552010178565979004e-01) (2, 2.15453788638114929199e-01) (3, -2.28748321533203125000e-02) (4, 3.18415313959121704102e-02) (5, 3.45632553100585937500e-01) (0, 2.09623798727989196777e-01) (1, 3.86360973119735717773e-01) (2, -1.10258921980857849121e-01) (3, -8.22476074099540710449e-02) (4, -1.76888555288314819336e-02) (5, 2.33436450362205505371e-01) (0, 1.18946838378906250000e+00) (1, -1.24894323348999023438e+01) (2, 4.57269668579101562500e+00) (3, -1.96261668205261230469e+00) (4, 3.67625266313552856445e-01) (5, 3.13109374046325683594e+00) (0, 1.13125562667846679688e+00) (1, -4.90193462371826171875e+00) (2, -1.20559415817260742188e+01) (3, 9.66402173042297363281e-01) (4, -3.86304903030395507812e+00) (5, 3.71711039543151855469e+00) (6, 1.05865931510925292969e+00) (7, 9.80493605136871337891e-01) (8, 1.07156479358673095703e+00) (9, 1.10603845119476318359e+00) (10, 1.03272724151611328125e+00) 
