FANN_FLO_2.1
num_layers=3
learning_rate=0.500000
connection_rate=1.000000
network_type=0
learning_momentum=0.000000
training_algorithm=2
train_error_function=1
train_stop_function=0
cascade_output_change_fraction=0.010000
quickprop_decay=-0.000100
quickprop_mu=1.750000
rprop_increase_factor=1.200000
rprop_decrease_factor=0.500000
rprop_delta_min=0.000000
rprop_delta_max=50.000000
rprop_delta_zero=0.100000
cascade_output_stagnation_epochs=12
cascade_candidate_change_fraction=0.010000
cascade_candidate_stagnation_epochs=12
cascade_max_out_epochs=150
cascade_min_out_epochs=50
cascade_max_cand_epochs=150
cascade_min_cand_epochs=50
cascade_num_candidate_groups=2
bit_fail_limit=3.49999994039535522461e-01
cascade_candidate_limit=1.00000000000000000000e+03
cascade_weight_multiplier=4.00000005960464477539e-01
cascade_activation_functions_count=10
cascade_activation_functions=3 5 7 8 10 11 14 15 16 17 
cascade_activation_steepnesses_count=4
cascade_activation_steepnesses=2.50000000000000000000e-01 5.00000000000000000000e-01 7.50000000000000000000e-01 1.00000000000000000000e+00 
layer_sizes=6 5 2 
scale_included=0
neurons (num_inputs, activation_function, activation_steepness)=(0, 0, 0.00000000000000000000e+00) (0, 0, 0.00000000000000000000e+00) (0, 0, 0.00000000000000000000e+00) (0, 0, 0.00000000000000000000e+00) (0, 0, 0.00000000000000000000e+00) (0, 0, 0.00000000000000000000e+00) (6, 3, 5.00000000000000000000e-01) (6, 3, 5.00000000000000000000e-01) (6, 3, 5.00000000000000000000e-01) (6, 3, 5.00000000000000000000e-01) (0, 3, 0.00000000000000000000e+00) (5, 0, 5.00000000000000000000e-01) (0, 0, 0.00000000000000000000e+00) 
connections (connected_to_neuron, weight)=(0, 1.04599285125732421875e+00) (1, 8.15901565551757812500e+00) (2, -5.95746707916259765625e+00) (3, -1.42461767196655273438e+01) (4, -4.62494993209838867188e+00) (5, 3.16778492927551269531e+00) (0, -6.41213059425354003906e-02) (1, -4.45542484521865844727e-01) (2, 9.35912057757377624512e-02) (3, -5.83112984895706176758e-02) (4, 8.53249803185462951660e-02) (5, 3.73690664768218994141e-01) (0, 1.12742197513580322266e+00) (1, 7.31768655776977539062e+00) (2, -1.19673693180084228516e+00) (3, 1.64262485504150390625e+01) (4, -3.15403509140014648438e+00) (5, 3.29756307601928710938e+00) (0, 2.13020341470837593079e-03) (1, -2.57837951183319091797e-01) (2, 2.08430811762809753418e-01) (3, 1.09182491898536682129e-01) (4, 1.19895860552787780762e-01) (5, 3.16958010196685791016e-01) (6, 1.07488989830017089844e+00) (7, 1.02391862869262695312e+00) (8, 1.12874555587768554688e+00) (9, 1.05259025096893310547e+00) (10, 9.69172239303588867188e-01) 
