FANN_FLO_2.1
num_layers=3
learning_rate=0.500000
connection_rate=1.000000
network_type=0
learning_momentum=0.000000
training_algorithm=2
train_error_function=1
train_stop_function=0
cascade_output_change_fraction=0.010000
quickprop_decay=-0.000100
quickprop_mu=1.750000
rprop_increase_factor=1.200000
rprop_decrease_factor=0.500000
rprop_delta_min=0.000000
rprop_delta_max=50.000000
rprop_delta_zero=0.100000
cascade_output_stagnation_epochs=12
cascade_candidate_change_fraction=0.010000
cascade_candidate_stagnation_epochs=12
cascade_max_out_epochs=150
cascade_min_out_epochs=50
cascade_max_cand_epochs=150
cascade_min_cand_epochs=50
cascade_num_candidate_groups=2
bit_fail_limit=3.49999994039535522461e-01
cascade_candidate_limit=1.00000000000000000000e+03
cascade_weight_multiplier=4.00000005960464477539e-01
cascade_activation_functions_count=10
cascade_activation_functions=3 5 7 8 10 11 14 15 16 17 
cascade_activation_steepnesses_count=4
cascade_activation_steepnesses=2.50000000000000000000e-01 5.00000000000000000000e-01 7.50000000000000000000e-01 1.00000000000000000000e+00 
layer_sizes=10 5 2 
scale_included=0
neurons (num_inputs, activation_function, activation_steepness)=(0, 0, 0.00000000000000000000e+00) (0, 0, 0.00000000000000000000e+00) (0, 0, 0.00000000000000000000e+00) (0, 0, 0.00000000000000000000e+00) (0, 0, 0.00000000000000000000e+00) (0, 0, 0.00000000000000000000e+00) (0, 0, 0.00000000000000000000e+00) (0, 0, 0.00000000000000000000e+00) (0, 0, 0.00000000000000000000e+00) (0, 0, 0.00000000000000000000e+00) (10, 3, 5.00000000000000000000e-01) (10, 3, 5.00000000000000000000e-01) (10, 3, 5.00000000000000000000e-01) (10, 3, 5.00000000000000000000e-01) (0, 3, 0.00000000000000000000e+00) (5, 3, 5.00000000000000000000e-01) (0, 3, 0.00000000000000000000e+00) 
connections (connected_to_neuron, weight)=(0, 9.02440738677978515625e+00) (1, 4.82285451889038085938e+00) (2, -1.07117443084716796875e+01) (3, 1.87104072570800781250e+01) (4, -1.40053045749664306641e+00) (5, -1.57703914642333984375e+01) (6, 7.56573343276977539062e+00) (7, -3.47703814506530761719e+00) (8, -1.14609365463256835938e+01) (9, -2.09189891815185546875e+00) (0, 5.05892634391784667969e-02) (1, 8.22858238220214843750e+00) (2, 7.49921894073486328125e+00) (3, -9.34131908416748046875e+00) (4, -1.02003657817840576172e+00) (5, 8.10846519470214843750e+00) (6, -8.45254802703857421875e+00) (7, -6.01269149780273437500e+00) (8, 2.76583820581436157227e-01) (9, -2.06246662139892578125e+00) (0, 2.50568199157714843750e+00) (1, -9.26809608936309814453e-02) (2, -3.57131838798522949219e-01) (3, 1.19668092727661132812e+01) (4, -4.84786450862884521484e-01) (5, 9.06892967224121093750e+00) (6, 7.61429452896118164062e+00) (7, 1.97610831260681152344e+00) (8, 2.70965504646301269531e+00) (9, -1.18508586883544921875e+01) (0, -8.44077396392822265625e+00) (1, -1.48244190216064453125e+01) (2, -4.24503660202026367188e+00) (3, -1.17558753490447998047e+00) (4, -1.95550426840782165527e-01) (5, 2.48685359954833984375e+00) (6, 5.20654535293579101562e+00) (7, 1.20383367538452148438e+01) (8, 7.27284336090087890625e+00) (9, -1.83644831180572509766e+00) (10, 4.82265806198120117188e+00) (11, 5.87977647781372070312e+00) (12, 6.79271042346954345703e-01) (13, 4.99190044403076171875e+00) (14, -2.97658681869506835938e+00) 
