FANN_FLO_2.1
num_layers=3
learning_rate=0.500000
connection_rate=1.000000
network_type=0
learning_momentum=0.000000
training_algorithm=2
train_error_function=1
train_stop_function=0
cascade_output_change_fraction=0.010000
quickprop_decay=-0.000100
quickprop_mu=1.750000
rprop_increase_factor=1.200000
rprop_decrease_factor=0.500000
rprop_delta_min=0.000000
rprop_delta_max=50.000000
rprop_delta_zero=0.100000
cascade_output_stagnation_epochs=12
cascade_candidate_change_fraction=0.010000
cascade_candidate_stagnation_epochs=12
cascade_max_out_epochs=150
cascade_min_out_epochs=50
cascade_max_cand_epochs=150
cascade_min_cand_epochs=50
cascade_num_candidate_groups=2
bit_fail_limit=3.49999994039535522461e-01
cascade_candidate_limit=1.00000000000000000000e+03
cascade_weight_multiplier=4.00000005960464477539e-01
cascade_activation_functions_count=10
cascade_activation_functions=3 5 7 8 10 11 14 15 16 17 
cascade_activation_steepnesses_count=4
cascade_activation_steepnesses=2.50000000000000000000e-01 5.00000000000000000000e-01 7.50000000000000000000e-01 1.00000000000000000000e+00 
layer_sizes=10 5 2 
scale_included=0
neurons (num_inputs, activation_function, activation_steepness)=(0, 0, 0.00000000000000000000e+00) (0, 0, 0.00000000000000000000e+00) (0, 0, 0.00000000000000000000e+00) (0, 0, 0.00000000000000000000e+00) (0, 0, 0.00000000000000000000e+00) (0, 0, 0.00000000000000000000e+00) (0, 0, 0.00000000000000000000e+00) (0, 0, 0.00000000000000000000e+00) (0, 0, 0.00000000000000000000e+00) (0, 0, 0.00000000000000000000e+00) (10, 3, 5.00000000000000000000e-01) (10, 3, 5.00000000000000000000e-01) (10, 3, 5.00000000000000000000e-01) (10, 3, 5.00000000000000000000e-01) (0, 3, 0.00000000000000000000e+00) (5, 3, 5.00000000000000000000e-01) (0, 3, 0.00000000000000000000e+00) 
connections (connected_to_neuron, weight)=(0, 1.34537005424499511719e+00) (1, 3.88228607177734375000e+00) (2, 3.66883850097656250000e+00) (3, 3.03303170204162597656e+00) (4, -1.76058328151702880859e+00) (5, 7.78095245361328125000e+00) (6, 6.44934558868408203125e+00) (7, 1.94457924365997314453e+00) (8, 2.43161916732788085938e-01) (9, -7.10413742065429687500e+00) (0, 4.67169380187988281250e+00) (1, -6.95724296569824218750e+00) (2, -8.76651182770729064941e-02) (3, -3.16316175460815429688e+00) (4, 2.55592083930969238281e+00) (5, -2.98528432846069335938e+00) (6, -6.35315942764282226562e+00) (7, 1.84879291057586669922e+00) (8, -3.14313340187072753906e+00) (9, 1.53015792369842529297e+00) (0, 4.38714647293090820312e+00) (1, 8.39354217052459716797e-01) (2, 7.34262132644653320312e+00) (3, 1.66253733634948730469e+00) (4, 9.40071284770965576172e-01) (5, 6.57013320922851562500e+00) (6, 3.71440029144287109375e+00) (7, 8.05214881896972656250e+00) (8, -3.10591411590576171875e+00) (9, -8.04012870788574218750e+00) (0, 9.51177299022674560547e-01) (1, 4.36484956741333007812e+00) (2, 4.76033639907836914062e+00) (3, 3.59649491310119628906e+00) (4, -2.14281105995178222656e+00) (5, 8.58686447143554687500e+00) (6, 7.66565322875976562500e+00) (7, 1.76774203777313232422e+00) (8, 6.89148902893066406250e-01) (9, -8.37295246124267578125e+00) (10, 3.79142522811889648438e-01) (11, -4.94025421142578125000e+00) (12, 7.32352912425994873047e-01) (13, 4.80070978403091430664e-01) (14, -9.50443744659423828125e-02) 
