FANN_FLO_2.1
num_layers=3
learning_rate=0.500000
connection_rate=1.000000
network_type=0
learning_momentum=0.000000
training_algorithm=2
train_error_function=1
train_stop_function=0
cascade_output_change_fraction=0.010000
quickprop_decay=-0.000100
quickprop_mu=1.750000
rprop_increase_factor=1.200000
rprop_decrease_factor=0.500000
rprop_delta_min=0.000000
rprop_delta_max=50.000000
rprop_delta_zero=0.100000
cascade_output_stagnation_epochs=12
cascade_candidate_change_fraction=0.010000
cascade_candidate_stagnation_epochs=12
cascade_max_out_epochs=150
cascade_min_out_epochs=50
cascade_max_cand_epochs=150
cascade_min_cand_epochs=50
cascade_num_candidate_groups=2
bit_fail_limit=3.49999994039535522461e-01
cascade_candidate_limit=1.00000000000000000000e+03
cascade_weight_multiplier=4.00000005960464477539e-01
cascade_activation_functions_count=10
cascade_activation_functions=3 5 7 8 10 11 14 15 16 17 
cascade_activation_steepnesses_count=4
cascade_activation_steepnesses=2.50000000000000000000e-01 5.00000000000000000000e-01 7.50000000000000000000e-01 1.00000000000000000000e+00 
layer_sizes=10 3 2 
scale_included=0
neurons (num_inputs, activation_function, activation_steepness)=(0, 0, 0.00000000000000000000e+00) (0, 0, 0.00000000000000000000e+00) (0, 0, 0.00000000000000000000e+00) (0, 0, 0.00000000000000000000e+00) (0, 0, 0.00000000000000000000e+00) (0, 0, 0.00000000000000000000e+00) (0, 0, 0.00000000000000000000e+00) (0, 0, 0.00000000000000000000e+00) (0, 0, 0.00000000000000000000e+00) (0, 0, 0.00000000000000000000e+00) (10, 3, 5.00000000000000000000e-01) (10, 3, 5.00000000000000000000e-01) (0, 3, 0.00000000000000000000e+00) (3, 3, 5.00000000000000000000e-01) (0, 3, 0.00000000000000000000e+00) 
connections (connected_to_neuron, weight)=(0, 1.14705505371093750000e+01) (1, -2.81805348396301269531e+00) (2, 3.31904888153076171875e+00) (3, 8.20132350921630859375e+00) (4, -1.51200473308563232422e-01) (5, -1.16892299652099609375e+01) (6, -7.70216560363769531250e+00) (7, -3.40395140647888183594e+00) (8, 3.02843990325927734375e+01) (9, -4.54226350784301757812e+00) (0, 2.76365137100219726562e+00) (1, 2.73239111900329589844e+00) (2, -3.92492979764938354492e-01) (3, 1.05639085769653320312e+01) (4, -4.04856634140014648438e+00) (5, 1.11901798248291015625e+01) (6, 2.44647598266601562500e+00) (7, 3.44825625419616699219e+00) (8, 6.74065589904785156250e-01) (9, -7.87815475463867187500e+00) (10, 1.91479611396789550781e+00) (11, 1.96630513668060302734e+00) (12, -2.23228859901428222656e+00) 
