FANN_FLO_2.1
num_layers=3
learning_rate=0.500000
connection_rate=1.000000
network_type=0
learning_momentum=0.000000
training_algorithm=2
train_error_function=1
train_stop_function=0
cascade_output_change_fraction=0.010000
quickprop_decay=-0.000100
quickprop_mu=1.750000
rprop_increase_factor=1.200000
rprop_decrease_factor=0.500000
rprop_delta_min=0.000000
rprop_delta_max=50.000000
rprop_delta_zero=0.100000
cascade_output_stagnation_epochs=12
cascade_candidate_change_fraction=0.010000
cascade_candidate_stagnation_epochs=12
cascade_max_out_epochs=150
cascade_min_out_epochs=50
cascade_max_cand_epochs=150
cascade_min_cand_epochs=50
cascade_num_candidate_groups=2
bit_fail_limit=3.49999994039535522461e-01
cascade_candidate_limit=1.00000000000000000000e+03
cascade_weight_multiplier=4.00000005960464477539e-01
cascade_activation_functions_count=10
cascade_activation_functions=3 5 7 8 10 11 14 15 16 17 
cascade_activation_steepnesses_count=4
cascade_activation_steepnesses=2.50000000000000000000e-01 5.00000000000000000000e-01 7.50000000000000000000e-01 1.00000000000000000000e+00 
layer_sizes=10 5 2 
scale_included=0
neurons (num_inputs, activation_function, activation_steepness)=(0, 0, 0.00000000000000000000e+00) (0, 0, 0.00000000000000000000e+00) (0, 0, 0.00000000000000000000e+00) (0, 0, 0.00000000000000000000e+00) (0, 0, 0.00000000000000000000e+00) (0, 0, 0.00000000000000000000e+00) (0, 0, 0.00000000000000000000e+00) (0, 0, 0.00000000000000000000e+00) (0, 0, 0.00000000000000000000e+00) (0, 0, 0.00000000000000000000e+00) (10, 3, 5.00000000000000000000e-01) (10, 3, 5.00000000000000000000e-01) (10, 3, 5.00000000000000000000e-01) (10, 3, 5.00000000000000000000e-01) (0, 3, 0.00000000000000000000e+00) (5, 3, 5.00000000000000000000e-01) (0, 3, 0.00000000000000000000e+00) 
connections (connected_to_neuron, weight)=(0, 1.43646106719970703125e+01) (1, 2.47701740264892578125e+01) (2, 1.06970539093017578125e+01) (3, 6.63463711738586425781e-01) (4, -3.43989104032516479492e-01) (5, 1.12931764125823974609e+00) (6, -1.43949480056762695312e+01) (7, -2.08483123779296875000e+01) (8, -1.72025184631347656250e+01) (9, -3.88976478576660156250e+00) (0, -1.90423145294189453125e+01) (1, -8.37061309814453125000e+00) (2, 6.82053518295288085938e+00) (3, -2.08515682220458984375e+01) (4, -1.23292338848114013672e+00) (5, 2.84357624053955078125e+01) (6, -1.29696102142333984375e+01) (7, 7.52624750137329101562e+00) (8, 1.62059860229492187500e+01) (9, -3.47865557670593261719e+00) (0, -9.51434898376464843750e+00) (1, 3.60700875520706176758e-01) (2, -3.12060117721557617188e-01) (3, 1.16412410736083984375e+01) (4, 3.40068030357360839844e+00) (5, -5.52290153503417968750e+00) (6, 1.26355676651000976562e+01) (7, 4.34049797058105468750e+00) (8, 3.59725022315979003906e+00) (9, -8.15311813354492187500e+00) (0, 1.45476245880126953125e+00) (1, -1.35984840393066406250e+01) (2, -1.22198085784912109375e+01) (3, 1.25426855087280273438e+01) (4, 2.17302513122558593750e+00) (5, -1.73458614349365234375e+01) (6, 1.34078063964843750000e+01) (7, 9.42072200775146484375e+00) (8, 1.87241005897521972656e+00) (9, -2.65087771415710449219e+00) (10, 3.97288966178894042969e+00) (11, 4.15817832946777343750e+00) (12, 7.49541997909545898438e-01) (13, 4.19623708724975585938e+00) (14, -2.00772595405578613281e+00) 
