FANN_FLO_2.1
num_layers=3
learning_rate=0.500000
connection_rate=1.000000
network_type=0
learning_momentum=0.000000
training_algorithm=2
train_error_function=1
train_stop_function=0
cascade_output_change_fraction=0.010000
quickprop_decay=-0.000100
quickprop_mu=1.750000
rprop_increase_factor=1.200000
rprop_decrease_factor=0.500000
rprop_delta_min=0.000000
rprop_delta_max=50.000000
rprop_delta_zero=0.100000
cascade_output_stagnation_epochs=12
cascade_candidate_change_fraction=0.010000
cascade_candidate_stagnation_epochs=12
cascade_max_out_epochs=150
cascade_min_out_epochs=50
cascade_max_cand_epochs=150
cascade_min_cand_epochs=50
cascade_num_candidate_groups=2
bit_fail_limit=3.49999994039535522461e-01
cascade_candidate_limit=1.00000000000000000000e+03
cascade_weight_multiplier=4.00000005960464477539e-01
cascade_activation_functions_count=10
cascade_activation_functions=3 5 7 8 10 11 14 15 16 17 
cascade_activation_steepnesses_count=4
cascade_activation_steepnesses=2.50000000000000000000e-01 5.00000000000000000000e-01 7.50000000000000000000e-01 1.00000000000000000000e+00 
layer_sizes=10 5 2 
scale_included=0
neurons (num_inputs, activation_function, activation_steepness)=(0, 0, 0.00000000000000000000e+00) (0, 0, 0.00000000000000000000e+00) (0, 0, 0.00000000000000000000e+00) (0, 0, 0.00000000000000000000e+00) (0, 0, 0.00000000000000000000e+00) (0, 0, 0.00000000000000000000e+00) (0, 0, 0.00000000000000000000e+00) (0, 0, 0.00000000000000000000e+00) (0, 0, 0.00000000000000000000e+00) (0, 0, 0.00000000000000000000e+00) (10, 3, 5.00000000000000000000e-01) (10, 3, 5.00000000000000000000e-01) (10, 3, 5.00000000000000000000e-01) (10, 3, 5.00000000000000000000e-01) (0, 3, 0.00000000000000000000e+00) (5, 3, 5.00000000000000000000e-01) (0, 3, 0.00000000000000000000e+00) 
connections (connected_to_neuron, weight)=(0, -1.66392779350280761719e+00) (1, 3.06662702560424804688e+00) (2, 6.18579387664794921875e+00) (3, 4.88701105117797851562e+00) (4, -9.63709831237792968750e-01) (5, 7.00888824462890625000e+00) (6, 6.92945051193237304688e+00) (7, 1.17563843727111816406e+00) (8, -8.89103338122367858887e-02) (9, -7.63928842544555664062e+00) (0, 4.45681750774383544922e-01) (1, 4.23386335372924804688e+00) (2, 2.07847642898559570312e+00) (3, 2.75683498382568359375e+00) (4, -2.14277291297912597656e+00) (5, 6.53475666046142578125e+00) (6, 6.38982915878295898438e+00) (7, 1.17693328857421875000e+00) (8, 1.01551079750061035156e+00) (9, -6.54194927215576171875e+00) (0, -3.55027890205383300781e+00) (1, 1.20656347274780273438e+01) (2, -2.86268424987792968750e+00) (3, 5.73714637756347656250e+00) (4, -8.52313327789306640625e+00) (5, 5.48917055130004882812e+00) (6, 7.46806716918945312500e+00) (7, 7.29669690132141113281e-01) (8, 8.13575553894042968750e+00) (9, -6.89922094345092773438e+00) (0, 1.65448501706123352051e-01) (1, 9.46312487125396728516e-01) (2, 2.14288234710693359375e-02) (3, 1.13152027130126953125e+00) (4, -8.48661839962005615234e-01) (5, 7.92253792285919189453e-01) (6, 1.17498123645782470703e+00) (7, 1.46578714251518249512e-01) (8, 1.15638911724090576172e+00) (9, -2.39941668510437011719e+00) (10, 1.55386900901794433594e+00) (11, 1.14564180374145507812e+00) (12, 1.53310620784759521484e+00) (13, -3.93254804611206054688e+00) (14, -8.08342576026916503906e-01) 
