FANN_FLO_2.1
num_layers=3
learning_rate=0.500000
connection_rate=1.000000
network_type=0
learning_momentum=0.000000
training_algorithm=2
train_error_function=1
train_stop_function=0
cascade_output_change_fraction=0.010000
quickprop_decay=-0.000100
quickprop_mu=1.750000
rprop_increase_factor=1.200000
rprop_decrease_factor=0.500000
rprop_delta_min=0.000000
rprop_delta_max=50.000000
rprop_delta_zero=0.100000
cascade_output_stagnation_epochs=12
cascade_candidate_change_fraction=0.010000
cascade_candidate_stagnation_epochs=12
cascade_max_out_epochs=150
cascade_min_out_epochs=50
cascade_max_cand_epochs=150
cascade_min_cand_epochs=50
cascade_num_candidate_groups=2
bit_fail_limit=3.49999994039535522461e-01
cascade_candidate_limit=1.00000000000000000000e+03
cascade_weight_multiplier=4.00000005960464477539e-01
cascade_activation_functions_count=10
cascade_activation_functions=3 5 7 8 10 11 14 15 16 17 
cascade_activation_steepnesses_count=4
cascade_activation_steepnesses=2.50000000000000000000e-01 5.00000000000000000000e-01 7.50000000000000000000e-01 1.00000000000000000000e+00 
layer_sizes=10 5 2 
scale_included=0
neurons (num_inputs, activation_function, activation_steepness)=(0, 0, 0.00000000000000000000e+00) (0, 0, 0.00000000000000000000e+00) (0, 0, 0.00000000000000000000e+00) (0, 0, 0.00000000000000000000e+00) (0, 0, 0.00000000000000000000e+00) (0, 0, 0.00000000000000000000e+00) (0, 0, 0.00000000000000000000e+00) (0, 0, 0.00000000000000000000e+00) (0, 0, 0.00000000000000000000e+00) (0, 0, 0.00000000000000000000e+00) (10, 3, 5.00000000000000000000e-01) (10, 3, 5.00000000000000000000e-01) (10, 3, 5.00000000000000000000e-01) (10, 3, 5.00000000000000000000e-01) (0, 3, 0.00000000000000000000e+00) (5, 3, 5.00000000000000000000e-01) (0, 3, 0.00000000000000000000e+00) 
connections (connected_to_neuron, weight)=(0, -9.70413303375244140625e+00) (1, 1.30444869995117187500e+01) (2, 1.53272181749343872070e-01) (3, 1.10558500289916992188e+01) (4, -8.53754580020904541016e-01) (5, 7.94169378280639648438e+00) (6, -4.48851156234741210938e+00) (7, 1.30941781997680664062e+01) (8, 3.92906332015991210938e+00) (9, -1.08774623870849609375e+01) (0, 1.74922065734863281250e+01) (1, 1.85454078018665313721e-02) (2, -3.99814915657043457031e+00) (3, -7.79242217540740966797e-01) (4, 3.21080535650253295898e-01) (5, -5.16317673027515411377e-02) (6, -1.52445993423461914062e+01) (7, 1.29147127270698547363e-01) (8, 2.08738059997558593750e+01) (9, -4.53076410293579101562e+00) (0, 8.90034675598144531250e+00) (1, -1.58776760101318359375e+00) (2, -3.65027904510498046875e+00) (3, 1.50354671478271484375e+01) (4, 2.14112377166748046875e+00) (5, -2.35007400512695312500e+01) (6, 9.01227760314941406250e+00) (7, -3.59606838226318359375e+00) (8, -6.98955726623535156250e+00) (9, -1.43488562107086181641e+00) (0, -6.38162565231323242188e+00) (1, 3.78961078822612762451e-02) (2, 6.25287580490112304688e+00) (3, -1.70764579772949218750e+01) (4, -2.68238711357116699219e+00) (5, 1.37003440856933593750e+01) (6, -7.35166311264038085938e+00) (7, 9.04875397682189941406e-01) (8, 8.79364585876464843750e+00) (9, -1.31335604190826416016e+00) (10, 1.30585086345672607422e+00) (11, 6.79536283016204833984e-01) (12, 4.26495456695556640625e+00) (13, 3.80269122123718261719e+00) (14, -2.04756665229797363281e+00) 
