FANN_FLO_2.1
num_layers=3
learning_rate=0.500000
connection_rate=1.000000
network_type=0
learning_momentum=0.000000
training_algorithm=2
train_error_function=1
train_stop_function=0
cascade_output_change_fraction=0.010000
quickprop_decay=-0.000100
quickprop_mu=1.750000
rprop_increase_factor=1.200000
rprop_decrease_factor=0.500000
rprop_delta_min=0.000000
rprop_delta_max=50.000000
rprop_delta_zero=0.100000
cascade_output_stagnation_epochs=12
cascade_candidate_change_fraction=0.010000
cascade_candidate_stagnation_epochs=12
cascade_max_out_epochs=150
cascade_min_out_epochs=50
cascade_max_cand_epochs=150
cascade_min_cand_epochs=50
cascade_num_candidate_groups=2
bit_fail_limit=3.49999994039535522461e-01
cascade_candidate_limit=1.00000000000000000000e+03
cascade_weight_multiplier=4.00000005960464477539e-01
cascade_activation_functions_count=10
cascade_activation_functions=3 5 7 8 10 11 14 15 16 17 
cascade_activation_steepnesses_count=4
cascade_activation_steepnesses=2.50000000000000000000e-01 5.00000000000000000000e-01 7.50000000000000000000e-01 1.00000000000000000000e+00 
layer_sizes=10 3 2 
scale_included=0
neurons (num_inputs, activation_function, activation_steepness)=(0, 0, 0.00000000000000000000e+00) (0, 0, 0.00000000000000000000e+00) (0, 0, 0.00000000000000000000e+00) (0, 0, 0.00000000000000000000e+00) (0, 0, 0.00000000000000000000e+00) (0, 0, 0.00000000000000000000e+00) (0, 0, 0.00000000000000000000e+00) (0, 0, 0.00000000000000000000e+00) (0, 0, 0.00000000000000000000e+00) (0, 0, 0.00000000000000000000e+00) (10, 3, 5.00000000000000000000e-01) (10, 3, 5.00000000000000000000e-01) (0, 3, 0.00000000000000000000e+00) (3, 3, 5.00000000000000000000e-01) (0, 3, 0.00000000000000000000e+00) 
connections (connected_to_neuron, weight)=(0, -6.80456495285034179688e+00) (1, -3.56006920337677001953e-01) (2, 9.35037899017333984375e+00) (3, -1.80649375915527343750e+01) (4, 1.39390242099761962891e+00) (5, 1.75205993652343750000e+01) (6, -6.90759325027465820312e+00) (7, 2.10942685604095458984e-01) (8, 5.85065174102783203125e+00) (9, -4.08248424530029296875e+00) (0, 8.39632034301757812500e+00) (1, -3.73981165885925292969e+00) (2, -6.68707418441772460938e+00) (3, 1.61517944335937500000e+01) (4, 2.04615402221679687500e+00) (5, -1.76046161651611328125e+01) (6, 5.40016889572143554688e+00) (7, 2.58993053436279296875e+00) (8, -5.63983821868896484375e+00) (9, -2.87571763992309570312e+00) (10, 3.78597998619079589844e+00) (11, 3.68610095977783203125e+00) (12, -7.10972428321838378906e-01) 
