FANN_FLO_2.1
num_layers=3
learning_rate=0.500000
connection_rate=1.000000
network_type=0
learning_momentum=0.000000
training_algorithm=2
train_error_function=1
train_stop_function=0
cascade_output_change_fraction=0.010000
quickprop_decay=-0.000100
quickprop_mu=1.750000
rprop_increase_factor=1.200000
rprop_decrease_factor=0.500000
rprop_delta_min=0.000000
rprop_delta_max=50.000000
rprop_delta_zero=0.100000
cascade_output_stagnation_epochs=12
cascade_candidate_change_fraction=0.010000
cascade_candidate_stagnation_epochs=12
cascade_max_out_epochs=150
cascade_min_out_epochs=50
cascade_max_cand_epochs=150
cascade_min_cand_epochs=50
cascade_num_candidate_groups=2
bit_fail_limit=3.49999994039535522461e-01
cascade_candidate_limit=1.00000000000000000000e+03
cascade_weight_multiplier=4.00000005960464477539e-01
cascade_activation_functions_count=10
cascade_activation_functions=3 5 7 8 10 11 14 15 16 17 
cascade_activation_steepnesses_count=4
cascade_activation_steepnesses=2.50000000000000000000e-01 5.00000000000000000000e-01 7.50000000000000000000e-01 1.00000000000000000000e+00 
layer_sizes=10 5 2 
scale_included=0
neurons (num_inputs, activation_function, activation_steepness)=(0, 0, 0.00000000000000000000e+00) (0, 0, 0.00000000000000000000e+00) (0, 0, 0.00000000000000000000e+00) (0, 0, 0.00000000000000000000e+00) (0, 0, 0.00000000000000000000e+00) (0, 0, 0.00000000000000000000e+00) (0, 0, 0.00000000000000000000e+00) (0, 0, 0.00000000000000000000e+00) (0, 0, 0.00000000000000000000e+00) (0, 0, 0.00000000000000000000e+00) (10, 3, 5.00000000000000000000e-01) (10, 3, 5.00000000000000000000e-01) (10, 3, 5.00000000000000000000e-01) (10, 3, 5.00000000000000000000e-01) (0, 3, 0.00000000000000000000e+00) (5, 3, 5.00000000000000000000e-01) (0, 3, 0.00000000000000000000e+00) 
connections (connected_to_neuron, weight)=(0, 6.25971746444702148438e+00) (1, 1.60403041839599609375e+01) (2, 1.69862973690032958984e+00) (3, 5.50852012634277343750e+00) (4, 4.27015185356140136719e-01) (5, -2.39470505714416503906e+00) (6, -7.36908912658691406250e+00) (7, -1.47803325653076171875e+01) (8, -8.81091785430908203125e+00) (9, -1.02272760868072509766e+00) (0, 7.95097291469573974609e-01) (1, 1.10006418228149414062e+01) (2, 7.37065315246582031250e+00) (3, -1.18575918674468994141e+00) (4, 1.90981194376945495605e-01) (5, 3.40360641479492187500e+00) (6, -7.17000198364257812500e+00) (7, -1.03075599670410156250e+01) (8, -1.54846775531768798828e+00) (9, 6.14681899547576904297e-01) (0, -5.52156791090965270996e-02) (1, -3.20269227027893066406e+00) (2, 1.10957555770874023438e+01) (3, 1.33698091506958007812e+01) (4, 7.50582695007324218750e-01) (5, 3.32523822784423828125e+00) (6, 3.48933577537536621094e+00) (7, -2.17403888702392578125e+00) (8, 6.27697801589965820312e+00) (9, -1.03031673431396484375e+01) (0, -1.89181251525878906250e+01) (1, 5.30208826065063476562e+00) (2, 1.21147031784057617188e+01) (3, -2.18716430664062500000e+01) (4, 1.50031447410583496094e+00) (5, 2.14727287292480468750e+01) (6, -1.61423511505126953125e+01) (7, 1.85347950458526611328e+00) (8, 9.72546100616455078125e+00) (9, -2.00571060180664062500e+00) (10, 5.22054243087768554688e+00) (11, -4.94755935668945312500e+00) (12, 1.90823984146118164062e+00) (13, 3.85900187492370605469e+00) (14, 8.97263169288635253906e-01) 
