FANN_FLO_2.1
num_layers=3
learning_rate=0.500000
connection_rate=1.000000
network_type=0
learning_momentum=0.000000
training_algorithm=2
train_error_function=1
train_stop_function=0
cascade_output_change_fraction=0.010000
quickprop_decay=-0.000100
quickprop_mu=1.750000
rprop_increase_factor=1.200000
rprop_decrease_factor=0.500000
rprop_delta_min=0.000000
rprop_delta_max=50.000000
rprop_delta_zero=0.100000
cascade_output_stagnation_epochs=12
cascade_candidate_change_fraction=0.010000
cascade_candidate_stagnation_epochs=12
cascade_max_out_epochs=150
cascade_min_out_epochs=50
cascade_max_cand_epochs=150
cascade_min_cand_epochs=50
cascade_num_candidate_groups=2
bit_fail_limit=3.49999994039535522461e-01
cascade_candidate_limit=1.00000000000000000000e+03
cascade_weight_multiplier=4.00000005960464477539e-01
cascade_activation_functions_count=10
cascade_activation_functions=3 5 7 8 10 11 14 15 16 17 
cascade_activation_steepnesses_count=4
cascade_activation_steepnesses=2.50000000000000000000e-01 5.00000000000000000000e-01 7.50000000000000000000e-01 1.00000000000000000000e+00 
layer_sizes=6 5 2 
scale_included=0
neurons (num_inputs, activation_function, activation_steepness)=(0, 0, 0.00000000000000000000e+00) (0, 0, 0.00000000000000000000e+00) (0, 0, 0.00000000000000000000e+00) (0, 0, 0.00000000000000000000e+00) (0, 0, 0.00000000000000000000e+00) (0, 0, 0.00000000000000000000e+00) (6, 3, 5.00000000000000000000e-01) (6, 3, 5.00000000000000000000e-01) (6, 3, 5.00000000000000000000e-01) (6, 3, 5.00000000000000000000e-01) (0, 3, 0.00000000000000000000e+00) (5, 0, 5.00000000000000000000e-01) (0, 0, 0.00000000000000000000e+00) 
connections (connected_to_neuron, weight)=(0, 1.06617617607116699219e+00) (1, -1.33541460037231445312e+01) (2, -5.62115955352783203125e+00) (3, -2.96342134475708007812e+00) (4, -1.60880422592163085938e+00) (5, 4.00719118118286132812e+00) (0, -3.40171873569488525391e-01) (1, 2.13680401444435119629e-01) (2, 2.76974201202392578125e-01) (3, -1.72306895256042480469e-01) (4, 1.53439462184906005859e-01) (5, 1.70748934149742126465e-01) (0, 9.54187333583831787109e-01) (1, 3.55873274803161621094e+00) (2, -5.21458911895751953125e+00) (3, -2.32504948973655700684e-01) (4, 1.23725187778472900391e+00) (5, 1.60993587970733642578e+00) (0, 8.97843956947326660156e-01) (1, -2.92471313476562500000e+00) (2, 3.51659321784973144531e+00) (3, 5.65023779869079589844e-01) (4, 1.75685986876487731934e-01) (5, 1.41200113296508789062e+00) (6, 9.97716665267944335938e-01) (7, 9.33709263801574707031e-01) (8, 1.01594376564025878906e+00) (9, 9.88023340702056884766e-01) (10, 1.07347667217254638672e+00) 
