FANN_FLO_2.1
num_layers=3
learning_rate=0.500000
connection_rate=1.000000
network_type=0
learning_momentum=0.000000
training_algorithm=2
train_error_function=1
train_stop_function=0
cascade_output_change_fraction=0.010000
quickprop_decay=-0.000100
quickprop_mu=1.750000
rprop_increase_factor=1.200000
rprop_decrease_factor=0.500000
rprop_delta_min=0.000000
rprop_delta_max=50.000000
rprop_delta_zero=0.100000
cascade_output_stagnation_epochs=12
cascade_candidate_change_fraction=0.010000
cascade_candidate_stagnation_epochs=12
cascade_max_out_epochs=150
cascade_min_out_epochs=50
cascade_max_cand_epochs=150
cascade_min_cand_epochs=50
cascade_num_candidate_groups=2
bit_fail_limit=3.49999994039535522461e-01
cascade_candidate_limit=1.00000000000000000000e+03
cascade_weight_multiplier=4.00000005960464477539e-01
cascade_activation_functions_count=10
cascade_activation_functions=3 5 7 8 10 11 14 15 16 17 
cascade_activation_steepnesses_count=4
cascade_activation_steepnesses=2.50000000000000000000e-01 5.00000000000000000000e-01 7.50000000000000000000e-01 1.00000000000000000000e+00 
layer_sizes=10 3 2 
scale_included=0
neurons (num_inputs, activation_function, activation_steepness)=(0, 0, 0.00000000000000000000e+00) (0, 0, 0.00000000000000000000e+00) (0, 0, 0.00000000000000000000e+00) (0, 0, 0.00000000000000000000e+00) (0, 0, 0.00000000000000000000e+00) (0, 0, 0.00000000000000000000e+00) (0, 0, 0.00000000000000000000e+00) (0, 0, 0.00000000000000000000e+00) (0, 0, 0.00000000000000000000e+00) (0, 0, 0.00000000000000000000e+00) (10, 3, 5.00000000000000000000e-01) (10, 3, 5.00000000000000000000e-01) (0, 3, 0.00000000000000000000e+00) (3, 3, 5.00000000000000000000e-01) (0, 3, 0.00000000000000000000e+00) 
connections (connected_to_neuron, weight)=(0, 8.89432728290557861328e-01) (1, 9.42810916900634765625e+00) (2, 9.00376737117767333984e-01) (3, 5.21192407608032226562e+00) (4, -1.17177190780639648438e+01) (5, 1.70447406768798828125e+01) (6, 1.33872537612915039062e+01) (7, 3.58918619155883789062e+00) (8, -1.04813556671142578125e+01) (9, -9.56585216522216796875e+00) (0, 1.60698623657226562500e+01) (1, 3.83421063423156738281e+00) (2, -4.73494291305541992188e+00) (3, 5.68234634399414062500e+00) (4, -8.46911334991455078125e+00) (5, 1.53559150695800781250e+01) (6, 7.03298234939575195312e+00) (7, 2.93936699628829956055e-01) (8, 1.62089538574218750000e+01) (9, -1.43628578186035156250e+01) (10, 6.37739241123199462891e-01) (11, 1.25173616409301757812e+00) (12, -4.35780704021453857422e-01) 
