FANN_FLO_2.1
num_layers=3
learning_rate=0.500000
connection_rate=1.000000
network_type=0
learning_momentum=0.000000
training_algorithm=2
train_error_function=1
train_stop_function=0
cascade_output_change_fraction=0.010000
quickprop_decay=-0.000100
quickprop_mu=1.750000
rprop_increase_factor=1.200000
rprop_decrease_factor=0.500000
rprop_delta_min=0.000000
rprop_delta_max=50.000000
rprop_delta_zero=0.100000
cascade_output_stagnation_epochs=12
cascade_candidate_change_fraction=0.010000
cascade_candidate_stagnation_epochs=12
cascade_max_out_epochs=150
cascade_min_out_epochs=50
cascade_max_cand_epochs=150
cascade_min_cand_epochs=50
cascade_num_candidate_groups=2
bit_fail_limit=3.49999994039535522461e-01
cascade_candidate_limit=1.00000000000000000000e+03
cascade_weight_multiplier=4.00000005960464477539e-01
cascade_activation_functions_count=10
cascade_activation_functions=3 5 7 8 10 11 14 15 16 17 
cascade_activation_steepnesses_count=4
cascade_activation_steepnesses=2.50000000000000000000e-01 5.00000000000000000000e-01 7.50000000000000000000e-01 1.00000000000000000000e+00 
layer_sizes=10 3 2 
scale_included=0
neurons (num_inputs, activation_function, activation_steepness)=(0, 0, 0.00000000000000000000e+00) (0, 0, 0.00000000000000000000e+00) (0, 0, 0.00000000000000000000e+00) (0, 0, 0.00000000000000000000e+00) (0, 0, 0.00000000000000000000e+00) (0, 0, 0.00000000000000000000e+00) (0, 0, 0.00000000000000000000e+00) (0, 0, 0.00000000000000000000e+00) (0, 0, 0.00000000000000000000e+00) (0, 0, 0.00000000000000000000e+00) (10, 3, 5.00000000000000000000e-01) (10, 3, 5.00000000000000000000e-01) (0, 3, 0.00000000000000000000e+00) (3, 3, 5.00000000000000000000e-01) (0, 3, 0.00000000000000000000e+00) 
connections (connected_to_neuron, weight)=(0, -4.60398340225219726562e+00) (1, -1.93225879669189453125e+01) (2, 2.73941078186035156250e+01) (3, 2.47872447967529296875e+01) (4, -5.75721025466918945312e+00) (5, 4.20725440979003906250e+00) (6, -3.48569542169570922852e-01) (7, 2.42418956756591796875e+00) (8, 1.50208151340484619141e+00) (9, -5.63606405258178710938e+00) (0, 1.03084981441497802734e+00) (1, 2.30781841278076171875e+00) (2, 8.39957809448242187500e+00) (3, 1.01652202606201171875e+01) (4, 2.23637714982032775879e-01) (5, 9.21386623382568359375e+00) (6, 5.74605798721313476562e+00) (7, 3.41176414489746093750e+00) (8, 4.75242376327514648438e+00) (9, -1.42742376327514648438e+01) (10, 9.08813476562500000000e-01) (11, 1.17863762378692626953e+00) (12, -6.75775587558746337891e-01) 
