FANN_FLO_2.1
num_layers=3
learning_rate=0.500000
connection_rate=1.000000
network_type=0
learning_momentum=0.000000
training_algorithm=2
train_error_function=1
train_stop_function=0
cascade_output_change_fraction=0.010000
quickprop_decay=-0.000100
quickprop_mu=1.750000
rprop_increase_factor=1.200000
rprop_decrease_factor=0.500000
rprop_delta_min=0.000000
rprop_delta_max=50.000000
rprop_delta_zero=0.100000
cascade_output_stagnation_epochs=12
cascade_candidate_change_fraction=0.010000
cascade_candidate_stagnation_epochs=12
cascade_max_out_epochs=150
cascade_min_out_epochs=50
cascade_max_cand_epochs=150
cascade_min_cand_epochs=50
cascade_num_candidate_groups=2
bit_fail_limit=3.49999994039535522461e-01
cascade_candidate_limit=1.00000000000000000000e+03
cascade_weight_multiplier=4.00000005960464477539e-01
cascade_activation_functions_count=10
cascade_activation_functions=3 5 7 8 10 11 14 15 16 17 
cascade_activation_steepnesses_count=4
cascade_activation_steepnesses=2.50000000000000000000e-01 5.00000000000000000000e-01 7.50000000000000000000e-01 1.00000000000000000000e+00 
layer_sizes=6 5 2 
scale_included=0
neurons (num_inputs, activation_function, activation_steepness)=(0, 0, 0.00000000000000000000e+00) (0, 0, 0.00000000000000000000e+00) (0, 0, 0.00000000000000000000e+00) (0, 0, 0.00000000000000000000e+00) (0, 0, 0.00000000000000000000e+00) (0, 0, 0.00000000000000000000e+00) (6, 3, 5.00000000000000000000e-01) (6, 3, 5.00000000000000000000e-01) (6, 3, 5.00000000000000000000e-01) (6, 3, 5.00000000000000000000e-01) (0, 3, 0.00000000000000000000e+00) (5, 0, 5.00000000000000000000e-01) (0, 0, 0.00000000000000000000e+00) 
connections (connected_to_neuron, weight)=(0, -9.87902358174324035645e-02) (1, 2.52463847398757934570e-01) (2, 2.72996276617050170898e-01) (3, 9.65407669544219970703e-01) (4, 2.06024855375289916992e-01) (5, 2.39376351237297058105e-01) (0, -1.12556748092174530029e-01) (1, 1.24887168407440185547e-01) (2, 2.20209211111068725586e-01) (3, -9.23951029777526855469e-01) (4, -2.27850615978240966797e-01) (5, 3.48950117826461791992e-01) (0, 1.02958452701568603516e+00) (1, -1.10786495208740234375e+01) (2, 7.76179409027099609375e+00) (3, -4.75679445266723632812e+00) (4, 3.78814506530761718750e+00) (5, 4.08644914627075195312e+00) (0, 2.26199448108673095703e-01) (1, -2.15087890625000000000e-01) (2, -9.02288973331451416016e-01) (3, 5.39745539426803588867e-02) (4, -3.57746362686157226562e-01) (5, 2.74595081806182861328e-01) (6, 1.13538074493408203125e+00) (7, 1.13974261283874511719e+00) (8, 1.25404250621795654297e+00) (9, 1.04916095733642578125e+00) (10, 1.20034945011138916016e+00) 
