FANN_FLO_2.1
num_layers=3
learning_rate=0.500000
connection_rate=1.000000
network_type=0
learning_momentum=0.000000
training_algorithm=2
train_error_function=1
train_stop_function=0
cascade_output_change_fraction=0.010000
quickprop_decay=-0.000100
quickprop_mu=1.750000
rprop_increase_factor=1.200000
rprop_decrease_factor=0.500000
rprop_delta_min=0.000000
rprop_delta_max=50.000000
rprop_delta_zero=0.100000
cascade_output_stagnation_epochs=12
cascade_candidate_change_fraction=0.010000
cascade_candidate_stagnation_epochs=12
cascade_max_out_epochs=150
cascade_min_out_epochs=50
cascade_max_cand_epochs=150
cascade_min_cand_epochs=50
cascade_num_candidate_groups=2
bit_fail_limit=3.49999994039535522461e-01
cascade_candidate_limit=1.00000000000000000000e+03
cascade_weight_multiplier=4.00000005960464477539e-01
cascade_activation_functions_count=10
cascade_activation_functions=3 5 7 8 10 11 14 15 16 17 
cascade_activation_steepnesses_count=4
cascade_activation_steepnesses=2.50000000000000000000e-01 5.00000000000000000000e-01 7.50000000000000000000e-01 1.00000000000000000000e+00 
layer_sizes=10 3 2 
scale_included=0
neurons (num_inputs, activation_function, activation_steepness)=(0, 0, 0.00000000000000000000e+00) (0, 0, 0.00000000000000000000e+00) (0, 0, 0.00000000000000000000e+00) (0, 0, 0.00000000000000000000e+00) (0, 0, 0.00000000000000000000e+00) (0, 0, 0.00000000000000000000e+00) (0, 0, 0.00000000000000000000e+00) (0, 0, 0.00000000000000000000e+00) (0, 0, 0.00000000000000000000e+00) (0, 0, 0.00000000000000000000e+00) (10, 3, 5.00000000000000000000e-01) (10, 3, 5.00000000000000000000e-01) (0, 3, 0.00000000000000000000e+00) (3, 3, 5.00000000000000000000e-01) (0, 3, 0.00000000000000000000e+00) 
connections (connected_to_neuron, weight)=(0, 3.94129037857055664062e-01) (1, 9.30051422119140625000e+00) (2, 8.16082191467285156250e+00) (3, -6.29194545745849609375e+00) (4, -1.18287694454193115234e+00) (5, 5.07808256149291992188e+00) (6, -6.95832490921020507812e+00) (7, -7.69193363189697265625e+00) (8, 1.58916145563125610352e-01) (9, -2.68620538711547851562e+00) (0, -1.43290948867797851562e+00) (1, -6.05702972412109375000e+00) (2, -1.00689802169799804688e+01) (3, 7.70791530609130859375e+00) (4, 3.37663590908050537109e-01) (5, -3.58655524253845214844e+00) (6, 3.63706851005554199219e+00) (7, 8.55318737030029296875e+00) (8, 7.88953065872192382812e-01) (9, -1.75337719917297363281e+00) (10, 4.56722640991210937500e+00) (11, 4.07264566421508789062e+00) (12, -1.07828199863433837891e+00) 
