FANN_FLO_2.1
num_layers=3
learning_rate=0.500000
connection_rate=1.000000
network_type=0
learning_momentum=0.000000
training_algorithm=2
train_error_function=1
train_stop_function=0
cascade_output_change_fraction=0.010000
quickprop_decay=-0.000100
quickprop_mu=1.750000
rprop_increase_factor=1.200000
rprop_decrease_factor=0.500000
rprop_delta_min=0.000000
rprop_delta_max=50.000000
rprop_delta_zero=0.100000
cascade_output_stagnation_epochs=12
cascade_candidate_change_fraction=0.010000
cascade_candidate_stagnation_epochs=12
cascade_max_out_epochs=150
cascade_min_out_epochs=50
cascade_max_cand_epochs=150
cascade_min_cand_epochs=50
cascade_num_candidate_groups=2
bit_fail_limit=3.49999994039535522461e-01
cascade_candidate_limit=1.00000000000000000000e+03
cascade_weight_multiplier=4.00000005960464477539e-01
cascade_activation_functions_count=10
cascade_activation_functions=3 5 7 8 10 11 14 15 16 17 
cascade_activation_steepnesses_count=4
cascade_activation_steepnesses=2.50000000000000000000e-01 5.00000000000000000000e-01 7.50000000000000000000e-01 1.00000000000000000000e+00 
layer_sizes=6 5 2 
scale_included=0
neurons (num_inputs, activation_function, activation_steepness)=(0, 0, 0.00000000000000000000e+00) (0, 0, 0.00000000000000000000e+00) (0, 0, 0.00000000000000000000e+00) (0, 0, 0.00000000000000000000e+00) (0, 0, 0.00000000000000000000e+00) (0, 0, 0.00000000000000000000e+00) (6, 3, 5.00000000000000000000e-01) (6, 3, 5.00000000000000000000e-01) (6, 3, 5.00000000000000000000e-01) (6, 3, 5.00000000000000000000e-01) (0, 3, 0.00000000000000000000e+00) (5, 0, 5.00000000000000000000e-01) (0, 0, 0.00000000000000000000e+00) 
connections (connected_to_neuron, weight)=(0, 1.33347153663635253906e+00) (1, -3.19389367103576660156e+00) (2, 9.78932666778564453125e+00) (3, -1.38253402709960937500e+00) (4, -5.85657596588134765625e+00) (5, 1.90458059310913085938e+00) (0, -2.91337788105010986328e-01) (1, -1.49702966213226318359e-01) (2, -1.41927868127822875977e-01) (3, -2.29620039463043212891e-01) (4, 2.20448538661003112793e-01) (5, 2.48474612832069396973e-01) (0, 1.36509537696838378906e+00) (1, 8.64436626434326171875e+00) (2, -2.34479475021362304688e+00) (3, 5.17137527465820312500e+00) (4, -3.00439405441284179688e+00) (5, 1.99975728988647460938e+00) (0, 1.00558221340179443359e+00) (1, -2.13007545471191406250e+00) (2, -3.48112511634826660156e+00) (3, -4.75343286991119384766e-01) (4, 4.22047901153564453125e+00) (5, 1.85766851902008056641e+00) (6, 1.00284659862518310547e+00) (7, 9.61361408233642578125e-01) (8, 9.76365089416503906250e-01) (9, 1.03464949131011962891e+00) (10, 9.76230502128601074219e-01) 
