FANN_FLO_2.1
num_layers=3
learning_rate=0.500000
connection_rate=1.000000
network_type=0
learning_momentum=0.000000
training_algorithm=2
train_error_function=1
train_stop_function=0
cascade_output_change_fraction=0.010000
quickprop_decay=-0.000100
quickprop_mu=1.750000
rprop_increase_factor=1.200000
rprop_decrease_factor=0.500000
rprop_delta_min=0.000000
rprop_delta_max=50.000000
rprop_delta_zero=0.100000
cascade_output_stagnation_epochs=12
cascade_candidate_change_fraction=0.010000
cascade_candidate_stagnation_epochs=12
cascade_max_out_epochs=150
cascade_min_out_epochs=50
cascade_max_cand_epochs=150
cascade_min_cand_epochs=50
cascade_num_candidate_groups=2
bit_fail_limit=3.49999994039535522461e-01
cascade_candidate_limit=1.00000000000000000000e+03
cascade_weight_multiplier=4.00000005960464477539e-01
cascade_activation_functions_count=10
cascade_activation_functions=3 5 7 8 10 11 14 15 16 17 
cascade_activation_steepnesses_count=4
cascade_activation_steepnesses=2.50000000000000000000e-01 5.00000000000000000000e-01 7.50000000000000000000e-01 1.00000000000000000000e+00 
layer_sizes=10 5 2 
scale_included=0
neurons (num_inputs, activation_function, activation_steepness)=(0, 0, 0.00000000000000000000e+00) (0, 0, 0.00000000000000000000e+00) (0, 0, 0.00000000000000000000e+00) (0, 0, 0.00000000000000000000e+00) (0, 0, 0.00000000000000000000e+00) (0, 0, 0.00000000000000000000e+00) (0, 0, 0.00000000000000000000e+00) (0, 0, 0.00000000000000000000e+00) (0, 0, 0.00000000000000000000e+00) (0, 0, 0.00000000000000000000e+00) (10, 3, 5.00000000000000000000e-01) (10, 3, 5.00000000000000000000e-01) (10, 3, 5.00000000000000000000e-01) (10, 3, 5.00000000000000000000e-01) (0, 3, 0.00000000000000000000e+00) (5, 3, 5.00000000000000000000e-01) (0, 3, 0.00000000000000000000e+00) 
connections (connected_to_neuron, weight)=(0, 5.28563880920410156250e+00) (1, 8.94616889953613281250e+00) (2, 9.59897804260253906250e+00) (3, 1.85172832012176513672e+00) (4, 2.42386603355407714844e+00) (5, -7.05024123191833496094e-01) (6, -7.80479049682617187500e+00) (7, -1.96361923217773437500e+01) (8, -5.47846508026123046875e+00) (9, -9.11142468452453613281e-01) (0, 3.45861363410949707031e+00) (1, -7.20389842987060546875e-01) (2, 2.83969640731811523438e+00) (3, 7.91794347763061523438e+00) (4, -7.62735223770141601562e+00) (5, 3.86108398437500000000e+00) (6, 5.34115028381347656250e+00) (7, -2.25943112373352050781e+00) (8, 1.21998081207275390625e+01) (9, -7.36418771743774414062e+00) (0, -3.99716806411743164062e+00) (1, -1.77262458801269531250e+01) (2, -7.51995468139648437500e+00) (3, -3.23936915397644042969e+00) (4, 2.86088347434997558594e+00) (5, -1.16385507583618164062e+00) (6, 6.45415496826171875000e+00) (7, 1.69667835235595703125e+01) (8, 3.66686868667602539062e+00) (9, -1.45170640945434570312e+00) (0, 3.89633560180664062500e+00) (1, 1.48976838588714599609e+00) (2, -6.50711917877197265625e+00) (3, 5.10498142242431640625e+00) (4, -7.17920660972595214844e-01) (5, 4.42266082763671875000e+00) (6, 9.37599849700927734375e+00) (7, -3.55455040931701660156e+00) (8, 1.67940444946289062500e+01) (9, -1.04603481292724609375e+01) (10, 4.66746997833251953125e+00) (11, 6.07712745666503906250e-01) (12, 4.16102075576782226562e+00) (13, 1.16937518119812011719e+00) (14, -1.79729342460632324219e+00) 
