FANN_FLO_2.1
num_layers=3
learning_rate=0.500000
connection_rate=1.000000
network_type=0
learning_momentum=0.000000
training_algorithm=2
train_error_function=1
train_stop_function=0
cascade_output_change_fraction=0.010000
quickprop_decay=-0.000100
quickprop_mu=1.750000
rprop_increase_factor=1.200000
rprop_decrease_factor=0.500000
rprop_delta_min=0.000000
rprop_delta_max=50.000000
rprop_delta_zero=0.100000
cascade_output_stagnation_epochs=12
cascade_candidate_change_fraction=0.010000
cascade_candidate_stagnation_epochs=12
cascade_max_out_epochs=150
cascade_min_out_epochs=50
cascade_max_cand_epochs=150
cascade_min_cand_epochs=50
cascade_num_candidate_groups=2
bit_fail_limit=3.49999994039535522461e-01
cascade_candidate_limit=1.00000000000000000000e+03
cascade_weight_multiplier=4.00000005960464477539e-01
cascade_activation_functions_count=10
cascade_activation_functions=3 5 7 8 10 11 14 15 16 17 
cascade_activation_steepnesses_count=4
cascade_activation_steepnesses=2.50000000000000000000e-01 5.00000000000000000000e-01 7.50000000000000000000e-01 1.00000000000000000000e+00 
layer_sizes=10 5 2 
scale_included=0
neurons (num_inputs, activation_function, activation_steepness)=(0, 0, 0.00000000000000000000e+00) (0, 0, 0.00000000000000000000e+00) (0, 0, 0.00000000000000000000e+00) (0, 0, 0.00000000000000000000e+00) (0, 0, 0.00000000000000000000e+00) (0, 0, 0.00000000000000000000e+00) (0, 0, 0.00000000000000000000e+00) (0, 0, 0.00000000000000000000e+00) (0, 0, 0.00000000000000000000e+00) (0, 0, 0.00000000000000000000e+00) (10, 3, 5.00000000000000000000e-01) (10, 3, 5.00000000000000000000e-01) (10, 3, 5.00000000000000000000e-01) (10, 3, 5.00000000000000000000e-01) (0, 3, 0.00000000000000000000e+00) (5, 3, 5.00000000000000000000e-01) (0, 3, 0.00000000000000000000e+00) 
connections (connected_to_neuron, weight)=(0, -6.10199260711669921875e+00) (1, -1.09592313766479492188e+01) (2, -4.52206754684448242188e+00) (3, 1.35074436664581298828e-01) (4, -2.59294867515563964844e-01) (5, -5.64319670200347900391e-01) (6, 2.97774100303649902344e+00) (7, 1.36246299743652343750e+01) (8, 3.00702357292175292969e+00) (9, -1.28213167190551757812e+00) (0, 1.40158855915069580078e+00) (1, -1.32001176476478576660e-01) (2, 6.40975427627563476562e+00) (3, 4.82421875000000000000e+00) (4, 1.46068835258483886719e+00) (5, 4.27879333496093750000e+00) (6, 7.07772970199584960938e+00) (7, -4.94597101211547851562e+00) (8, 2.71209788322448730469e+00) (9, -6.96023607254028320312e+00) (0, 1.07957348632812500000e+03) (1, 3.86406636238098144531e+00) (2, 1.50000000000000000000e+03) (3, -1.04047574996948242188e+01) (4, 1.80296421051025390625e+00) (5, 5.41530323028564453125e+00) (6, 3.98283863067626953125e+00) (7, 3.42297434806823730469e+00) (8, 4.13507819175720214844e-01) (9, -5.67184638977050781250e+00) (0, -4.84882068634033203125e+00) (1, -7.14898204803466796875e+00) (2, -2.16933774948120117188e+00) (3, 7.79181897640228271484e-01) (4, -6.01342916488647460938e-02) (5, 3.12766849994659423828e-01) (6, 2.72723174095153808594e+00) (7, 9.14366245269775390625e+00) (8, 3.94541835784912109375e+00) (9, 1.45986631512641906738e-01) (10, 6.67308282852172851562e+00) (11, 3.31142520904541015625e+00) (12, 1.00962567329406738281e+00) (13, -5.09818983078002929688e+00) (14, -2.28227078914642333984e-01) 
