FANN_FLO_2.1
num_layers=3
learning_rate=0.500000
connection_rate=1.000000
network_type=0
learning_momentum=0.000000
training_algorithm=2
train_error_function=1
train_stop_function=0
cascade_output_change_fraction=0.010000
quickprop_decay=-0.000100
quickprop_mu=1.750000
rprop_increase_factor=1.200000
rprop_decrease_factor=0.500000
rprop_delta_min=0.000000
rprop_delta_max=50.000000
rprop_delta_zero=0.100000
cascade_output_stagnation_epochs=12
cascade_candidate_change_fraction=0.010000
cascade_candidate_stagnation_epochs=12
cascade_max_out_epochs=150
cascade_min_out_epochs=50
cascade_max_cand_epochs=150
cascade_min_cand_epochs=50
cascade_num_candidate_groups=2
bit_fail_limit=3.49999994039535522461e-01
cascade_candidate_limit=1.00000000000000000000e+03
cascade_weight_multiplier=4.00000005960464477539e-01
cascade_activation_functions_count=10
cascade_activation_functions=3 5 7 8 10 11 14 15 16 17 
cascade_activation_steepnesses_count=4
cascade_activation_steepnesses=2.50000000000000000000e-01 5.00000000000000000000e-01 7.50000000000000000000e-01 1.00000000000000000000e+00 
layer_sizes=10 5 2 
scale_included=0
neurons (num_inputs, activation_function, activation_steepness)=(0, 0, 0.00000000000000000000e+00) (0, 0, 0.00000000000000000000e+00) (0, 0, 0.00000000000000000000e+00) (0, 0, 0.00000000000000000000e+00) (0, 0, 0.00000000000000000000e+00) (0, 0, 0.00000000000000000000e+00) (0, 0, 0.00000000000000000000e+00) (0, 0, 0.00000000000000000000e+00) (0, 0, 0.00000000000000000000e+00) (0, 0, 0.00000000000000000000e+00) (10, 3, 5.00000000000000000000e-01) (10, 3, 5.00000000000000000000e-01) (10, 3, 5.00000000000000000000e-01) (10, 3, 5.00000000000000000000e-01) (0, 3, 0.00000000000000000000e+00) (5, 3, 5.00000000000000000000e-01) (0, 3, 0.00000000000000000000e+00) 
connections (connected_to_neuron, weight)=(0, -2.14381203055381774902e-01) (1, 6.20547942817211151123e-02) (2, 1.15848374366760253906e+00) (3, 2.55720353126525878906e+00) (4, 8.02236258983612060547e-01) (5, -1.33504927158355712891e-01) (6, -4.94107341766357421875e+00) (7, 1.15086056292057037354e-01) (8, -1.57080996036529541016e+00) (9, 3.71681541204452514648e-01) (0, -8.69765949249267578125e+00) (1, -1.54614000320434570312e+01) (2, -2.04479074478149414062e+00) (3, -7.37768363952636718750e+00) (4, 5.05577862262725830078e-01) (5, 7.24025106430053710938e+00) (6, -2.12500333786010742188e+00) (7, 1.83037776947021484375e+01) (8, 7.08166933059692382812e+00) (9, -1.98317134380340576172e+00) (0, 3.67411589622497558594e+00) (1, -1.33644700050354003906e+00) (2, -5.63428258895874023438e+00) (3, 1.47259311676025390625e+01) (4, 1.82246696949005126953e+00) (5, -8.70017719268798828125e+00) (6, -1.33769199252128601074e-01) (7, 1.09310615062713623047e+00) (8, -7.33110237121582031250e+00) (9, -1.72440123558044433594e+00) (0, 3.23840886354446411133e-01) (1, 1.21120138168334960938e+01) (2, 9.93354511260986328125e+00) (3, -1.71212172508239746094e+00) (4, -9.48710832744836807251e-03) (5, 2.91847515106201171875e+00) (6, -1.36301851272583007812e+01) (7, -1.08487510681152343750e+01) (8, -1.53821682929992675781e+00) (9, -1.58448815345764160156e+00) (10, -8.26672744750976562500e+00) (11, 4.81223106384277343750e+00) (12, 6.26622819900512695312e+00) (13, 7.08467245101928710938e+00) (14, 3.26974809169769287109e-01) 
