FANN_FLO_2.1
num_layers=3
learning_rate=0.500000
connection_rate=1.000000
network_type=0
learning_momentum=0.000000
training_algorithm=2
train_error_function=1
train_stop_function=0
cascade_output_change_fraction=0.010000
quickprop_decay=-0.000100
quickprop_mu=1.750000
rprop_increase_factor=1.200000
rprop_decrease_factor=0.500000
rprop_delta_min=0.000000
rprop_delta_max=50.000000
rprop_delta_zero=0.100000
cascade_output_stagnation_epochs=12
cascade_candidate_change_fraction=0.010000
cascade_candidate_stagnation_epochs=12
cascade_max_out_epochs=150
cascade_min_out_epochs=50
cascade_max_cand_epochs=150
cascade_min_cand_epochs=50
cascade_num_candidate_groups=2
bit_fail_limit=3.49999994039535522461e-01
cascade_candidate_limit=1.00000000000000000000e+03
cascade_weight_multiplier=4.00000005960464477539e-01
cascade_activation_functions_count=10
cascade_activation_functions=3 5 7 8 10 11 14 15 16 17 
cascade_activation_steepnesses_count=4
cascade_activation_steepnesses=2.50000000000000000000e-01 5.00000000000000000000e-01 7.50000000000000000000e-01 1.00000000000000000000e+00 
layer_sizes=6 5 2 
scale_included=0
neurons (num_inputs, activation_function, activation_steepness)=(0, 0, 0.00000000000000000000e+00) (0, 0, 0.00000000000000000000e+00) (0, 0, 0.00000000000000000000e+00) (0, 0, 0.00000000000000000000e+00) (0, 0, 0.00000000000000000000e+00) (0, 0, 0.00000000000000000000e+00) (6, 3, 5.00000000000000000000e-01) (6, 3, 5.00000000000000000000e-01) (6, 3, 5.00000000000000000000e-01) (6, 3, 5.00000000000000000000e-01) (0, 3, 0.00000000000000000000e+00) (5, 0, 5.00000000000000000000e-01) (0, 0, 0.00000000000000000000e+00) 
connections (connected_to_neuron, weight)=(0, -1.17737064138054847717e-02) (1, 8.29192474484443664551e-02) (2, 9.77964475750923156738e-02) (3, -2.86962121725082397461e-01) (4, -1.16393476724624633789e-01) (5, 2.96829521656036376953e-01) (0, -8.19063186645507812500e-03) (1, 1.56984850764274597168e-02) (2, 3.53184826672077178955e-02) (3, 3.06066513061523437500e-01) (4, -1.28049433231353759766e-01) (5, 4.03701812028884887695e-01) (0, 1.24581849575042724609e+00) (1, -6.46809310913085937500e+01) (2, -5.13640880584716796875e+00) (3, -2.68900203704833984375e+01) (4, -1.25770294666290283203e+00) (5, 3.47282333374023437500e+01) (0, 1.20118987560272216797e+00) (1, -3.47422242164611816406e+00) (2, -2.22666645050048828125e+01) (3, -5.84324693679809570312e+00) (4, -1.47552716732025146484e+00) (5, 6.68605566024780273438e+00) (6, 9.88929569721221923828e-01) (7, 9.49740171432495117188e-01) (8, 1.07683527469635009766e+00) (9, 1.11042141914367675781e+00) (10, 1.02527344226837158203e+00) 
