FANN_FLO_2.1
num_layers=3
learning_rate=0.500000
connection_rate=1.000000
network_type=0
learning_momentum=0.000000
training_algorithm=2
train_error_function=1
train_stop_function=0
cascade_output_change_fraction=0.010000
quickprop_decay=-0.000100
quickprop_mu=1.750000
rprop_increase_factor=1.200000
rprop_decrease_factor=0.500000
rprop_delta_min=0.000000
rprop_delta_max=50.000000
rprop_delta_zero=0.100000
cascade_output_stagnation_epochs=12
cascade_candidate_change_fraction=0.010000
cascade_candidate_stagnation_epochs=12
cascade_max_out_epochs=150
cascade_min_out_epochs=50
cascade_max_cand_epochs=150
cascade_min_cand_epochs=50
cascade_num_candidate_groups=2
bit_fail_limit=3.49999994039535522461e-01
cascade_candidate_limit=1.00000000000000000000e+03
cascade_weight_multiplier=4.00000005960464477539e-01
cascade_activation_functions_count=10
cascade_activation_functions=3 5 7 8 10 11 14 15 16 17 
cascade_activation_steepnesses_count=4
cascade_activation_steepnesses=2.50000000000000000000e-01 5.00000000000000000000e-01 7.50000000000000000000e-01 1.00000000000000000000e+00 
layer_sizes=6 5 2 
scale_included=0
neurons (num_inputs, activation_function, activation_steepness)=(0, 0, 0.00000000000000000000e+00) (0, 0, 0.00000000000000000000e+00) (0, 0, 0.00000000000000000000e+00) (0, 0, 0.00000000000000000000e+00) (0, 0, 0.00000000000000000000e+00) (0, 0, 0.00000000000000000000e+00) (6, 3, 5.00000000000000000000e-01) (6, 3, 5.00000000000000000000e-01) (6, 3, 5.00000000000000000000e-01) (6, 3, 5.00000000000000000000e-01) (0, 3, 0.00000000000000000000e+00) (5, 0, 5.00000000000000000000e-01) (0, 0, 0.00000000000000000000e+00) 
connections (connected_to_neuron, weight)=(0, 1.72277092933654785156e+00) (1, 4.70201683044433593750e+00) (2, -9.84254169464111328125e+00) (3, 8.34508419036865234375e+00) (4, 2.18843865394592285156e+00) (5, 2.23893380165100097656e+00) (0, 1.69450008869171142578e+00) (1, 2.22168374061584472656e+00) (2, -5.19884538650512695312e+00) (3, -3.70680618286132812500e+01) (4, 4.93786305189132690430e-01) (5, 3.37394404411315917969e+00) (0, -6.53471574187278747559e-02) (1, -4.38789814710617065430e-01) (2, 1.03826236724853515625e+00) (3, -6.83409795165061950684e-02) (4, 1.19807052612304687500e+00) (5, 3.43122214078903198242e-01) (0, -1.34058678522706031799e-02) (1, 1.20708145201206207275e-01) (2, -7.42388963699340820312e-01) (3, 5.96148669719696044922e-01) (4, -1.24239206314086914062e+00) (5, 3.80461871623992919922e-01) (6, 1.05789840221405029297e+00) (7, 1.06077682971954345703e+00) (8, 9.75511074066162109375e-01) (9, 9.93219137191772460938e-01) (10, 1.10800027847290039062e+00) 
