FANN_FLO_2.1
num_layers=3
learning_rate=0.500000
connection_rate=1.000000
network_type=0
learning_momentum=0.000000
training_algorithm=2
train_error_function=1
train_stop_function=0
cascade_output_change_fraction=0.010000
quickprop_decay=-0.000100
quickprop_mu=1.750000
rprop_increase_factor=1.200000
rprop_decrease_factor=0.500000
rprop_delta_min=0.000000
rprop_delta_max=50.000000
rprop_delta_zero=0.100000
cascade_output_stagnation_epochs=12
cascade_candidate_change_fraction=0.010000
cascade_candidate_stagnation_epochs=12
cascade_max_out_epochs=150
cascade_min_out_epochs=50
cascade_max_cand_epochs=150
cascade_min_cand_epochs=50
cascade_num_candidate_groups=2
bit_fail_limit=3.49999994039535522461e-01
cascade_candidate_limit=1.00000000000000000000e+03
cascade_weight_multiplier=4.00000005960464477539e-01
cascade_activation_functions_count=10
cascade_activation_functions=3 5 7 8 10 11 14 15 16 17 
cascade_activation_steepnesses_count=4
cascade_activation_steepnesses=2.50000000000000000000e-01 5.00000000000000000000e-01 7.50000000000000000000e-01 1.00000000000000000000e+00 
layer_sizes=10 3 2 
scale_included=0
neurons (num_inputs, activation_function, activation_steepness)=(0, 0, 0.00000000000000000000e+00) (0, 0, 0.00000000000000000000e+00) (0, 0, 0.00000000000000000000e+00) (0, 0, 0.00000000000000000000e+00) (0, 0, 0.00000000000000000000e+00) (0, 0, 0.00000000000000000000e+00) (0, 0, 0.00000000000000000000e+00) (0, 0, 0.00000000000000000000e+00) (0, 0, 0.00000000000000000000e+00) (0, 0, 0.00000000000000000000e+00) (10, 3, 5.00000000000000000000e-01) (10, 3, 5.00000000000000000000e-01) (0, 3, 0.00000000000000000000e+00) (3, 3, 5.00000000000000000000e-01) (0, 3, 0.00000000000000000000e+00) 
connections (connected_to_neuron, weight)=(0, -9.21114921569824218750e-01) (1, 4.06277656555175781250e+00) (2, 4.37587785720825195312e+00) (3, 7.11786699295043945312e+00) (4, 4.15726327896118164062e+00) (5, 5.74678039550781250000e+00) (6, 4.62648296356201171875e+00) (7, 5.68091297149658203125e+00) (8, -3.90726566314697265625e+00) (9, -6.63735103607177734375e+00) (0, -7.51866221427917480469e-01) (1, 6.66926860809326171875e+00) (2, -4.27222299575805664062e+00) (3, 5.12549591064453125000e+00) (4, 7.49872386455535888672e-01) (5, 1.03570213317871093750e+01) (6, 6.71692943572998046875e+00) (7, 1.12450897693634033203e+00) (8, -2.55785560607910156250e+00) (9, -6.22666120529174804688e+00) (10, 1.80949461460113525391e+00) (11, 1.26485347747802734375e+00) (12, -1.76269280910491943359e+00) 
