FANN_FLO_2.1
num_layers=3
learning_rate=0.500000
connection_rate=1.000000
network_type=0
learning_momentum=0.000000
training_algorithm=2
train_error_function=1
train_stop_function=0
cascade_output_change_fraction=0.010000
quickprop_decay=-0.000100
quickprop_mu=1.750000
rprop_increase_factor=1.200000
rprop_decrease_factor=0.500000
rprop_delta_min=0.000000
rprop_delta_max=50.000000
rprop_delta_zero=0.100000
cascade_output_stagnation_epochs=12
cascade_candidate_change_fraction=0.010000
cascade_candidate_stagnation_epochs=12
cascade_max_out_epochs=150
cascade_min_out_epochs=50
cascade_max_cand_epochs=150
cascade_min_cand_epochs=50
cascade_num_candidate_groups=2
bit_fail_limit=3.49999994039535522461e-01
cascade_candidate_limit=1.00000000000000000000e+03
cascade_weight_multiplier=4.00000005960464477539e-01
cascade_activation_functions_count=10
cascade_activation_functions=3 5 7 8 10 11 14 15 16 17 
cascade_activation_steepnesses_count=4
cascade_activation_steepnesses=2.50000000000000000000e-01 5.00000000000000000000e-01 7.50000000000000000000e-01 1.00000000000000000000e+00 
layer_sizes=10 5 2 
scale_included=0
neurons (num_inputs, activation_function, activation_steepness)=(0, 0, 0.00000000000000000000e+00) (0, 0, 0.00000000000000000000e+00) (0, 0, 0.00000000000000000000e+00) (0, 0, 0.00000000000000000000e+00) (0, 0, 0.00000000000000000000e+00) (0, 0, 0.00000000000000000000e+00) (0, 0, 0.00000000000000000000e+00) (0, 0, 0.00000000000000000000e+00) (0, 0, 0.00000000000000000000e+00) (0, 0, 0.00000000000000000000e+00) (10, 3, 5.00000000000000000000e-01) (10, 3, 5.00000000000000000000e-01) (10, 3, 5.00000000000000000000e-01) (10, 3, 5.00000000000000000000e-01) (0, 3, 0.00000000000000000000e+00) (5, 3, 5.00000000000000000000e-01) (0, 3, 0.00000000000000000000e+00) 
connections (connected_to_neuron, weight)=(0, 1.36923408508300781250e+01) (1, 1.31334209442138671875e+01) (2, 9.18913078308105468750e+00) (3, 2.91071355342864990234e-01) (4, 4.17637586593627929688e-01) (5, -4.22013854980468750000e+00) (6, -4.56737995147705078125e+00) (7, -1.58034343719482421875e+01) (8, -9.69739532470703125000e+00) (9, 1.18935537338256835938e+00) (0, 1.02918684482574462891e+00) (1, 9.41649496555328369141e-01) (2, 4.97505378723144531250e+00) (3, -4.05256700515747070312e+00) (4, 4.18070048093795776367e-01) (5, 8.12631487846374511719e-01) (6, 1.63058032989501953125e+01) (7, 1.54288148880004882812e+00) (8, 3.97127604484558105469e+00) (9, -6.53355646133422851562e+00) (0, 1.00647509098052978516e+00) (1, -3.65143179893493652344e+00) (2, 7.01420545578002929688e+00) (3, 4.69346666336059570312e+00) (4, 7.73448765277862548828e-01) (5, 5.41373825073242187500e+00) (6, 5.81425905227661132812e+00) (7, 1.06679117679595947266e+00) (8, 5.52786767482757568359e-01) (9, -7.20858097076416015625e+00) (0, 3.82793641090393066406e+00) (1, 5.53739261627197265625e+00) (2, 1.95042788982391357422e+00) (3, 6.55751898884773254395e-02) (4, -8.36114883422851562500e-01) (5, -7.34158635139465332031e-01) (6, -2.76965951919555664062e+00) (7, -5.74865102767944335938e+00) (8, -3.38350915908813476562e+00) (9, -1.07935726642608642578e-01) (10, -4.62692451477050781250e+00) (11, 9.88795697689056396484e-01) (12, 1.72326231002807617188e+00) (13, 6.73148250579833984375e+00) (14, 2.77332831174135208130e-02) 
