FANN_FLO_2.1
num_layers=3
learning_rate=0.500000
connection_rate=1.000000
network_type=0
learning_momentum=0.000000
training_algorithm=2
train_error_function=1
train_stop_function=0
cascade_output_change_fraction=0.010000
quickprop_decay=-0.000100
quickprop_mu=1.750000
rprop_increase_factor=1.200000
rprop_decrease_factor=0.500000
rprop_delta_min=0.000000
rprop_delta_max=50.000000
rprop_delta_zero=0.100000
cascade_output_stagnation_epochs=12
cascade_candidate_change_fraction=0.010000
cascade_candidate_stagnation_epochs=12
cascade_max_out_epochs=150
cascade_min_out_epochs=50
cascade_max_cand_epochs=150
cascade_min_cand_epochs=50
cascade_num_candidate_groups=2
bit_fail_limit=3.49999994039535522461e-01
cascade_candidate_limit=1.00000000000000000000e+03
cascade_weight_multiplier=4.00000005960464477539e-01
cascade_activation_functions_count=10
cascade_activation_functions=3 5 7 8 10 11 14 15 16 17 
cascade_activation_steepnesses_count=4
cascade_activation_steepnesses=2.50000000000000000000e-01 5.00000000000000000000e-01 7.50000000000000000000e-01 1.00000000000000000000e+00 
layer_sizes=6 5 2 
scale_included=0
neurons (num_inputs, activation_function, activation_steepness)=(0, 0, 0.00000000000000000000e+00) (0, 0, 0.00000000000000000000e+00) (0, 0, 0.00000000000000000000e+00) (0, 0, 0.00000000000000000000e+00) (0, 0, 0.00000000000000000000e+00) (0, 0, 0.00000000000000000000e+00) (6, 3, 5.00000000000000000000e-01) (6, 3, 5.00000000000000000000e-01) (6, 3, 5.00000000000000000000e-01) (6, 3, 5.00000000000000000000e-01) (0, 3, 0.00000000000000000000e+00) (5, 0, 5.00000000000000000000e-01) (0, 0, 0.00000000000000000000e+00) 
connections (connected_to_neuron, weight)=(0, 1.62568222731351852417e-02) (1, 1.61642655730247497559e-01) (2, -7.22672343254089355469e-02) (3, 2.43362821638584136963e-02) (4, -6.78559467196464538574e-02) (5, 2.62273490428924560547e-01) (0, -5.07683586329221725464e-03) (1, 1.88323348760604858398e-01) (2, -2.95333098620176315308e-02) (3, -6.54404982924461364746e-03) (4, -2.40265596657991409302e-02) (5, 3.23975324630737304688e-01) (0, -7.07029253244400024414e-02) (1, 1.79912671446800231934e-01) (2, -3.87746423482894897461e-01) (3, -9.60863977670669555664e-02) (4, -1.48443326354026794434e-01) (5, 2.76186376810073852539e-01) (0, 1.31131219863891601562e+00) (1, -7.62633275985717773438e+00) (2, 8.59057521820068359375e+00) (3, -1.41112148761749267578e+00) (4, -1.70276439189910888672e+00) (5, 2.42383003234863281250e+00) (6, 1.06442606449127197266e+00) (7, 1.13974618911743164062e+00) (8, 1.14569950103759765625e+00) (9, 1.22922134399414062500e+00) (10, 1.24390530586242675781e+00) 
