FANN_FLO_2.1
num_layers=3
learning_rate=0.500000
connection_rate=1.000000
network_type=0
learning_momentum=0.000000
training_algorithm=2
train_error_function=1
train_stop_function=0
cascade_output_change_fraction=0.010000
quickprop_decay=-0.000100
quickprop_mu=1.750000
rprop_increase_factor=1.200000
rprop_decrease_factor=0.500000
rprop_delta_min=0.000000
rprop_delta_max=50.000000
rprop_delta_zero=0.100000
cascade_output_stagnation_epochs=12
cascade_candidate_change_fraction=0.010000
cascade_candidate_stagnation_epochs=12
cascade_max_out_epochs=150
cascade_min_out_epochs=50
cascade_max_cand_epochs=150
cascade_min_cand_epochs=50
cascade_num_candidate_groups=2
bit_fail_limit=3.49999994039535522461e-01
cascade_candidate_limit=1.00000000000000000000e+03
cascade_weight_multiplier=4.00000005960464477539e-01
cascade_activation_functions_count=10
cascade_activation_functions=3 5 7 8 10 11 14 15 16 17 
cascade_activation_steepnesses_count=4
cascade_activation_steepnesses=2.50000000000000000000e-01 5.00000000000000000000e-01 7.50000000000000000000e-01 1.00000000000000000000e+00 
layer_sizes=10 5 2 
scale_included=0
neurons (num_inputs, activation_function, activation_steepness)=(0, 0, 0.00000000000000000000e+00) (0, 0, 0.00000000000000000000e+00) (0, 0, 0.00000000000000000000e+00) (0, 0, 0.00000000000000000000e+00) (0, 0, 0.00000000000000000000e+00) (0, 0, 0.00000000000000000000e+00) (0, 0, 0.00000000000000000000e+00) (0, 0, 0.00000000000000000000e+00) (0, 0, 0.00000000000000000000e+00) (0, 0, 0.00000000000000000000e+00) (10, 3, 5.00000000000000000000e-01) (10, 3, 5.00000000000000000000e-01) (10, 3, 5.00000000000000000000e-01) (10, 3, 5.00000000000000000000e-01) (0, 3, 0.00000000000000000000e+00) (5, 3, 5.00000000000000000000e-01) (0, 3, 0.00000000000000000000e+00) 
connections (connected_to_neuron, weight)=(0, 6.13833284378051757812e+00) (1, 5.04896831512451171875e+00) (2, -2.49955248832702636719e+00) (3, 1.09926252365112304688e+01) (4, 1.03358782827854156494e-01) (5, -1.09331111907958984375e+01) (6, 1.68426477909088134766e+00) (7, -3.99476671218872070312e+00) (8, -8.36828327178955078125e+00) (9, -1.66908597946166992188e+00) (0, 3.62428879737854003906e+00) (1, 9.15782260894775390625e+00) (2, 1.43773376941680908203e+00) (3, -1.05531806945800781250e+01) (4, -8.70055139064788818359e-01) (5, 1.92134056091308593750e+01) (6, -5.74499845504760742188e+00) (7, -9.54442310333251953125e+00) (8, 4.39137220382690429688e-01) (9, -3.84822726249694824219e+00) (0, -2.87241053581237792969e+00) (1, 1.26399517059326171875e+01) (2, 2.44527435302734375000e+01) (3, -2.78836517333984375000e+01) (4, 1.00443935394287109375e+00) (5, 2.22374782562255859375e+01) (6, -2.26165847778320312500e+01) (7, -1.23211679458618164062e+01) (8, 3.58826041221618652344e+00) (9, -5.99553489685058593750e+00) (0, -9.02617645263671875000e+00) (1, -1.45856533050537109375e+01) (2, -3.85607290267944335938e+00) (3, 9.91742610931396484375e-01) (4, -6.57706022262573242188e-01) (5, -7.15960338711738586426e-02) (6, 5.20927000045776367188e+00) (7, 1.21482076644897460938e+01) (8, 8.68439865112304687500e+00) (9, -2.32082509994506835938e+00) (10, 5.40779018402099609375e+00) (11, 1.33649206161499023438e+00) (12, 3.65526914596557617188e+00) (13, 4.68853712081909179688e+00) (14, -2.27587628364562988281e+00) 
