FANN_FLO_2.1
num_layers=3
learning_rate=0.500000
connection_rate=1.000000
network_type=0
learning_momentum=0.000000
training_algorithm=2
train_error_function=1
train_stop_function=0
cascade_output_change_fraction=0.010000
quickprop_decay=-0.000100
quickprop_mu=1.750000
rprop_increase_factor=1.200000
rprop_decrease_factor=0.500000
rprop_delta_min=0.000000
rprop_delta_max=50.000000
rprop_delta_zero=0.100000
cascade_output_stagnation_epochs=12
cascade_candidate_change_fraction=0.010000
cascade_candidate_stagnation_epochs=12
cascade_max_out_epochs=150
cascade_min_out_epochs=50
cascade_max_cand_epochs=150
cascade_min_cand_epochs=50
cascade_num_candidate_groups=2
bit_fail_limit=3.49999994039535522461e-01
cascade_candidate_limit=1.00000000000000000000e+03
cascade_weight_multiplier=4.00000005960464477539e-01
cascade_activation_functions_count=10
cascade_activation_functions=3 5 7 8 10 11 14 15 16 17 
cascade_activation_steepnesses_count=4
cascade_activation_steepnesses=2.50000000000000000000e-01 5.00000000000000000000e-01 7.50000000000000000000e-01 1.00000000000000000000e+00 
layer_sizes=10 3 2 
scale_included=0
neurons (num_inputs, activation_function, activation_steepness)=(0, 0, 0.00000000000000000000e+00) (0, 0, 0.00000000000000000000e+00) (0, 0, 0.00000000000000000000e+00) (0, 0, 0.00000000000000000000e+00) (0, 0, 0.00000000000000000000e+00) (0, 0, 0.00000000000000000000e+00) (0, 0, 0.00000000000000000000e+00) (0, 0, 0.00000000000000000000e+00) (0, 0, 0.00000000000000000000e+00) (0, 0, 0.00000000000000000000e+00) (10, 3, 5.00000000000000000000e-01) (10, 3, 5.00000000000000000000e-01) (0, 3, 0.00000000000000000000e+00) (3, 3, 5.00000000000000000000e-01) (0, 3, 0.00000000000000000000e+00) 
connections (connected_to_neuron, weight)=(0, 2.62337470054626464844e+00) (1, 1.15290164947509765625e+00) (2, 3.65122258663177490234e-01) (3, 1.05151968002319335938e+01) (4, -8.40623676776885986328e-01) (5, 4.47606420516967773438e+00) (6, -4.87549841403961181641e-01) (7, -1.39980220794677734375e+00) (8, 5.65673685073852539062e+00) (9, -5.17642164230346679688e+00) (0, 3.57717037200927734375e+00) (1, 3.95450663566589355469e+00) (2, 6.38123512268066406250e-01) (3, 8.75277423858642578125e+00) (4, -2.71457982063293457031e+00) (5, 1.61135673522949218750e+00) (6, -6.91284835338592529297e-01) (7, -9.24425661563873291016e-01) (8, 1.04360952377319335938e+01) (9, -5.47422122955322265625e+00) (10, 8.00176680088043212891e-01) (11, 3.29353523254394531250e+00) (12, -2.50532436370849609375e+00) 
