FANN_FLO_2.1
num_layers=3
learning_rate=0.500000
connection_rate=1.000000
network_type=0
learning_momentum=0.000000
training_algorithm=2
train_error_function=1
train_stop_function=0
cascade_output_change_fraction=0.010000
quickprop_decay=-0.000100
quickprop_mu=1.750000
rprop_increase_factor=1.200000
rprop_decrease_factor=0.500000
rprop_delta_min=0.000000
rprop_delta_max=50.000000
rprop_delta_zero=0.100000
cascade_output_stagnation_epochs=12
cascade_candidate_change_fraction=0.010000
cascade_candidate_stagnation_epochs=12
cascade_max_out_epochs=150
cascade_min_out_epochs=50
cascade_max_cand_epochs=150
cascade_min_cand_epochs=50
cascade_num_candidate_groups=2
bit_fail_limit=3.49999994039535522461e-01
cascade_candidate_limit=1.00000000000000000000e+03
cascade_weight_multiplier=4.00000005960464477539e-01
cascade_activation_functions_count=10
cascade_activation_functions=3 5 7 8 10 11 14 15 16 17 
cascade_activation_steepnesses_count=4
cascade_activation_steepnesses=2.50000000000000000000e-01 5.00000000000000000000e-01 7.50000000000000000000e-01 1.00000000000000000000e+00 
layer_sizes=10 5 2 
scale_included=0
neurons (num_inputs, activation_function, activation_steepness)=(0, 0, 0.00000000000000000000e+00) (0, 0, 0.00000000000000000000e+00) (0, 0, 0.00000000000000000000e+00) (0, 0, 0.00000000000000000000e+00) (0, 0, 0.00000000000000000000e+00) (0, 0, 0.00000000000000000000e+00) (0, 0, 0.00000000000000000000e+00) (0, 0, 0.00000000000000000000e+00) (0, 0, 0.00000000000000000000e+00) (0, 0, 0.00000000000000000000e+00) (10, 3, 5.00000000000000000000e-01) (10, 3, 5.00000000000000000000e-01) (10, 3, 5.00000000000000000000e-01) (10, 3, 5.00000000000000000000e-01) (0, 3, 0.00000000000000000000e+00) (5, 3, 5.00000000000000000000e-01) (0, 3, 0.00000000000000000000e+00) 
connections (connected_to_neuron, weight)=(0, 8.38380432128906250000e+00) (1, 1.39442281723022460938e+01) (2, 4.83927154541015625000e+00) (3, 3.15641093254089355469e+00) (4, -4.15229618549346923828e-01) (5, -2.24631285667419433594e+00) (6, -4.69428539276123046875e+00) (7, -1.50355653762817382812e+01) (8, -9.29125881195068359375e+00) (9, -2.21001768112182617188e+00) (0, 4.12438535690307617188e+00) (1, -1.05859136581420898438e+01) (2, 1.27973151206970214844e+00) (3, 9.30880928039550781250e+00) (4, -1.25815474987030029297e+00) (5, -3.43757905066013336182e-02) (6, 7.04382848739624023438e+00) (7, 7.73111057281494140625e+00) (8, -3.20505523681640625000e+00) (9, -8.65571212768554687500e+00) (0, -8.82600593566894531250e+00) (1, -2.61824584007263183594e+00) (2, 3.54358887672424316406e+00) (3, -1.35691442489624023438e+01) (4, 2.39012300968170166016e-01) (5, 1.25456981658935546875e+01) (6, -4.90336847305297851562e+00) (7, 4.23713874816894531250e+00) (8, 8.27998256683349609375e+00) (9, -2.28769826889038085938e+00) (0, 1.23248958587646484375e+00) (1, -1.06934747695922851562e+01) (2, -1.10307712554931640625e+01) (3, 1.05142545700073242188e+01) (4, -2.00734481215476989746e-01) (5, -1.38974380493164062500e+01) (6, 1.21829843521118164062e+01) (7, 1.11642389297485351562e+01) (8, -3.62463891506195068359e-01) (9, -3.12295055389404296875e+00) (10, 5.01001691818237304688e+00) (11, 7.79000461101531982422e-01) (12, 5.46155595779418945312e+00) (13, 4.80251884460449218750e+00) (14, -2.41932678222656250000e+00) 
