FANN_FLO_2.1
num_layers=3
learning_rate=0.500000
connection_rate=1.000000
network_type=0
learning_momentum=0.000000
training_algorithm=2
train_error_function=1
train_stop_function=0
cascade_output_change_fraction=0.010000
quickprop_decay=-0.000100
quickprop_mu=1.750000
rprop_increase_factor=1.200000
rprop_decrease_factor=0.500000
rprop_delta_min=0.000000
rprop_delta_max=50.000000
rprop_delta_zero=0.100000
cascade_output_stagnation_epochs=12
cascade_candidate_change_fraction=0.010000
cascade_candidate_stagnation_epochs=12
cascade_max_out_epochs=150
cascade_min_out_epochs=50
cascade_max_cand_epochs=150
cascade_min_cand_epochs=50
cascade_num_candidate_groups=2
bit_fail_limit=3.49999994039535522461e-01
cascade_candidate_limit=1.00000000000000000000e+03
cascade_weight_multiplier=4.00000005960464477539e-01
cascade_activation_functions_count=10
cascade_activation_functions=3 5 7 8 10 11 14 15 16 17 
cascade_activation_steepnesses_count=4
cascade_activation_steepnesses=2.50000000000000000000e-01 5.00000000000000000000e-01 7.50000000000000000000e-01 1.00000000000000000000e+00 
layer_sizes=10 3 2 
scale_included=0
neurons (num_inputs, activation_function, activation_steepness)=(0, 0, 0.00000000000000000000e+00) (0, 0, 0.00000000000000000000e+00) (0, 0, 0.00000000000000000000e+00) (0, 0, 0.00000000000000000000e+00) (0, 0, 0.00000000000000000000e+00) (0, 0, 0.00000000000000000000e+00) (0, 0, 0.00000000000000000000e+00) (0, 0, 0.00000000000000000000e+00) (0, 0, 0.00000000000000000000e+00) (0, 0, 0.00000000000000000000e+00) (10, 3, 5.00000000000000000000e-01) (10, 3, 5.00000000000000000000e-01) (0, 3, 0.00000000000000000000e+00) (3, 3, 5.00000000000000000000e-01) (0, 3, 0.00000000000000000000e+00) 
connections (connected_to_neuron, weight)=(0, 1.82043004035949707031e+00) (1, -1.19124374389648437500e+01) (2, -1.17149276733398437500e+01) (3, 4.73108863830566406250e+00) (4, -2.71573948860168457031e+00) (5, -3.36511325836181640625e+00) (6, 7.15287923812866210938e+00) (7, 1.30721473693847656250e+01) (8, 3.49750399589538574219e+00) (9, -3.53670644760131835938e+00) (0, 1.41795694828033447266e+00) (1, 7.59076023101806640625e+00) (2, 5.34558677673339843750e+00) (3, -3.32968854904174804688e+00) (4, 7.69669234752655029297e-01) (5, 4.86153793334960937500e+00) (6, -7.10988330841064453125e+00) (7, -7.65036153793334960938e+00) (8, 2.75292843580245971680e-01) (9, -3.24596405029296875000e+00) (10, 5.51273298263549804688e+00) (11, 5.40470409393310546875e+00) (12, -7.20637202262878417969e-01) 
