FANN_FLO_2.1
num_layers=3
learning_rate=0.500000
connection_rate=1.000000
network_type=0
learning_momentum=0.000000
training_algorithm=2
train_error_function=1
train_stop_function=0
cascade_output_change_fraction=0.010000
quickprop_decay=-0.000100
quickprop_mu=1.750000
rprop_increase_factor=1.200000
rprop_decrease_factor=0.500000
rprop_delta_min=0.000000
rprop_delta_max=50.000000
rprop_delta_zero=0.100000
cascade_output_stagnation_epochs=12
cascade_candidate_change_fraction=0.010000
cascade_candidate_stagnation_epochs=12
cascade_max_out_epochs=150
cascade_min_out_epochs=50
cascade_max_cand_epochs=150
cascade_min_cand_epochs=50
cascade_num_candidate_groups=2
bit_fail_limit=3.49999994039535522461e-01
cascade_candidate_limit=1.00000000000000000000e+03
cascade_weight_multiplier=4.00000005960464477539e-01
cascade_activation_functions_count=10
cascade_activation_functions=3 5 7 8 10 11 14 15 16 17 
cascade_activation_steepnesses_count=4
cascade_activation_steepnesses=2.50000000000000000000e-01 5.00000000000000000000e-01 7.50000000000000000000e-01 1.00000000000000000000e+00 
layer_sizes=10 5 2 
scale_included=0
neurons (num_inputs, activation_function, activation_steepness)=(0, 0, 0.00000000000000000000e+00) (0, 0, 0.00000000000000000000e+00) (0, 0, 0.00000000000000000000e+00) (0, 0, 0.00000000000000000000e+00) (0, 0, 0.00000000000000000000e+00) (0, 0, 0.00000000000000000000e+00) (0, 0, 0.00000000000000000000e+00) (0, 0, 0.00000000000000000000e+00) (0, 0, 0.00000000000000000000e+00) (0, 0, 0.00000000000000000000e+00) (10, 3, 5.00000000000000000000e-01) (10, 3, 5.00000000000000000000e-01) (10, 3, 5.00000000000000000000e-01) (10, 3, 5.00000000000000000000e-01) (0, 3, 0.00000000000000000000e+00) (5, 3, 5.00000000000000000000e-01) (0, 3, 0.00000000000000000000e+00) 
connections (connected_to_neuron, weight)=(0, 1.50000000000000000000e+03) (1, 1.47144006347656250000e+03) (2, 1.25291772460937500000e+03) (3, 1.50000000000000000000e+03) (4, 1.43572802734375000000e+03) (5, -1.49397277832031250000e+03) (6, 1.47144006347656250000e+03) (7, 1.43572802734375000000e+03) (8, 1.43572802734375000000e+03) (9, 4.21457290649414062500e+00) (0, -1.50000000000000000000e+03) (1, -1.38883996582031250000e+03) (2, -5.47962760925292968750e+00) (3, -1.50000000000000000000e+03) (4, -1.34160815429687500000e+03) (5, 1.50000000000000000000e+03) (6, -1.38883996582031250000e+03) (7, -1.34160815429687500000e+03) (8, -1.34160815429687500000e+03) (9, -8.04063415527343750000e+00) (0, 4.57382869720458984375e+00) (1, 3.46809220314025878906e+00) (2, -3.21118259429931640625e+00) (3, 1.24193439483642578125e+01) (4, 7.30284571647644042969e-01) (5, -1.37148742675781250000e+01) (6, 3.62890124320983886719e+00) (7, -1.84567248821258544922e+00) (8, -1.03248128890991210938e+01) (9, -1.25111198425292968750e+00) (0, -5.34402728080749511719e-01) (1, -5.02615499496459960938e+00) (2, 6.46227169036865234375e+00) (3, -1.05405044555664062500e+01) (4, -9.08254921436309814453e-01) (5, 1.63420410156250000000e+01) (6, -7.40354347229003906250e+00) (7, 2.01668953895568847656e+00) (8, 8.91961002349853515625e+00) (9, -4.62069940567016601562e+00) (10, -8.61853063106536865234e-01) (11, 1.50000000000000000000e+03) (12, 5.56122398376464843750e+00) (13, 2.61280441284179687500e+00) (14, -4.15204375982284545898e-01) 
