FANN_FLO_2.1
num_layers=3
learning_rate=0.500000
connection_rate=1.000000
network_type=0
learning_momentum=0.000000
training_algorithm=2
train_error_function=1
train_stop_function=0
cascade_output_change_fraction=0.010000
quickprop_decay=-0.000100
quickprop_mu=1.750000
rprop_increase_factor=1.200000
rprop_decrease_factor=0.500000
rprop_delta_min=0.000000
rprop_delta_max=50.000000
rprop_delta_zero=0.100000
cascade_output_stagnation_epochs=12
cascade_candidate_change_fraction=0.010000
cascade_candidate_stagnation_epochs=12
cascade_max_out_epochs=150
cascade_min_out_epochs=50
cascade_max_cand_epochs=150
cascade_min_cand_epochs=50
cascade_num_candidate_groups=2
bit_fail_limit=3.49999994039535522461e-01
cascade_candidate_limit=1.00000000000000000000e+03
cascade_weight_multiplier=4.00000005960464477539e-01
cascade_activation_functions_count=10
cascade_activation_functions=3 5 7 8 10 11 14 15 16 17 
cascade_activation_steepnesses_count=4
cascade_activation_steepnesses=2.50000000000000000000e-01 5.00000000000000000000e-01 7.50000000000000000000e-01 1.00000000000000000000e+00 
layer_sizes=6 5 2 
scale_included=0
neurons (num_inputs, activation_function, activation_steepness)=(0, 0, 0.00000000000000000000e+00) (0, 0, 0.00000000000000000000e+00) (0, 0, 0.00000000000000000000e+00) (0, 0, 0.00000000000000000000e+00) (0, 0, 0.00000000000000000000e+00) (0, 0, 0.00000000000000000000e+00) (6, 3, 5.00000000000000000000e-01) (6, 3, 5.00000000000000000000e-01) (6, 3, 5.00000000000000000000e-01) (6, 3, 5.00000000000000000000e-01) (0, 3, 0.00000000000000000000e+00) (5, 0, 5.00000000000000000000e-01) (0, 0, 0.00000000000000000000e+00) 
connections (connected_to_neuron, weight)=(0, -5.06048321723937988281e-01) (1, 4.06492166221141815186e-02) (2, -1.01199604570865631104e-01) (3, -4.11195278167724609375e-01) (4, 3.25717516243457794189e-02) (5, 2.38372147083282470703e-01) (0, 1.11552977561950683594e+00) (1, 2.30363178253173828125e+00) (2, -1.19702224731445312500e+01) (3, -2.58304286003112792969e+00) (4, -2.28874111175537109375e+00) (5, 3.20786094665527343750e+00) (0, 3.10010790824890136719e-01) (1, -5.03586679697036743164e-02) (2, 1.97775527834892272949e-01) (3, 5.63517570495605468750e-01) (4, 7.97282904386520385742e-02) (5, 6.40386104583740234375e-01) (0, 2.57266968488693237305e-01) (1, -4.05530750751495361328e-01) (2, 4.27244007587432861328e-01) (3, 2.50313520431518554688e-01) (4, -1.08616880606859922409e-03) (5, 5.43158948421478271484e-01) (6, 1.10360884666442871094e+00) (7, 1.22510027885437011719e+00) (8, 1.02701318264007568359e+00) (9, 1.10327494144439697266e+00) (10, 1.15682017803192138672e+00) 
