FANN_FLO_2.1
num_layers=3
learning_rate=0.500000
connection_rate=1.000000
network_type=0
learning_momentum=0.000000
training_algorithm=2
train_error_function=1
train_stop_function=0
cascade_output_change_fraction=0.010000
quickprop_decay=-0.000100
quickprop_mu=1.750000
rprop_increase_factor=1.200000
rprop_decrease_factor=0.500000
rprop_delta_min=0.000000
rprop_delta_max=50.000000
rprop_delta_zero=0.100000
cascade_output_stagnation_epochs=12
cascade_candidate_change_fraction=0.010000
cascade_candidate_stagnation_epochs=12
cascade_max_out_epochs=150
cascade_min_out_epochs=50
cascade_max_cand_epochs=150
cascade_min_cand_epochs=50
cascade_num_candidate_groups=2
bit_fail_limit=3.49999994039535522461e-01
cascade_candidate_limit=1.00000000000000000000e+03
cascade_weight_multiplier=4.00000005960464477539e-01
cascade_activation_functions_count=10
cascade_activation_functions=3 5 7 8 10 11 14 15 16 17 
cascade_activation_steepnesses_count=4
cascade_activation_steepnesses=2.50000000000000000000e-01 5.00000000000000000000e-01 7.50000000000000000000e-01 1.00000000000000000000e+00 
layer_sizes=6 5 2 
scale_included=0
neurons (num_inputs, activation_function, activation_steepness)=(0, 0, 0.00000000000000000000e+00) (0, 0, 0.00000000000000000000e+00) (0, 0, 0.00000000000000000000e+00) (0, 0, 0.00000000000000000000e+00) (0, 0, 0.00000000000000000000e+00) (0, 0, 0.00000000000000000000e+00) (6, 3, 5.00000000000000000000e-01) (6, 3, 5.00000000000000000000e-01) (6, 3, 5.00000000000000000000e-01) (6, 3, 5.00000000000000000000e-01) (0, 3, 0.00000000000000000000e+00) (5, 0, 5.00000000000000000000e-01) (0, 0, 0.00000000000000000000e+00) 
connections (connected_to_neuron, weight)=(0, 9.82225120067596435547e-01) (1, -9.63338947296142578125e+00) (2, 2.23315358161926269531e+00) (3, 3.35505318641662597656e+00) (4, 3.39276456832885742188e+00) (5, 2.90577888488769531250e+00) (0, -8.54835379868745803833e-03) (1, 2.85875439643859863281e-01) (2, 2.59740687906742095947e-02) (3, -3.75052422285079956055e-01) (4, -2.00474470853805541992e-01) (5, 3.38852047920227050781e-01) (0, 1.52301549911499023438e+00) (1, 5.21046543121337890625e+00) (2, -7.66646432876586914062e+00) (3, 1.68965721130371093750e+01) (4, 7.48587465286254882812e+00) (5, 2.65639758110046386719e+00) (0, -8.24999883770942687988e-02) (1, 1.65551736950874328613e-01) (2, 1.06878906488418579102e-01) (3, -3.50935131311416625977e-01) (4, -2.23360076546669006348e-01) (5, 3.08835387229919433594e-01) (6, 1.10217523574829101562e+00) (7, 9.69108045101165771484e-01) (8, 1.08288800716400146484e+00) (9, 1.00914502143859863281e+00) (10, 1.07121002674102783203e+00) 
