FANN_FLO_2.1
num_layers=3
learning_rate=0.500000
connection_rate=1.000000
network_type=0
learning_momentum=0.000000
training_algorithm=2
train_error_function=1
train_stop_function=0
cascade_output_change_fraction=0.010000
quickprop_decay=-0.000100
quickprop_mu=1.750000
rprop_increase_factor=1.200000
rprop_decrease_factor=0.500000
rprop_delta_min=0.000000
rprop_delta_max=50.000000
rprop_delta_zero=0.100000
cascade_output_stagnation_epochs=12
cascade_candidate_change_fraction=0.010000
cascade_candidate_stagnation_epochs=12
cascade_max_out_epochs=150
cascade_min_out_epochs=50
cascade_max_cand_epochs=150
cascade_min_cand_epochs=50
cascade_num_candidate_groups=2
bit_fail_limit=3.49999994039535522461e-01
cascade_candidate_limit=1.00000000000000000000e+03
cascade_weight_multiplier=4.00000005960464477539e-01
cascade_activation_functions_count=10
cascade_activation_functions=3 5 7 8 10 11 14 15 16 17 
cascade_activation_steepnesses_count=4
cascade_activation_steepnesses=2.50000000000000000000e-01 5.00000000000000000000e-01 7.50000000000000000000e-01 1.00000000000000000000e+00 
layer_sizes=6 5 2 
scale_included=0
neurons (num_inputs, activation_function, activation_steepness)=(0, 0, 0.00000000000000000000e+00) (0, 0, 0.00000000000000000000e+00) (0, 0, 0.00000000000000000000e+00) (0, 0, 0.00000000000000000000e+00) (0, 0, 0.00000000000000000000e+00) (0, 0, 0.00000000000000000000e+00) (6, 3, 5.00000000000000000000e-01) (6, 3, 5.00000000000000000000e-01) (6, 3, 5.00000000000000000000e-01) (6, 3, 5.00000000000000000000e-01) (0, 3, 0.00000000000000000000e+00) (5, 0, 5.00000000000000000000e-01) (0, 0, 0.00000000000000000000e+00) 
connections (connected_to_neuron, weight)=(0, 1.09893560409545898438e+00) (1, 2.15864295959472656250e+01) (2, -5.49639642238616943359e-01) (3, -7.35814034938812255859e-01) (4, 6.98219919204711914062e+00) (5, 5.74861049652099609375e+00) (0, -1.01267464458942413330e-01) (1, -1.22997336089611053467e-01) (2, 3.07766556739807128906e-01) (3, -1.90497711300849914551e-01) (4, -2.49701082706451416016e-01) (5, 3.00157368183135986328e-01) (0, 1.22000920772552490234e+00) (1, 2.06712741851806640625e+01) (2, 5.05489781498908996582e-02) (3, -1.56615667343139648438e+01) (4, -4.23711633682250976562e+00) (5, 8.33464622497558593750e+00) (0, 6.83183521032333374023e-02) (1, -6.47345632314682006836e-02) (2, -8.26465338468551635742e-02) (3, 5.33794090151786804199e-02) (4, -4.94684666395187377930e-01) (5, 2.83509224653244018555e-01) (6, 1.05579972267150878906e+00) (7, 9.81872439384460449219e-01) (8, 1.10173869132995605469e+00) (9, 9.74651455879211425781e-01) (10, 1.07905662059783935547e+00) 
