FANN_FLO_2.1
num_layers=3
learning_rate=0.500000
connection_rate=1.000000
network_type=0
learning_momentum=0.000000
training_algorithm=2
train_error_function=1
train_stop_function=0
cascade_output_change_fraction=0.010000
quickprop_decay=-0.000100
quickprop_mu=1.750000
rprop_increase_factor=1.200000
rprop_decrease_factor=0.500000
rprop_delta_min=0.000000
rprop_delta_max=50.000000
rprop_delta_zero=0.100000
cascade_output_stagnation_epochs=12
cascade_candidate_change_fraction=0.010000
cascade_candidate_stagnation_epochs=12
cascade_max_out_epochs=150
cascade_min_out_epochs=50
cascade_max_cand_epochs=150
cascade_min_cand_epochs=50
cascade_num_candidate_groups=2
bit_fail_limit=3.49999994039535522461e-01
cascade_candidate_limit=1.00000000000000000000e+03
cascade_weight_multiplier=4.00000005960464477539e-01
cascade_activation_functions_count=10
cascade_activation_functions=3 5 7 8 10 11 14 15 16 17 
cascade_activation_steepnesses_count=4
cascade_activation_steepnesses=2.50000000000000000000e-01 5.00000000000000000000e-01 7.50000000000000000000e-01 1.00000000000000000000e+00 
layer_sizes=6 5 2 
scale_included=0
neurons (num_inputs, activation_function, activation_steepness)=(0, 0, 0.00000000000000000000e+00) (0, 0, 0.00000000000000000000e+00) (0, 0, 0.00000000000000000000e+00) (0, 0, 0.00000000000000000000e+00) (0, 0, 0.00000000000000000000e+00) (0, 0, 0.00000000000000000000e+00) (6, 3, 5.00000000000000000000e-01) (6, 3, 5.00000000000000000000e-01) (6, 3, 5.00000000000000000000e-01) (6, 3, 5.00000000000000000000e-01) (0, 3, 0.00000000000000000000e+00) (5, 0, 5.00000000000000000000e-01) (0, 0, 0.00000000000000000000e+00) 
connections (connected_to_neuron, weight)=(0, 1.46071195602416992188e+00) (1, 6.70635271072387695312e+00) (2, -1.15532207489013671875e+01) (3, -4.21051359176635742188e+00) (4, -1.10184497833251953125e+01) (5, 3.47717714309692382812e+00) (0, 5.37715926766395568848e-02) (1, -1.58556610345840454102e-01) (2, -2.32593789696693420410e-01) (3, -1.52223035693168640137e-01) (4, 5.62522821128368377686e-02) (5, 4.27792429924011230469e-01) (0, -5.85771873593330383301e-02) (1, -8.33559781312942504883e-02) (2, 1.68392777442932128906e-01) (3, 1.43853545188903808594e-01) (4, 5.95563538372516632080e-02) (5, 3.65962535142898559570e-01) (0, -3.20787467062473297119e-02) (1, -9.98824387788772583008e-02) (2, 2.09747210144996643066e-01) (3, 5.31237311661243438721e-02) (4, 6.10831007361412048340e-03) (5, 3.55904281139373779297e-01) (6, 1.17912554740905761719e+00) (7, 1.16212964057922363281e+00) (8, 1.09216594696044921875e+00) (9, 1.17423295974731445312e+00) (10, 1.14508461952209472656e+00) 
