FANN_FLO_2.1
num_layers=3
learning_rate=0.500000
connection_rate=1.000000
network_type=0
learning_momentum=0.000000
training_algorithm=2
train_error_function=1
train_stop_function=0
cascade_output_change_fraction=0.010000
quickprop_decay=-0.000100
quickprop_mu=1.750000
rprop_increase_factor=1.200000
rprop_decrease_factor=0.500000
rprop_delta_min=0.000000
rprop_delta_max=50.000000
rprop_delta_zero=0.100000
cascade_output_stagnation_epochs=12
cascade_candidate_change_fraction=0.010000
cascade_candidate_stagnation_epochs=12
cascade_max_out_epochs=150
cascade_min_out_epochs=50
cascade_max_cand_epochs=150
cascade_min_cand_epochs=50
cascade_num_candidate_groups=2
bit_fail_limit=3.49999994039535522461e-01
cascade_candidate_limit=1.00000000000000000000e+03
cascade_weight_multiplier=4.00000005960464477539e-01
cascade_activation_functions_count=10
cascade_activation_functions=3 5 7 8 10 11 14 15 16 17 
cascade_activation_steepnesses_count=4
cascade_activation_steepnesses=2.50000000000000000000e-01 5.00000000000000000000e-01 7.50000000000000000000e-01 1.00000000000000000000e+00 
layer_sizes=6 5 2 
scale_included=0
neurons (num_inputs, activation_function, activation_steepness)=(0, 0, 0.00000000000000000000e+00) (0, 0, 0.00000000000000000000e+00) (0, 0, 0.00000000000000000000e+00) (0, 0, 0.00000000000000000000e+00) (0, 0, 0.00000000000000000000e+00) (0, 0, 0.00000000000000000000e+00) (6, 3, 5.00000000000000000000e-01) (6, 3, 5.00000000000000000000e-01) (6, 3, 5.00000000000000000000e-01) (6, 3, 5.00000000000000000000e-01) (0, 3, 0.00000000000000000000e+00) (5, 0, 5.00000000000000000000e-01) (0, 0, 0.00000000000000000000e+00) 
connections (connected_to_neuron, weight)=(0, 1.11571586132049560547e+00) (1, -3.06617927551269531250e+00) (2, 6.40746784210205078125e+00) (3, -3.35703206062316894531e+00) (4, 5.16046857833862304688e+00) (5, 2.10683465003967285156e+00) (0, -1.07778802514076232910e-01) (1, 2.90253072977066040039e-01) (2, -4.12711828947067260742e-01) (3, 2.54764765501022338867e-01) (4, 1.49826020002365112305e-01) (5, 2.81827390193939208984e-01) (0, 1.25133144855499267578e+00) (1, -3.93723845481872558594e+00) (2, 2.33061122894287109375e+00) (3, 2.17435216903686523438e+00) (4, -1.29203271865844726562e+01) (5, 2.48624396324157714844e+00) (0, -5.00689335167407989502e-02) (1, 4.34456951916217803955e-03) (2, -5.01540780067443847656e-01) (3, -2.22709532827138900757e-02) (4, 1.62550121545791625977e-01) (5, 3.03856134414672851562e-01) (6, 1.12036907672882080078e+00) (7, 9.79740858078002929688e-01) (8, 1.10851871967315673828e+00) (9, 9.64651107788085937500e-01) (10, 1.10382401943206787109e+00) 
