FANN_FLO_2.1
num_layers=3
learning_rate=0.500000
connection_rate=1.000000
network_type=0
learning_momentum=0.000000
training_algorithm=2
train_error_function=1
train_stop_function=0
cascade_output_change_fraction=0.010000
quickprop_decay=-0.000100
quickprop_mu=1.750000
rprop_increase_factor=1.200000
rprop_decrease_factor=0.500000
rprop_delta_min=0.000000
rprop_delta_max=50.000000
rprop_delta_zero=0.100000
cascade_output_stagnation_epochs=12
cascade_candidate_change_fraction=0.010000
cascade_candidate_stagnation_epochs=12
cascade_max_out_epochs=150
cascade_min_out_epochs=50
cascade_max_cand_epochs=150
cascade_min_cand_epochs=50
cascade_num_candidate_groups=2
bit_fail_limit=3.49999994039535522461e-01
cascade_candidate_limit=1.00000000000000000000e+03
cascade_weight_multiplier=4.00000005960464477539e-01
cascade_activation_functions_count=10
cascade_activation_functions=3 5 7 8 10 11 14 15 16 17 
cascade_activation_steepnesses_count=4
cascade_activation_steepnesses=2.50000000000000000000e-01 5.00000000000000000000e-01 7.50000000000000000000e-01 1.00000000000000000000e+00 
layer_sizes=10 3 2 
scale_included=0
neurons (num_inputs, activation_function, activation_steepness)=(0, 0, 0.00000000000000000000e+00) (0, 0, 0.00000000000000000000e+00) (0, 0, 0.00000000000000000000e+00) (0, 0, 0.00000000000000000000e+00) (0, 0, 0.00000000000000000000e+00) (0, 0, 0.00000000000000000000e+00) (0, 0, 0.00000000000000000000e+00) (0, 0, 0.00000000000000000000e+00) (0, 0, 0.00000000000000000000e+00) (0, 0, 0.00000000000000000000e+00) (10, 3, 5.00000000000000000000e-01) (10, 3, 5.00000000000000000000e-01) (0, 3, 0.00000000000000000000e+00) (3, 3, 5.00000000000000000000e-01) (0, 3, 0.00000000000000000000e+00) 
connections (connected_to_neuron, weight)=(0, 1.31145906448364257812e+01) (1, 4.13814592361450195312e+00) (2, -5.52603006362915039062e+00) (3, 7.54015111923217773438e+00) (4, -7.65637159347534179688e+00) (5, 1.51625051498413085938e+01) (6, 6.38091564178466796875e+00) (7, -7.35609233379364013672e-01) (8, 1.54407005310058593750e+01) (9, -1.33249301910400390625e+01) (0, 3.87666130065917968750e+00) (1, 9.02511596679687500000e+00) (2, 9.24278974533081054688e-01) (3, 2.87909436225891113281e+00) (4, -1.33022670745849609375e+01) (5, 1.85207195281982421875e+01) (6, 1.36957502365112304688e+01) (7, 5.78317403793334960938e+00) (8, -1.14086437225341796875e+01) (9, -1.01745376586914062500e+01) (10, 1.22884297370910644531e+00) (11, 6.53058588504791259766e-01) (12, -4.29196149110794067383e-01) 
