FANN_FLO_2.1
num_layers=3
learning_rate=0.500000
connection_rate=1.000000
network_type=0
learning_momentum=0.000000
training_algorithm=2
train_error_function=1
train_stop_function=0
cascade_output_change_fraction=0.010000
quickprop_decay=-0.000100
quickprop_mu=1.750000
rprop_increase_factor=1.200000
rprop_decrease_factor=0.500000
rprop_delta_min=0.000000
rprop_delta_max=50.000000
rprop_delta_zero=0.100000
cascade_output_stagnation_epochs=12
cascade_candidate_change_fraction=0.010000
cascade_candidate_stagnation_epochs=12
cascade_max_out_epochs=150
cascade_min_out_epochs=50
cascade_max_cand_epochs=150
cascade_min_cand_epochs=50
cascade_num_candidate_groups=2
bit_fail_limit=3.49999994039535522461e-01
cascade_candidate_limit=1.00000000000000000000e+03
cascade_weight_multiplier=4.00000005960464477539e-01
cascade_activation_functions_count=10
cascade_activation_functions=3 5 7 8 10 11 14 15 16 17 
cascade_activation_steepnesses_count=4
cascade_activation_steepnesses=2.50000000000000000000e-01 5.00000000000000000000e-01 7.50000000000000000000e-01 1.00000000000000000000e+00 
layer_sizes=6 5 2 
scale_included=0
neurons (num_inputs, activation_function, activation_steepness)=(0, 0, 0.00000000000000000000e+00) (0, 0, 0.00000000000000000000e+00) (0, 0, 0.00000000000000000000e+00) (0, 0, 0.00000000000000000000e+00) (0, 0, 0.00000000000000000000e+00) (0, 0, 0.00000000000000000000e+00) (6, 3, 5.00000000000000000000e-01) (6, 3, 5.00000000000000000000e-01) (6, 3, 5.00000000000000000000e-01) (6, 3, 5.00000000000000000000e-01) (0, 3, 0.00000000000000000000e+00) (5, 0, 5.00000000000000000000e-01) (0, 0, 0.00000000000000000000e+00) 
connections (connected_to_neuron, weight)=(0, 1.34911084175109863281e+00) (1, 5.65259027481079101562e+00) (2, -8.68874073028564453125e+00) (3, 1.13059437274932861328e+00) (4, 2.21219158172607421875e+00) (5, 2.51786518096923828125e+00) (0, 1.19958245754241943359e+00) (1, -9.40454483032226562500e+00) (2, 1.83712172508239746094e+00) (3, 3.64459395408630371094e-01) (4, 1.23484265059232711792e-02) (5, 2.36026382446289062500e+00) (0, 2.43286099284887313843e-02) (1, 4.63839434087276458740e-02) (2, 2.41624385118484497070e-01) (3, -2.24981009960174560547e-01) (4, 3.44224870204925537109e-02) (5, 1.79467648267745971680e-01) (0, -1.48231223225593566895e-01) (1, 2.26288378238677978516e-01) (2, 4.76442910730838775635e-02) (3, 1.29724480211734771729e-02) (4, 1.30067449063062667847e-02) (5, 2.75404363870620727539e-01) (6, 1.13999962806701660156e+00) (7, 1.08781743049621582031e+00) (8, 1.03969049453735351562e+00) (9, 9.58905041217803955078e-01) (10, 1.08363056182861328125e+00) 
