FANN_FLO_2.1
num_layers=3
learning_rate=0.500000
connection_rate=1.000000
network_type=0
learning_momentum=0.000000
training_algorithm=2
train_error_function=1
train_stop_function=0
cascade_output_change_fraction=0.010000
quickprop_decay=-0.000100
quickprop_mu=1.750000
rprop_increase_factor=1.200000
rprop_decrease_factor=0.500000
rprop_delta_min=0.000000
rprop_delta_max=50.000000
rprop_delta_zero=0.100000
cascade_output_stagnation_epochs=12
cascade_candidate_change_fraction=0.010000
cascade_candidate_stagnation_epochs=12
cascade_max_out_epochs=150
cascade_min_out_epochs=50
cascade_max_cand_epochs=150
cascade_min_cand_epochs=50
cascade_num_candidate_groups=2
bit_fail_limit=3.49999994039535522461e-01
cascade_candidate_limit=1.00000000000000000000e+03
cascade_weight_multiplier=4.00000005960464477539e-01
cascade_activation_functions_count=10
cascade_activation_functions=3 5 7 8 10 11 14 15 16 17 
cascade_activation_steepnesses_count=4
cascade_activation_steepnesses=2.50000000000000000000e-01 5.00000000000000000000e-01 7.50000000000000000000e-01 1.00000000000000000000e+00 
layer_sizes=10 3 2 
scale_included=0
neurons (num_inputs, activation_function, activation_steepness)=(0, 0, 0.00000000000000000000e+00) (0, 0, 0.00000000000000000000e+00) (0, 0, 0.00000000000000000000e+00) (0, 0, 0.00000000000000000000e+00) (0, 0, 0.00000000000000000000e+00) (0, 0, 0.00000000000000000000e+00) (0, 0, 0.00000000000000000000e+00) (0, 0, 0.00000000000000000000e+00) (0, 0, 0.00000000000000000000e+00) (0, 0, 0.00000000000000000000e+00) (10, 3, 5.00000000000000000000e-01) (10, 3, 5.00000000000000000000e-01) (0, 3, 0.00000000000000000000e+00) (3, 3, 5.00000000000000000000e-01) (0, 3, 0.00000000000000000000e+00) 
connections (connected_to_neuron, weight)=(0, -3.56539428234100341797e-01) (1, 4.22322082519531250000e+00) (2, -1.23209536075592041016e-01) (3, 5.13868808746337890625e+00) (4, 6.99581503868103027344e-01) (5, 7.49658012390136718750e+00) (6, 7.66810035705566406250e+00) (7, 1.10996335744857788086e-01) (8, -6.97072386741638183594e-01) (9, -5.91699790954589843750e+00) (0, -2.66107964515686035156e+00) (1, 5.88417148590087890625e+00) (2, 1.32426428794860839844e+00) (3, 7.17673063278198242188e+00) (4, 3.62255501747131347656e+00) (5, 7.92104530334472656250e+00) (6, 1.14713168144226074219e+00) (7, 9.89525032043457031250e+00) (8, -7.65285682678222656250e+00) (9, -5.35722589492797851562e+00) (10, 1.98812890052795410156e+00) (11, 1.26961874961853027344e+00) (12, -1.96563053131103515625e+00) 
