FANN_FLO_2.1
num_layers=3
learning_rate=0.500000
connection_rate=1.000000
network_type=0
learning_momentum=0.000000
training_algorithm=2
train_error_function=1
train_stop_function=0
cascade_output_change_fraction=0.010000
quickprop_decay=-0.000100
quickprop_mu=1.750000
rprop_increase_factor=1.200000
rprop_decrease_factor=0.500000
rprop_delta_min=0.000000
rprop_delta_max=50.000000
rprop_delta_zero=0.100000
cascade_output_stagnation_epochs=12
cascade_candidate_change_fraction=0.010000
cascade_candidate_stagnation_epochs=12
cascade_max_out_epochs=150
cascade_min_out_epochs=50
cascade_max_cand_epochs=150
cascade_min_cand_epochs=50
cascade_num_candidate_groups=2
bit_fail_limit=3.49999994039535522461e-01
cascade_candidate_limit=1.00000000000000000000e+03
cascade_weight_multiplier=4.00000005960464477539e-01
cascade_activation_functions_count=10
cascade_activation_functions=3 5 7 8 10 11 14 15 16 17 
cascade_activation_steepnesses_count=4
cascade_activation_steepnesses=2.50000000000000000000e-01 5.00000000000000000000e-01 7.50000000000000000000e-01 1.00000000000000000000e+00 
layer_sizes=10 3 2 
scale_included=0
neurons (num_inputs, activation_function, activation_steepness)=(0, 0, 0.00000000000000000000e+00) (0, 0, 0.00000000000000000000e+00) (0, 0, 0.00000000000000000000e+00) (0, 0, 0.00000000000000000000e+00) (0, 0, 0.00000000000000000000e+00) (0, 0, 0.00000000000000000000e+00) (0, 0, 0.00000000000000000000e+00) (0, 0, 0.00000000000000000000e+00) (0, 0, 0.00000000000000000000e+00) (0, 0, 0.00000000000000000000e+00) (10, 3, 5.00000000000000000000e-01) (10, 3, 5.00000000000000000000e-01) (0, 3, 0.00000000000000000000e+00) (3, 3, 5.00000000000000000000e-01) (0, 3, 0.00000000000000000000e+00) 
connections (connected_to_neuron, weight)=(0, -6.75967502593994140625e+00) (1, -6.86509609222412109375e-01) (2, 8.90188884735107421875e+00) (3, -2.17776489257812500000e+01) (4, 8.44146072864532470703e-01) (5, 1.00450181961059570312e+01) (6, -3.49921345710754394531e+00) (7, 2.55653381347656250000e+00) (8, 6.46828603744506835938e+00) (9, -2.82218122482299804688e+00) (0, 6.92295455932617187500e+00) (1, 5.92352437973022460938e+00) (2, -1.15112848281860351562e+01) (3, 2.03573055267333984375e+01) (4, -3.28479313850402832031e+00) (5, 1.84137964248657226562e+00) (6, 5.50367736816406250000e+00) (7, 5.20772516727447509766e-01) (8, -1.15110135078430175781e+00) (9, -7.24077796936035156250e+00) (10, 4.00150918960571289062e+00) (11, 1.91382384300231933594e+00) (12, -8.48989129066467285156e-01) 
