FANN_FLO_2.1
num_layers=3
learning_rate=0.500000
connection_rate=1.000000
network_type=0
learning_momentum=0.000000
training_algorithm=2
train_error_function=1
train_stop_function=0
cascade_output_change_fraction=0.010000
quickprop_decay=-0.000100
quickprop_mu=1.750000
rprop_increase_factor=1.200000
rprop_decrease_factor=0.500000
rprop_delta_min=0.000000
rprop_delta_max=50.000000
rprop_delta_zero=0.100000
cascade_output_stagnation_epochs=12
cascade_candidate_change_fraction=0.010000
cascade_candidate_stagnation_epochs=12
cascade_max_out_epochs=150
cascade_min_out_epochs=50
cascade_max_cand_epochs=150
cascade_min_cand_epochs=50
cascade_num_candidate_groups=2
bit_fail_limit=3.49999994039535522461e-01
cascade_candidate_limit=1.00000000000000000000e+03
cascade_weight_multiplier=4.00000005960464477539e-01
cascade_activation_functions_count=10
cascade_activation_functions=3 5 7 8 10 11 14 15 16 17 
cascade_activation_steepnesses_count=4
cascade_activation_steepnesses=2.50000000000000000000e-01 5.00000000000000000000e-01 7.50000000000000000000e-01 1.00000000000000000000e+00 
layer_sizes=10 3 2 
scale_included=0
neurons (num_inputs, activation_function, activation_steepness)=(0, 0, 0.00000000000000000000e+00) (0, 0, 0.00000000000000000000e+00) (0, 0, 0.00000000000000000000e+00) (0, 0, 0.00000000000000000000e+00) (0, 0, 0.00000000000000000000e+00) (0, 0, 0.00000000000000000000e+00) (0, 0, 0.00000000000000000000e+00) (0, 0, 0.00000000000000000000e+00) (0, 0, 0.00000000000000000000e+00) (0, 0, 0.00000000000000000000e+00) (10, 3, 5.00000000000000000000e-01) (10, 3, 5.00000000000000000000e-01) (0, 3, 0.00000000000000000000e+00) (3, 3, 5.00000000000000000000e-01) (0, 3, 0.00000000000000000000e+00) 
connections (connected_to_neuron, weight)=(0, 1.07049643993377685547e+00) (1, 3.12113928794860839844e+00) (2, 7.80196666717529296875e+00) (3, 1.04799861907958984375e+01) (4, 3.85865159332752227783e-02) (5, 8.52722549438476562500e+00) (6, 6.36060237884521484375e+00) (7, 3.23778200149536132812e+00) (8, 5.77977514266967773438e+00) (9, -1.48677740097045898438e+01) (0, -6.38182461261749267578e-01) (1, -2.28958263397216796875e+01) (2, 2.33663578033447265625e+01) (3, 2.60490646362304687500e+01) (4, -2.99503254890441894531e+00) (5, 9.04429340362548828125e+00) (6, 1.30826997756958007812e+00) (7, 9.89873111248016357422e-02) (8, 1.15643942356109619141e+00) (9, -6.93329477310180664062e+00) (10, 1.08230388164520263672e+00) (11, 1.03619146347045898438e+00) (12, -7.09967732429504394531e-01) 
