FANN_FLO_2.1
num_layers=3
learning_rate=0.500000
connection_rate=1.000000
network_type=0
learning_momentum=0.000000
training_algorithm=2
train_error_function=1
train_stop_function=0
cascade_output_change_fraction=0.010000
quickprop_decay=-0.000100
quickprop_mu=1.750000
rprop_increase_factor=1.200000
rprop_decrease_factor=0.500000
rprop_delta_min=0.000000
rprop_delta_max=50.000000
rprop_delta_zero=0.100000
cascade_output_stagnation_epochs=12
cascade_candidate_change_fraction=0.010000
cascade_candidate_stagnation_epochs=12
cascade_max_out_epochs=150
cascade_min_out_epochs=50
cascade_max_cand_epochs=150
cascade_min_cand_epochs=50
cascade_num_candidate_groups=2
bit_fail_limit=3.49999994039535522461e-01
cascade_candidate_limit=1.00000000000000000000e+03
cascade_weight_multiplier=4.00000005960464477539e-01
cascade_activation_functions_count=10
cascade_activation_functions=3 5 7 8 10 11 14 15 16 17 
cascade_activation_steepnesses_count=4
cascade_activation_steepnesses=2.50000000000000000000e-01 5.00000000000000000000e-01 7.50000000000000000000e-01 1.00000000000000000000e+00 
layer_sizes=6 5 2 
scale_included=0
neurons (num_inputs, activation_function, activation_steepness)=(0, 0, 0.00000000000000000000e+00) (0, 0, 0.00000000000000000000e+00) (0, 0, 0.00000000000000000000e+00) (0, 0, 0.00000000000000000000e+00) (0, 0, 0.00000000000000000000e+00) (0, 0, 0.00000000000000000000e+00) (6, 3, 5.00000000000000000000e-01) (6, 3, 5.00000000000000000000e-01) (6, 3, 5.00000000000000000000e-01) (6, 3, 5.00000000000000000000e-01) (0, 3, 0.00000000000000000000e+00) (5, 0, 5.00000000000000000000e-01) (0, 0, 0.00000000000000000000e+00) 
connections (connected_to_neuron, weight)=(0, -9.64599698781967163086e-02) (1, 3.92116457223892211914e-01) (2, -2.17825040221214294434e-01) (3, 1.89002990722656250000e+00) (4, -7.85264074802398681641e-02) (5, 3.65752846002578735352e-01) (0, 7.95779377222061157227e-02) (1, -5.97058348357677459717e-02) (2, 1.84238672256469726562e-01) (3, -4.49342876672744750977e-01) (4, -3.26968580484390258789e-02) (5, 5.38592755794525146484e-01) (0, 1.64555990695953369141e+00) (1, -9.96271991729736328125e+00) (2, -1.49198389053344726562e+01) (3, 1.07372999191284179688e+00) (4, -3.75663566589355468750e+00) (5, 4.17662382125854492188e+00) (0, 9.79401730000972747803e-03) (1, -2.41225287318229675293e-01) (2, 2.39826411008834838867e-01) (3, -1.70025372505187988281e+00) (4, -8.27044844627380371094e-02) (5, 4.25626069307327270508e-01) (6, 1.17438459396362304688e+00) (7, 1.10523903369903564453e+00) (8, 1.21063208580017089844e+00) (9, 1.09304463863372802734e+00) (10, 1.08959901332855224609e+00) 
