FANN_FLO_2.1
num_layers=3
learning_rate=0.500000
connection_rate=1.000000
network_type=0
learning_momentum=0.000000
training_algorithm=2
train_error_function=1
train_stop_function=0
cascade_output_change_fraction=0.010000
quickprop_decay=-0.000100
quickprop_mu=1.750000
rprop_increase_factor=1.200000
rprop_decrease_factor=0.500000
rprop_delta_min=0.000000
rprop_delta_max=50.000000
rprop_delta_zero=0.100000
cascade_output_stagnation_epochs=12
cascade_candidate_change_fraction=0.010000
cascade_candidate_stagnation_epochs=12
cascade_max_out_epochs=150
cascade_min_out_epochs=50
cascade_max_cand_epochs=150
cascade_min_cand_epochs=50
cascade_num_candidate_groups=2
bit_fail_limit=3.49999994039535522461e-01
cascade_candidate_limit=1.00000000000000000000e+03
cascade_weight_multiplier=4.00000005960464477539e-01
cascade_activation_functions_count=10
cascade_activation_functions=3 5 7 8 10 11 14 15 16 17 
cascade_activation_steepnesses_count=4
cascade_activation_steepnesses=2.50000000000000000000e-01 5.00000000000000000000e-01 7.50000000000000000000e-01 1.00000000000000000000e+00 
layer_sizes=6 5 2 
scale_included=0
neurons (num_inputs, activation_function, activation_steepness)=(0, 0, 0.00000000000000000000e+00) (0, 0, 0.00000000000000000000e+00) (0, 0, 0.00000000000000000000e+00) (0, 0, 0.00000000000000000000e+00) (0, 0, 0.00000000000000000000e+00) (0, 0, 0.00000000000000000000e+00) (6, 3, 5.00000000000000000000e-01) (6, 3, 5.00000000000000000000e-01) (6, 3, 5.00000000000000000000e-01) (6, 3, 5.00000000000000000000e-01) (0, 3, 0.00000000000000000000e+00) (5, 0, 5.00000000000000000000e-01) (0, 0, 0.00000000000000000000e+00) 
connections (connected_to_neuron, weight)=(0, 4.97016310691833496094e-02) (1, 3.64375138282775878906e+00) (2, -1.97353303432464599609e+00) (3, -8.92760634422302246094e-01) (4, -4.37289029359817504883e-01) (5, 5.87284624576568603516e-01) (0, -2.46944352984428405762e-02) (1, -3.87920498847961425781e+00) (2, 1.70014843344688415527e-01) (3, 1.03188300132751464844e+00) (4, -1.00433015823364257812e+00) (5, 4.98454809188842773438e-01) (0, -6.37410879135131835938e-02) (1, 2.34640076756477355957e-01) (2, 5.86121141910552978516e-01) (3, -1.26126095652580261230e-01) (4, 7.64963865280151367188e-01) (5, 6.39680087566375732422e-01) (0, 6.67792856693267822266e-02) (1, 3.30876708030700683594e-01) (2, 1.26384830474853515625e+00) (3, -8.07019472122192382812e-02) (4, 7.32419490814208984375e-01) (5, 8.51090312004089355469e-01) (6, 1.13913059234619140625e+00) (7, 1.14594161510467529297e+00) (8, 1.18977582454681396484e+00) (9, 1.16769421100616455078e+00) (10, 1.29880368709564208984e+00) 
