FANN_FLO_2.1
num_layers=3
learning_rate=0.500000
connection_rate=1.000000
network_type=0
learning_momentum=0.000000
training_algorithm=2
train_error_function=1
train_stop_function=0
cascade_output_change_fraction=0.010000
quickprop_decay=-0.000100
quickprop_mu=1.750000
rprop_increase_factor=1.200000
rprop_decrease_factor=0.500000
rprop_delta_min=0.000000
rprop_delta_max=50.000000
rprop_delta_zero=0.100000
cascade_output_stagnation_epochs=12
cascade_candidate_change_fraction=0.010000
cascade_candidate_stagnation_epochs=12
cascade_max_out_epochs=150
cascade_min_out_epochs=50
cascade_max_cand_epochs=150
cascade_min_cand_epochs=50
cascade_num_candidate_groups=2
bit_fail_limit=3.49999994039535522461e-01
cascade_candidate_limit=1.00000000000000000000e+03
cascade_weight_multiplier=4.00000005960464477539e-01
cascade_activation_functions_count=10
cascade_activation_functions=3 5 7 8 10 11 14 15 16 17 
cascade_activation_steepnesses_count=4
cascade_activation_steepnesses=2.50000000000000000000e-01 5.00000000000000000000e-01 7.50000000000000000000e-01 1.00000000000000000000e+00 
layer_sizes=6 5 2 
scale_included=0
neurons (num_inputs, activation_function, activation_steepness)=(0, 0, 0.00000000000000000000e+00) (0, 0, 0.00000000000000000000e+00) (0, 0, 0.00000000000000000000e+00) (0, 0, 0.00000000000000000000e+00) (0, 0, 0.00000000000000000000e+00) (0, 0, 0.00000000000000000000e+00) (6, 3, 5.00000000000000000000e-01) (6, 3, 5.00000000000000000000e-01) (6, 3, 5.00000000000000000000e-01) (6, 3, 5.00000000000000000000e-01) (0, 3, 0.00000000000000000000e+00) (5, 0, 5.00000000000000000000e-01) (0, 0, 0.00000000000000000000e+00) 
connections (connected_to_neuron, weight)=(0, 5.91703057289123535156e-01) (1, 1.04146995544433593750e+01) (2, -6.75176763534545898438e+00) (3, -7.51663875579833984375e+00) (4, 7.70025682449340820312e+00) (5, 4.18009138107299804688e+00) (0, -2.39982500672340393066e-01) (1, 3.47091816365718841553e-02) (2, -3.38979697227478027344e+00) (3, 4.63480520248413085938e+00) (4, -1.88523161411285400391e+00) (5, 3.89818620681762695312e+00) (0, 5.79182207584381103516e-01) (1, 1.82920312881469726562e+00) (2, 9.63286113739013671875e+00) (3, -2.43853664398193359375e+00) (4, -8.56920909881591796875e+00) (5, 3.41634011268615722656e+00) (0, 6.47430777549743652344e-01) (1, -1.09490737915039062500e+01) (2, 1.51310160756111145020e-01) (3, -3.87689685821533203125e+00) (4, 8.11153411865234375000e+00) (5, 3.68841719627380371094e+00) (6, 8.69218349456787109375e-01) (7, 9.12691771984100341797e-01) (8, 9.24133718013763427734e-01) (9, 8.63779544830322265625e-01) (10, 8.31033170223236083984e-01) 
