FANN_FLO_2.1
num_layers=3
learning_rate=0.500000
connection_rate=1.000000
network_type=0
learning_momentum=0.000000
training_algorithm=2
train_error_function=1
train_stop_function=0
cascade_output_change_fraction=0.010000
quickprop_decay=-0.000100
quickprop_mu=1.750000
rprop_increase_factor=1.200000
rprop_decrease_factor=0.500000
rprop_delta_min=0.000000
rprop_delta_max=50.000000
rprop_delta_zero=0.100000
cascade_output_stagnation_epochs=12
cascade_candidate_change_fraction=0.010000
cascade_candidate_stagnation_epochs=12
cascade_max_out_epochs=150
cascade_min_out_epochs=50
cascade_max_cand_epochs=150
cascade_min_cand_epochs=50
cascade_num_candidate_groups=2
bit_fail_limit=3.49999994039535522461e-01
cascade_candidate_limit=1.00000000000000000000e+03
cascade_weight_multiplier=4.00000005960464477539e-01
cascade_activation_functions_count=10
cascade_activation_functions=3 5 7 8 10 11 14 15 16 17 
cascade_activation_steepnesses_count=4
cascade_activation_steepnesses=2.50000000000000000000e-01 5.00000000000000000000e-01 7.50000000000000000000e-01 1.00000000000000000000e+00 
layer_sizes=10 5 2 
scale_included=0
neurons (num_inputs, activation_function, activation_steepness)=(0, 0, 0.00000000000000000000e+00) (0, 0, 0.00000000000000000000e+00) (0, 0, 0.00000000000000000000e+00) (0, 0, 0.00000000000000000000e+00) (0, 0, 0.00000000000000000000e+00) (0, 0, 0.00000000000000000000e+00) (0, 0, 0.00000000000000000000e+00) (0, 0, 0.00000000000000000000e+00) (0, 0, 0.00000000000000000000e+00) (0, 0, 0.00000000000000000000e+00) (10, 3, 5.00000000000000000000e-01) (10, 3, 5.00000000000000000000e-01) (10, 3, 5.00000000000000000000e-01) (10, 3, 5.00000000000000000000e-01) (0, 3, 0.00000000000000000000e+00) (5, 3, 5.00000000000000000000e-01) (0, 3, 0.00000000000000000000e+00) 
connections (connected_to_neuron, weight)=(0, -1.54999179840087890625e+01) (1, 2.13355751037597656250e+01) (2, -7.41474807262420654297e-01) (3, 6.37388586997985839844e-01) (4, 2.41315349936485290527e-01) (5, 5.80120325088500976562e+00) (6, 3.49227833747863769531e+00) (7, 1.16715211868286132812e+01) (8, 9.02231097221374511719e-01) (9, -7.58941650390625000000e+00) (0, 9.48723125457763671875e+00) (1, 8.52429494261741638184e-02) (2, -5.14545583724975585938e+00) (3, 1.55891695022583007812e+01) (4, -8.64601671695709228516e-01) (5, -1.66113395690917968750e+01) (6, 4.73358058929443359375e+00) (7, -3.59137487411499023438e+00) (8, -7.23078155517578125000e+00) (9, -1.85322093963623046875e+00) (0, -1.01989154815673828125e+01) (1, 1.12422628402709960938e+01) (2, 7.66341090202331542969e-01) (3, -1.18292845785617828369e-01) (4, -1.13129162788391113281e+00) (5, 3.24735975265502929688e+00) (6, 1.51184260845184326172e+00) (7, 6.36913347244262695312e+00) (8, 5.25942182540893554688e+00) (9, -5.78226089477539062500e+00) (0, -1.58451185226440429688e+01) (1, 6.83305931091308593750e+00) (2, 3.22434067726135253906e+00) (3, -3.82704887390136718750e+01) (4, 7.02558100223541259766e-01) (5, 2.54066009521484375000e+01) (6, -8.60513782501220703125e+00) (7, -1.50509047508239746094e+00) (8, 1.60020236968994140625e+01) (9, 1.23805165290832519531e+00) (10, 1.66304230690002441406e+00) (11, 4.77106332778930664062e+00) (12, 5.27056872844696044922e-01) (13, 2.25970387458801269531e+00) (14, -2.02834105491638183594e+00) 
