FANN_FLO_2.1
num_layers=3
learning_rate=0.500000
connection_rate=1.000000
network_type=0
learning_momentum=0.000000
training_algorithm=2
train_error_function=1
train_stop_function=0
cascade_output_change_fraction=0.010000
quickprop_decay=-0.000100
quickprop_mu=1.750000
rprop_increase_factor=1.200000
rprop_decrease_factor=0.500000
rprop_delta_min=0.000000
rprop_delta_max=50.000000
rprop_delta_zero=0.100000
cascade_output_stagnation_epochs=12
cascade_candidate_change_fraction=0.010000
cascade_candidate_stagnation_epochs=12
cascade_max_out_epochs=150
cascade_min_out_epochs=50
cascade_max_cand_epochs=150
cascade_min_cand_epochs=50
cascade_num_candidate_groups=2
bit_fail_limit=3.49999994039535522461e-01
cascade_candidate_limit=1.00000000000000000000e+03
cascade_weight_multiplier=4.00000005960464477539e-01
cascade_activation_functions_count=10
cascade_activation_functions=3 5 7 8 10 11 14 15 16 17 
cascade_activation_steepnesses_count=4
cascade_activation_steepnesses=2.50000000000000000000e-01 5.00000000000000000000e-01 7.50000000000000000000e-01 1.00000000000000000000e+00 
layer_sizes=6 5 2 
scale_included=0
neurons (num_inputs, activation_function, activation_steepness)=(0, 0, 0.00000000000000000000e+00) (0, 0, 0.00000000000000000000e+00) (0, 0, 0.00000000000000000000e+00) (0, 0, 0.00000000000000000000e+00) (0, 0, 0.00000000000000000000e+00) (0, 0, 0.00000000000000000000e+00) (6, 3, 5.00000000000000000000e-01) (6, 3, 5.00000000000000000000e-01) (6, 3, 5.00000000000000000000e-01) (6, 3, 5.00000000000000000000e-01) (0, 3, 0.00000000000000000000e+00) (5, 0, 5.00000000000000000000e-01) (0, 0, 0.00000000000000000000e+00) 
connections (connected_to_neuron, weight)=(0, 1.43007826805114746094e+00) (1, 4.32832050323486328125e+00) (2, -6.24168252944946289062e+00) (3, 1.53218812942504882812e+01) (4, -1.41130137443542480469e+00) (5, 2.54823541641235351562e+00) (0, -1.18154361844062805176e-01) (1, 5.85113279521465301514e-02) (2, 1.43228337168693542480e-01) (3, -4.70161736011505126953e-01) (4, 9.77722629904747009277e-02) (5, 3.58738392591476440430e-01) (0, 2.12667025625705718994e-02) (1, 1.23780772089958190918e-01) (2, -3.97107332944869995117e-01) (3, -6.40353381633758544922e-01) (4, 5.44199533760547637939e-02) (5, 3.31772118806838989258e-01) (0, 1.13503885269165039062e+00) (1, -6.56001758575439453125e+00) (2, 7.10431861877441406250e+00) (3, 7.27646827697753906250e+00) (4, 3.62113863229751586914e-01) (5, 2.63625073432922363281e+00) (6, 1.06422913074493408203e+00) (7, 1.01715779304504394531e+00) (8, 9.94803130626678466797e-01) (9, 1.05676460266113281250e+00) (10, 1.10975027084350585938e+00) 
