FANN_FLO_2.1
num_layers=3
learning_rate=0.500000
connection_rate=1.000000
network_type=0
learning_momentum=0.000000
training_algorithm=2
train_error_function=1
train_stop_function=0
cascade_output_change_fraction=0.010000
quickprop_decay=-0.000100
quickprop_mu=1.750000
rprop_increase_factor=1.200000
rprop_decrease_factor=0.500000
rprop_delta_min=0.000000
rprop_delta_max=50.000000
rprop_delta_zero=0.100000
cascade_output_stagnation_epochs=12
cascade_candidate_change_fraction=0.010000
cascade_candidate_stagnation_epochs=12
cascade_max_out_epochs=150
cascade_min_out_epochs=50
cascade_max_cand_epochs=150
cascade_min_cand_epochs=50
cascade_num_candidate_groups=2
bit_fail_limit=3.49999994039535522461e-01
cascade_candidate_limit=1.00000000000000000000e+03
cascade_weight_multiplier=4.00000005960464477539e-01
cascade_activation_functions_count=10
cascade_activation_functions=3 5 7 8 10 11 14 15 16 17 
cascade_activation_steepnesses_count=4
cascade_activation_steepnesses=2.50000000000000000000e-01 5.00000000000000000000e-01 7.50000000000000000000e-01 1.00000000000000000000e+00 
layer_sizes=10 5 2 
scale_included=0
neurons (num_inputs, activation_function, activation_steepness)=(0, 0, 0.00000000000000000000e+00) (0, 0, 0.00000000000000000000e+00) (0, 0, 0.00000000000000000000e+00) (0, 0, 0.00000000000000000000e+00) (0, 0, 0.00000000000000000000e+00) (0, 0, 0.00000000000000000000e+00) (0, 0, 0.00000000000000000000e+00) (0, 0, 0.00000000000000000000e+00) (0, 0, 0.00000000000000000000e+00) (0, 0, 0.00000000000000000000e+00) (10, 3, 5.00000000000000000000e-01) (10, 3, 5.00000000000000000000e-01) (10, 3, 5.00000000000000000000e-01) (10, 3, 5.00000000000000000000e-01) (0, 3, 0.00000000000000000000e+00) (5, 3, 5.00000000000000000000e-01) (0, 3, 0.00000000000000000000e+00) 
connections (connected_to_neuron, weight)=(0, -1.15970897674560546875e+01) (1, 1.51703462600708007812e+01) (2, 9.44390520453453063965e-02) (3, 8.73645019531250000000e+00) (4, -7.43110752105712890625e+00) (5, 4.36743736267089843750e+00) (6, 8.74931526184082031250e+00) (7, -1.14978122711181640625e+00) (8, 6.69914007186889648438e+00) (9, -4.99049854278564453125e+00) (0, -9.92615461349487304688e-01) (1, 9.04679012298583984375e+00) (2, -3.65601897239685058594e+00) (3, 5.41234016418457031250e+00) (4, -9.35290241241455078125e+00) (5, 2.14513921737670898438e+00) (6, 5.52819442749023437500e+00) (7, -3.84247875213623046875e+00) (8, 1.10853805541992187500e+01) (9, -3.04693555831909179688e+00) (0, -9.17886272072792053223e-02) (1, 1.37523925304412841797e+00) (2, 1.22712133452296257019e-02) (3, 1.81738758087158203125e+00) (4, -1.12625825405120849609e+00) (5, 8.19881498813629150391e-01) (6, 1.01868057250976562500e+00) (7, -2.35120236873626708984e-01) (8, 1.59962296485900878906e+00) (9, -3.54384446144104003906e+00) (0, -7.57223725318908691406e-01) (1, 4.01647567749023437500e+00) (2, 2.44937443733215332031e+00) (3, 3.63823723793029785156e+00) (4, -1.64588713645935058594e+00) (5, 5.06871128082275390625e+00) (6, 4.91143798828125000000e+00) (7, 1.23010933399200439453e+00) (8, 1.09969961643218994141e+00) (9, -5.69488430023193359375e+00) (10, 6.27335250377655029297e-01) (11, 8.41227173805236816406e-01) (12, -4.78590726852416992188e+00) (13, 3.67183876037597656250e+00) (14, -2.13974452018737792969e+00) 
