FANN_FLO_2.1
num_layers=3
learning_rate=0.500000
connection_rate=1.000000
network_type=0
learning_momentum=0.000000
training_algorithm=2
train_error_function=1
train_stop_function=0
cascade_output_change_fraction=0.010000
quickprop_decay=-0.000100
quickprop_mu=1.750000
rprop_increase_factor=1.200000
rprop_decrease_factor=0.500000
rprop_delta_min=0.000000
rprop_delta_max=50.000000
rprop_delta_zero=0.100000
cascade_output_stagnation_epochs=12
cascade_candidate_change_fraction=0.010000
cascade_candidate_stagnation_epochs=12
cascade_max_out_epochs=150
cascade_min_out_epochs=50
cascade_max_cand_epochs=150
cascade_min_cand_epochs=50
cascade_num_candidate_groups=2
bit_fail_limit=3.49999994039535522461e-01
cascade_candidate_limit=1.00000000000000000000e+03
cascade_weight_multiplier=4.00000005960464477539e-01
cascade_activation_functions_count=10
cascade_activation_functions=3 5 7 8 10 11 14 15 16 17 
cascade_activation_steepnesses_count=4
cascade_activation_steepnesses=2.50000000000000000000e-01 5.00000000000000000000e-01 7.50000000000000000000e-01 1.00000000000000000000e+00 
layer_sizes=10 3 2 
scale_included=0
neurons (num_inputs, activation_function, activation_steepness)=(0, 0, 0.00000000000000000000e+00) (0, 0, 0.00000000000000000000e+00) (0, 0, 0.00000000000000000000e+00) (0, 0, 0.00000000000000000000e+00) (0, 0, 0.00000000000000000000e+00) (0, 0, 0.00000000000000000000e+00) (0, 0, 0.00000000000000000000e+00) (0, 0, 0.00000000000000000000e+00) (0, 0, 0.00000000000000000000e+00) (0, 0, 0.00000000000000000000e+00) (10, 3, 5.00000000000000000000e-01) (10, 3, 5.00000000000000000000e-01) (0, 3, 0.00000000000000000000e+00) (3, 3, 5.00000000000000000000e-01) (0, 3, 0.00000000000000000000e+00) 
connections (connected_to_neuron, weight)=(0, -7.11438596248626708984e-01) (1, -8.17175865173339843750e-01) (2, 5.63639307022094726562e+00) (3, -1.65974922180175781250e+01) (4, 1.41283556818962097168e-01) (5, 1.84457473754882812500e+01) (6, -1.11528549194335937500e+01) (7, -4.05042201280593872070e-01) (8, -1.19077408313751220703e+00) (9, -1.26968932151794433594e+00) (0, 7.72749090194702148438e+00) (1, 4.04191827774047851562e+00) (2, -3.89536452293395996094e+00) (3, 8.73406124114990234375e+00) (4, -2.20712041854858398438e+00) (5, -7.08868360519409179688e+00) (6, 8.15360832214355468750e+00) (7, 9.91226577758789062500e+00) (8, -5.40939950942993164062e+00) (9, -7.01434850692749023438e+00) (10, 5.22891139984130859375e+00) (11, 2.44858837127685546875e+00) (12, -1.11326909065246582031e+00) 
