FANN_FLO_2.1
num_layers=3
learning_rate=0.500000
connection_rate=1.000000
network_type=0
learning_momentum=0.000000
training_algorithm=2
train_error_function=1
train_stop_function=0
cascade_output_change_fraction=0.010000
quickprop_decay=-0.000100
quickprop_mu=1.750000
rprop_increase_factor=1.200000
rprop_decrease_factor=0.500000
rprop_delta_min=0.000000
rprop_delta_max=50.000000
rprop_delta_zero=0.100000
cascade_output_stagnation_epochs=12
cascade_candidate_change_fraction=0.010000
cascade_candidate_stagnation_epochs=12
cascade_max_out_epochs=150
cascade_min_out_epochs=50
cascade_max_cand_epochs=150
cascade_min_cand_epochs=50
cascade_num_candidate_groups=2
bit_fail_limit=3.49999994039535522461e-01
cascade_candidate_limit=1.00000000000000000000e+03
cascade_weight_multiplier=4.00000005960464477539e-01
cascade_activation_functions_count=10
cascade_activation_functions=3 5 7 8 10 11 14 15 16 17 
cascade_activation_steepnesses_count=4
cascade_activation_steepnesses=2.50000000000000000000e-01 5.00000000000000000000e-01 7.50000000000000000000e-01 1.00000000000000000000e+00 
layer_sizes=10 3 2 
scale_included=0
neurons (num_inputs, activation_function, activation_steepness)=(0, 0, 0.00000000000000000000e+00) (0, 0, 0.00000000000000000000e+00) (0, 0, 0.00000000000000000000e+00) (0, 0, 0.00000000000000000000e+00) (0, 0, 0.00000000000000000000e+00) (0, 0, 0.00000000000000000000e+00) (0, 0, 0.00000000000000000000e+00) (0, 0, 0.00000000000000000000e+00) (0, 0, 0.00000000000000000000e+00) (0, 0, 0.00000000000000000000e+00) (10, 3, 5.00000000000000000000e-01) (10, 3, 5.00000000000000000000e-01) (0, 3, 0.00000000000000000000e+00) (3, 3, 5.00000000000000000000e-01) (0, 3, 0.00000000000000000000e+00) 
connections (connected_to_neuron, weight)=(0, 1.37483990192413330078e+00) (1, 8.28007793426513671875e+00) (2, 8.36163401603698730469e-01) (3, 3.60051703453063964844e+00) (4, -1.10438423156738281250e+01) (5, 1.59490032196044921875e+01) (6, 1.31677331924438476562e+01) (7, 3.60943269729614257812e+00) (8, -1.05375251770019531250e+01) (9, -8.38233852386474609375e+00) (0, 1.40251340866088867188e+01) (1, 3.82854914665222167969e+00) (2, -5.31664896011352539062e+00) (3, 6.58296442031860351562e+00) (4, -8.37139129638671875000e+00) (5, 1.46949090957641601562e+01) (6, 5.04035520553588867188e+00) (7, 8.89246582984924316406e-01) (8, 1.42079038619995117188e+01) (9, -1.26952590942382812500e+01) (10, 6.37613773345947265625e-01) (11, 1.26556193828582763672e+00) (12, -4.49149727821350097656e-01) 
