FANN_FLO_2.1
num_layers=3
learning_rate=0.500000
connection_rate=1.000000
network_type=0
learning_momentum=0.000000
training_algorithm=2
train_error_function=1
train_stop_function=0
cascade_output_change_fraction=0.010000
quickprop_decay=-0.000100
quickprop_mu=1.750000
rprop_increase_factor=1.200000
rprop_decrease_factor=0.500000
rprop_delta_min=0.000000
rprop_delta_max=50.000000
rprop_delta_zero=0.100000
cascade_output_stagnation_epochs=12
cascade_candidate_change_fraction=0.010000
cascade_candidate_stagnation_epochs=12
cascade_max_out_epochs=150
cascade_min_out_epochs=50
cascade_max_cand_epochs=150
cascade_min_cand_epochs=50
cascade_num_candidate_groups=2
bit_fail_limit=3.49999994039535522461e-01
cascade_candidate_limit=1.00000000000000000000e+03
cascade_weight_multiplier=4.00000005960464477539e-01
cascade_activation_functions_count=10
cascade_activation_functions=3 5 7 8 10 11 14 15 16 17 
cascade_activation_steepnesses_count=4
cascade_activation_steepnesses=2.50000000000000000000e-01 5.00000000000000000000e-01 7.50000000000000000000e-01 1.00000000000000000000e+00 
layer_sizes=6 5 2 
scale_included=0
neurons (num_inputs, activation_function, activation_steepness)=(0, 0, 0.00000000000000000000e+00) (0, 0, 0.00000000000000000000e+00) (0, 0, 0.00000000000000000000e+00) (0, 0, 0.00000000000000000000e+00) (0, 0, 0.00000000000000000000e+00) (0, 0, 0.00000000000000000000e+00) (6, 3, 5.00000000000000000000e-01) (6, 3, 5.00000000000000000000e-01) (6, 3, 5.00000000000000000000e-01) (6, 3, 5.00000000000000000000e-01) (0, 3, 0.00000000000000000000e+00) (5, 0, 5.00000000000000000000e-01) (0, 0, 0.00000000000000000000e+00) 
connections (connected_to_neuron, weight)=(0, 1.34442114830017089844e+00) (1, -7.98982322216033935547e-01) (2, 9.16029453277587890625e+00) (3, 4.30428123474121093750e+00) (4, -1.79624390602111816406e+00) (5, 1.70235979557037353516e+00) (0, 1.31336784362792968750e+00) (1, -6.49373817443847656250e+00) (2, -4.11941975355148315430e-01) (3, -3.36496996879577636719e+00) (4, 8.09640502929687500000e+00) (5, 1.85250651836395263672e+00) (0, -3.79188328981399536133e-01) (1, -2.07100540399551391602e-01) (2, -5.17143189907073974609e-01) (3, -3.90566974878311157227e-01) (4, -5.38111388683319091797e-01) (5, 1.95529729127883911133e-01) (0, 1.11968374252319335938e+00) (1, 5.42189693450927734375e+00) (2, -2.88998699188232421875e+00) (3, 4.04041975736618041992e-01) (4, -9.88774187862873077393e-03) (5, 1.63535249233245849609e+00) (6, 1.02971780300140380859e+00) (7, 1.02191376686096191406e+00) (8, 9.02188360691070556641e-01) (9, 9.99164581298828125000e-01) (10, 1.01903128623962402344e+00) 
