FANN_FLO_2.1
num_layers=3
learning_rate=0.500000
connection_rate=1.000000
network_type=0
learning_momentum=0.000000
training_algorithm=2
train_error_function=1
train_stop_function=0
cascade_output_change_fraction=0.010000
quickprop_decay=-0.000100
quickprop_mu=1.750000
rprop_increase_factor=1.200000
rprop_decrease_factor=0.500000
rprop_delta_min=0.000000
rprop_delta_max=50.000000
rprop_delta_zero=0.100000
cascade_output_stagnation_epochs=12
cascade_candidate_change_fraction=0.010000
cascade_candidate_stagnation_epochs=12
cascade_max_out_epochs=150
cascade_min_out_epochs=50
cascade_max_cand_epochs=150
cascade_min_cand_epochs=50
cascade_num_candidate_groups=2
bit_fail_limit=3.49999994039535522461e-01
cascade_candidate_limit=1.00000000000000000000e+03
cascade_weight_multiplier=4.00000005960464477539e-01
cascade_activation_functions_count=10
cascade_activation_functions=3 5 7 8 10 11 14 15 16 17 
cascade_activation_steepnesses_count=4
cascade_activation_steepnesses=2.50000000000000000000e-01 5.00000000000000000000e-01 7.50000000000000000000e-01 1.00000000000000000000e+00 
layer_sizes=10 5 2 
scale_included=0
neurons (num_inputs, activation_function, activation_steepness)=(0, 0, 0.00000000000000000000e+00) (0, 0, 0.00000000000000000000e+00) (0, 0, 0.00000000000000000000e+00) (0, 0, 0.00000000000000000000e+00) (0, 0, 0.00000000000000000000e+00) (0, 0, 0.00000000000000000000e+00) (0, 0, 0.00000000000000000000e+00) (0, 0, 0.00000000000000000000e+00) (0, 0, 0.00000000000000000000e+00) (0, 0, 0.00000000000000000000e+00) (10, 3, 5.00000000000000000000e-01) (10, 3, 5.00000000000000000000e-01) (10, 3, 5.00000000000000000000e-01) (10, 3, 5.00000000000000000000e-01) (0, 3, 0.00000000000000000000e+00) (5, 3, 5.00000000000000000000e-01) (0, 3, 0.00000000000000000000e+00) 
connections (connected_to_neuron, weight)=(0, 7.76078879833221435547e-01) (1, 1.52480306625366210938e+01) (2, 1.75365753173828125000e+01) (3, -1.69253196716308593750e+01) (4, 4.06816840171813964844e-01) (5, 1.31627807617187500000e+01) (6, -1.62752666473388671875e+01) (7, -1.45727624893188476562e+01) (8, -3.28807979822158813477e-01) (9, -4.71407508850097656250e+00) (0, 7.78950214385986328125e+00) (1, 2.55298233032226562500e+00) (2, -7.30608797073364257812e+00) (3, 1.49953794479370117188e+01) (4, 5.82882106304168701172e-01) (5, -1.45309638977050781250e+01) (6, 4.84793806076049804688e+00) (7, -2.42048740386962890625e+00) (8, -8.68649959564208984375e+00) (9, -1.96770131587982177734e+00) (0, -2.26437473297119140625e+00) (1, 1.04426679611206054688e+01) (2, 4.59159374237060546875e+00) (3, 7.31633377075195312500e+00) (4, 5.46222388744354248047e-01) (5, 2.23025588989257812500e+01) (6, -1.71347675323486328125e+01) (7, 1.54055500030517578125e+00) (8, -5.03814840316772460938e+00) (9, -8.39355945587158203125e+00) (0, -1.19987535476684570312e+01) (1, -1.75160579681396484375e+01) (2, -2.43968272209167480469e+00) (3, -7.55480098724365234375e+00) (4, 3.47587674856185913086e-01) (5, 5.61311244964599609375e+00) (6, 6.81773900985717773438e+00) (7, 1.29673509597778320312e+01) (8, 1.18805236816406250000e+01) (9, -3.02662777900695800781e+00) (10, 4.25654411315917968750e+00) (11, 4.84165859222412109375e+00) (12, 7.17558801174163818359e-01) (13, 4.27343845367431640625e+00) (14, -1.93750786781311035156e+00) 
