FANN_FLO_2.1
num_layers=3
learning_rate=0.500000
connection_rate=1.000000
network_type=0
learning_momentum=0.000000
training_algorithm=2
train_error_function=1
train_stop_function=0
cascade_output_change_fraction=0.010000
quickprop_decay=-0.000100
quickprop_mu=1.750000
rprop_increase_factor=1.200000
rprop_decrease_factor=0.500000
rprop_delta_min=0.000000
rprop_delta_max=50.000000
rprop_delta_zero=0.100000
cascade_output_stagnation_epochs=12
cascade_candidate_change_fraction=0.010000
cascade_candidate_stagnation_epochs=12
cascade_max_out_epochs=150
cascade_min_out_epochs=50
cascade_max_cand_epochs=150
cascade_min_cand_epochs=50
cascade_num_candidate_groups=2
bit_fail_limit=3.49999994039535522461e-01
cascade_candidate_limit=1.00000000000000000000e+03
cascade_weight_multiplier=4.00000005960464477539e-01
cascade_activation_functions_count=10
cascade_activation_functions=3 5 7 8 10 11 14 15 16 17 
cascade_activation_steepnesses_count=4
cascade_activation_steepnesses=2.50000000000000000000e-01 5.00000000000000000000e-01 7.50000000000000000000e-01 1.00000000000000000000e+00 
layer_sizes=6 5 2 
scale_included=0
neurons (num_inputs, activation_function, activation_steepness)=(0, 0, 0.00000000000000000000e+00) (0, 0, 0.00000000000000000000e+00) (0, 0, 0.00000000000000000000e+00) (0, 0, 0.00000000000000000000e+00) (0, 0, 0.00000000000000000000e+00) (0, 0, 0.00000000000000000000e+00) (6, 3, 5.00000000000000000000e-01) (6, 3, 5.00000000000000000000e-01) (6, 3, 5.00000000000000000000e-01) (6, 3, 5.00000000000000000000e-01) (0, 3, 0.00000000000000000000e+00) (5, 0, 5.00000000000000000000e-01) (0, 0, 0.00000000000000000000e+00) 
connections (connected_to_neuron, weight)=(0, 9.26074206829071044922e-01) (1, -6.79281711578369140625e+00) (2, 1.51611709594726562500e+00) (3, 7.70693123340606689453e-01) (4, 2.50801229476928710938e+00) (5, 1.94386768341064453125e+00) (0, 1.15195536613464355469e+00) (1, 4.19479274749755859375e+00) (2, -4.32727336883544921875e+00) (3, -4.03361225128173828125e+00) (4, 8.17443561553955078125e+00) (5, 2.14130973815917968750e+00) (0, 9.43392395973205566406e-01) (1, 1.56638845801353454590e-02) (2, -4.99141693115234375000e+00) (3, 7.66355085372924804688e+00) (4, -2.15377330780029296875e+00) (5, 2.06997036933898925781e+00) (0, -2.94908970594406127930e-01) (1, 5.89364111423492431641e-01) (2, 7.20288753509521484375e-01) (3, -6.89766228199005126953e-01) (4, -6.47529244422912597656e-01) (5, 2.15561673045158386230e-01) (6, 9.90945041179656982422e-01) (7, 9.72815155982971191406e-01) (8, 1.05158388614654541016e+00) (9, 9.60003316402435302734e-01) (10, 9.97240900993347167969e-01) 
