FANN_FLO_2.1
num_layers=3
learning_rate=0.500000
connection_rate=1.000000
network_type=0
learning_momentum=0.000000
training_algorithm=2
train_error_function=1
train_stop_function=0
cascade_output_change_fraction=0.010000
quickprop_decay=-0.000100
quickprop_mu=1.750000
rprop_increase_factor=1.200000
rprop_decrease_factor=0.500000
rprop_delta_min=0.000000
rprop_delta_max=50.000000
rprop_delta_zero=0.100000
cascade_output_stagnation_epochs=12
cascade_candidate_change_fraction=0.010000
cascade_candidate_stagnation_epochs=12
cascade_max_out_epochs=150
cascade_min_out_epochs=50
cascade_max_cand_epochs=150
cascade_min_cand_epochs=50
cascade_num_candidate_groups=2
bit_fail_limit=3.49999994039535522461e-01
cascade_candidate_limit=1.00000000000000000000e+03
cascade_weight_multiplier=4.00000005960464477539e-01
cascade_activation_functions_count=10
cascade_activation_functions=3 5 7 8 10 11 14 15 16 17 
cascade_activation_steepnesses_count=4
cascade_activation_steepnesses=2.50000000000000000000e-01 5.00000000000000000000e-01 7.50000000000000000000e-01 1.00000000000000000000e+00 
layer_sizes=10 3 2 
scale_included=0
neurons (num_inputs, activation_function, activation_steepness)=(0, 0, 0.00000000000000000000e+00) (0, 0, 0.00000000000000000000e+00) (0, 0, 0.00000000000000000000e+00) (0, 0, 0.00000000000000000000e+00) (0, 0, 0.00000000000000000000e+00) (0, 0, 0.00000000000000000000e+00) (0, 0, 0.00000000000000000000e+00) (0, 0, 0.00000000000000000000e+00) (0, 0, 0.00000000000000000000e+00) (0, 0, 0.00000000000000000000e+00) (10, 3, 5.00000000000000000000e-01) (10, 3, 5.00000000000000000000e-01) (0, 3, 0.00000000000000000000e+00) (3, 3, 5.00000000000000000000e-01) (0, 3, 0.00000000000000000000e+00) 
connections (connected_to_neuron, weight)=(0, 5.66548013687133789062e+00) (1, 2.36780185699462890625e+01) (2, 9.27969646453857421875e+00) (3, -5.57393836975097656250e+00) (4, -5.59310960769653320312e+00) (5, 1.15534009933471679688e+01) (6, -1.00195684432983398438e+01) (7, -2.34851741790771484375e+01) (8, -6.19228076934814453125e+00) (9, -3.02171325683593750000e+00) (0, -4.57522869110107421875e+00) (1, -9.39676475524902343750e+00) (2, -6.37007141113281250000e+00) (3, 1.81734549999237060547e+00) (4, 1.26387572288513183594e+00) (5, -5.05980253219604492188e+00) (6, 6.52300834655761718750e+00) (7, 1.08995056152343750000e+01) (8, 6.23725938796997070312e+00) (9, -2.74716877937316894531e+00) (10, 3.15781402587890625000e+00) (11, 3.99682474136352539062e+00) (12, -6.07975482940673828125e-01) 
