FANN_FLO_2.1
num_layers=3
learning_rate=0.500000
connection_rate=1.000000
network_type=0
learning_momentum=0.000000
training_algorithm=2
train_error_function=1
train_stop_function=0
cascade_output_change_fraction=0.010000
quickprop_decay=-0.000100
quickprop_mu=1.750000
rprop_increase_factor=1.200000
rprop_decrease_factor=0.500000
rprop_delta_min=0.000000
rprop_delta_max=50.000000
rprop_delta_zero=0.100000
cascade_output_stagnation_epochs=12
cascade_candidate_change_fraction=0.010000
cascade_candidate_stagnation_epochs=12
cascade_max_out_epochs=150
cascade_min_out_epochs=50
cascade_max_cand_epochs=150
cascade_min_cand_epochs=50
cascade_num_candidate_groups=2
bit_fail_limit=3.49999994039535522461e-01
cascade_candidate_limit=1.00000000000000000000e+03
cascade_weight_multiplier=4.00000005960464477539e-01
cascade_activation_functions_count=10
cascade_activation_functions=3 5 7 8 10 11 14 15 16 17 
cascade_activation_steepnesses_count=4
cascade_activation_steepnesses=2.50000000000000000000e-01 5.00000000000000000000e-01 7.50000000000000000000e-01 1.00000000000000000000e+00 
layer_sizes=10 5 2 
scale_included=0
neurons (num_inputs, activation_function, activation_steepness)=(0, 0, 0.00000000000000000000e+00) (0, 0, 0.00000000000000000000e+00) (0, 0, 0.00000000000000000000e+00) (0, 0, 0.00000000000000000000e+00) (0, 0, 0.00000000000000000000e+00) (0, 0, 0.00000000000000000000e+00) (0, 0, 0.00000000000000000000e+00) (0, 0, 0.00000000000000000000e+00) (0, 0, 0.00000000000000000000e+00) (0, 0, 0.00000000000000000000e+00) (10, 3, 5.00000000000000000000e-01) (10, 3, 5.00000000000000000000e-01) (10, 3, 5.00000000000000000000e-01) (10, 3, 5.00000000000000000000e-01) (0, 3, 0.00000000000000000000e+00) (5, 3, 5.00000000000000000000e-01) (0, 3, 0.00000000000000000000e+00) 
connections (connected_to_neuron, weight)=(0, -8.21052455902099609375e+00) (1, 6.09811544418334960938e+00) (2, 1.39899196624755859375e+01) (3, -1.77229537963867187500e+01) (4, 1.88770842552185058594e+00) (5, 2.17887973785400390625e+01) (6, -1.54998226165771484375e+01) (7, -7.19712066650390625000e+00) (8, 4.08175563812255859375e+00) (9, -3.99614858627319335938e+00) (0, 7.25123691558837890625e+00) (1, 6.29798746109008789062e+00) (2, 1.08667664229869842529e-01) (3, 1.01526527404785156250e+01) (4, 8.95328819751739501953e-02) (5, -9.16620826721191406250e+00) (6, 1.08351528644561767578e+00) (7, -9.04191303253173828125e+00) (8, -6.88992166519165039062e+00) (9, -2.73946928977966308594e+00) (0, -3.24038481712341308594e+00) (1, -1.92013988494873046875e+01) (2, -4.95433712005615234375e+00) (3, 1.93336144089698791504e-01) (4, 7.25411772727966308594e-01) (5, -1.58282294869422912598e-01) (6, 6.60014247894287109375e+00) (7, 1.41402273178100585938e+01) (8, 3.81391310691833496094e+00) (9, -1.81774306297302246094e+00) (0, 8.70133489370346069336e-02) (1, -1.80466232299804687500e+01) (2, 8.12118351459503173828e-01) (3, 1.24595820903778076172e+00) (4, 1.36367952823638916016e+00) (5, 1.72710254788398742676e-01) (6, -6.29574477672576904297e-01) (7, 7.57456159591674804688e+00) (8, -6.26237317919731140137e-02) (9, 2.42665553092956542969e+00) (10, 4.07038402557373046875e+00) (11, 5.62036657333374023438e+00) (12, 6.18614006042480468750e+00) (13, -1.65897035598754882812e+00) (14, -1.47535109519958496094e+00) 
