FANN_FLO_2.1
num_layers=3
learning_rate=0.500000
connection_rate=1.000000
network_type=0
learning_momentum=0.000000
training_algorithm=2
train_error_function=1
train_stop_function=0
cascade_output_change_fraction=0.010000
quickprop_decay=-0.000100
quickprop_mu=1.750000
rprop_increase_factor=1.200000
rprop_decrease_factor=0.500000
rprop_delta_min=0.000000
rprop_delta_max=50.000000
rprop_delta_zero=0.100000
cascade_output_stagnation_epochs=12
cascade_candidate_change_fraction=0.010000
cascade_candidate_stagnation_epochs=12
cascade_max_out_epochs=150
cascade_min_out_epochs=50
cascade_max_cand_epochs=150
cascade_min_cand_epochs=50
cascade_num_candidate_groups=2
bit_fail_limit=3.49999994039535522461e-01
cascade_candidate_limit=1.00000000000000000000e+03
cascade_weight_multiplier=4.00000005960464477539e-01
cascade_activation_functions_count=10
cascade_activation_functions=3 5 7 8 10 11 14 15 16 17 
cascade_activation_steepnesses_count=4
cascade_activation_steepnesses=2.50000000000000000000e-01 5.00000000000000000000e-01 7.50000000000000000000e-01 1.00000000000000000000e+00 
layer_sizes=10 5 2 
scale_included=0
neurons (num_inputs, activation_function, activation_steepness)=(0, 0, 0.00000000000000000000e+00) (0, 0, 0.00000000000000000000e+00) (0, 0, 0.00000000000000000000e+00) (0, 0, 0.00000000000000000000e+00) (0, 0, 0.00000000000000000000e+00) (0, 0, 0.00000000000000000000e+00) (0, 0, 0.00000000000000000000e+00) (0, 0, 0.00000000000000000000e+00) (0, 0, 0.00000000000000000000e+00) (0, 0, 0.00000000000000000000e+00) (10, 3, 5.00000000000000000000e-01) (10, 3, 5.00000000000000000000e-01) (10, 3, 5.00000000000000000000e-01) (10, 3, 5.00000000000000000000e-01) (0, 3, 0.00000000000000000000e+00) (5, 3, 5.00000000000000000000e-01) (0, 3, 0.00000000000000000000e+00) 
connections (connected_to_neuron, weight)=(0, 3.53839421272277832031e+00) (1, -1.65609416961669921875e+01) (2, -1.20995502471923828125e+01) (3, 1.00063323974609375000e+01) (4, 6.83731460571289062500e+00) (5, -2.34753684997558593750e+01) (6, 2.02414340972900390625e+01) (7, 9.08486080169677734375e+00) (8, -1.34792113304138183594e+00) (9, -4.41886377334594726562e+00) (0, 1.88606662750244140625e+01) (1, -9.17760372161865234375e+00) (2, -5.96049022674560546875e+00) (3, 3.08805036544799804688e+00) (4, 7.36219501495361328125e+00) (5, 6.24894237518310546875e+00) (6, -1.80550746917724609375e+01) (7, 2.72578430175781250000e+00) (8, 1.78520507812500000000e+01) (9, -6.29440641403198242188e+00) (0, -3.16717296838760375977e-01) (1, 1.24120140075683593750e+01) (2, 9.55572795867919921875e+00) (3, -1.11840658187866210938e+01) (4, 1.47276866436004638672e+00) (5, 8.79358100891113281250e+00) (6, -1.43879489898681640625e+01) (7, -1.22102737426757812500e+01) (8, -2.11835265159606933594e+00) (9, -9.77315485477447509766e-01) (0, -1.81262683868408203125e+01) (1, 7.95523703098297119141e-01) (2, 4.34696197509765625000e+00) (3, 1.83658523559570312500e+01) (4, -4.82493543624877929688e+00) (5, 3.75345528125762939453e-01) (6, 1.60615348815917968750e+01) (7, 3.39069843292236328125e+00) (8, 7.02068662643432617188e+00) (9, -8.78623771667480468750e+00) (10, 4.54633617401123046875e+00) (11, 1.53081917762756347656e+00) (12, 4.52145051956176757812e+00) (13, 1.44580388069152832031e+00) (14, -2.17218685150146484375e+00) 
