FANN_FLO_2.1
num_layers=3
learning_rate=0.500000
connection_rate=1.000000
network_type=0
learning_momentum=0.000000
training_algorithm=2
train_error_function=1
train_stop_function=0
cascade_output_change_fraction=0.010000
quickprop_decay=-0.000100
quickprop_mu=1.750000
rprop_increase_factor=1.200000
rprop_decrease_factor=0.500000
rprop_delta_min=0.000000
rprop_delta_max=50.000000
rprop_delta_zero=0.100000
cascade_output_stagnation_epochs=12
cascade_candidate_change_fraction=0.010000
cascade_candidate_stagnation_epochs=12
cascade_max_out_epochs=150
cascade_min_out_epochs=50
cascade_max_cand_epochs=150
cascade_min_cand_epochs=50
cascade_num_candidate_groups=2
bit_fail_limit=3.49999994039535522461e-01
cascade_candidate_limit=1.00000000000000000000e+03
cascade_weight_multiplier=4.00000005960464477539e-01
cascade_activation_functions_count=10
cascade_activation_functions=3 5 7 8 10 11 14 15 16 17 
cascade_activation_steepnesses_count=4
cascade_activation_steepnesses=2.50000000000000000000e-01 5.00000000000000000000e-01 7.50000000000000000000e-01 1.00000000000000000000e+00 
layer_sizes=10 3 2 
scale_included=0
neurons (num_inputs, activation_function, activation_steepness)=(0, 0, 0.00000000000000000000e+00) (0, 0, 0.00000000000000000000e+00) (0, 0, 0.00000000000000000000e+00) (0, 0, 0.00000000000000000000e+00) (0, 0, 0.00000000000000000000e+00) (0, 0, 0.00000000000000000000e+00) (0, 0, 0.00000000000000000000e+00) (0, 0, 0.00000000000000000000e+00) (0, 0, 0.00000000000000000000e+00) (0, 0, 0.00000000000000000000e+00) (10, 3, 5.00000000000000000000e-01) (10, 3, 5.00000000000000000000e-01) (0, 3, 0.00000000000000000000e+00) (3, 3, 5.00000000000000000000e-01) (0, 3, 0.00000000000000000000e+00) 
connections (connected_to_neuron, weight)=(0, 5.06482219696044921875e+00) (1, 2.06107544898986816406e+00) (2, -2.40349721908569335938e+00) (3, 7.98005056381225585938e+00) (4, -9.53356075286865234375e+00) (5, 1.99450759887695312500e+01) (6, 1.81006002426147460938e+00) (7, 1.29720449447631835938e+01) (8, -1.06535110473632812500e+01) (9, -8.35764789581298828125e+00) (0, -1.79769361019134521484e+00) (1, 7.51444220542907714844e-01) (2, 2.73607711791992187500e+01) (3, 1.01475458145141601562e+01) (4, -1.47181921005249023438e+01) (5, 5.72344017028808593750e+00) (6, 1.39050312042236328125e+01) (7, 5.95814228057861328125e+00) (8, -8.74586486816406250000e+00) (9, -1.23677263259887695312e+01) (10, 9.73306059837341308594e-01) (11, 5.50077915191650390625e-01) (12, -7.17679262161254882812e-02) 
