FANN_FLO_2.1
num_layers=3
learning_rate=0.500000
connection_rate=1.000000
network_type=0
learning_momentum=0.000000
training_algorithm=2
train_error_function=1
train_stop_function=0
cascade_output_change_fraction=0.010000
quickprop_decay=-0.000100
quickprop_mu=1.750000
rprop_increase_factor=1.200000
rprop_decrease_factor=0.500000
rprop_delta_min=0.000000
rprop_delta_max=50.000000
rprop_delta_zero=0.100000
cascade_output_stagnation_epochs=12
cascade_candidate_change_fraction=0.010000
cascade_candidate_stagnation_epochs=12
cascade_max_out_epochs=150
cascade_min_out_epochs=50
cascade_max_cand_epochs=150
cascade_min_cand_epochs=50
cascade_num_candidate_groups=2
bit_fail_limit=3.49999994039535522461e-01
cascade_candidate_limit=1.00000000000000000000e+03
cascade_weight_multiplier=4.00000005960464477539e-01
cascade_activation_functions_count=10
cascade_activation_functions=3 5 7 8 10 11 14 15 16 17 
cascade_activation_steepnesses_count=4
cascade_activation_steepnesses=2.50000000000000000000e-01 5.00000000000000000000e-01 7.50000000000000000000e-01 1.00000000000000000000e+00 
layer_sizes=10 5 2 
scale_included=0
neurons (num_inputs, activation_function, activation_steepness)=(0, 0, 0.00000000000000000000e+00) (0, 0, 0.00000000000000000000e+00) (0, 0, 0.00000000000000000000e+00) (0, 0, 0.00000000000000000000e+00) (0, 0, 0.00000000000000000000e+00) (0, 0, 0.00000000000000000000e+00) (0, 0, 0.00000000000000000000e+00) (0, 0, 0.00000000000000000000e+00) (0, 0, 0.00000000000000000000e+00) (0, 0, 0.00000000000000000000e+00) (10, 3, 5.00000000000000000000e-01) (10, 3, 5.00000000000000000000e-01) (10, 3, 5.00000000000000000000e-01) (10, 3, 5.00000000000000000000e-01) (0, 3, 0.00000000000000000000e+00) (5, 3, 5.00000000000000000000e-01) (0, 3, 0.00000000000000000000e+00) 
connections (connected_to_neuron, weight)=(0, -1.51199026107788085938e+01) (1, -2.16873359680175781250e+01) (2, -4.13370180130004882812e+00) (3, -1.45987606048583984375e+01) (4, -1.49900186061859130859e+00) (5, 1.52873201370239257812e+01) (6, 3.06702208518981933594e+00) (7, 1.96401157379150390625e+01) (8, 1.75189704895019531250e+01) (9, -4.41037654876708984375e+00) (0, -1.71034431457519531250e+01) (1, 1.74478473663330078125e+01) (2, -1.08086669445037841797e+00) (3, -2.08776926994323730469e+00) (4, 6.74969673156738281250e-01) (5, 1.55602693557739257812e+01) (6, -3.03568053245544433594e+00) (7, 1.20234842300415039062e+01) (8, -3.77581566572189331055e-01) (9, -5.47925853729248046875e+00) (0, 2.22490930557250976562e+00) (1, 1.89611740112304687500e+01) (2, 1.42106399536132812500e+01) (3, -8.64367866516113281250e+00) (4, -2.92954165488481521606e-02) (5, 8.34778118133544921875e+00) (6, -1.25687723159790039062e+01) (7, -1.95768718719482421875e+01) (8, -3.92298173904418945312e+00) (9, -4.26720905303955078125e+00) (0, 8.83817195892333984375e+00) (1, -1.13149511814117431641e+00) (2, -7.83209991455078125000e+00) (3, 1.23682107925415039062e+01) (4, 1.45509377121925354004e-01) (5, -1.44320039749145507812e+01) (6, 6.66884469985961914062e+00) (7, -5.57587027549743652344e-01) (8, -5.35312938690185546875e+00) (9, -2.68153715133666992188e+00) (10, 3.76149511337280273438e+00) (11, 7.81699895858764648438e-01) (12, 4.46955108642578125000e+00) (13, 5.23697280883789062500e+00) (14, -1.93782997131347656250e+00) 
