FANN_FLO_2.1
num_layers=3
learning_rate=0.500000
connection_rate=1.000000
network_type=0
learning_momentum=0.000000
training_algorithm=2
train_error_function=1
train_stop_function=0
cascade_output_change_fraction=0.010000
quickprop_decay=-0.000100
quickprop_mu=1.750000
rprop_increase_factor=1.200000
rprop_decrease_factor=0.500000
rprop_delta_min=0.000000
rprop_delta_max=50.000000
rprop_delta_zero=0.100000
cascade_output_stagnation_epochs=12
cascade_candidate_change_fraction=0.010000
cascade_candidate_stagnation_epochs=12
cascade_max_out_epochs=150
cascade_min_out_epochs=50
cascade_max_cand_epochs=150
cascade_min_cand_epochs=50
cascade_num_candidate_groups=2
bit_fail_limit=3.49999994039535522461e-01
cascade_candidate_limit=1.00000000000000000000e+03
cascade_weight_multiplier=4.00000005960464477539e-01
cascade_activation_functions_count=10
cascade_activation_functions=3 5 7 8 10 11 14 15 16 17 
cascade_activation_steepnesses_count=4
cascade_activation_steepnesses=2.50000000000000000000e-01 5.00000000000000000000e-01 7.50000000000000000000e-01 1.00000000000000000000e+00 
layer_sizes=10 3 2 
scale_included=0
neurons (num_inputs, activation_function, activation_steepness)=(0, 0, 0.00000000000000000000e+00) (0, 0, 0.00000000000000000000e+00) (0, 0, 0.00000000000000000000e+00) (0, 0, 0.00000000000000000000e+00) (0, 0, 0.00000000000000000000e+00) (0, 0, 0.00000000000000000000e+00) (0, 0, 0.00000000000000000000e+00) (0, 0, 0.00000000000000000000e+00) (0, 0, 0.00000000000000000000e+00) (0, 0, 0.00000000000000000000e+00) (10, 3, 5.00000000000000000000e-01) (10, 3, 5.00000000000000000000e-01) (0, 3, 0.00000000000000000000e+00) (3, 3, 5.00000000000000000000e-01) (0, 3, 0.00000000000000000000e+00) 
connections (connected_to_neuron, weight)=(0, -2.22417688369750976562e+00) (1, 1.44878172874450683594e+00) (2, 4.80483961105346679688e+00) (3, -1.17015914916992187500e+01) (4, 4.14142966270446777344e-01) (5, 1.33978252410888671875e+01) (6, -1.01834220886230468750e+01) (7, -1.65165221691131591797e+00) (8, 1.72222757339477539062e+00) (9, -1.65030777454376220703e+00) (0, 8.68706798553466796875e+00) (1, 3.67622375488281250000e-01) (2, -3.62278652191162109375e+00) (3, 7.08215475082397460938e+00) (4, -2.53073024749755859375e+00) (5, -5.64771175384521484375e+00) (6, 1.04431972503662109375e+01) (7, 8.36012363433837890625e+00) (8, -9.36093711853027343750e+00) (9, -5.26896142959594726562e+00) (10, 5.56264114379882812500e+00) (11, 2.53775906562805175781e+00) (12, -1.09694409370422363281e+00) 
