FANN_FLO_2.1
num_layers=3
learning_rate=0.500000
connection_rate=1.000000
network_type=0
learning_momentum=0.000000
training_algorithm=2
train_error_function=1
train_stop_function=0
cascade_output_change_fraction=0.010000
quickprop_decay=-0.000100
quickprop_mu=1.750000
rprop_increase_factor=1.200000
rprop_decrease_factor=0.500000
rprop_delta_min=0.000000
rprop_delta_max=50.000000
rprop_delta_zero=0.100000
cascade_output_stagnation_epochs=12
cascade_candidate_change_fraction=0.010000
cascade_candidate_stagnation_epochs=12
cascade_max_out_epochs=150
cascade_min_out_epochs=50
cascade_max_cand_epochs=150
cascade_min_cand_epochs=50
cascade_num_candidate_groups=2
bit_fail_limit=3.49999994039535522461e-01
cascade_candidate_limit=1.00000000000000000000e+03
cascade_weight_multiplier=4.00000005960464477539e-01
cascade_activation_functions_count=10
cascade_activation_functions=3 5 7 8 10 11 14 15 16 17 
cascade_activation_steepnesses_count=4
cascade_activation_steepnesses=2.50000000000000000000e-01 5.00000000000000000000e-01 7.50000000000000000000e-01 1.00000000000000000000e+00 
layer_sizes=10 5 2 
scale_included=0
neurons (num_inputs, activation_function, activation_steepness)=(0, 0, 0.00000000000000000000e+00) (0, 0, 0.00000000000000000000e+00) (0, 0, 0.00000000000000000000e+00) (0, 0, 0.00000000000000000000e+00) (0, 0, 0.00000000000000000000e+00) (0, 0, 0.00000000000000000000e+00) (0, 0, 0.00000000000000000000e+00) (0, 0, 0.00000000000000000000e+00) (0, 0, 0.00000000000000000000e+00) (0, 0, 0.00000000000000000000e+00) (10, 3, 5.00000000000000000000e-01) (10, 3, 5.00000000000000000000e-01) (10, 3, 5.00000000000000000000e-01) (10, 3, 5.00000000000000000000e-01) (0, 3, 0.00000000000000000000e+00) (5, 3, 5.00000000000000000000e-01) (0, 3, 0.00000000000000000000e+00) 
connections (connected_to_neuron, weight)=(0, 2.44309678673744201660e-01) (1, -3.37835073471069335938e+00) (2, 2.86489105224609375000e+00) (3, 9.09060955047607421875e+00) (4, 1.24550879001617431641e+00) (5, 3.76798915863037109375e+00) (6, 2.02018165588378906250e+00) (7, 6.12249803543090820312e+00) (8, 1.18972635269165039062e+00) (9, -7.12692499160766601562e+00) (0, -1.08109989166259765625e+01) (1, 2.71142601966857910156e-01) (2, 8.80261135101318359375e+00) (3, -1.90108051300048828125e+01) (4, 9.98310521245002746582e-02) (5, 1.71430034637451171875e+01) (6, -1.14093236923217773438e+01) (7, 3.60386633872985839844e+00) (8, 8.32425975799560546875e+00) (9, -2.21758651733398437500e+00) (0, 9.30094659328460693359e-01) (1, 5.92329216003417968750e+00) (2, 5.92080688476562500000e+00) (3, -2.37191486358642578125e+00) (4, 3.10026794672012329102e-01) (5, 3.09250259399414062500e+00) (6, -4.82138252258300781250e+00) (7, -6.26976060867309570312e+00) (8, -6.29594087600708007812e-01) (9, 6.11728103831410408020e-03) (0, 6.36315345764160156250e+00) (1, 1.28269500732421875000e+01) (2, 5.89145231246948242188e+00) (3, 2.45086598396301269531e+00) (4, 3.01374137401580810547e-01) (5, -2.47962689399719238281e+00) (6, -7.22330093383789062500e+00) (7, -1.46651878356933593750e+01) (8, -6.18573617935180664062e+00) (9, -1.20319342613220214844e+00) (10, 2.48303127288818359375e+00) (11, 4.75905227661132812500e+00) (12, -6.35316658020019531250e+00) (13, 6.78236865997314453125e+00) (14, 5.72642505168914794922e-01) 
