FANN_FLO_2.1
num_layers=3
learning_rate=0.500000
connection_rate=1.000000
network_type=0
learning_momentum=0.000000
training_algorithm=2
train_error_function=1
train_stop_function=0
cascade_output_change_fraction=0.010000
quickprop_decay=-0.000100
quickprop_mu=1.750000
rprop_increase_factor=1.200000
rprop_decrease_factor=0.500000
rprop_delta_min=0.000000
rprop_delta_max=50.000000
rprop_delta_zero=0.100000
cascade_output_stagnation_epochs=12
cascade_candidate_change_fraction=0.010000
cascade_candidate_stagnation_epochs=12
cascade_max_out_epochs=150
cascade_min_out_epochs=50
cascade_max_cand_epochs=150
cascade_min_cand_epochs=50
cascade_num_candidate_groups=2
bit_fail_limit=3.49999994039535522461e-01
cascade_candidate_limit=1.00000000000000000000e+03
cascade_weight_multiplier=4.00000005960464477539e-01
cascade_activation_functions_count=10
cascade_activation_functions=3 5 7 8 10 11 14 15 16 17 
cascade_activation_steepnesses_count=4
cascade_activation_steepnesses=2.50000000000000000000e-01 5.00000000000000000000e-01 7.50000000000000000000e-01 1.00000000000000000000e+00 
layer_sizes=10 5 2 
scale_included=0
neurons (num_inputs, activation_function, activation_steepness)=(0, 0, 0.00000000000000000000e+00) (0, 0, 0.00000000000000000000e+00) (0, 0, 0.00000000000000000000e+00) (0, 0, 0.00000000000000000000e+00) (0, 0, 0.00000000000000000000e+00) (0, 0, 0.00000000000000000000e+00) (0, 0, 0.00000000000000000000e+00) (0, 0, 0.00000000000000000000e+00) (0, 0, 0.00000000000000000000e+00) (0, 0, 0.00000000000000000000e+00) (10, 3, 5.00000000000000000000e-01) (10, 3, 5.00000000000000000000e-01) (10, 3, 5.00000000000000000000e-01) (10, 3, 5.00000000000000000000e-01) (0, 3, 0.00000000000000000000e+00) (5, 3, 5.00000000000000000000e-01) (0, 3, 0.00000000000000000000e+00) 
connections (connected_to_neuron, weight)=(0, 1.12502546310424804688e+01) (1, 7.25637388229370117188e+00) (2, 2.51826047897338867188e-01) (3, 1.19966659545898437500e+01) (4, -4.15132910013198852539e-01) (5, -1.36999750137329101562e+01) (6, 3.52746272087097167969e+00) (7, -1.07106523513793945312e+01) (8, -8.35433197021484375000e+00) (9, -3.44214463233947753906e+00) (0, -7.59907960891723632812e+00) (1, -2.04899368286132812500e+01) (2, -9.46808624267578125000e+00) (3, 2.34506934881210327148e-01) (4, 7.53806293010711669922e-01) (5, 7.90576219558715820312e-01) (6, 7.59486532211303710938e+00) (7, 1.99894237518310546875e+01) (8, 6.63314008712768554688e+00) (9, -2.53124046325683593750e+00) (0, -6.46443271636962890625e+00) (1, 1.11765317916870117188e+01) (2, 1.16484012603759765625e+01) (3, -1.56127996444702148438e+01) (4, -7.40094706416130065918e-02) (5, 1.92099838256835937500e+01) (6, -1.30961627960205078125e+01) (7, -8.05465412139892578125e+00) (8, 2.07657670974731445312e+00) (9, -4.58943462371826171875e+00) (0, -4.23466539382934570312e+00) (1, 1.22713556289672851562e+01) (2, 1.74624896049499511719e+00) (3, 7.39677965641021728516e-01) (4, 3.19505381584167480469e+00) (5, -3.20366120338439941406e+00) (6, 4.51439714431762695312e+00) (7, -2.52921670675277709961e-01) (8, 6.12802410125732421875e+00) (9, -9.19238281250000000000e+00) (10, 4.54601287841796875000e+00) (11, 4.55882453918457031250e+00) (12, 4.52163743972778320312e+00) (13, 1.54627174139022827148e-01) (14, -1.86758291721343994141e+00) 
