FANN_FLO_2.1
num_layers=3
learning_rate=0.500000
connection_rate=1.000000
network_type=0
learning_momentum=0.000000
training_algorithm=2
train_error_function=1
train_stop_function=0
cascade_output_change_fraction=0.010000
quickprop_decay=-0.000100
quickprop_mu=1.750000
rprop_increase_factor=1.200000
rprop_decrease_factor=0.500000
rprop_delta_min=0.000000
rprop_delta_max=50.000000
rprop_delta_zero=0.100000
cascade_output_stagnation_epochs=12
cascade_candidate_change_fraction=0.010000
cascade_candidate_stagnation_epochs=12
cascade_max_out_epochs=150
cascade_min_out_epochs=50
cascade_max_cand_epochs=150
cascade_min_cand_epochs=50
cascade_num_candidate_groups=2
bit_fail_limit=3.49999994039535522461e-01
cascade_candidate_limit=1.00000000000000000000e+03
cascade_weight_multiplier=4.00000005960464477539e-01
cascade_activation_functions_count=10
cascade_activation_functions=3 5 7 8 10 11 14 15 16 17 
cascade_activation_steepnesses_count=4
cascade_activation_steepnesses=2.50000000000000000000e-01 5.00000000000000000000e-01 7.50000000000000000000e-01 1.00000000000000000000e+00 
layer_sizes=10 5 2 
scale_included=0
neurons (num_inputs, activation_function, activation_steepness)=(0, 0, 0.00000000000000000000e+00) (0, 0, 0.00000000000000000000e+00) (0, 0, 0.00000000000000000000e+00) (0, 0, 0.00000000000000000000e+00) (0, 0, 0.00000000000000000000e+00) (0, 0, 0.00000000000000000000e+00) (0, 0, 0.00000000000000000000e+00) (0, 0, 0.00000000000000000000e+00) (0, 0, 0.00000000000000000000e+00) (0, 0, 0.00000000000000000000e+00) (10, 3, 5.00000000000000000000e-01) (10, 3, 5.00000000000000000000e-01) (10, 3, 5.00000000000000000000e-01) (10, 3, 5.00000000000000000000e-01) (0, 3, 0.00000000000000000000e+00) (5, 3, 5.00000000000000000000e-01) (0, 3, 0.00000000000000000000e+00) 
connections (connected_to_neuron, weight)=(0, 5.60423898696899414062e+00) (1, 6.88512027263641357422e-01) (2, 5.06457138061523437500e+00) (3, 2.29334187507629394531e+00) (4, 3.53920054435729980469e+00) (5, 3.91562676429748535156e+00) (6, 4.37182426452636718750e+00) (7, -3.98224353790283203125e+00) (8, 4.51821994781494140625e+00) (9, -7.88192605972290039062e+00) (0, -5.11928653717041015625e+00) (1, -9.51818370819091796875e+00) (2, -6.69114494323730468750e+00) (3, 2.80491322278976440430e-01) (4, -6.57646358013153076172e-01) (5, -9.19879257678985595703e-01) (6, 2.00601601600646972656e+00) (7, 1.19853258132934570312e+01) (8, 3.51023983955383300781e+00) (9, 3.98460716009140014648e-01) (0, -3.52134370803833007812e+00) (1, -3.85492825508117675781e+00) (2, -3.26134538650512695312e+00) (3, 1.08269512653350830078e+00) (4, -4.05228108167648315430e-01) (5, 1.02384984493255615234e+00) (6, 1.94521343708038330078e+00) (7, 6.26906251907348632812e+00) (8, 2.13204383850097656250e+00) (9, 3.77674758434295654297e-01) (0, 1.74241185188293457031e+00) (1, 1.07949295043945312500e+01) (2, 8.28972434997558593750e+00) (3, 2.53147673606872558594e+00) (4, 1.54140281677246093750e+00) (5, 5.45169448852539062500e+00) (6, 5.43465757369995117188e+00) (7, -1.21669616699218750000e+01) (8, -5.54889440536499023438e+00) (9, -6.26692867279052734375e+00) (10, 1.97377431392669677734e+00) (11, 8.57466888427734375000e+00) (12, -7.21152210235595703125e+00) (13, 2.99259734153747558594e+00) (14, 2.75355458259582519531e-01) 
