FANN_FLO_2.1
num_layers=3
learning_rate=0.500000
connection_rate=1.000000
network_type=0
learning_momentum=0.000000
training_algorithm=2
train_error_function=1
train_stop_function=0
cascade_output_change_fraction=0.010000
quickprop_decay=-0.000100
quickprop_mu=1.750000
rprop_increase_factor=1.200000
rprop_decrease_factor=0.500000
rprop_delta_min=0.000000
rprop_delta_max=50.000000
rprop_delta_zero=0.100000
cascade_output_stagnation_epochs=12
cascade_candidate_change_fraction=0.010000
cascade_candidate_stagnation_epochs=12
cascade_max_out_epochs=150
cascade_min_out_epochs=50
cascade_max_cand_epochs=150
cascade_min_cand_epochs=50
cascade_num_candidate_groups=2
bit_fail_limit=3.49999994039535522461e-01
cascade_candidate_limit=1.00000000000000000000e+03
cascade_weight_multiplier=4.00000005960464477539e-01
cascade_activation_functions_count=10
cascade_activation_functions=3 5 7 8 10 11 14 15 16 17 
cascade_activation_steepnesses_count=4
cascade_activation_steepnesses=2.50000000000000000000e-01 5.00000000000000000000e-01 7.50000000000000000000e-01 1.00000000000000000000e+00 
layer_sizes=10 5 2 
scale_included=0
neurons (num_inputs, activation_function, activation_steepness)=(0, 0, 0.00000000000000000000e+00) (0, 0, 0.00000000000000000000e+00) (0, 0, 0.00000000000000000000e+00) (0, 0, 0.00000000000000000000e+00) (0, 0, 0.00000000000000000000e+00) (0, 0, 0.00000000000000000000e+00) (0, 0, 0.00000000000000000000e+00) (0, 0, 0.00000000000000000000e+00) (0, 0, 0.00000000000000000000e+00) (0, 0, 0.00000000000000000000e+00) (10, 3, 5.00000000000000000000e-01) (10, 3, 5.00000000000000000000e-01) (10, 3, 5.00000000000000000000e-01) (10, 3, 5.00000000000000000000e-01) (0, 3, 0.00000000000000000000e+00) (5, 3, 5.00000000000000000000e-01) (0, 3, 0.00000000000000000000e+00) 
connections (connected_to_neuron, weight)=(0, 8.93157768249511718750e+00) (1, 2.22819976806640625000e+01) (2, 6.86443758010864257812e+00) (3, -8.56982767581939697266e-01) (4, 9.31000328063964843750e+00) (5, -9.08176136016845703125e+00) (6, 9.82116639614105224609e-01) (7, 1.21821575164794921875e+01) (8, 2.89343500137329101562e+00) (9, -8.41777133941650390625e+00) (0, 4.29245567321777343750e+00) (1, 2.38667945861816406250e+01) (2, 1.24846754074096679688e+01) (3, -1.14809250831604003906e+00) (4, 1.65713322162628173828e+00) (5, 1.15392851829528808594e+00) (6, -1.52846603393554687500e+01) (7, -1.91942901611328125000e+01) (8, -8.91598224639892578125e+00) (9, 4.80874013900756835938e+00) (0, 5.86509799957275390625e+00) (1, 3.99439764022827148438e+00) (2, -2.96646952629089355469e+00) (3, 6.09555959701538085938e+00) (4, 1.91098749637603759766e+00) (5, -1.09109611511230468750e+01) (6, 4.62681102752685546875e+00) (7, -4.05236101150512695312e+00) (8, -4.97060346603393554688e+00) (9, -1.26008605957031250000e+00) (0, -5.69300127029418945312e+00) (1, 1.17002260684967041016e+00) (2, 5.98039627075195312500e+00) (3, -5.77472972869873046875e+00) (4, -1.01592028141021728516e+00) (5, 1.14430952072143554688e+01) (6, -8.27463531494140625000e+00) (7, -2.54569619894027709961e-01) (8, 2.86352705955505371094e+00) (9, -1.92656600475311279297e+00) (10, 1.44647228717803955078e+00) (11, -3.97929906845092773438e+00) (12, 6.01738643646240234375e+00) (13, 6.95913505554199218750e+00) (14, -8.70714724063873291016e-01) 
