FANN_FLO_2.1
num_layers=3
learning_rate=0.500000
connection_rate=1.000000
network_type=0
learning_momentum=0.000000
training_algorithm=2
train_error_function=1
train_stop_function=0
cascade_output_change_fraction=0.010000
quickprop_decay=-0.000100
quickprop_mu=1.750000
rprop_increase_factor=1.200000
rprop_decrease_factor=0.500000
rprop_delta_min=0.000000
rprop_delta_max=50.000000
rprop_delta_zero=0.100000
cascade_output_stagnation_epochs=12
cascade_candidate_change_fraction=0.010000
cascade_candidate_stagnation_epochs=12
cascade_max_out_epochs=150
cascade_min_out_epochs=50
cascade_max_cand_epochs=150
cascade_min_cand_epochs=50
cascade_num_candidate_groups=2
bit_fail_limit=3.49999994039535522461e-01
cascade_candidate_limit=1.00000000000000000000e+03
cascade_weight_multiplier=4.00000005960464477539e-01
cascade_activation_functions_count=10
cascade_activation_functions=3 5 7 8 10 11 14 15 16 17 
cascade_activation_steepnesses_count=4
cascade_activation_steepnesses=2.50000000000000000000e-01 5.00000000000000000000e-01 7.50000000000000000000e-01 1.00000000000000000000e+00 
layer_sizes=10 5 2 
scale_included=0
neurons (num_inputs, activation_function, activation_steepness)=(0, 0, 0.00000000000000000000e+00) (0, 0, 0.00000000000000000000e+00) (0, 0, 0.00000000000000000000e+00) (0, 0, 0.00000000000000000000e+00) (0, 0, 0.00000000000000000000e+00) (0, 0, 0.00000000000000000000e+00) (0, 0, 0.00000000000000000000e+00) (0, 0, 0.00000000000000000000e+00) (0, 0, 0.00000000000000000000e+00) (0, 0, 0.00000000000000000000e+00) (10, 3, 5.00000000000000000000e-01) (10, 3, 5.00000000000000000000e-01) (10, 3, 5.00000000000000000000e-01) (10, 3, 5.00000000000000000000e-01) (0, 3, 0.00000000000000000000e+00) (5, 3, 5.00000000000000000000e-01) (0, 3, 0.00000000000000000000e+00) 
connections (connected_to_neuron, weight)=(0, -1.49116833496093750000e+03) (1, -1.50000000000000000000e+03) (2, -1.50000000000000000000e+03) (3, -1.50000000000000000000e+03) (4, -1.50000000000000000000e+03) (5, -1.50000000000000000000e+03) (6, -1.50000000000000000000e+03) (7, -1.50000000000000000000e+03) (8, -1.50000000000000000000e+03) (9, -4.99196624755859375000e+00) (0, -1.01364097595214843750e+01) (1, -8.59221816062927246094e-02) (2, 5.48000764846801757812e+00) (3, -1.74422092437744140625e+01) (4, -4.58105176687240600586e-01) (5, 1.75921802520751953125e+01) (6, -8.51364421844482421875e+00) (7, -1.84061610698699951172e+00) (8, 8.88290023803710937500e+00) (9, 1.34537294507026672363e-01) (0, 1.03377227783203125000e+01) (1, 9.29530918598175048828e-01) (2, -9.39448451995849609375e+00) (3, 2.24103794097900390625e+01) (4, -1.87810826301574707031e+00) (5, -2.24781780242919921875e+01) (6, 1.02835397720336914062e+01) (7, -4.06088256835937500000e+00) (8, -1.02732744216918945312e+01) (9, -2.05510687828063964844e+00) (0, -7.90729951858520507812e+00) (1, 1.59828062057495117188e+01) (2, -6.12157620489597320557e-02) (3, 1.57594576478004455566e-01) (4, 4.09525066614151000977e-01) (5, -5.89055836200714111328e-01) (6, 1.62483084201812744141e+00) (7, 9.34295749664306640625e+00) (8, 1.71100270748138427734e+00) (9, -5.91804933547973632812e+00) (10, 1.50000000000000000000e+03) (11, 2.95596241950988769531e+00) (12, 4.09770154953002929688e+00) (13, 2.22024488449096679688e+00) (14, -2.22327136993408203125e+00) 
