FANN_FLO_2.1
num_layers=3
learning_rate=0.500000
connection_rate=1.000000
network_type=0
learning_momentum=0.000000
training_algorithm=2
train_error_function=1
train_stop_function=0
cascade_output_change_fraction=0.010000
quickprop_decay=-0.000100
quickprop_mu=1.750000
rprop_increase_factor=1.200000
rprop_decrease_factor=0.500000
rprop_delta_min=0.000000
rprop_delta_max=50.000000
rprop_delta_zero=0.100000
cascade_output_stagnation_epochs=12
cascade_candidate_change_fraction=0.010000
cascade_candidate_stagnation_epochs=12
cascade_max_out_epochs=150
cascade_min_out_epochs=50
cascade_max_cand_epochs=150
cascade_min_cand_epochs=50
cascade_num_candidate_groups=2
bit_fail_limit=3.49999994039535522461e-01
cascade_candidate_limit=1.00000000000000000000e+03
cascade_weight_multiplier=4.00000005960464477539e-01
cascade_activation_functions_count=10
cascade_activation_functions=3 5 7 8 10 11 14 15 16 17 
cascade_activation_steepnesses_count=4
cascade_activation_steepnesses=2.50000000000000000000e-01 5.00000000000000000000e-01 7.50000000000000000000e-01 1.00000000000000000000e+00 
layer_sizes=10 3 2 
scale_included=0
neurons (num_inputs, activation_function, activation_steepness)=(0, 0, 0.00000000000000000000e+00) (0, 0, 0.00000000000000000000e+00) (0, 0, 0.00000000000000000000e+00) (0, 0, 0.00000000000000000000e+00) (0, 0, 0.00000000000000000000e+00) (0, 0, 0.00000000000000000000e+00) (0, 0, 0.00000000000000000000e+00) (0, 0, 0.00000000000000000000e+00) (0, 0, 0.00000000000000000000e+00) (0, 0, 0.00000000000000000000e+00) (10, 3, 5.00000000000000000000e-01) (10, 3, 5.00000000000000000000e-01) (0, 3, 0.00000000000000000000e+00) (3, 3, 5.00000000000000000000e-01) (0, 3, 0.00000000000000000000e+00) 
connections (connected_to_neuron, weight)=(0, -3.74796557426452636719e+00) (1, 8.34902667999267578125e+00) (2, 7.38299226760864257812e+00) (3, -7.12489080429077148438e+00) (4, 3.54026526212692260742e-01) (5, 3.82315158843994140625e+00) (6, -9.00784206390380859375e+00) (7, -8.38638782501220703125e+00) (8, -1.25971227884292602539e-01) (9, -2.63448089361190795898e-01) (0, 1.62393116950988769531e+00) (1, -4.16278362274169921875e+00) (2, -7.24086475372314453125e+00) (3, 1.34692268371582031250e+01) (4, -3.45924735069274902344e+00) (5, 6.92718148231506347656e-01) (6, 7.60771036148071289062e+00) (7, 1.07520256042480468750e+01) (8, 4.77459430694580078125e+00) (9, -7.65603399276733398438e+00) (10, 8.46816539764404296875e+00) (11, 3.33635473251342773438e+00) (12, -2.30592846870422363281e+00) 
