FANN_FLO_2.1
num_layers=3
learning_rate=0.500000
connection_rate=1.000000
network_type=0
learning_momentum=0.000000
training_algorithm=2
train_error_function=1
train_stop_function=0
cascade_output_change_fraction=0.010000
quickprop_decay=-0.000100
quickprop_mu=1.750000
rprop_increase_factor=1.200000
rprop_decrease_factor=0.500000
rprop_delta_min=0.000000
rprop_delta_max=50.000000
rprop_delta_zero=0.100000
cascade_output_stagnation_epochs=12
cascade_candidate_change_fraction=0.010000
cascade_candidate_stagnation_epochs=12
cascade_max_out_epochs=150
cascade_min_out_epochs=50
cascade_max_cand_epochs=150
cascade_min_cand_epochs=50
cascade_num_candidate_groups=2
bit_fail_limit=3.49999994039535522461e-01
cascade_candidate_limit=1.00000000000000000000e+03
cascade_weight_multiplier=4.00000005960464477539e-01
cascade_activation_functions_count=10
cascade_activation_functions=3 5 7 8 10 11 14 15 16 17 
cascade_activation_steepnesses_count=4
cascade_activation_steepnesses=2.50000000000000000000e-01 5.00000000000000000000e-01 7.50000000000000000000e-01 1.00000000000000000000e+00 
layer_sizes=10 5 2 
scale_included=0
neurons (num_inputs, activation_function, activation_steepness)=(0, 0, 0.00000000000000000000e+00) (0, 0, 0.00000000000000000000e+00) (0, 0, 0.00000000000000000000e+00) (0, 0, 0.00000000000000000000e+00) (0, 0, 0.00000000000000000000e+00) (0, 0, 0.00000000000000000000e+00) (0, 0, 0.00000000000000000000e+00) (0, 0, 0.00000000000000000000e+00) (0, 0, 0.00000000000000000000e+00) (0, 0, 0.00000000000000000000e+00) (10, 3, 5.00000000000000000000e-01) (10, 3, 5.00000000000000000000e-01) (10, 3, 5.00000000000000000000e-01) (10, 3, 5.00000000000000000000e-01) (0, 3, 0.00000000000000000000e+00) (5, 3, 5.00000000000000000000e-01) (0, 3, 0.00000000000000000000e+00) 
connections (connected_to_neuron, weight)=(0, 7.60742306709289550781e-01) (1, 1.33652639389038085938e+00) (2, 6.92982530593872070312e+00) (3, 1.77124691009521484375e+00) (4, 1.50016283988952636719e+00) (5, 7.03698587417602539062e+00) (6, 4.24373531341552734375e+00) (7, 7.06621837615966796875e+00) (8, -6.43886375427246093750e+00) (9, -7.22222185134887695312e+00) (0, 2.54523396492004394531e+00) (1, -2.34508824348449707031e+00) (2, 1.30959672927856445312e+01) (3, 6.86984157562255859375e+00) (4, -5.30526280403137207031e-01) (5, 6.78815698623657226562e+00) (6, 6.69003963470458984375e+00) (7, 6.02145147323608398438e+00) (8, -4.41883392632007598877e-02) (9, -1.16539907455444335938e+01) (0, -1.56697618961334228516e+00) (1, 1.59741868972778320312e+01) (2, 3.04795026779174804688e+00) (3, -4.64649438858032226562e+00) (4, 3.84494161605834960938e+00) (5, 4.94469356536865234375e+00) (6, 7.15062236785888671875e+00) (7, 1.34629278182983398438e+01) (8, -8.37127017974853515625e+00) (9, -8.58558177947998046875e+00) (0, 2.25445866584777832031e+00) (1, -3.65925407409667968750e+00) (2, 9.57922172546386718750e+00) (3, 9.12360763549804687500e+00) (4, 9.51477646827697753906e-01) (5, 8.61319351196289062500e+00) (6, 6.21558237075805664062e+00) (7, 7.12648570537567138672e-01) (8, -4.93481218814849853516e-01) (9, -1.00276927947998046875e+01) (10, -3.08552980422973632812e-01) (11, 6.57052159309387207031e-01) (12, 1.22569727897644042969e+00) (13, 8.13004672527313232422e-01) (14, -9.19610321521759033203e-01) 
