FANN_FLO_2.1
num_layers=3
learning_rate=0.500000
connection_rate=1.000000
network_type=0
learning_momentum=0.000000
training_algorithm=2
train_error_function=1
train_stop_function=0
cascade_output_change_fraction=0.010000
quickprop_decay=-0.000100
quickprop_mu=1.750000
rprop_increase_factor=1.200000
rprop_decrease_factor=0.500000
rprop_delta_min=0.000000
rprop_delta_max=50.000000
rprop_delta_zero=0.100000
cascade_output_stagnation_epochs=12
cascade_candidate_change_fraction=0.010000
cascade_candidate_stagnation_epochs=12
cascade_max_out_epochs=150
cascade_min_out_epochs=50
cascade_max_cand_epochs=150
cascade_min_cand_epochs=50
cascade_num_candidate_groups=2
bit_fail_limit=3.49999994039535522461e-01
cascade_candidate_limit=1.00000000000000000000e+03
cascade_weight_multiplier=4.00000005960464477539e-01
cascade_activation_functions_count=10
cascade_activation_functions=3 5 7 8 10 11 14 15 16 17 
cascade_activation_steepnesses_count=4
cascade_activation_steepnesses=2.50000000000000000000e-01 5.00000000000000000000e-01 7.50000000000000000000e-01 1.00000000000000000000e+00 
layer_sizes=10 5 2 
scale_included=0
neurons (num_inputs, activation_function, activation_steepness)=(0, 0, 0.00000000000000000000e+00) (0, 0, 0.00000000000000000000e+00) (0, 0, 0.00000000000000000000e+00) (0, 0, 0.00000000000000000000e+00) (0, 0, 0.00000000000000000000e+00) (0, 0, 0.00000000000000000000e+00) (0, 0, 0.00000000000000000000e+00) (0, 0, 0.00000000000000000000e+00) (0, 0, 0.00000000000000000000e+00) (0, 0, 0.00000000000000000000e+00) (10, 3, 5.00000000000000000000e-01) (10, 3, 5.00000000000000000000e-01) (10, 3, 5.00000000000000000000e-01) (10, 3, 5.00000000000000000000e-01) (0, 3, 0.00000000000000000000e+00) (5, 3, 5.00000000000000000000e-01) (0, 3, 0.00000000000000000000e+00) 
connections (connected_to_neuron, weight)=(0, -1.31692943572998046875e+01) (1, -7.71689891815185546875e+00) (2, 4.05593299865722656250e+00) (3, -1.13061075210571289062e+01) (4, -7.82981216907501220703e-01) (5, 1.41693925857543945312e+01) (6, -3.94523620605468750000e+00) (7, 6.87090635299682617188e+00) (8, 1.06374559402465820312e+01) (9, -2.64817166328430175781e+00) (0, 5.49106407165527343750e+00) (1, 1.45196266174316406250e+01) (2, 8.06072425842285156250e+00) (3, 9.35698628425598144531e-01) (4, -3.29541146755218505859e-01) (5, 2.66722273826599121094e+00) (6, -9.23760128021240234375e+00) (7, -1.51004972457885742188e+01) (8, -8.24620246887207031250e+00) (9, -2.97304320335388183594e+00) (0, 1.01901636123657226562e+01) (1, -1.12351388931274414062e+01) (2, -1.40449590682983398438e+01) (3, 1.41248369216918945312e+01) (4, 3.99299716949462890625e+00) (5, -2.36664218902587890625e+01) (6, 1.78235225677490234375e+01) (7, 7.97553491592407226562e+00) (8, -1.47775745391845703125e+00) (9, -6.28129434585571289062e+00) (0, 7.29321479797363281250e+00) (1, -9.56014543771743774414e-02) (2, -8.96271133422851562500e+00) (3, 1.44704751968383789062e+01) (4, 6.08407402038574218750e+00) (5, -1.24955615997314453125e+01) (6, 8.89849948883056640625e+00) (7, 1.87270641326904296875e+01) (8, 2.22425866127014160156e+00) (9, -8.02952194213867187500e+00) (10, 4.47945642471313476562e+00) (11, 4.43847370147705078125e+00) (12, 4.15747690200805664062e+00) (13, 8.04685950279235839844e-01) (14, -2.22900152206420898438e+00) 
