FANN_FLO_2.1
num_layers=3
learning_rate=0.500000
connection_rate=1.000000
network_type=0
learning_momentum=0.000000
training_algorithm=2
train_error_function=1
train_stop_function=0
cascade_output_change_fraction=0.010000
quickprop_decay=-0.000100
quickprop_mu=1.750000
rprop_increase_factor=1.200000
rprop_decrease_factor=0.500000
rprop_delta_min=0.000000
rprop_delta_max=50.000000
rprop_delta_zero=0.100000
cascade_output_stagnation_epochs=12
cascade_candidate_change_fraction=0.010000
cascade_candidate_stagnation_epochs=12
cascade_max_out_epochs=150
cascade_min_out_epochs=50
cascade_max_cand_epochs=150
cascade_min_cand_epochs=50
cascade_num_candidate_groups=2
bit_fail_limit=3.49999994039535522461e-01
cascade_candidate_limit=1.00000000000000000000e+03
cascade_weight_multiplier=4.00000005960464477539e-01
cascade_activation_functions_count=10
cascade_activation_functions=3 5 7 8 10 11 14 15 16 17 
cascade_activation_steepnesses_count=4
cascade_activation_steepnesses=2.50000000000000000000e-01 5.00000000000000000000e-01 7.50000000000000000000e-01 1.00000000000000000000e+00 
layer_sizes=6 5 2 
scale_included=0
neurons (num_inputs, activation_function, activation_steepness)=(0, 0, 0.00000000000000000000e+00) (0, 0, 0.00000000000000000000e+00) (0, 0, 0.00000000000000000000e+00) (0, 0, 0.00000000000000000000e+00) (0, 0, 0.00000000000000000000e+00) (0, 0, 0.00000000000000000000e+00) (6, 3, 5.00000000000000000000e-01) (6, 3, 5.00000000000000000000e-01) (6, 3, 5.00000000000000000000e-01) (6, 3, 5.00000000000000000000e-01) (0, 3, 0.00000000000000000000e+00) (5, 0, 5.00000000000000000000e-01) (0, 0, 0.00000000000000000000e+00) 
connections (connected_to_neuron, weight)=(0, 1.22991222888231277466e-02) (1, -9.71818804740905761719e-01) (2, 6.19244813919067382812e-01) (3, -1.45922213792800903320e-01) (4, 1.52425095438957214355e-01) (5, 4.20545786619186401367e-01) (0, -7.07920342683792114258e-02) (1, 1.26978620886802673340e-01) (2, -2.25741505622863769531e-01) (3, -1.46782144904136657715e-01) (4, 3.54890935122966766357e-02) (5, 3.09720993041992187500e-01) (0, 1.32962799072265625000e+00) (1, 8.96034240722656250000e+00) (2, -3.69322323799133300781e+00) (3, 4.05700731277465820312e+00) (4, 2.16816787719726562500e+01) (5, 3.17118930816650390625e+00) (0, 9.50463533401489257812e-01) (1, 8.84884166717529296875e+00) (2, -1.85089230537414550781e+00) (3, 2.63894581794738769531e+00) (4, -1.56031913757324218750e+01) (5, 3.20898365974426269531e+00) (6, 9.64879930019378662109e-01) (7, 1.01331365108489990234e+00) (8, 1.11665701866149902344e+00) (9, 1.12488007545471191406e+00) (10, 9.79722142219543457031e-01) 
