FANN_FLO_2.1
num_layers=3
learning_rate=0.500000
connection_rate=1.000000
network_type=0
learning_momentum=0.000000
training_algorithm=2
train_error_function=1
train_stop_function=0
cascade_output_change_fraction=0.010000
quickprop_decay=-0.000100
quickprop_mu=1.750000
rprop_increase_factor=1.200000
rprop_decrease_factor=0.500000
rprop_delta_min=0.000000
rprop_delta_max=50.000000
rprop_delta_zero=0.100000
cascade_output_stagnation_epochs=12
cascade_candidate_change_fraction=0.010000
cascade_candidate_stagnation_epochs=12
cascade_max_out_epochs=150
cascade_min_out_epochs=50
cascade_max_cand_epochs=150
cascade_min_cand_epochs=50
cascade_num_candidate_groups=2
bit_fail_limit=3.49999994039535522461e-01
cascade_candidate_limit=1.00000000000000000000e+03
cascade_weight_multiplier=4.00000005960464477539e-01
cascade_activation_functions_count=10
cascade_activation_functions=3 5 7 8 10 11 14 15 16 17 
cascade_activation_steepnesses_count=4
cascade_activation_steepnesses=2.50000000000000000000e-01 5.00000000000000000000e-01 7.50000000000000000000e-01 1.00000000000000000000e+00 
layer_sizes=6 5 2 
scale_included=0
neurons (num_inputs, activation_function, activation_steepness)=(0, 0, 0.00000000000000000000e+00) (0, 0, 0.00000000000000000000e+00) (0, 0, 0.00000000000000000000e+00) (0, 0, 0.00000000000000000000e+00) (0, 0, 0.00000000000000000000e+00) (0, 0, 0.00000000000000000000e+00) (6, 3, 5.00000000000000000000e-01) (6, 3, 5.00000000000000000000e-01) (6, 3, 5.00000000000000000000e-01) (6, 3, 5.00000000000000000000e-01) (0, 3, 0.00000000000000000000e+00) (5, 0, 5.00000000000000000000e-01) (0, 0, 0.00000000000000000000e+00) 
connections (connected_to_neuron, weight)=(0, 1.21123647689819335938e+00) (1, 1.94712984561920166016e+00) (2, -6.18518352508544921875e+00) (3, 1.23257482051849365234e+00) (4, 4.96764898300170898438e+00) (5, 1.57645905017852783203e+00) (0, 1.63166916370391845703e+00) (1, 3.84111976623535156250e+00) (2, 4.73430871963500976562e+00) (3, 1.26096553802490234375e+01) (4, -1.10836439132690429688e+01) (5, 2.53215909004211425781e+00) (0, -2.92917609214782714844e-01) (1, 1.54339268803596496582e-01) (2, 1.21618434786796569824e-01) (3, -4.02385026216506958008e-01) (4, -4.48608994483947753906e-01) (5, 2.42690905928611755371e-01) (0, 1.45558297634124755859e+00) (1, -6.08269834518432617188e+00) (2, 5.46328258514404296875e+00) (3, -9.79804635047912597656e-01) (4, 3.67930912971496582031e+00) (5, 1.57047069072723388672e+00) (6, 1.01084399223327636719e+00) (7, 9.90471839904785156250e-01) (8, 9.31403994560241699219e-01) (9, 9.72212612628936767578e-01) (10, 1.02409410476684570312e+00) 
