FANN_FLO_2.1
num_layers=3
learning_rate=0.500000
connection_rate=1.000000
network_type=0
learning_momentum=0.000000
training_algorithm=2
train_error_function=1
train_stop_function=0
cascade_output_change_fraction=0.010000
quickprop_decay=-0.000100
quickprop_mu=1.750000
rprop_increase_factor=1.200000
rprop_decrease_factor=0.500000
rprop_delta_min=0.000000
rprop_delta_max=50.000000
rprop_delta_zero=0.100000
cascade_output_stagnation_epochs=12
cascade_candidate_change_fraction=0.010000
cascade_candidate_stagnation_epochs=12
cascade_max_out_epochs=150
cascade_min_out_epochs=50
cascade_max_cand_epochs=150
cascade_min_cand_epochs=50
cascade_num_candidate_groups=2
bit_fail_limit=3.49999994039535522461e-01
cascade_candidate_limit=1.00000000000000000000e+03
cascade_weight_multiplier=4.00000005960464477539e-01
cascade_activation_functions_count=10
cascade_activation_functions=3 5 7 8 10 11 14 15 16 17 
cascade_activation_steepnesses_count=4
cascade_activation_steepnesses=2.50000000000000000000e-01 5.00000000000000000000e-01 7.50000000000000000000e-01 1.00000000000000000000e+00 
layer_sizes=10 5 2 
scale_included=0
neurons (num_inputs, activation_function, activation_steepness)=(0, 0, 0.00000000000000000000e+00) (0, 0, 0.00000000000000000000e+00) (0, 0, 0.00000000000000000000e+00) (0, 0, 0.00000000000000000000e+00) (0, 0, 0.00000000000000000000e+00) (0, 0, 0.00000000000000000000e+00) (0, 0, 0.00000000000000000000e+00) (0, 0, 0.00000000000000000000e+00) (0, 0, 0.00000000000000000000e+00) (0, 0, 0.00000000000000000000e+00) (10, 3, 5.00000000000000000000e-01) (10, 3, 5.00000000000000000000e-01) (10, 3, 5.00000000000000000000e-01) (10, 3, 5.00000000000000000000e-01) (0, 3, 0.00000000000000000000e+00) (5, 3, 5.00000000000000000000e-01) (0, 3, 0.00000000000000000000e+00) 
connections (connected_to_neuron, weight)=(0, 9.36007595062255859375e+00) (1, -1.48664319515228271484e+00) (2, 3.76725244522094726562e+00) (3, 3.47713923454284667969e+00) (4, 6.82196736335754394531e-01) (5, 1.09203081130981445312e+01) (6, 2.10821366310119628906e+00) (7, 2.34302088618278503418e-01) (8, 2.85454010963439941406e+00) (9, -8.16983127593994140625e+00) (0, 6.97324848175048828125e+00) (1, -1.23633041977882385254e-01) (2, 3.44642305374145507812e+00) (3, 4.52800464630126953125e+00) (4, -1.26923573017120361328e+00) (5, 1.00925035476684570312e+01) (6, 2.10965919494628906250e+00) (7, 4.59153324365615844727e-01) (8, 2.40796518325805664062e+00) (9, -7.29028654098510742188e+00) (0, -4.28284049034118652344e-01) (1, 1.10053002834320068359e+00) (2, 5.51107788085937500000e+00) (3, 1.73333187103271484375e+01) (4, -2.51189541816711425781e+00) (5, 1.63452739715576171875e+01) (6, 1.09427332878112792969e+00) (7, -7.65350610017776489258e-02) (8, -4.88011169433593750000e+00) (9, -1.02577314376831054688e+01) (0, 8.77429580688476562500e+00) (1, -1.17772674560546875000e+00) (2, 4.57501220703125000000e+00) (3, 2.09353399276733398438e+00) (4, 2.30923533439636230469e+00) (5, 9.63896656036376953125e+00) (6, 3.48299241065979003906e+00) (7, -4.04531121253967285156e-01) (8, 2.72921347618103027344e+00) (9, -8.04080772399902343750e+00) (10, 7.26011097431182861328e-01) (11, 4.51766401529312133789e-01) (12, 3.98578524589538574219e-01) (13, 7.72341072559356689453e-01) (14, -1.17523467540740966797e+00) 
