FANN_FLO_2.1
num_layers=3
learning_rate=0.500000
connection_rate=1.000000
network_type=0
learning_momentum=0.000000
training_algorithm=2
train_error_function=1
train_stop_function=0
cascade_output_change_fraction=0.010000
quickprop_decay=-0.000100
quickprop_mu=1.750000
rprop_increase_factor=1.200000
rprop_decrease_factor=0.500000
rprop_delta_min=0.000000
rprop_delta_max=50.000000
rprop_delta_zero=0.100000
cascade_output_stagnation_epochs=12
cascade_candidate_change_fraction=0.010000
cascade_candidate_stagnation_epochs=12
cascade_max_out_epochs=150
cascade_min_out_epochs=50
cascade_max_cand_epochs=150
cascade_min_cand_epochs=50
cascade_num_candidate_groups=2
bit_fail_limit=3.49999994039535522461e-01
cascade_candidate_limit=1.00000000000000000000e+03
cascade_weight_multiplier=4.00000005960464477539e-01
cascade_activation_functions_count=10
cascade_activation_functions=3 5 7 8 10 11 14 15 16 17 
cascade_activation_steepnesses_count=4
cascade_activation_steepnesses=2.50000000000000000000e-01 5.00000000000000000000e-01 7.50000000000000000000e-01 1.00000000000000000000e+00 
layer_sizes=6 5 2 
scale_included=0
neurons (num_inputs, activation_function, activation_steepness)=(0, 0, 0.00000000000000000000e+00) (0, 0, 0.00000000000000000000e+00) (0, 0, 0.00000000000000000000e+00) (0, 0, 0.00000000000000000000e+00) (0, 0, 0.00000000000000000000e+00) (0, 0, 0.00000000000000000000e+00) (6, 3, 5.00000000000000000000e-01) (6, 3, 5.00000000000000000000e-01) (6, 3, 5.00000000000000000000e-01) (6, 3, 5.00000000000000000000e-01) (0, 3, 0.00000000000000000000e+00) (5, 0, 5.00000000000000000000e-01) (0, 0, 0.00000000000000000000e+00) 
connections (connected_to_neuron, weight)=(0, 1.08239853382110595703e+00) (1, -3.22808814048767089844e+00) (2, 6.62072038650512695312e+00) (3, 3.87267518043518066406e+00) (4, 3.11616373062133789062e+00) (5, 2.17558145523071289062e+00) (0, -3.00494253635406494141e-01) (1, -3.16786795854568481445e-01) (2, 8.73930901288986206055e-02) (3, 1.56564727425575256348e-01) (4, -4.25648778676986694336e-01) (5, 2.52441734075546264648e-01) (0, 9.69292938709259033203e-01) (1, 7.03276681900024414062e+00) (2, -1.20277261734008789062e+00) (3, -1.47325253486633300781e+00) (4, 3.71718138456344604492e-01) (5, 2.06443190574645996094e+00) (0, 1.11079347133636474609e+00) (1, -2.38967370986938476562e+00) (2, -7.16894912719726562500e+00) (3, -4.33825254440307617188e+00) (4, 1.58152139186859130859e+00) (5, 2.22332906723022460938e+00) (6, 1.02794277667999267578e+00) (7, 8.46723556518554687500e-01) (8, 1.01230359077453613281e+00) (9, 9.94719564914703369141e-01) (10, 1.00651788711547851562e+00) 
