FANN_FLO_2.1
num_layers=3
learning_rate=0.500000
connection_rate=1.000000
network_type=0
learning_momentum=0.000000
training_algorithm=2
train_error_function=1
train_stop_function=0
cascade_output_change_fraction=0.010000
quickprop_decay=-0.000100
quickprop_mu=1.750000
rprop_increase_factor=1.200000
rprop_decrease_factor=0.500000
rprop_delta_min=0.000000
rprop_delta_max=50.000000
rprop_delta_zero=0.100000
cascade_output_stagnation_epochs=12
cascade_candidate_change_fraction=0.010000
cascade_candidate_stagnation_epochs=12
cascade_max_out_epochs=150
cascade_min_out_epochs=50
cascade_max_cand_epochs=150
cascade_min_cand_epochs=50
cascade_num_candidate_groups=2
bit_fail_limit=3.49999994039535522461e-01
cascade_candidate_limit=1.00000000000000000000e+03
cascade_weight_multiplier=4.00000005960464477539e-01
cascade_activation_functions_count=10
cascade_activation_functions=3 5 7 8 10 11 14 15 16 17 
cascade_activation_steepnesses_count=4
cascade_activation_steepnesses=2.50000000000000000000e-01 5.00000000000000000000e-01 7.50000000000000000000e-01 1.00000000000000000000e+00 
layer_sizes=10 3 2 
scale_included=0
neurons (num_inputs, activation_function, activation_steepness)=(0, 0, 0.00000000000000000000e+00) (0, 0, 0.00000000000000000000e+00) (0, 0, 0.00000000000000000000e+00) (0, 0, 0.00000000000000000000e+00) (0, 0, 0.00000000000000000000e+00) (0, 0, 0.00000000000000000000e+00) (0, 0, 0.00000000000000000000e+00) (0, 0, 0.00000000000000000000e+00) (0, 0, 0.00000000000000000000e+00) (0, 0, 0.00000000000000000000e+00) (10, 3, 5.00000000000000000000e-01) (10, 3, 5.00000000000000000000e-01) (0, 3, 0.00000000000000000000e+00) (3, 3, 5.00000000000000000000e-01) (0, 3, 0.00000000000000000000e+00) 
connections (connected_to_neuron, weight)=(0, -2.84876155853271484375e+00) (1, -1.20962991714477539062e+01) (2, -8.49806594848632812500e+00) (3, 2.40952944755554199219e+00) (4, -1.31924736499786376953e+00) (5, -2.28100085258483886719e+00) (6, 7.11453580856323242188e+00) (7, 1.16602621078491210938e+01) (8, 2.20121645927429199219e+00) (9, -1.67555272579193115234e+00) (0, 8.19582176208496093750e+00) (1, 1.15883960723876953125e+01) (2, 1.78649005889892578125e+01) (3, 1.60396373271942138672e+00) (4, 1.86826932430267333984e+00) (5, -3.05123329162597656250e-02) (6, -1.67581977844238281250e+01) (7, -1.32538919448852539062e+01) (8, 6.74318027496337890625e+00) (9, -6.98349142074584960938e+00) (10, 5.37331533432006835938e+00) (11, 2.33594799041748046875e+00) (12, -1.06680285930633544922e+00) 
