FANN_FLO_2.1
num_layers=3
learning_rate=0.500000
connection_rate=1.000000
network_type=0
learning_momentum=0.000000
training_algorithm=2
train_error_function=1
train_stop_function=0
cascade_output_change_fraction=0.010000
quickprop_decay=-0.000100
quickprop_mu=1.750000
rprop_increase_factor=1.200000
rprop_decrease_factor=0.500000
rprop_delta_min=0.000000
rprop_delta_max=50.000000
rprop_delta_zero=0.100000
cascade_output_stagnation_epochs=12
cascade_candidate_change_fraction=0.010000
cascade_candidate_stagnation_epochs=12
cascade_max_out_epochs=150
cascade_min_out_epochs=50
cascade_max_cand_epochs=150
cascade_min_cand_epochs=50
cascade_num_candidate_groups=2
bit_fail_limit=3.49999994039535522461e-01
cascade_candidate_limit=1.00000000000000000000e+03
cascade_weight_multiplier=4.00000005960464477539e-01
cascade_activation_functions_count=10
cascade_activation_functions=3 5 7 8 10 11 14 15 16 17 
cascade_activation_steepnesses_count=4
cascade_activation_steepnesses=2.50000000000000000000e-01 5.00000000000000000000e-01 7.50000000000000000000e-01 1.00000000000000000000e+00 
layer_sizes=10 5 2 
scale_included=0
neurons (num_inputs, activation_function, activation_steepness)=(0, 0, 0.00000000000000000000e+00) (0, 0, 0.00000000000000000000e+00) (0, 0, 0.00000000000000000000e+00) (0, 0, 0.00000000000000000000e+00) (0, 0, 0.00000000000000000000e+00) (0, 0, 0.00000000000000000000e+00) (0, 0, 0.00000000000000000000e+00) (0, 0, 0.00000000000000000000e+00) (0, 0, 0.00000000000000000000e+00) (0, 0, 0.00000000000000000000e+00) (10, 3, 5.00000000000000000000e-01) (10, 3, 5.00000000000000000000e-01) (10, 3, 5.00000000000000000000e-01) (10, 3, 5.00000000000000000000e-01) (0, 3, 0.00000000000000000000e+00) (5, 3, 5.00000000000000000000e-01) (0, 3, 0.00000000000000000000e+00) 
connections (connected_to_neuron, weight)=(0, -7.81861019134521484375e+00) (1, -1.65989341735839843750e+01) (2, -1.02077770233154296875e+01) (3, 1.83371949195861816406e+00) (4, 2.53069162368774414062e+00) (5, -2.47462201118469238281e+00) (6, 9.66503334045410156250e+00) (7, 2.33456707000732421875e+01) (8, 1.02636146545410156250e+01) (9, -2.61859714984893798828e-01) (0, 2.94775533676147460938e+00) (1, 1.42776393890380859375e+00) (2, -4.43464708328247070312e+00) (3, 7.60865020751953125000e+00) (4, 1.39391565322875976562e+00) (5, -3.01169663667678833008e-01) (6, 1.52217316627502441406e+00) (7, 6.67086410522460937500e+00) (8, 2.35326123237609863281e+00) (9, -5.26707935333251953125e+00) (0, 2.62923330068588256836e-01) (1, -1.46214611816406250000e+03) (2, -1.47416833496093750000e+03) (3, 1.42493615722656250000e+03) (4, 1.29137992858886718750e+01) (5, -1.48297265625000000000e+03) (6, 1.38566406250000000000e+03) (7, 1.37041772460937500000e+03) (8, -6.28022827148437500000e+02) (9, 7.72301330566406250000e+01) (0, 1.46109447479248046875e+01) (1, 1.01006822586059570312e+01) (2, -5.97915410995483398438e+00) (3, 2.08484592437744140625e+01) (4, 3.16307306289672851562e-01) (5, -2.10356922149658203125e+01) (6, 6.80582809448242187500e+00) (7, -1.32200956344604492188e+01) (8, -3.18860960006713867188e+00) (9, -3.85946989990770816803e-03) (10, -3.34168243408203125000e+00) (11, 3.26086568832397460938e+00) (12, 2.02462840080261230469e+00) (13, -3.22245979309082031250e+00) (14, 2.96007418632507324219e+00) 
