FANN_FLO_2.1
num_layers=3
learning_rate=0.500000
connection_rate=1.000000
network_type=0
learning_momentum=0.000000
training_algorithm=2
train_error_function=1
train_stop_function=0
cascade_output_change_fraction=0.010000
quickprop_decay=-0.000100
quickprop_mu=1.750000
rprop_increase_factor=1.200000
rprop_decrease_factor=0.500000
rprop_delta_min=0.000000
rprop_delta_max=50.000000
rprop_delta_zero=0.100000
cascade_output_stagnation_epochs=12
cascade_candidate_change_fraction=0.010000
cascade_candidate_stagnation_epochs=12
cascade_max_out_epochs=150
cascade_min_out_epochs=50
cascade_max_cand_epochs=150
cascade_min_cand_epochs=50
cascade_num_candidate_groups=2
bit_fail_limit=3.49999994039535522461e-01
cascade_candidate_limit=1.00000000000000000000e+03
cascade_weight_multiplier=4.00000005960464477539e-01
cascade_activation_functions_count=10
cascade_activation_functions=3 5 7 8 10 11 14 15 16 17 
cascade_activation_steepnesses_count=4
cascade_activation_steepnesses=2.50000000000000000000e-01 5.00000000000000000000e-01 7.50000000000000000000e-01 1.00000000000000000000e+00 
layer_sizes=6 5 2 
scale_included=0
neurons (num_inputs, activation_function, activation_steepness)=(0, 0, 0.00000000000000000000e+00) (0, 0, 0.00000000000000000000e+00) (0, 0, 0.00000000000000000000e+00) (0, 0, 0.00000000000000000000e+00) (0, 0, 0.00000000000000000000e+00) (0, 0, 0.00000000000000000000e+00) (6, 3, 5.00000000000000000000e-01) (6, 3, 5.00000000000000000000e-01) (6, 3, 5.00000000000000000000e-01) (6, 3, 5.00000000000000000000e-01) (0, 3, 0.00000000000000000000e+00) (5, 0, 5.00000000000000000000e-01) (0, 0, 0.00000000000000000000e+00) 
connections (connected_to_neuron, weight)=(0, 1.23425388336181640625e+00) (1, -4.00568723678588867188e+00) (2, 2.78847861289978027344e+00) (3, 2.50707602500915527344e+00) (4, -1.21291141510009765625e+01) (5, 2.44805717468261718750e+00) (0, 1.00745153427124023438e+00) (1, -1.52659988403320312500e+00) (2, 6.64707517623901367188e+00) (3, -8.14734697341918945312e-01) (4, 5.10811614990234375000e+00) (5, 2.18106532096862792969e+00) (0, 1.01425242424011230469e+00) (1, 6.23960781097412109375e+00) (2, -1.56750428676605224609e+00) (3, 2.51152086257934570312e+00) (4, -1.84481769800186157227e-01) (5, 1.82824659347534179688e+00) (0, -2.90943264961242675781e-01) (1, -5.96419394016265869141e-01) (2, -7.17598140239715576172e-01) (3, -3.73178571462631225586e-01) (4, 1.77434280514717102051e-01) (5, 1.48764282464981079102e-01) (6, 1.02080404758453369141e+00) (7, 1.00439536571502685547e+00) (8, 1.05630528926849365234e+00) (9, 9.08767580986022949219e-01) (10, 9.55656886100769042969e-01) 
