FANN_FLO_2.1
num_layers=3
learning_rate=0.500000
connection_rate=1.000000
network_type=0
learning_momentum=0.000000
training_algorithm=2
train_error_function=1
train_stop_function=0
cascade_output_change_fraction=0.010000
quickprop_decay=-0.000100
quickprop_mu=1.750000
rprop_increase_factor=1.200000
rprop_decrease_factor=0.500000
rprop_delta_min=0.000000
rprop_delta_max=50.000000
rprop_delta_zero=0.100000
cascade_output_stagnation_epochs=12
cascade_candidate_change_fraction=0.010000
cascade_candidate_stagnation_epochs=12
cascade_max_out_epochs=150
cascade_min_out_epochs=50
cascade_max_cand_epochs=150
cascade_min_cand_epochs=50
cascade_num_candidate_groups=2
bit_fail_limit=3.49999994039535522461e-01
cascade_candidate_limit=1.00000000000000000000e+03
cascade_weight_multiplier=4.00000005960464477539e-01
cascade_activation_functions_count=10
cascade_activation_functions=3 5 7 8 10 11 14 15 16 17 
cascade_activation_steepnesses_count=4
cascade_activation_steepnesses=2.50000000000000000000e-01 5.00000000000000000000e-01 7.50000000000000000000e-01 1.00000000000000000000e+00 
layer_sizes=10 3 2 
scale_included=0
neurons (num_inputs, activation_function, activation_steepness)=(0, 0, 0.00000000000000000000e+00) (0, 0, 0.00000000000000000000e+00) (0, 0, 0.00000000000000000000e+00) (0, 0, 0.00000000000000000000e+00) (0, 0, 0.00000000000000000000e+00) (0, 0, 0.00000000000000000000e+00) (0, 0, 0.00000000000000000000e+00) (0, 0, 0.00000000000000000000e+00) (0, 0, 0.00000000000000000000e+00) (0, 0, 0.00000000000000000000e+00) (10, 3, 5.00000000000000000000e-01) (10, 3, 5.00000000000000000000e-01) (0, 3, 0.00000000000000000000e+00) (3, 3, 5.00000000000000000000e-01) (0, 3, 0.00000000000000000000e+00) 
connections (connected_to_neuron, weight)=(0, -6.11711168289184570312e+00) (1, -1.10883340835571289062e+01) (2, 5.82680892944335937500e+00) (3, 7.47245931625366210938e+00) (4, 2.27955675125122070312e+00) (5, 8.63104820251464843750e+00) (6, 3.04111242294311523438e+00) (7, 1.22108495235443115234e+00) (8, 1.27082099914550781250e+01) (9, -6.78570795059204101562e+00) (0, 5.54629468917846679688e+00) (1, 1.03662805557250976562e+01) (2, -1.26462352275848388672e+00) (3, 3.83930492401123046875e+00) (4, 5.06421685218811035156e-01) (5, -7.14391422271728515625e+00) (6, -4.37754297256469726562e+00) (7, -5.86433601379394531250e+00) (8, -8.39798927307128906250e+00) (9, -9.58141505718231201172e-01) (10, 2.60431408882141113281e+00) (11, 6.15925931930541992188e+00) (12, -1.60964655876159667969e+00) 
